{
  "version": "1.0",
  "config": {
    "vocabSize": 400,
    "embeddingDim": 32,
    "numLayers": 2,
    "vocab": [
      "[PAD]",
      "[UNK]",
      "[EOS]",
      "there",
      "was",
      "once",
      "little",
      "boy",
      "called",
      "willie.",
      "never",
      "knew",
      "his",
      "other",
      "name,",
      "and",
      "as",
      "he",
      "lived",
      "far",
      "off",
      "behind",
      "the",
      "mountain,",
      "we",
      "cannot",
      "go",
      "to",
      "inquire.",
      "had",
      "fair",
      "hair",
      "blue",
      "eyes,",
      "something",
      "in",
      "face",
      "that,",
      "when",
      "you",
      "looked",
      "at",
      "him,",
      "made",
      "feel",
      "quite",
      "happy",
      "rested,",
      "think",
      "of",
      "all",
      "things",
      "meant",
      "do",
      "by-and-by",
      "were",
      "wiser",
      "stronger.",
      "alone",
      "with",
      "tall",
      "aunt,",
      "who",
      "very",
      "rich,",
      "big",
      "house",
      "end",
      "village.",
      "every",
      "morning",
      "went",
      "down",
      "street",
      "goat",
      "under",
      "arm,",
      "village",
      "folk",
      "after",
      "him",
      "said,",
      "goes",
      "master",
      "aunt",
      "long",
      "neck;",
      "on",
      "top",
      "it",
      "her",
      "head,",
      "head",
      "she",
      "wore",
      "white",
      "cap.",
      "willie",
      "used",
      "often",
      "look",
      "up",
      "that",
      "cap",
      "like",
      "snow",
      "upon",
      "mountain.",
      "fond",
      "willie,",
      "but",
      "great",
      "many",
      "years",
      "always",
      "sitting",
      "still",
      "them",
      "over,",
      "forgotten",
      "games",
      "know,",
      "stories",
      "read",
      "little,",
      "asked",
      "about",
      "them,",
      "would",
      "say,",
      "no,",
      "dear,",
      "can't",
      "remember;",
      "woods",
      "play.",
      "sometimes",
      "take",
      "between",
      "two",
      "hands",
      "well",
      "while",
      "felt",
      "sure",
      "not",
      "thinking",
      "someone",
      "else",
      "did",
      "then",
      "kiss",
      "turn",
      "away",
      "quickly,",
      "saying,",
      "woods,",
      "dear;",
      "is",
      "no",
      "good",
      "staying",
      "an",
      "old",
      "woman.",
      "he,",
      "knowing",
      "wanted",
      "be",
      "alone,",
      "pick",
      "hurry",
      "away.",
      "dear",
      "sister,",
      "apple-blossom,",
      "strange",
      "thing",
      "happened",
      "her.",
      "one",
      "day",
      "over-wound",
      "doll",
      "talked",
      "walked,",
      "consequence",
      "terrible.",
      "sooner",
      "winding-up",
      "key",
      "out",
      "doll's",
      "side",
      "than",
      "blinked",
      "its",
      "fast,",
      "faces,",
      "took",
      "apple-blossom",
      "by",
      "hand,",
      "am",
      "your",
      "any",
      "longer,",
      "are",
      "my",
      "girl,",
      "led",
      "right",
      "could",
      "tell",
      "whither,",
      "able",
      "follow.",
      "only",
      "gone",
      "girl",
      "some",
      "place,",
      "where",
      "dolls",
      "stronger",
      "more",
      "important",
      "human",
      "beings.",
      "left",
      "play",
      "with;",
      "poor",
      "horns,",
      "tail",
      "hardly",
      "hair,",
      "loved",
      "dearly,",
      "put",
      "arm",
      "along",
      "street.",
      "painted",
      "wood",
      "said",
      "blacksmith's",
      "wife",
      "day.",
      "why",
      "should",
      "care",
      "for",
      "it;",
      "even",
      "alive.",
      "if",
      "alive,",
      "anyone",
      "love",
      "it.",
      "living",
      "it,",
      "miller's",
      "said.",
      "wonder",
      "what",
      "they",
      "were;--take",
      "sake",
      "master.",
      "yes,",
      "dame,",
      "will,",
      "answered",
      "gratefully,",
      "way",
      "hands,",
      "wondering",
      "tasks",
      "been",
      "set",
      "since",
      "fashioned",
      "goat.",
      "stayed",
      "helping",
      "children",
      "gather",
      "nuts",
      "blackberries.",
      "afternoon",
      "watched",
      "home",
      "their",
      "aprons",
      "full;",
      "longingly",
      "singing.",
      "father",
      "mother,",
      "or",
      "brothers",
      "sisters,",
      "whom",
      "have",
      "carried",
      "blackberries,",
      "how",
      "merry",
      "been.",
      "told",
      "live",
      "cottage",
      "door",
      "open",
      "day,",
      "sweet",
      "breeze",
      "blowing",
      "in,",
      "cocks",
      "hens",
      "strutting",
      "outside,",
      "pigs",
      "grunting",
      "styes",
      "garden;",
      "see",
      "mother",
      "scrubbing",
      "washing,",
      "know",
      "working",
      "fields,",
      "run",
      "help",
      "play,",
      "cuffed",
      "kissed,",
      "just",
      "happened.",
      "answer,",
      "lady",
      "grand",
      "carriage",
      "drive",
      "poor,",
      "eat",
      "drink;",
      "tells",
      "us",
      "fine",
      "must",
      "you.",
      "food",
      "because",
      "hungry,",
      "sorrows",
      "house.",
      "carriage,",
      "better",
      "heart",
      "heavy,",
      "light,",
      "can",
      "swiftly",
      "own",
      "legs.",
      "ah,",
      "lonely",
      "was,",
      "yet",
      "dearly.",
      "hot",
      "drowsy",
      "days",
      "sleep",
      "resting",
      "against",
      "high",
      "thin",
      "shoulders,",
      "arms",
      "him.",
      "afternoon,",
      "clasping",
      "usual,",
      "sat",
      "pond.",
      "home,",
      "so",
      "glad",
      "pond",
      "think.",
      "world,",
      "seemed",
      "done",
      "hundred."
    ]
  },
  "weights": {
    "embedding": [
      [
        -0.1622764016360867,
        0.03361705743322231,
        0.010577850991707532,
        -0.1286381564414367,
        0.15934940907625647,
        -0.08426105111331382,
        0.14556127879789418,
        -0.03328088808471616,
        -0.07556024706147693,
        -0.163437843519921,
        -0.12443851145014831,
        0.03378827303923294,
        -0.1529148492356688,
        -0.015974962571013596,
        0.02244500740339213,
        -0.17302702080677929,
        -0.025611164780347594,
        0.14061775657928385,
        0.1634681744338627,
        -0.07295584300617869,
        -0.0057496825147959766,
        0.16026220162725788,
        0.08317188289913462,
        0.14915270837222208,
        0.0761192263319515,
        -0.08550794262881466,
        -0.01647619335265126,
        0.14684682144762753,
        0.07465358143652194,
        0.06089907463992537,
        -0.14666437100491955,
        0.047021768329101966
      ],
      [
        0.08351330790512988,
        0.1125453958672429,
        0.12304020958809803,
        0.035978302013415446,
        0.061887165286517234,
        -0.16652585706294523,
        0.11923783844709579,
        -0.04008689169433609,
        0.05463028457385644,
        0.06567016024294813,
        0.11150125144054479,
        0.012825705902290386,
        -0.1203098041821863,
        -0.03422527348810863,
        -0.02363514638580931,
        -0.0028210380397528556,
        0.026492729294028974,
        0.13192436441353492,
        0.043243122927666244,
        -0.12346559338594745,
        0.04337669992905625,
        0.012154695601518295,
        -0.06208836569531013,
        -0.01712899942417382,
        0.00030280941195377716,
        -0.04296641188233042,
        0.1762580834732275,
        -0.009984887436984351,
        0.11847493119889316,
        0.10940678643522343,
        0.09075792171994107,
        0.11823163991699141
      ],
      [
        0.12626333613972082,
        -0.11399913667528536,
        0.027011046851962577,
        -0.13089535682430858,
        -0.15380979718598914,
        0.17043662043370267,
        -0.1553496635442372,
        0.10320714769785491,
        0.04676076492049592,
        0.005007884713191371,
        -0.03492986372471341,
        -0.15304182593603252,
        -0.109890562093994,
        0.13647186485048,
        -0.11756593777731143,
        -0.0988847699553422,
        0.026978640469891825,
        -0.11917086705430077,
        0.14134836467866005,
        0.005563185767088448,
        -0.17306830457681227,
        0.08184189859703077,
        0.13913380082327031,
        -0.12779980304006155,
        0.10322172246309327,
        -0.028175441801942275,
        -0.08110925428261045,
        -0.050318808097478136,
        -0.14827809042849338,
        0.17388258494563547,
        -0.09056620847502442,
        0.018258786375011497
      ],
      [
        -0.17630036672840124,
        0.03401489861903811,
        -0.07432805225744897,
        -0.10970391888734342,
        0.05184737995682386,
        0.16758908385581353,
        0.08586130047969359,
        -0.062475406972482224,
        -0.10223141984257958,
        -0.002881916113840619,
        -0.15129215005465704,
        0.081517321584505,
        0.2886434171145611,
        0.04775985370136417,
        -0.11863398602224573,
        -0.022991881225732824,
        -0.04855770920758747,
        -0.03213152029730492,
        -0.1274762764077738,
        0.19950686545207497,
        -0.04946446614117865,
        0.0056629218434465275,
        -0.15150326882422477,
        -0.10209753276421273,
        0.03808278633902984,
        0.28652666331352805,
        -0.18259661001572686,
        -0.07854934642905961,
        -0.07662501607316531,
        0.06512593367561488,
        0.15860542424579815,
        0.21478705427264946
      ],
      [
        0.11167997876365778,
        0.08056165407572564,
        0.20944839388276543,
        -0.22119141861457892,
        0.12622465060171245,
        0.1681167506509185,
        0.12624298875831483,
        -0.31765146089402135,
        -0.24477398954321986,
        -0.061058732083283176,
        -0.09154356323682399,
        0.03809917784584159,
        -0.14208273969189417,
        -0.19158926458725273,
        0.0781458130477038,
        -0.07833930181482084,
        0.06875365344669285,
        -0.10967867071311899,
        0.2812923987174492,
        -0.11960443975773752,
        0.21130755959062544,
        -0.04065305245450429,
        -0.05538886296670073,
        -0.0981148238955364,
        -0.22393089496584978,
        -0.1481735056591556,
        -0.0822287605630934,
        -0.22129231039305564,
        0.19687933656418996,
        -0.18499075915486843,
        -0.04097445943482563,
        0.09497954104679932
      ],
      [
        -0.09839056000475677,
        -0.10882575075981227,
        0.011289800721106127,
        0.019380734808204653,
        0.09478782782012132,
        0.005877540912378585,
        0.10486889713294398,
        -0.02595447150794254,
        0.12597915573244858,
        0.05064698822361173,
        0.03053778956578311,
        -0.16823296220474637,
        0.02599919162879082,
        -0.04458607721403504,
        -0.03640023508154038,
        -0.030160169251524732,
        0.01738248283624954,
        -0.10238697522763882,
        -0.14153656574200166,
        -0.10036485496623278,
        0.06194296500807862,
        -0.20727908472619896,
        -0.19693841736999507,
        -0.0704053463980874,
        0.1426429038085665,
        0.09500721014938063,
        0.04231478699524209,
        -0.009905270025310565,
        0.13188668328645067,
        -0.1520123601611914,
        0.07748951935375213,
        -0.24420218651810272
      ],
      [
        -0.020771984350366597,
        -0.027241775958969632,
        -0.23374542322940453,
        0.05254568613917099,
        0.2593083257424698,
        -0.008665423781850203,
        -0.17169135598465396,
        0.01639072417978309,
        0.007790144162444843,
        -0.05984525926105563,
        -0.01044198956150003,
        -0.016983765538750875,
        -0.14385814795338936,
        -0.23604910701324266,
        0.18110511029971152,
        0.0902962013232485,
        0.25075559290130234,
        0.24819180770981153,
        0.13272148396448322,
        -0.17047420477087186,
        0.055341859537373285,
        -0.041108741364310065,
        0.08462632360066816,
        -0.007449739552135705,
        -0.028152954586109235,
        -0.14724994906848848,
        -0.06170645244783769,
        -0.037279375875361336,
        -0.22004807815170005,
        -0.3064722113383677,
        0.12211859527813308,
        -0.05444361035420912
      ],
      [
        -0.08281475799496488,
        -0.014861038733713855,
        -0.17888012813359627,
        0.15870408634034508,
        0.08487873339334245,
        -0.14360858918453456,
        0.16990701342720282,
        0.2816054934618177,
        -0.04266139928723331,
        -0.08363130878535034,
        -0.009812954430185252,
        0.039202381530113316,
        -0.053686083488121886,
        0.048893637882128735,
        -0.11681122227876352,
        -0.019114222853131472,
        0.1825150877285755,
        -0.19279881705622479,
        -0.0616736210305815,
        0.12276463632455638,
        0.04681330499188371,
        0.09893218177262544,
        0.1684408663363391,
        -0.015247359536756721,
        0.06310715134529417,
        -0.08508776196594045,
        -0.03828713405477452,
        -0.008118393465095661,
        0.06534473828378091,
        0.23535856680352146,
        0.11054673604191419,
        0.0409740385679541
      ],
      [
        -0.016952380194982655,
        -0.06419481952487348,
        -0.19922495913008625,
        -0.0013896064060198907,
        0.028360210602038798,
        -0.2153112377560623,
        -0.04582984168844253,
        -0.003220999283968701,
        -0.16682719819263706,
        0.19408198584599737,
        0.09642126699244435,
        -0.13906883824164637,
        -0.23871916580774236,
        -0.02434855163221945,
        0.13861725995573357,
        -0.08998703096053982,
        0.14270782730467765,
        0.032362229781529486,
        -0.14274094750510105,
        0.015920271402428007,
        -0.06861263719462457,
        -0.11898536206238917,
        0.00575984769061561,
        -0.07265927473557028,
        -0.017931812068668968,
        -0.0682562442039411,
        -0.17435086758382043,
        0.06203217157432273,
        0.0022818947393741153,
        0.022260482923955927,
        -0.1117508324141964,
        -0.028818507999123527
      ],
      [
        -0.1097817597426501,
        0.1201463772987207,
        0.04842071380372065,
        0.003344096395725923,
        0.18503667617074374,
        -0.045528981389809986,
        -0.13891144898817775,
        -0.10630863262700964,
        -0.01327052720606298,
        -0.011787663210997777,
        -0.03109938863164674,
        -0.11730754772756384,
        -0.016503330953567034,
        -0.13430952872922566,
        -0.1460104550362714,
        -0.0812990881232181,
        0.13051864464921592,
        -0.018269986385395006,
        0.03622938751152466,
        -0.0895434033599622,
        0.1487596176578604,
        -0.08390716270027751,
        -0.14308744788787728,
        -0.06859480138102876,
        0.00786703950258385,
        -0.06697488168610621,
        0.22252272053268904,
        -0.13832680693949692,
        0.12342877838402348,
        0.07903373641457254,
        -0.10981598949062218,
        0.02858343578941003
      ],
      [
        0.1406474192319961,
        0.03956109339937086,
        -0.1745994268316551,
        0.15093596281177632,
        -0.16266339992248413,
        -0.13278447240638946,
        0.05922269633331697,
        -0.09080916365294711,
        0.27265014005011323,
        -0.08951617436930855,
        0.1143998414625875,
        -0.027048993497695614,
        0.11176396775002352,
        0.09767191591314688,
        -0.04616966418572879,
        0.11928707206549967,
        -0.024269041033274135,
        0.10286778384218423,
        0.1608373020387633,
        -0.1135160461731527,
        0.05621232764914992,
        -0.1466919844433563,
        0.13662968006623566,
        -0.018567487485981856,
        -0.04519651661406332,
        -0.17160358571985496,
        -0.10492885207639974,
        0.12726112325965905,
        -0.1358236186034543,
        0.046453102077105776,
        0.2383664518291127,
        0.08569393404230398
      ],
      [
        -0.05777835148106587,
        0.18109609167725751,
        -0.1276445356399875,
        -0.04170678337391484,
        0.05224274427944026,
        -0.18426892188192665,
        0.028344115764172232,
        0.18747330204168394,
        0.08047392331361145,
        0.1178706020850004,
        0.16920704571874037,
        -0.027015338100075285,
        -0.003746274341838522,
        0.03760633476444877,
        0.0033768118700549725,
        0.044775434081550755,
        0.028117249973438757,
        -0.0762712362737595,
        0.06603796254147422,
        -0.21488325383577994,
        0.10852037877662364,
        0.06076985920498227,
        0.005349150612339699,
        0.12408668346284091,
        0.190307609805596,
        0.051179103105671864,
        -0.13340613502202986,
        -0.1325109066330447,
        0.07320714159117751,
        -0.11908217107837135,
        0.012221211522721553,
        -0.09330624930983829
      ],
      [
        -0.07716885147179454,
        0.09336958052952794,
        -0.07163105810020094,
        0.11642087303527449,
        0.21199177116438142,
        0.08224097925794628,
        0.204878890962655,
        -0.1348384165219037,
        0.025587886506789854,
        -0.17738314716152762,
        -0.23847311135527394,
        0.1171722400465379,
        -0.1467888815498383,
        -0.022299758656688214,
        0.04651413182725875,
        -0.13603177424899146,
        -0.08088199558425081,
        -0.05769226428125117,
        -0.03766275051444316,
        0.05339120552596108,
        -0.07311179523059565,
        0.08217248371445099,
        -0.018175826598740504,
        -0.123218304660629,
        0.20833587405810575,
        -0.18891818469065624,
        -0.15219375208607128,
        0.011409307182615187,
        -0.09000216648928995,
        0.0901633554579785,
        0.1396645313167757,
        -0.21598828349134672
      ],
      [
        0.05001069728783032,
        0.1262595669818158,
        0.1865642855818731,
        -0.14572321888539636,
        -0.1077999051218361,
        -0.026976368619073317,
        0.1399508076030921,
        -0.16980763917863217,
        -0.1419482466667903,
        -0.05622118876677516,
        0.13987343648782533,
        0.18234147996576952,
        -0.022558838628666367,
        -0.15115299043847874,
        0.07747704279216613,
        0.11649865372468284,
        0.20388049749720216,
        -0.1692301122201452,
        -0.07465800588253535,
        -0.14282087956266715,
        0.030023743652502165,
        0.07882429295943262,
        0.011139073021608985,
        -0.0368487162305953,
        -0.10768473600100573,
        0.1609367127504651,
        -0.19567438652621083,
        -0.1666976841755249,
        -0.1683019363588243,
        0.03417054494327645,
        0.11055390748485902,
        -0.11750925746570247
      ],
      [
        0.17560611213162014,
        -0.1414061648694183,
        0.052706335710810605,
        0.15324019419813187,
        -0.14847330483127147,
        0.06798594806579421,
        -0.02124035156907532,
        -0.12927111802181618,
        0.22864768874075136,
        0.11039447099248771,
        0.15573542038297564,
        -0.16475392637876368,
        0.02644941898889012,
        0.1237076243322007,
        -0.12226494901102292,
        -0.08862840741913744,
        -0.14079075015044015,
        -0.17665133144988907,
        0.04426349308239371,
        -0.03279086471257556,
        -0.13795610667758296,
        -0.03104819342763366,
        0.031793167988283064,
        0.04593366259239903,
        -0.10090861411108204,
        -0.13233613312370962,
        0.1699975449664804,
        -0.06099889600863741,
        -0.002815746435245314,
        -0.09335118630172809,
        -0.03779661935295001,
        0.11916875144612679
      ],
      [
        0.15083669551102533,
        0.24358976959530737,
        0.08437431356725289,
        -0.02171306884403474,
        -0.09001923423313318,
        -0.21489060504501944,
        -0.05979294174001336,
        -0.004026755861944005,
        0.03601417306045418,
        -0.0738862664919799,
        0.11979677044139875,
        0.060647279001618384,
        -0.033618201450283616,
        -0.20130007387210513,
        0.059967371112645176,
        0.179873428851284,
        0.2058378277647519,
        -0.060164764418635074,
        0.006177059660106247,
        -0.006838572630326791,
        -0.04046350635774199,
        0.16942234909374204,
        -0.10931137516532523,
        -0.2056428795024738,
        -0.007836832656324335,
        -0.07341030034960849,
        0.12325647936388483,
        -0.09565600069508584,
        0.014142872586750297,
        0.009023598189742972,
        -0.026047598325512792,
        -0.1662884397767207
      ],
      [
        0.015410178339730516,
        -0.09998278608530471,
        0.09992663356931582,
        -0.0735913269878525,
        -0.04572840410316937,
        -0.15955118676257224,
        -0.005044152892355875,
        0.055910572454197845,
        0.05120271463054949,
        -0.1615013155440567,
        -0.014575782512380548,
        0.17815346756417025,
        0.030058932892591903,
        0.10696814449504859,
        -0.15404760178395868,
        -0.2160132689655643,
        -0.14644419142307605,
        -0.08986188841143553,
        -0.10289254725230233,
        0.03890608441302485,
        0.04420304466748523,
        -0.16915326022702296,
        -0.08219981360022502,
        -0.1424615636406858,
        -0.17163529572267047,
        0.18552601012709777,
        0.12609296519345775,
        0.04629126128716993,
        0.03907174359706945,
        0.09051927443442181,
        0.11429265911735338,
        0.3449064076675392
      ],
      [
        -0.19893571102958496,
        -0.12314699892545344,
        -0.21250069560231008,
        0.12875608924831022,
        0.0631589270711147,
        0.23936739840075316,
        -0.1614152342484619,
        -0.10919519347317998,
        0.10178144044069319,
        0.11313785147212996,
        0.16395754247975933,
        -0.14507232269055595,
        0.06510026269179217,
        -0.030710233136433465,
        -0.13345584854337855,
        0.055705496862684105,
        -0.21956523435549868,
        -0.022891836938612638,
        0.07385750200162103,
        0.2415415132170527,
        0.2146146344631711,
        0.023217330184208615,
        0.08347014499311041,
        -0.04398410147560778,
        -0.1219586857344562,
        0.09762532082228303,
        -0.06493158496843927,
        -0.05432269734686127,
        -0.184797450335276,
        0.04254228117275933,
        -0.008596840856716727,
        -0.08639758827984952
      ],
      [
        0.15431342220322922,
        0.011228026636426707,
        -0.1391152492739908,
        -0.11987381998300398,
        0.0001844937420038466,
        -0.018935260060992613,
        0.03729766809596102,
        -0.016267666287530017,
        0.1406207714291968,
        -0.09924028154446773,
        -0.13483240440482494,
        -0.14765507767511782,
        -0.12958968799603351,
        0.1282442788368606,
        0.02260291760572549,
        -0.01574365510036057,
        0.04633171783617303,
        0.12815959813869623,
        0.00004379794126526315,
        -0.06763437377675952,
        0.07834265912921343,
        0.15316580266617885,
        -0.013648960765117221,
        -0.12294987814122546,
        0.2076100387939358,
        0.04217967284615642,
        -0.2661197318310809,
        -0.13711361628397678,
        0.032717940982729524,
        0.21031377112063276,
        -0.012056888857504652,
        0.045750608308439855
      ],
      [
        -0.013900672724353105,
        -0.07289802938776832,
        -0.20350167925768137,
        0.1589144223082552,
        -0.004032647460707353,
        0.17725876182681305,
        -0.005144088470616972,
        -0.1483403719233666,
        0.012973129021489551,
        -0.1618899412485529,
        0.22524296910833486,
        0.058997741723038656,
        0.07570509720709388,
        0.055552117300045556,
        -0.06658805152269019,
        -0.08863560749319555,
        -0.11759009387943493,
        0.11191514446867647,
        0.09834171958905483,
        0.08847558035898588,
        -0.12891316418690738,
        0.08300765155647176,
        0.02458340828754485,
        -0.07757782870022309,
        -0.03191480140148293,
        -0.11312828852209414,
        -0.029343843402508195,
        0.14173018853489175,
        0.19168977664608908,
        0.2476835619962289,
        -0.1468819681668085,
        0.18646913164326295
      ],
      [
        0.14573689973461842,
        -0.08159911787368404,
        0.06652844270359912,
        -0.007553215954518685,
        -0.09067163123756336,
        -0.1093700192487198,
        0.0731658908298474,
        -0.2461724030014926,
        -0.11025921201078341,
        0.03979973024203295,
        0.14899827111292302,
        0.25228917853976446,
        0.12783660908438851,
        -0.13889923187248115,
        0.14468601030100545,
        0.10519218959398881,
        -0.10519132308834495,
        0.14566505983198114,
        0.10758844019167939,
        -0.1337261708813437,
        -0.17581471362950626,
        0.14216462415489683,
        0.01507169356003236,
        0.05171189669338042,
        -0.0658311146927228,
        -0.17137716139438938,
        0.018970060123735522,
        -0.1707728563059154,
        -0.007467970848881725,
        -0.023136704736227844,
        -0.05512877173687159,
        -0.10296493799498152
      ],
      [
        0.03940626782034124,
        -0.0757062267913731,
        -0.08143715449999801,
        0.18535527023576578,
        0.0004883151143104645,
        -0.1768763811488295,
        0.04947333917370346,
        0.16740459011217385,
        0.2852873476811069,
        -0.07563569365535112,
        0.009836266741800343,
        0.02253354515500689,
        -0.1552636970574057,
        0.12734547405103874,
        -0.05810889334089538,
        -0.17563952400427474,
        0.0020945953119496257,
        -0.1374104004429656,
        -0.14900759411141803,
        -0.07275863463308309,
        0.041004171295328594,
        -0.058517997385710556,
        0.12705899928988434,
        -0.07295555838346365,
        -0.041166536256893864,
        0.08655947686054395,
        0.05517637459391065,
        -0.19171697620761374,
        -0.05708253938770617,
        -0.0812613767959827,
        -0.029360428166871715,
        0.20651626058241976
      ],
      [
        -0.13198580894546869,
        -0.16338992575827985,
        -0.22350058274728213,
        0.06534359305800606,
        -0.2962527205582255,
        0.08760216975884079,
        0.20787313802920424,
        0.020863852704781374,
        -0.19445277317897394,
        -0.062173392358906315,
        0.20265612753166048,
        0.0703403480062418,
        0.015348438256507769,
        -0.07615879482489628,
        0.046495081806234795,
        0.11710503929645412,
        -0.04242912760111063,
        0.05662329741034772,
        0.17041410540364052,
        0.1570417834582435,
        0.027542302797393284,
        -0.03551974784527523,
        0.10180353853913457,
        -0.12052582233198958,
        0.19881971958674383,
        -0.05364849973907459,
        -0.17801229370399402,
        0.0867121170308204,
        -0.05666629077230942,
        0.07910375047514984,
        -0.1425347135002574,
        0.017198281157421457
      ],
      [
        -0.006916019416512525,
        0.05038948331694475,
        0.1613524058270352,
        0.11346086912723413,
        0.09498483684201219,
        -0.0928831917839209,
        -0.04957607014230169,
        0.18345963679781274,
        -0.08771268008272586,
        -0.2110288793234424,
        -0.15745103540966973,
        0.14405464032506998,
        -0.1479065117151546,
        -0.12892365661863817,
        0.10701256568355644,
        -0.1251130127992404,
        0.08886490201169764,
        -0.08374134909047988,
        0.10472570625099697,
        0.12882465973716892,
        0.0981461043105908,
        0.08058311399298657,
        -0.06753397696644559,
        0.2301081852182788,
        -0.044187490542531335,
        0.07883540219330941,
        -0.009799314473948733,
        -0.0968889508678453,
        0.04567588956002593,
        0.05476217769279505,
        -0.051488065228758845,
        0.030501225155802295
      ],
      [
        -0.1702711198918462,
        -0.006158920040494822,
        -0.12513124147877702,
        0.19497837084560782,
        0.08943652376445987,
        -0.13833133653964444,
        -0.05537235307210496,
        -0.1432087632908193,
        0.014771785726390796,
        -0.2004779226798508,
        -0.002239774000978254,
        0.01904825151650869,
        0.03685112301368393,
        -0.1615453386964964,
        -0.13751252657295118,
        0.14815952392071388,
        0.05563203610699185,
        0.11251681211272883,
        0.14714474602860736,
        0.16298037264367377,
        -0.17144831358783594,
        0.1192931765001991,
        -0.08060233167501851,
        0.17034113521295746,
        0.07172802228088973,
        0.031423820601968536,
        -0.12367525447336918,
        -0.2067619064214973,
        -0.04096683796353682,
        0.2173585269471867,
        -0.26991193555858395,
        -0.08533339586364216
      ],
      [
        -0.030325260127734135,
        -0.005175452614996705,
        0.17781872448314598,
        -0.06631168805843557,
        0.0810434857379566,
        -0.06691038534625071,
        -0.0035866215070268163,
        -0.1332483620660008,
        0.11847169531844515,
        -0.06543529203308765,
        -0.07503470161407798,
        -0.24572289881425896,
        -0.025792552515672747,
        -0.030729898123164203,
        -0.062274683907304694,
        -0.22406549811291004,
        0.007954881998662872,
        0.09398354739847868,
        0.020228570602688678,
        0.2258344198917526,
        0.03840752470622911,
        -0.09142663722367776,
        0.16034450640281164,
        -0.07270978034417497,
        0.25325255717296646,
        -0.022285760726240784,
        0.0826538874324096,
        -0.1603199865049772,
        0.1224266330271784,
        -0.06957342630593613,
        -0.26556109476047784,
        -0.048258781740067536
      ],
      [
        -0.17200561992023278,
        -0.1667185360576626,
        0.011753361090379128,
        -0.14958479744219383,
        0.1077640798882359,
        0.3293875190029811,
        0.033227628681981355,
        0.25613346749706367,
        0.14140035220198127,
        0.0803097918380035,
        -0.12460982560495805,
        -0.14097814520677923,
        -0.013175842642497963,
        0.09355518050467057,
        0.14317712756625442,
        -0.02081876366985405,
        -0.057277262217396444,
        0.28050363839790937,
        0.10878009341811813,
        -0.09661877875172474,
        -0.06280782795229056,
        -0.22148845123921757,
        0.17440824981019626,
        0.015818185089829698,
        0.07026873150035286,
        -0.18273190176726262,
        -0.062103445551989836,
        -0.18455765415146247,
        -0.0769098691996267,
        0.08423653635104779,
        0.2900222926822158,
        0.04338742707114144
      ],
      [
        -0.2817257461265782,
        -0.19100967313836734,
        -0.06547840917125416,
        0.07988938936288194,
        -0.19037139157689698,
        0.09903459029540723,
        0.056533129368181174,
        0.034239892016256296,
        -0.09992407853703375,
        0.13350293248980785,
        -0.17834996478708257,
        0.2177716978197065,
        -0.061189090498905516,
        0.02417624143018018,
        -0.012586519131284089,
        -0.010460585194330305,
        -0.11673320171726075,
        0.1285070482318762,
        0.2793363563235722,
        -0.05608973033533141,
        0.2493851624693434,
        -0.013090821448088744,
        0.05178655165776508,
        -0.29594341946787983,
        0.015918895102265695,
        -0.0030164959128778017,
        0.03326074595129672,
        0.06914393151745842,
        0.05832097007424469,
        -0.0874368934315596,
        -0.12533972716605543,
        -0.15027435668758432
      ],
      [
        0.10476608749237999,
        -0.031121598678618932,
        0.05054781598765742,
        0.08162271107802486,
        -0.06127098619001443,
        -0.08396994291197658,
        -0.13917213323537939,
        -0.04216132439209167,
        0.08371288846577167,
        0.03646419478161115,
        -0.1079197758537626,
        0.11407042833621633,
        -0.002551906057722363,
        0.11177402558280992,
        -0.13058724294971188,
        0.05105146035905588,
        -0.15722064293461613,
        0.09399340271547256,
        -0.1616229583947841,
        -0.09389212794050777,
        0.17574822078788466,
        0.0680470717077669,
        0.1359902264527833,
        -0.045546587197172375,
        0.1741905983963916,
        0.1388274401546974,
        -0.11676223548947538,
        0.07538591169564113,
        0.007438176366675177,
        -0.11574892705260693,
        -0.16829268246605295,
        0.04822653540668593
      ],
      [
        -0.21132282987904286,
        -0.18265591226760752,
        0.1303471696961526,
        0.009920852523216955,
        -0.1534717069521291,
        0.1490877446985663,
        -0.04752347921615308,
        -0.020859076117507536,
        -0.11818065224998445,
        -0.004229644545403721,
        0.08331574467090522,
        0.04876009195940166,
        -0.03862501474114936,
        -0.19601340534683098,
        0.1025434387319375,
        -0.16547489772711765,
        -0.22925814489181753,
        0.008661864444895298,
        0.255751982583092,
        0.11516951811004617,
        0.14535944608381032,
        0.037457222661303684,
        0.07016579863170759,
        0.029352072113870076,
        0.11684874533064103,
        0.03440149517140281,
        0.11895114084980885,
        -0.11287169539178338,
        -0.028948608976551615,
        0.07244413836385646,
        0.21611887799364696,
        -0.28078706985345114
      ],
      [
        -0.08160019453493268,
        -0.17076200447700066,
        0.021235303364157843,
        -0.02385314722552053,
        -0.06652257743748859,
        -0.07626000119708368,
        -0.1535488229411352,
        0.09265691212098917,
        0.16251774273869204,
        -0.11336505371936312,
        -0.1634851125557108,
        0.18201562031499574,
        -0.03271577155009921,
        -0.16905166975546249,
        -0.0054521683227895315,
        -0.008759090355348347,
        0.1547518994798069,
        0.09686729620693166,
        0.16287941989148352,
        0.10875485179810673,
        0.08264921047256446,
        -0.13952218519580983,
        0.05178224599115895,
        -0.23206981563866833,
        -0.14320818074248695,
        0.08251853233729448,
        -0.12071410094144992,
        -0.14903527216233065,
        -0.2318346524680314,
        0.12449272928804811,
        0.08120970099468236,
        0.0857250327854331
      ],
      [
        0.14619369257948864,
        0.1720406554153452,
        -0.11782540873300626,
        0.07344303309769484,
        -0.007229704071326498,
        -0.06242777525476584,
        -0.030491801471249635,
        0.15251845456785693,
        -0.04219893749263196,
        0.07935387164759412,
        0.033712627579413505,
        -0.06628874983539859,
        0.0753119743616177,
        0.009081278412845678,
        -0.033977764339692684,
        -0.03805696023433272,
        -0.12321616362632994,
        -0.13118144791494016,
        -0.11165806206538129,
        0.07594758010833198,
        -0.11008686282098301,
        -0.06076773389318892,
        -0.09601892965271047,
        0.21036410018129587,
        -0.0688286097105929,
        0.10697849301980318,
        -0.1038429421843462,
        -0.016366667748836612,
        -0.062079538156447026,
        -0.025312506782415412,
        -0.13378262706314692,
        -0.12818266372803327
      ],
      [
        0.08410749207193613,
        -0.017484757927700142,
        0.17615932125973102,
        -0.032531197087691456,
        -0.10855889498104211,
        -0.2032744200018415,
        0.1481094091973235,
        0.14444432438402502,
        -0.08760082913242419,
        -0.1100324876755574,
        0.09268059356232854,
        0.13379241028138633,
        -0.22405887892146115,
        0.04818593644668847,
        -0.0388703348923986,
        -0.14331584871697603,
        0.1782348299318767,
        -0.008518753808057639,
        -0.12247736598084175,
        0.1379214781922331,
        -0.10732520855414636,
        -0.12362759408217917,
        0.04944391470612725,
        -0.08722978940239763,
        -0.05013191247524596,
        0.25994077848946306,
        -0.137462739460762,
        -0.04529898291462533,
        0.06010238833062683,
        0.1827263903301487,
        -0.2447384435780281,
        -0.09040238009409345
      ],
      [
        -0.14531787351701875,
        -0.004092416951326799,
        0.1307855732895701,
        -0.17360393329360646,
        -0.04186217771224441,
        -0.001623964536230977,
        0.11897580103246923,
        0.06560025652796948,
        -0.19859483766488867,
        -0.18978513252032192,
        -0.037020742128373016,
        0.14156684537795985,
        0.014708178013721136,
        0.11333715121594039,
        -0.09235222238959064,
        0.010263725577427083,
        -0.0365197215753514,
        0.03655984786816131,
        -0.003597997090523116,
        -0.02059255453749734,
        -0.06261687746183449,
        0.006591180620002989,
        -0.10230324969448573,
        0.1651131745781745,
        0.015220259565470648,
        -0.05227661238935224,
        -0.14294730963854288,
        -0.0440538825265961,
        0.19576419628791877,
        -0.11302334935304942,
        -0.054955945815957516,
        -0.07170526491380178
      ],
      [
        -0.0031097086502086075,
        -0.08004432904323448,
        0.050430866337460946,
        -0.1894657985178026,
        -0.03214074459612516,
        -0.15519378021553165,
        -0.04341014856671569,
        0.030334358508910524,
        0.1407082092699591,
        -0.12011845290003514,
        -0.11980873241283119,
        0.050535213623264456,
        -0.07943793981979065,
        -0.003759313610078359,
        0.15706304823781034,
        -0.10069174812407235,
        -0.1687604857457804,
        0.03248854906075987,
        -0.007541096572559498,
        0.09384529920809151,
        -0.013597069886004861,
        -0.12593438672004875,
        0.017011866781474937,
        -0.18897877602699392,
        -0.008650816410113504,
        -0.17133728426313635,
        0.19138331921297974,
        -0.041166068128723685,
        0.07425782230474477,
        -0.11150118234098767,
        0.038092784617651344,
        -0.030480743964343505
      ],
      [
        0.007587516388945667,
        0.19303452038345442,
        0.08435513895300449,
        -0.07294108997422742,
        -0.11980778622721507,
        0.011391014978183088,
        -0.05181907653568088,
        -0.012587954550775087,
        0.06458071539200635,
        0.074803427750425,
        0.11085184358267998,
        -0.0578372426059992,
        -0.28614054994233123,
        0.20766914749434603,
        0.023307314399179963,
        -0.1322961671070875,
        -0.05642900192004082,
        -0.12360255453685683,
        -0.09436634330407864,
        0.10123572115138252,
        0.249992062999151,
        -0.2693042590136069,
        0.17775702704777593,
        -0.023188430461661663,
        -0.14974653978992697,
        -0.04861150202606657,
        -0.17947094735382588,
        -0.20897175688104838,
        -0.022842587358717744,
        -0.10351687628663718,
        0.1046752337111043,
        0.18423679135085858
      ],
      [
        0.15389987407842595,
        0.05167045188329509,
        -0.0978242826621106,
        -0.035699152688475705,
        0.10136813197907454,
        -0.13820251010793166,
        -0.15526470309376994,
        -0.10432588966245021,
        -0.06345316936613139,
        0.05017651125251729,
        -0.11268631702528005,
        -0.12730071781581917,
        0.24235043801432854,
        0.13337175958701908,
        0.0074581058755377235,
        -0.009390134315823149,
        0.07684049627440476,
        -0.2721160851246746,
        0.11443989518866395,
        -0.15957520539780334,
        0.10615245816797127,
        -0.05379411316024609,
        0.21254203960338539,
        -0.04994087579327367,
        -0.07302466166191833,
        -0.22451713133166534,
        -0.12367455806723861,
        -0.017200317451119062,
        -0.09193691284857221,
        -0.12669830852710862,
        0.13764916912383832,
        0.009324453138135838
      ],
      [
        -0.04867248582412069,
        0.1572366162906669,
        -0.16415595441657846,
        -0.03043492230916469,
        -0.06904725614718096,
        -0.16029681849419336,
        -0.17412931202156856,
        0.044841726930164,
        0.15849388940136705,
        -0.12475890420055459,
        0.19554242116055354,
        0.02854456863059693,
        0.14296629259568064,
        -0.031231538515439507,
        -0.13464253658247655,
        0.06544409568849255,
        -0.0044637224077657,
        0.19079459978090033,
        -0.22168558807462124,
        0.12909430515576917,
        -0.1384710797876867,
        0.11062829017813496,
        0.07515978476904157,
        -0.18921757645460938,
        -0.11964328066460402,
        -0.15258100688894213,
        -0.05535870157301638,
        -0.05701084707019686,
        0.11932864089594085,
        0.10681604098809254,
        0.16545461204915354,
        -0.0684668872728764
      ],
      [
        -0.11277414664919286,
        0.09201126528938307,
        -0.04890448576697338,
        0.06514535510475282,
        0.01441301772510027,
        -0.34060750981794613,
        0.06985765447150814,
        -0.29476513571411284,
        0.05010344181991093,
        -0.058272642890185765,
        -0.17511821802653532,
        -0.023975015308502864,
        0.07390839552575512,
        0.13624855254118376,
        0.01843232573935745,
        0.1346969618741908,
        -0.14420450352471842,
        0.002940865989151734,
        0.06703710017040108,
        0.1663970019177966,
        0.11040446451462822,
        0.0766296851563073,
        -0.2543588363936568,
        -0.0785977609926969,
        -0.18301085812275691,
        -0.1634345386039233,
        0.188216844935801,
        -0.14205385442361748,
        -0.015761922406336663,
        -0.028473986545860558,
        -0.07741640142343842,
        -0.078063852148453
      ],
      [
        -0.05217255104429258,
        0.16961294018711268,
        0.06767911160659927,
        -0.17914094840112837,
        -0.14469127386684383,
        -0.06830878390475645,
        0.0565670147869967,
        0.10316323902302693,
        0.04260461275636661,
        -0.3287367811135767,
        -0.12563305648770498,
        0.05887891510100588,
        0.028261483530237514,
        -0.19648550764507017,
        0.08356842106371395,
        0.13909709552857047,
        0.11753165824110512,
        0.23351709571526902,
        0.026593260992200687,
        0.10640086821594097,
        -0.06060611183492834,
        -0.1963809230901649,
        -0.09610598568882574,
        0.0029404132003524926,
        -0.3662184610574122,
        0.08000367619385673,
        0.1588532071978442,
        0.10375528038559245,
        -0.029881764871724042,
        0.09101327989008909,
        0.003086010947015336,
        -0.0809457924880589
      ],
      [
        -0.08659287066103598,
        0.17227471616954057,
        0.19204759766525942,
        -0.08092585084196273,
        -0.12278556264870386,
        -0.15944166981449923,
        0.11671916306322218,
        -0.2666259674827037,
        0.030402569144923088,
        0.15808459777376363,
        -0.10744207172805958,
        -0.04363376191264984,
        0.10924424534374685,
        0.039502159320347924,
        0.10675196300314845,
        0.11202797661933499,
        -0.05473423216479983,
        0.025767165563701358,
        0.1514852018360234,
        -0.2549586925206223,
        -0.09725063432503259,
        -0.1402068484531352,
        -0.1195444769560639,
        -0.14922027785658945,
        0.051445419754117955,
        0.05363646166724145,
        -0.08509274903545905,
        -0.009597933104482122,
        -0.06163190137739449,
        0.1378829272062902,
        0.1163344512561892,
        -0.04918646169558026
      ],
      [
        -0.04926929181209271,
        -0.04889519805499906,
        -0.166093560853781,
        0.03708091249343254,
        0.04335239453138683,
        -0.010212150187593054,
        -0.018064180175003903,
        -0.013012300478637445,
        0.17008491452663582,
        -0.08248017948982625,
        -0.001509974375868534,
        0.03949411850719342,
        -0.030061958708683386,
        -0.22076385609120047,
        0.06989861550086576,
        -0.003402096219930069,
        0.14383152311709013,
        0.04371073406704491,
        -0.04618481854962751,
        0.010839516212378142,
        0.3031525655711282,
        0.014776121687909002,
        -0.10163472032589622,
        0.183912812324784,
        -0.10496232260712796,
        0.001083805785192138,
        -0.20625951479606391,
        -0.34828473996331055,
        0.04723426911990074,
        0.08376951302671476,
        0.08474921265242566,
        0.1707212621447147
      ],
      [
        -0.10425274511134416,
        -0.12360002488607147,
        0.14919274549748474,
        0.046356280212161115,
        -0.12677411086494783,
        -0.2787492953173762,
        -0.05166577590769423,
        0.014854296794692969,
        0.0703468827054051,
        0.011999999562421784,
        0.11460262219490729,
        -0.056531100857431654,
        0.15844785820242308,
        0.2270106184515864,
        0.05153984229172437,
        -0.13228661682031775,
        -0.10668660885990071,
        0.02420730946614571,
        -0.06364378829953773,
        0.25330692789476833,
        -0.06798884815314159,
        0.00017769064723730676,
        0.11193019195028411,
        -0.14241935504438094,
        -0.2290557639110594,
        -0.04077080051113312,
        -0.023677689884294723,
        0.009786101615739647,
        -0.08117861272094759,
        -0.10735748388178108,
        0.03113402793258337,
        0.05471963599674915
      ],
      [
        -0.06764017209343332,
        -0.1174392128815005,
        0.024512008678384958,
        0.027351665275318928,
        0.09492567916643496,
        -0.014990530380716656,
        0.07056970813838384,
        0.0055259974330565285,
        -0.09992502963417803,
        0.015951244895921656,
        -0.17902837923713197,
        -0.17035075240341344,
        -0.23999812232885037,
        0.13180332265685052,
        -0.06147638877933089,
        0.02810551229670739,
        -0.0234345733774971,
        0.020356962978901962,
        0.27346732249470923,
        -0.015773697271243763,
        -0.1068339728790283,
        0.15544799816609103,
        -0.1348110295883977,
        -0.08457625967283677,
        0.06059770257531843,
        -0.030730793913885328,
        -0.12041302575183334,
        -0.0722501140496867,
        -0.059476935005472915,
        -0.03199620520591631,
        -0.1876732461439227,
        0.07160439794859245
      ],
      [
        0.16091827254599825,
        0.03740770983750963,
        -0.05138216170243442,
        0.028696991278647856,
        -0.05650478788791165,
        0.038999517040857135,
        0.040650218709074024,
        -0.19606579939873656,
        -0.13620019700669847,
        0.02295123521500272,
        -0.051691778021581855,
        -0.02350813323553831,
        -0.17510308950782258,
        -0.012721498475246154,
        -0.0937558956557771,
        0.013277641856632405,
        -0.05349484229158719,
        -0.026979114685718893,
        0.06500033726002868,
        0.09545384701873229,
        0.18284634213916656,
        0.10690211438942848,
        0.1453095574306174,
        -0.020322183183996437,
        -0.04101869266604259,
        0.01667384866800023,
        -0.1777039573874571,
        0.12462981536239158,
        -0.00006478755608757477,
        -0.03605541869799018,
        -0.1902666380880687,
        -0.16811852718170497
      ],
      [
        -0.01690508526218842,
        -0.09753193846002046,
        0.12384079165639687,
        0.16178585258259962,
        0.054447508987296785,
        -0.04618360287241013,
        0.09645121518726726,
        -0.21783662534121528,
        0.0382265340283939,
        -0.05054141361599152,
        -0.08254776811389393,
        -0.008855136533441955,
        0.15980729341940214,
        -0.11567209826677328,
        0.27191167148826917,
        0.1958781145807303,
        0.15427227554963158,
        0.10851822149468367,
        0.16613445812242084,
        0.16984530053201674,
        0.0057838459867410015,
        -0.044248987258395024,
        -0.043706016120901685,
        -0.22123446138386338,
        0.08399593127740536,
        -0.011165991594787239,
        -0.14964958368091605,
        -0.2521031920248002,
        0.15086512810709543,
        -0.22793616570028136,
        0.00037232314689518767,
        -0.15099391783961968
      ],
      [
        0.06541347299488234,
        0.14264500166707664,
        -0.08907486579390757,
        0.1002729524373471,
        0.0384779321960516,
        0.06207344579119013,
        0.16937747269232425,
        -0.10244892577320348,
        0.07767367009978288,
        -0.009752448031798503,
        -0.06811497278407232,
        -0.049784625370743595,
        -0.16753472968117306,
        0.15598251214967981,
        0.015677092979856,
        0.10064626630689733,
        -0.22383908712624373,
        -0.11953434662423469,
        0.14570860463119117,
        -0.08760237028490321,
        -0.22158928510379525,
        -0.012943505905939557,
        0.05864526931299886,
        0.009989771282903789,
        -0.11315552671473153,
        0.2793399121613503,
        0.0503453088335162,
        0.14139941833385133,
        0.024460223604638256,
        -0.23443315004298693,
        0.13586688866437022,
        0.11117020324639008
      ],
      [
        -0.10224040599517209,
        0.02997453809971687,
        0.14133308704022948,
        0.05789858866085128,
        0.09180305934559269,
        -0.020861681268632665,
        0.059253666969402916,
        -0.12564042560606437,
        0.002964327285820933,
        -0.18963840465437906,
        -0.008106732401404063,
        0.07046502524151478,
        0.1091714831627268,
        0.04643207255124124,
        -0.0712435249507079,
        0.13079418207141438,
        -0.02772452575532954,
        0.10244786368581538,
        -0.04291103341531824,
        -0.17416638566114967,
        0.11528493471559448,
        -0.042427508345197436,
        -0.0928954399950207,
        0.2235908876607307,
        0.21940588704594002,
        0.1930724518414821,
        0.016412267986943136,
        0.17136607473560753,
        0.22635595050836332,
        0.018169078212276528,
        0.14938453194508328,
        0.1283317545322291
      ],
      [
        0.19872483970723537,
        0.10306494289596953,
        0.10327020824310709,
        -0.19813726087759434,
        0.01374493353896713,
        0.26214001547991067,
        0.2244873954620423,
        0.06868821992775878,
        -0.0424029189142789,
        -0.3005024453623797,
        0.09957205659698679,
        0.08011213839155096,
        -0.055965830592614736,
        0.20188633444401782,
        -0.023571322413637744,
        -0.11725245739940181,
        0.08481143951872738,
        0.1574666792332017,
        0.014642132240758266,
        -0.2664422054893834,
        0.0456175836092501,
        0.0009665767526958913,
        -0.04397236348656548,
        0.025468726731212008,
        0.32039942473093036,
        0.040630972961790635,
        -0.053037602891297546,
        0.1361379258497539,
        -0.00917033946083833,
        -0.06691627993290201,
        0.19726835930474265,
        0.04961282878723554
      ],
      [
        0.16526755056952178,
        0.07328504847416208,
        -0.1425922936183723,
        0.1052361724505463,
        0.2442492452209457,
        0.058717651033682226,
        0.141584771052752,
        -0.14054036895488553,
        0.1778143582296345,
        -0.07353816336332906,
        -0.02278367711266341,
        -0.10401732528334645,
        0.21417821252961167,
        -0.13508583677677788,
        0.19123627997789502,
        0.004892017728264474,
        0.005430331807844661,
        -0.035798265594950786,
        0.02610922687099197,
        -0.0717456346730334,
        0.25411832511042115,
        -0.01084012604625371,
        -0.12194335073816023,
        0.073951772372196,
        0.08151303505261924,
        0.261195912829202,
        0.03825399059406048,
        -0.1703752872817592,
        0.2777164953335186,
        0.072894308949269,
        -0.22209500952134092,
        0.25716919629837326
      ],
      [
        -0.028566091966611452,
        -0.002229218588670674,
        -0.03271591429845648,
        0.05940860821032247,
        -0.013207237469054823,
        -0.08420958451236746,
        -0.012053166379663907,
        0.06307945861846706,
        -0.0921549053894869,
        0.015209173260773068,
        -0.040349218346829856,
        -0.10808241527652357,
        -0.17638765681411456,
        -0.1314205177444372,
        -0.0038237566123884314,
        -0.11974983576773718,
        0.040448157949799474,
        -0.12805666240009078,
        -0.06903006035433791,
        0.1035064221662421,
        0.11202039331844105,
        -0.19154499265802616,
        0.17322267027128765,
        -0.14603476113472996,
        0.07510750048096212,
        -0.1340387503238585,
        0.30955853329662636,
        -0.15941065514912414,
        -0.08273359509115394,
        0.2351496029233742,
        -0.08027376906515989,
        0.19154778305462772
      ],
      [
        -0.031172579741772788,
        0.1464280200700149,
        -0.12629483387748233,
        0.12723180514431293,
        0.10257139173244326,
        0.08186352081504535,
        0.014370494011591472,
        -0.04830202188351018,
        0.10355390009033383,
        -0.0975056859031024,
        -0.1179182701087446,
        0.16444835304372019,
        0.049682006381492436,
        0.14631734400634022,
        0.10006369486709277,
        -0.0790148228809616,
        -0.1851261253365073,
        -0.022664412243912507,
        0.2075182545076558,
        0.1422837625729222,
        0.00977263153095573,
        0.16517016174955848,
        -0.15106042283686635,
        -0.0713529076219663,
        0.03934854149060779,
        -0.1978231396185643,
        0.08244880945775877,
        0.04141690369323595,
        0.09095866355841604,
        -0.028526730037375367,
        -0.10955860895995823,
        0.17474571280780984
      ],
      [
        0.08746702362481974,
        0.17370897362178528,
        -0.11420981708483141,
        0.09282942863645781,
        -0.10463437603720895,
        0.027990794027952303,
        -0.1287933676845673,
        0.0954600314963395,
        0.2054915958718861,
        -0.1326676541628141,
        -0.21320954246562307,
        0.06969167944327821,
        0.062022792154787565,
        0.01962779215321943,
        0.06253379744055607,
        -0.12804042244004038,
        0.009395574073047454,
        0.1228506389027685,
        -0.05062680731351896,
        -0.23938343073551013,
        0.1415611440932867,
        -0.21417921956235933,
        -0.1302732028385371,
        0.11387339995231648,
        0.0026114876494155704,
        -0.038639132927332634,
        -0.0433170338043316,
        -0.01938786900684246,
        0.22346298544063328,
        0.1430121403385647,
        -0.018730256877459415,
        -0.0906454078348273
      ],
      [
        -0.03532550273480604,
        0.15013484933199484,
        -0.00210928312593233,
        0.12233897082863186,
        0.15050516594921876,
        0.0134347639135533,
        0.056771852702593814,
        0.15275851472061672,
        -0.2563096857744537,
        -0.059081353731783665,
        -0.12556644624707675,
        0.13652954569943135,
        0.09150527065377242,
        -0.1327624574448151,
        0.24328940231536128,
        0.15592182709856336,
        -0.025672267385020524,
        0.06561595293398645,
        0.06913014125344541,
        0.08536582276989042,
        -0.057553944459123985,
        0.012077399388383876,
        -0.003538881918767825,
        -0.23523443621662746,
        -0.12746449847140268,
        -0.12249639000014087,
        0.04600165675726963,
        0.0005976330313657482,
        0.10451876277361319,
        -0.22045542370818988,
        -0.21400288048651603,
        -0.06818183405859335
      ],
      [
        0.0013713637381705752,
        0.07192013801526302,
        -0.15186029264400508,
        -0.04261541719465687,
        0.09322973522704826,
        0.07274776388125405,
        -0.1299708237888771,
        0.08975157045271542,
        -0.0707038300253098,
        -0.029618541799775012,
        0.14793419197967117,
        0.27942421059735445,
        -0.03809146355072714,
        0.16215106466645557,
        -0.23264926086099255,
        0.08989803814572589,
        0.07604283096056245,
        -0.038988582238776194,
        -0.2188123532648496,
        0.05205509277480485,
        0.04706054389265236,
        -0.01158615170886692,
        -0.015460736469198535,
        -0.038130431460506944,
        0.02600020271599711,
        -0.2956374577312291,
        -0.05623016814934106,
        0.07465991343947849,
        -0.13755905724323528,
        0.07346928080529216,
        0.12185899693280491,
        0.07673280247810091
      ],
      [
        -0.0800044679749897,
        -0.025344537934636053,
        -0.0030463928474291045,
        -0.01363568552949422,
        0.17854454201292255,
        -0.15193163796860384,
        -0.05958092103929702,
        0.01791973589111512,
        -0.059355337398497736,
        0.16140695998453922,
        0.14803246673951795,
        -0.15143839105182327,
        0.02276848563136743,
        -0.13203972395670843,
        0.2163385286310481,
        0.054532538209827154,
        0.2931801627040032,
        0.06358997405963476,
        0.06329534415446614,
        -0.22801878077318233,
        -0.005815558651325618,
        -0.012138367948657787,
        -0.05305942155550934,
        0.007217391350742358,
        -0.15802033673501384,
        0.052368792076231865,
        -0.009954829556007046,
        -0.06930909099651897,
        0.005227865808548822,
        -0.13736824721869412,
        0.2685690608892686,
        -0.02581559822776588
      ],
      [
        0.08568860223555072,
        -0.11773363555039078,
        -0.15231974256612,
        -0.14492525254660624,
        -0.1152118627313332,
        0.08370078268069661,
        -0.14800160864680256,
        0.08637996248433022,
        0.12426824371090285,
        -0.11908358184437905,
        -0.20882099301495607,
        0.004552213762492151,
        -0.0404593480135784,
        0.15461886249343504,
        -0.09634609416208965,
        -0.10725341408586322,
        -0.051434798998030266,
        -0.14544814867081582,
        0.08469403465568313,
        0.015078552944421253,
        -0.030440889254016796,
        -0.12603285599316263,
        0.0554456592653933,
        0.15121400598630777,
        0.015606683905179428,
        0.1263001419520635,
        0.1377596412851651,
        0.062136254870375544,
        -0.11319666688066207,
        0.05478119666058186,
        0.02694511459057035,
        -0.008182891244574157
      ],
      [
        -0.10340905330934051,
        -0.13645855195099865,
        -0.04726457863633269,
        0.07143379737723123,
        -0.023981338332180822,
        0.15360332891567602,
        -0.07999353675793862,
        -0.0786594216788296,
        0.09815894740557876,
        0.015730481427283262,
        0.09967951039006029,
        0.08558846667570737,
        0.003452623005723611,
        -0.06496072283544854,
        0.008356268868360123,
        0.10478563792764255,
        -0.025864875866003632,
        0.188425755640506,
        -0.22602615654961544,
        0.12799649186136203,
        0.0768272771138146,
        0.20599530550928752,
        0.033367652957689016,
        0.056907140737104324,
        0.1865637097449968,
        -0.009155993065588735,
        0.12602217815741634,
        -0.04420328374452131,
        -0.05387391464857661,
        -0.1247435800918391,
        -0.061290779192056,
        0.09478051315089808
      ],
      [
        0.09815566421999516,
        -0.12356035306283034,
        -0.012018247554993606,
        -0.03064545661549244,
        0.05676255784815768,
        0.1203324219257108,
        -0.20381022946237912,
        -0.14440294335932663,
        0.07826556042216325,
        -0.12639447612756238,
        -0.24444443198606708,
        0.06817031213936207,
        0.08894113454581616,
        -0.1905863120370373,
        -0.04764064595046658,
        -0.04064108141080344,
        -0.18523748720908143,
        -0.06961721367432581,
        -0.19483694623978115,
        0.1454172729953589,
        0.024769607109035318,
        0.056018821107122696,
        0.02985720620791625,
        -0.029921575785851952,
        0.11350976538931834,
        0.06822983553176977,
        -0.16302735939917926,
        -0.12226953310525598,
        0.09649136420734006,
        0.04450498119619573,
        0.07640196552030502,
        -0.034428646571606186
      ],
      [
        -0.13674796353516094,
        -0.01944855454313145,
        -0.18834842401604615,
        0.13904255386192246,
        0.11093520736397751,
        -0.2723162686469741,
        -0.10965244057460301,
        0.03229205852732798,
        0.16151327780633884,
        -0.004402994080328567,
        0.1100861939908523,
        0.0399024638205626,
        -0.2756810815746651,
        0.07843429098581489,
        0.04670538091837694,
        0.009210514750699289,
        0.11600966465763439,
        0.054253598323755294,
        -0.1235619139587164,
        -0.02364334287954826,
        0.2411918310639721,
        0.028903199979045998,
        -0.14286805461404678,
        0.09250089759138386,
        0.1901342541423904,
        0.034848266061213606,
        -0.10752265453676435,
        -0.11252722120924022,
        -0.14976267928727793,
        0.042997990323889866,
        -0.1667273911514913,
        -0.21966109716240362
      ],
      [
        -0.1624193797621954,
        -0.06899269682352405,
        0.06560781804661929,
        0.16807127212346826,
        0.10671524251284757,
        -0.001044826365575931,
        -0.1870994148320631,
        0.048116979016547365,
        0.13587951945042606,
        -0.20267818160899118,
        0.11862576788873451,
        0.23080318909648567,
        -0.10991689026843612,
        -0.029744892548709833,
        0.11692677094575792,
        -0.15828706063703396,
        -0.022581675313225746,
        -0.16439546009834893,
        0.057552608091222535,
        -0.06017018109832757,
        0.07087613955453438,
        -0.04679931596752145,
        0.11905399370563456,
        -0.06355728222894463,
        -0.3227167065166256,
        0.010018505682336715,
        -0.15761117115643553,
        0.08892946166347017,
        -0.17943515910093216,
        0.17185379306157667,
        -0.02496854953234584,
        -0.269104328143999
      ],
      [
        0.09968715721053353,
        0.1284986287368232,
        -0.038676995601659346,
        -0.188140003164178,
        -0.0626622553241499,
        -0.06403061544490463,
        0.10121161983852663,
        0.046411348684089984,
        -0.2394424394955481,
        0.011610580966014585,
        -0.22363179054149426,
        -0.055029103375720444,
        0.21759460478339546,
        0.10236816183046571,
        0.16266163454074598,
        0.02363799101872569,
        0.12616793997246806,
        0.1136343187508168,
        0.14917979599850925,
        0.06279541906126018,
        -0.02616446914656009,
        -0.21087208700429738,
        0.05328323421335036,
        0.1669534917862472,
        0.10110134554044106,
        0.04352947673749229,
        0.12328919444975972,
        -0.09442417835488938,
        0.15786303766926954,
        -0.0052957955846944455,
        0.1437015525177285,
        -0.044658257098561326
      ],
      [
        0.07749035176837706,
        -0.08134541173255871,
        -0.1691958802512572,
        -0.18865976757656405,
        -0.1650023363203298,
        0.05675709649120408,
        -0.22371096830879006,
        -0.17980282298352707,
        0.0628150348756222,
        -0.20674368066562987,
        -0.09651668559685433,
        -0.13257791357058885,
        0.11767235062314488,
        0.008715300460469555,
        0.07703899665889145,
        -0.03345767168277293,
        -0.023918289323640287,
        -0.13539153932928935,
        -0.038611756923909224,
        0.10328106319006841,
        -0.042554449909840704,
        -0.012280996130168514,
        0.029530726210996013,
        -0.060826470988372426,
        0.10073978527803445,
        0.20274045049279882,
        -0.05003691600939272,
        0.13383732044696148,
        -0.1196840760109873,
        0.09347583968709709,
        -0.10623476628312037,
        -0.15622679288331398
      ],
      [
        0.14732705700370055,
        -0.020086844320545763,
        -0.002559090303951411,
        0.08429396762293136,
        -0.08659129855515832,
        0.18279766519039786,
        0.23478983013803054,
        0.09870974114629753,
        0.030541747360328064,
        -0.08486027358647745,
        0.05834668007086877,
        0.07762581169197354,
        0.2294739105867657,
        0.08172859995694066,
        0.027973868283399046,
        -0.1092735862785669,
        -0.10541468605404211,
        -0.01008290441733543,
        -0.01137451202833661,
        0.060935841563128604,
        -0.15641705793521765,
        -0.02839009251087523,
        0.16253512419964788,
        -0.3689490717125408,
        -0.17908784247719392,
        0.056598794782731485,
        0.004876446297577406,
        0.07178128084787616,
        0.005984989476569595,
        0.07356854933312525,
        0.10104906630616223,
        -0.004872455348440255
      ],
      [
        -0.020581382006972508,
        -0.1491414406118734,
        0.13429538711801373,
        -0.171580723572001,
        0.024033212298063263,
        0.07405770951757501,
        -0.013581788702131982,
        -0.2033327617975638,
        0.013059888288293398,
        -0.09760937759173624,
        -0.03124080139707117,
        0.061616360006233065,
        -0.10455305186994905,
        -0.11345669719003572,
        0.09997411567353273,
        -0.10667997017013454,
        -0.12004876079451014,
        0.1667935861573682,
        0.1240365696383948,
        -0.08714698665096118,
        -0.10692244300443651,
        -0.14423977367442276,
        -0.050359554478236694,
        -0.056331905408685955,
        0.07474775671433627,
        -0.011875280877287777,
        0.212974276120374,
        0.1943417230869966,
        0.04411474631903088,
        -0.05573769775575621,
        0.023594541036717587,
        -0.06395941713895319
      ],
      [
        0.12713101176066996,
        0.09828617579675558,
        -0.1877407564936874,
        -0.1456285698582889,
        0.0463323180420109,
        0.17096530238863158,
        -0.022772232805814904,
        -0.20375871273404958,
        -0.17894569485817974,
        0.11743871115114556,
        0.22102857607459478,
        0.16853579969778315,
        0.15358506299729655,
        0.00858636809842202,
        0.0501940965917375,
        0.1782515938307678,
        0.2741279739090037,
        -0.03039207114296499,
        0.05268671944677858,
        -0.2007028095085862,
        -0.016443226912734935,
        -0.2976481666979944,
        0.08634017852498745,
        0.11446543723296056,
        -0.025571951086475,
        -0.12077152289185016,
        -0.003280823635353505,
        0.024299340593721318,
        -0.022726926481159614,
        -0.019971237565558502,
        0.12276244906870784,
        -0.1267678411867408
      ],
      [
        0.03611160120630956,
        -0.04243442780307126,
        -0.021245288168221223,
        -0.026252637807404826,
        -0.06664393784700227,
        0.07670253979656565,
        0.10356285988249826,
        -0.05393030318451867,
        0.08554561707099212,
        0.14024252788723174,
        -0.06392774383578685,
        -0.13170495512668337,
        0.10757384065119546,
        -0.0008483723968183319,
        0.10856829585000725,
        0.0038349258995286697,
        0.19973990183644305,
        0.12976552523031998,
        0.02969002772810208,
        -0.0909285063536553,
        -0.15024098394920665,
        -0.001882007721517407,
        -0.12316602529732733,
        0.02951697248555851,
        0.04152813676516053,
        0.03127292387764394,
        0.0456351809309955,
        -0.11098946542615253,
        -0.047846852508264565,
        0.22603629999375377,
        0.1401011670324521,
        -0.03157105019350896
      ],
      [
        -0.09595888068075911,
        -0.05302259771687273,
        -0.07398112163125807,
        -0.0389566422554758,
        0.17003993007689502,
        0.2914187292182636,
        -0.08597804148780322,
        0.1729036145780532,
        0.0035050592776399354,
        -0.10004508238070646,
        0.107542967011153,
        -0.13727466256597162,
        -0.12883369732826744,
        0.2186915488138828,
        0.0036214759163392487,
        -0.0744179847275318,
        0.19387950383345737,
        0.2281663371036028,
        0.03104988120603418,
        0.21177589887274353,
        -0.017339727752740435,
        -0.09835944576913891,
        0.01266308320987899,
        0.2409420127513682,
        -0.06393393140038879,
        0.15250694886501276,
        -0.18244529129051643,
        -0.12948904419816834,
        -0.2601857226017332,
        0.016757594626459073,
        0.046808055760214115,
        -0.1252011319918031
      ],
      [
        -0.05335797389087823,
        -0.013260818092605042,
        0.11513037803489097,
        0.14459657853379032,
        0.1416078524471193,
        -0.02844029560605324,
        -0.16928053092477421,
        0.016534411760448054,
        0.17199069091837413,
        -0.008591489291319934,
        0.12313384993860003,
        -0.044746097320820286,
        0.012469193286440547,
        -0.14221018656532858,
        0.07303954082175111,
        0.021878058209946056,
        -0.1158370898930617,
        0.16683553721966726,
        0.15131238575867847,
        -0.05808751721440434,
        0.18871232217008962,
        -0.14845335514643979,
        0.032702056092069894,
        -0.09388979955974287,
        0.09120515903274531,
        0.16093643533810068,
        -0.26867262624335986,
        0.0839662094862449,
        0.12374051251168701,
        0.2250625986304314,
        -0.10333551133421601,
        0.03654835998035894
      ],
      [
        -0.024833486633399376,
        -0.012988879059800909,
        -0.0797588791144808,
        0.21430208546789276,
        -0.03880083500072095,
        0.08281864511141866,
        0.1613425891079383,
        0.21459219209872002,
        -0.09184917862110421,
        -0.1915230556753763,
        -0.014594776805560613,
        -0.128292932035375,
        0.15252864888105355,
        -0.07257318313320402,
        -0.1072539113923617,
        -0.2519661179812483,
        0.16938926793792114,
        0.01301628992282665,
        -0.028176939581601248,
        0.17391423877457007,
        -0.08107354101686019,
        0.09432925818116983,
        0.09792731797902857,
        -0.16692473177770872,
        -0.06387820609650982,
        -0.19783544847102222,
        0.1850602843421632,
        -0.08674279384851395,
        -0.0009736014898244888,
        -0.1652378008853685,
        0.042749113785713104,
        0.16024310361458113
      ],
      [
        0.07593334103871006,
        0.1293894623256478,
        -0.08361640791191327,
        -0.05971305897308028,
        -0.009183398202049668,
        0.16743489390782215,
        0.02236343168575346,
        0.08560902437273905,
        -0.07505523081681174,
        -0.12659622197409962,
        0.22767666096298553,
        -0.04437699832946884,
        -0.03516120690534271,
        -0.14347407037930282,
        -0.07685028281021102,
        -0.15461266594850667,
        0.11041063769679013,
        -0.03518739674133542,
        -0.22651146445885553,
        -0.04705716100725787,
        -0.053965126276398656,
        0.042636061844953665,
        -0.06789778528927382,
        0.08639284717855455,
        0.0806454964941169,
        -0.1468002780642545,
        -0.14301499530467854,
        0.010008764665200674,
        -0.04870685003554955,
        -0.037143204945142165,
        -0.260676473923158,
        -0.10144287616316476
      ],
      [
        0.1678632042574917,
        0.16246699169348067,
        0.16377173067977996,
        -0.16970302307955318,
        -0.052316970432733916,
        0.08570161507641713,
        0.10285253687224077,
        0.2954851000809041,
        0.06259166987349633,
        -0.21127823164546797,
        -0.11156694815231996,
        -0.2541269382359054,
        0.09688478042258056,
        -0.2339361405495943,
        0.11139766483532344,
        0.17956188569930132,
        0.056200222205747934,
        -0.13534953335766337,
        0.028897319792112127,
        0.10179273091735987,
        0.11166433265257933,
        0.08221221507591184,
        0.15348457239586946,
        -0.17130784655844497,
        0.007679394117965139,
        -0.0673685175037471,
        -0.024412628323649536,
        -0.02811760799068808,
        0.014995427480020513,
        0.07776320289759546,
        -0.053928109705282716,
        0.10417830277295632
      ],
      [
        0.07125618138705637,
        0.18601377917442685,
        -0.14452419302221603,
        -0.10362132773541498,
        -0.04824414672351523,
        0.06887184332379477,
        -0.15107457022236429,
        -0.0719002744163123,
        0.030521862585694275,
        0.02118773583400777,
        -0.03976853448090645,
        0.03693020310231291,
        -0.14100344460527148,
        0.2512898333830494,
        -0.06355922369852225,
        0.09696540174028671,
        0.17488448237573262,
        -0.12291778268602155,
        0.08834609399939893,
        -0.06423744015476045,
        0.03590284080483624,
        0.1477468510377397,
        0.14936176250127312,
        -0.15723007636576208,
        -0.0918430973991846,
        0.11086771052902819,
        0.003652188825163631,
        -0.33573919209315234,
        0.18487468626311773,
        0.10823613679926875,
        -0.03194942660033278,
        -0.03574940962412621
      ],
      [
        -0.12028326543142984,
        0.055090912957772895,
        -0.03460420960606563,
        -0.14189304586894952,
        0.13642949907624888,
        -0.0008699956855259198,
        -0.17200132527377007,
        0.04805803433908222,
        0.17634151286315972,
        -0.09377194871489669,
        -0.03586386025220147,
        0.08740078491882596,
        -0.03358480358717337,
        -0.1623736849020922,
        0.01358177101391919,
        -0.06407511976672382,
        -0.18591369456332257,
        0.0009604827625599892,
        -0.0429488895235093,
        0.17219611338365845,
        0.1782088498238666,
        0.12134205828401944,
        -0.00427875942307791,
        0.033673278261109045,
        0.1948655374811274,
        0.1652685401256707,
        -0.140813578355997,
        -0.16997842982019531,
        -0.0641327448467551,
        0.00839334767153743,
        -0.09814621512748654,
        -0.17506045029861872
      ],
      [
        0.09748668164739512,
        0.08858527248348678,
        0.03456139223233898,
        0.00270226502627028,
        0.15443152072786454,
        0.044267884982875184,
        -0.06970837717048521,
        0.23945875033598715,
        -0.01690147103880586,
        -0.1532085096492868,
        -0.2574730505007677,
        -0.03060686183650079,
        0.235193366217111,
        -0.1700904161817466,
        -0.22371369539999594,
        -0.16403702324902414,
        0.07442921151735778,
        -0.024941802082950784,
        0.00233736560484696,
        -0.13018913353036063,
        -0.11698474049863647,
        0.11474164785805457,
        0.16006918870592415,
        -0.08602880813865225,
        0.14925144842133642,
        -0.22810102862350198,
        -0.24869786495707077,
        0.04402333958812852,
        0.16899545073580607,
        -0.18903349758783372,
        0.0942449618320339,
        -0.11234617259081295
      ],
      [
        -0.1626589319135354,
        -0.05601974903809409,
        -0.042511425218150184,
        -0.11127643223161102,
        0.1267381406332272,
        -0.06277648135309759,
        -0.09868115932914691,
        0.14836802573057065,
        -0.0027785096361060734,
        0.1573658667233607,
        -0.10580906269229189,
        0.037375920224577475,
        -0.22261533265092434,
        0.07987636039712122,
        -0.18873967888620152,
        0.11156094831061632,
        0.05740817557781873,
        -0.1444827655449131,
        -0.15840611586720338,
        -0.036476586950775346,
        0.1313703715516807,
        -0.03534643408769005,
        0.09649056093918837,
        0.16116421352008958,
        0.03967215921397725,
        0.13040350951172666,
        -0.03441114796779896,
        -0.16557547500453793,
        -0.1855266868782664,
        -0.06742925955024831,
        -0.16047680715221208,
        -0.023936154142500967
      ],
      [
        -0.11768827629944283,
        0.12420765484759816,
        -0.15598572554850265,
        0.006115168791819595,
        -0.14729382393670512,
        0.20196888903119678,
        -0.0028492424510306027,
        -0.08715398241824644,
        -0.009063964551753699,
        -0.18078377072873558,
        -0.2139059458936876,
        0.04692079504232761,
        0.0923032472412641,
        0.18623708302412162,
        -0.14976243153673136,
        -0.04855849398999501,
        0.07056602095834943,
        0.1252432772294608,
        0.25843618158913456,
        0.2014287692438325,
        -0.06357792903096882,
        0.02407376114400364,
        -0.00117148768865119,
        0.22639114958456522,
        0.1106741198004262,
        -0.08740640136308292,
        0.05140018080481203,
        0.02748156149679208,
        0.030261455942892094,
        0.0384699064064792,
        -0.057471610794778236,
        0.15402757389087338
      ],
      [
        -0.1559494117730143,
        0.14872889521799348,
        0.042664902423360795,
        0.0924133230780205,
        -0.0970620094681131,
        -0.13378825717642387,
        0.08919421239400227,
        -0.13494818403961234,
        0.0015446387227481448,
        -0.008523672521277215,
        -0.12647750578406217,
        0.01236479145605398,
        0.03297568025271027,
        0.11380883404394036,
        -0.02272132601128359,
        -0.06975022450494671,
        -0.12566537926534893,
        -0.1676908946323658,
        0.07624384092049907,
        -0.027552879737863557,
        -0.1843506419969995,
        0.012705126248674443,
        -0.05455042757806313,
        -0.15854584562920526,
        0.08573873898359549,
        -0.13779900493393737,
        -0.13105473790309302,
        -0.10944039631443718,
        0.1351282897758564,
        0.20564222796911577,
        0.14096857954945205,
        -0.05453541122885076
      ],
      [
        -0.0420595495732619,
        0.11837108630080977,
        0.1573594640798349,
        -0.0438352029396268,
        -0.008963248432652423,
        -0.1593925527124375,
        -0.1541334699630233,
        -0.09020691968247099,
        -0.161617363057234,
        -0.06434878739443789,
        -0.10954240737301314,
        -0.1489023308835417,
        0.0336899701564527,
        -0.037678297253039575,
        0.11071791294162837,
        0.08966226298956807,
        -0.11033016879833,
        0.11913674312721168,
        0.12227054140973483,
        -0.10358689999441031,
        0.12079334612379877,
        0.2594169952284844,
        -0.015525516762974449,
        -0.020157796597288537,
        0.059737339010593034,
        0.10275470414618967,
        -0.034064725746152574,
        0.10710096099471972,
        0.002813865679993581,
        -0.04121388950903672,
        0.22666199088551836,
        -0.1397587187143113
      ],
      [
        -0.07263845407621865,
        0.0832881069515741,
        -0.14162483016887814,
        0.024785311200956908,
        0.0020855663465248232,
        -0.12978144986533882,
        0.027099735746012037,
        -0.004957147927476104,
        0.1517689682354765,
        -0.16300775208407534,
        0.232298434399511,
        0.14292664817364154,
        0.07769058964721587,
        -0.04560980671801658,
        0.12395114925523303,
        -0.2768268239812109,
        0.2495477658932863,
        -0.19188096848965278,
        -0.01205719200518143,
        -0.04349215203053076,
        -0.13934414644224838,
        0.002173077601196644,
        -0.2454429497441289,
        -0.1337587649363056,
        -0.13263076940485238,
        -0.09484620465543005,
        -0.10455247149563206,
        0.04532722139737925,
        -0.13009557376768655,
        0.06761943519793275,
        0.12674360743654783,
        0.050038965507383876
      ],
      [
        0.12742424728241972,
        -0.13114125212328326,
        -0.16902030566996404,
        -0.030973902994860684,
        0.11919373118493848,
        0.04219542488671887,
        0.0008581404868994276,
        0.026775691330150078,
        -0.07263743258792738,
        0.05322908118604681,
        -0.11343344687263572,
        -0.10100261888810454,
        0.17041987028794658,
        -0.15496010995856901,
        -0.0058184272445548505,
        0.08425943009971318,
        0.142218450855784,
        -0.06835979960243804,
        0.06347378636259983,
        -0.07352562188434165,
        -0.09740089238122802,
        0.13059024846015055,
        -0.22926392766737366,
        0.010853194383592125,
        -0.15148588458571693,
        -0.1821617095146672,
        0.14455672102667466,
        -0.048739106484339254,
        0.28013957946003615,
        -0.03378646284470233,
        0.003829399555830735,
        -0.1282902938613698
      ],
      [
        -0.028242664185274605,
        0.047825448532165964,
        0.052267891518737085,
        0.0328367575505298,
        0.025213506335927057,
        -0.11878612129043051,
        -0.20577260237894857,
        0.008519840842518235,
        0.017228090336354068,
        0.08595490111216368,
        0.06207512427791423,
        0.1567456142207698,
        0.045280549727156595,
        0.10343409060085423,
        0.11120850409395466,
        -0.0647093628992753,
        0.24042692697456192,
        0.06289379899732593,
        0.15377837696811153,
        -0.12665283971070526,
        -0.0903226840161297,
        0.170013747163725,
        0.122630805776878,
        -0.1124673812020366,
        0.10993574283746202,
        0.1219179951972261,
        -0.06368915422471445,
        -0.09211548053880714,
        -0.03254448743711874,
        0.010634019849788217,
        0.061100475691929085,
        0.028195863199889225
      ],
      [
        -0.016185640402867088,
        0.012831404584793057,
        -0.10586490626889396,
        -0.008233438875730074,
        0.024723664071417933,
        0.13402721500266931,
        0.15765091334277695,
        -0.03585749602484839,
        0.07415101565421639,
        -0.010076747534860845,
        -0.0018087279388646256,
        -0.11836643732027086,
        0.008888838984290926,
        0.24285726648437236,
        -0.09091244023960195,
        0.05901924180696251,
        0.08183747766115411,
        0.20975773436640763,
        -0.14795388981566213,
        0.03077776451793567,
        0.017620609433827913,
        -0.11328756147496898,
        -0.0861793466187845,
        -0.03757291182005516,
        -0.19122103161084547,
        -0.11597003680732684,
        -0.0242928112283536,
        -0.065170772617136,
        0.045222886501391876,
        -0.10990659266357146,
        0.16153034859149232,
        -0.1286704350474545
      ],
      [
        0.09469650617451823,
        0.13749611023396,
        -0.2106472491441281,
        -0.06590729188044792,
        -0.09052199749210607,
        -0.09971168957118023,
        -0.07312086010708377,
        0.11572116994139245,
        -0.057451205588326476,
        0.11348701237151261,
        0.09590244745794989,
        -0.26468070298058965,
        0.006024060531948515,
        0.0691767333230645,
        0.012771797429207966,
        -0.04758032941892868,
        -0.03375453948530909,
        -0.22528152320778527,
        -0.06586515407762576,
        -0.09795075739396576,
        0.04581864159158673,
        -0.035016067724787825,
        0.045835674254069085,
        -0.000030734644175338784,
        -0.0929656668647726,
        0.09288602211165466,
        -0.17634535969904866,
        0.174135383233158,
        -0.03900251359037697,
        0.2552403776352041,
        -0.10074574943891146,
        0.22642801907479598
      ],
      [
        0.0772369408280955,
        -0.08697209299107603,
        0.10318715141180707,
        0.027731002443705133,
        0.0035649450438722335,
        0.06992346678311874,
        0.021140912310565613,
        -0.06974532237368627,
        0.03604295644482701,
        -0.24279401052913088,
        0.18397050927397965,
        -0.015032582618824194,
        0.10288857541003694,
        -0.09215974184719035,
        0.034918768348111265,
        0.08693565460326111,
        -0.17078880420018128,
        0.0550395687036346,
        -0.048054022819095134,
        -0.11083483768631967,
        0.03041081714526721,
        -0.07309219689424752,
        -0.14764889509443907,
        0.18840074809400442,
        -0.06857139831762216,
        0.19677510372586518,
        0.06532210442818835,
        0.08637884506214688,
        -0.04984354945039308,
        0.033802703561786475,
        -0.080240251411565,
        -0.1284505590376703
      ],
      [
        0.07256016315116914,
        0.1275102244963426,
        0.07841896485188614,
        0.10338377963969318,
        0.11957821039049162,
        -0.09794491336456498,
        0.0976042677861771,
        0.13561301662085515,
        -0.13262200411073993,
        -0.0663757334285679,
        0.18896786830030676,
        -0.032036233937221305,
        -0.06757804261361008,
        -0.1399928559380755,
        0.04645387198700787,
        -0.05271728205743929,
        0.06624568977543646,
        0.15424474128654214,
        0.28601874829536894,
        -0.026519243661937506,
        0.02645704519549833,
        0.07427270982075398,
        -0.03956988952643067,
        -0.16148629220381822,
        0.12394404772696714,
        0.23602954102840487,
        -0.1676472805273871,
        -0.039012392485189215,
        -0.10906687083112517,
        0.06525851449581503,
        0.1654412504958341,
        0.04773724842408256
      ],
      [
        0.1454657713831927,
        -0.14126401638308092,
        -0.09280061646878894,
        -0.07938841033861839,
        -0.1496295497819253,
        0.05448350582524079,
        0.10755378475563204,
        0.11022843445675926,
        -0.0014587103758019473,
        -0.23960602460951477,
        0.03170372567085075,
        -0.18953903926931207,
        -0.01667228925261157,
        -0.0823176080766069,
        0.012790221336004751,
        0.1831994287624402,
        -0.0052899044909926396,
        0.08771722214845383,
        0.07981182730589187,
        0.03390085134222954,
        0.07573979105768305,
        0.05163500671750668,
        0.01863823419865644,
        -0.012224944158873607,
        -0.01351345095785261,
        0.0796212397026576,
        -0.12205735836692401,
        0.1650584061049738,
        0.0024364138921231966,
        -0.15171737926829257,
        0.02062367235885343,
        0.25977923581064205
      ],
      [
        0.1547341584566647,
        -0.1302227623133073,
        -0.012659272669654015,
        -0.026804515949577126,
        -0.026479811861496033,
        0.08674866981357823,
        -0.04357959522400861,
        -0.043760296436874645,
        -0.10228953803556498,
        -0.03603156081114509,
        0.11132568909381999,
        0.01111434303147102,
        -0.10542930164783276,
        0.057032488585571674,
        -0.06677742099396702,
        -0.21632033230852343,
        0.022636020459512008,
        -0.08201793386779169,
        -0.07523024261261159,
        -0.1199211635874767,
        0.05788719825803239,
        -0.15224150455847868,
        0.08702666293606187,
        0.08428022576929808,
        0.1688470557676899,
        -0.0944767164674682,
        -0.025907890345896564,
        -0.19564084792746553,
        0.13010351826357883,
        0.08331256318974953,
        0.00770860360888911,
        -0.003205679066947488
      ],
      [
        -0.10473511913873956,
        -0.1981230722873492,
        -0.06835349449494461,
        -0.15721175141069554,
        0.07029196156874791,
        0.1265069890656363,
        -0.012548650160578854,
        0.01621186083833431,
        -0.01443592694451471,
        -0.14711136181773876,
        0.15016668427691982,
        -0.2637795819114048,
        -0.16926780007864745,
        0.29897892271852294,
        -0.19272173626835484,
        -0.16189868223405382,
        -0.007611214291841249,
        0.026520552168452973,
        0.13005117881408904,
        -0.011508231084086036,
        -0.012220597548631066,
        -0.13360487430821408,
        -0.14182428429303123,
        0.14752746706700173,
        0.04565354134387319,
        -0.008694328935961651,
        -0.013298210551557294,
        0.0679967577645536,
        0.15701615364777996,
        -0.16165319082936103,
        -0.07147884485937916,
        -0.17524875057113723
      ],
      [
        -0.1813082358926532,
        -0.019448048417728948,
        -0.1425390794669182,
        -0.2641119357450126,
        0.15102949323828121,
        0.21570886233172418,
        -0.31728516366886417,
        0.000057395103737323326,
        -0.2018830430243343,
        0.04064938205946561,
        -0.13096675546127406,
        0.2284034151766735,
        0.08260999349321012,
        0.06734309803093534,
        -0.2763560805514975,
        -0.10281493458161922,
        0.0179063132716852,
        -0.07735156525725882,
        0.0790249755901562,
        0.22182136362187632,
        0.08393279602655956,
        -0.023462745436825194,
        0.052852589014935586,
        -0.13999627586438876,
        -0.1213012243206278,
        0.19618381708103036,
        -0.14191663173230565,
        -0.08242492895311042,
        0.11442326388826919,
        -0.15371664544088876,
        0.20684656004629334,
        0.0010314708157545202
      ],
      [
        -0.07566186999799517,
        -0.20391659984080374,
        -0.18423834611028436,
        -0.1442500962738849,
        -0.2868139328480486,
        0.09553773812201544,
        -0.028344146180458406,
        0.09806869451635335,
        -0.08597743912380115,
        -0.10424004710973826,
        -0.0874181183133501,
        0.08546104645830555,
        0.003141095762685925,
        0.02938879741632218,
        0.01044802221572988,
        -0.22477639393291074,
        0.009448062295035333,
        -0.1152703031131672,
        0.16037122892616984,
        0.06401508079869217,
        -0.03271307821076124,
        0.16560242485888327,
        0.20491770887624947,
        -0.045378042382273116,
        -0.18525552982122,
        -0.2522876374345044,
        0.18091756025597477,
        0.05792634312219954,
        -0.10882711517063415,
        0.0938270423168566,
        -0.09555154407153497,
        0.005457586555105176
      ],
      [
        0.03978795730214344,
        0.14705226622307604,
        -0.021486198535731763,
        0.028306582474917043,
        0.0013970258602410929,
        0.09172257250489955,
        0.25756945425193506,
        0.12834105917139063,
        0.002212151662512065,
        0.006857607400209434,
        0.03937106742707821,
        -0.1978314883084746,
        0.09091543882314483,
        -0.04082818644258241,
        -0.18412199393518114,
        0.051397005770265326,
        0.03956846761461902,
        -0.07992500711833911,
        -0.004192918108452586,
        0.12350147183051456,
        -0.07730039676134032,
        0.10264282235836741,
        0.08083972487384213,
        -0.08175895484753261,
        -0.01511213833503485,
        -0.08633284412473369,
        -0.030790864017317936,
        0.15028470402512953,
        0.06641527571183468,
        -0.06415135427209938,
        0.06023855418588271,
        0.19834765282359812
      ],
      [
        -0.029213743634853066,
        -0.06784445778134206,
        0.05251290624638835,
        -0.028139270765811908,
        -0.07625230391702502,
        -0.17608014033920086,
        0.12944456532157303,
        -0.13213853451273347,
        -0.19447778256418216,
        0.08693348638229978,
        -0.01881953983113867,
        0.0871606543706935,
        0.09018899276100364,
        0.014570590538289742,
        -0.04350458808319674,
        -0.058084207829751454,
        0.2678675072962257,
        0.1059189463525641,
        0.07335511088690874,
        -0.040130157556977915,
        -0.1996020634447425,
        0.04388769773051113,
        0.0006474573392316069,
        0.12765504549540904,
        0.04838579192932895,
        0.01693509755403485,
        -0.034053779289093256,
        -0.2557777060311461,
        0.13403888888035662,
        -0.13131295962987932,
        0.015448159069099392,
        0.13109050005546813
      ],
      [
        -0.006211838933822529,
        0.0705736642334717,
        0.04125297752564972,
        0.06106326734323216,
        -0.05204930739879147,
        -0.10874225965819541,
        -0.13295923618489996,
        -0.16763393864216475,
        -0.09100393857055718,
        -0.2991167977252779,
        0.2900321169631258,
        -0.21412974833295087,
        0.10564630002700984,
        -0.283978392522519,
        -0.002547264160589789,
        -0.11086876013970426,
        -0.0794944505849831,
        0.14686147487694598,
        -0.06821176324173316,
        0.022213795730424663,
        -0.07174922907034063,
        0.0726681526670152,
        -0.033565860109929326,
        -0.12353525130971316,
        0.005448529241137103,
        0.2774968191627301,
        0.1656285632306627,
        0.041446684523950145,
        -0.16047106523740975,
        0.11604902539742872,
        -0.06170154038871405,
        -0.11693726352345395
      ],
      [
        -0.035887252414469765,
        -0.14340067268441667,
        0.05664984219224446,
        0.21169974504263706,
        0.12581077474357882,
        -0.05295967669275546,
        0.20650960112191466,
        0.06507480218190417,
        0.006522195688136802,
        0.037953879710798076,
        0.2502988368615242,
        0.15571461614781076,
        -0.08764950363410569,
        -0.0067998392867422335,
        -0.05062941907072511,
        0.18624296140474453,
        -0.005808001066767836,
        0.133527724668047,
        0.09208744067549363,
        0.1399684671503532,
        -0.17170869248881612,
        -0.1252266332298608,
        0.0631949698560381,
        0.13767038221955658,
        0.006151293331188895,
        0.16758787329373565,
        0.0932760196100485,
        0.21615864221898437,
        0.10067695301068161,
        -0.0047162068519659445,
        0.06439451050302106,
        0.07095651706552823
      ],
      [
        0.03548973991654251,
        -0.1352779440130234,
        -0.1437570466458168,
        0.1477144611871236,
        -0.09149240676330024,
        0.01294637865605618,
        -0.07649966235304526,
        -0.03358734870406729,
        -0.09073586279597566,
        -0.15722858888001404,
        0.12119771345730652,
        0.10250065452231126,
        -0.04561382848489307,
        -0.1353495077865734,
        0.07939938127879094,
        -0.06126984097497396,
        0.012821498786596186,
        -0.20674178827716377,
        0.07867016283276371,
        0.16269494757565445,
        -0.1921768864508652,
        -0.003291057972255688,
        -0.10987777549915269,
        -0.16701515535746805,
        0.018295754988238187,
        0.14299292609571637,
        -0.07602354190055616,
        0.13223546667348773,
        0.03761948841354824,
        -0.2435053982629892,
        0.012882957083780608,
        0.07839992384974873
      ],
      [
        -0.03195772313006388,
        0.1490704610279027,
        0.009375936776300867,
        0.14573132410410083,
        0.036392314372291644,
        -0.1884399466509057,
        -0.024720594810203726,
        -0.24267576652027176,
        -0.15756330440885763,
        0.0543742690355402,
        -0.10785219601251382,
        0.06333617917264195,
        0.08550952759119414,
        -0.020602635128161094,
        -0.021948421164361954,
        0.1237086851207423,
        0.019325537759054504,
        -0.11238431030985857,
        -0.015910653094447596,
        0.2209082403417014,
        -0.021172982786516956,
        0.0039459370467622695,
        0.05543588113315394,
        0.009258427353013686,
        0.007430066832311833,
        0.07159651944298369,
        0.018046995368658225,
        0.16275698336630337,
        0.04972307350751588,
        -0.07504757823539952,
        -0.060480123033659045,
        0.036327541144349156
      ],
      [
        -0.009226852800011533,
        0.07412916744470419,
        0.14361276009260196,
        0.06327527275066837,
        0.005445008493878705,
        0.06990027003341291,
        0.15713288805878048,
        -0.13256251414982315,
        -0.04538970167097783,
        -0.038691889139469894,
        0.26030070077294015,
        0.1299103230051597,
        0.2129144678045272,
        -0.3677670681443943,
        -0.20021844592265342,
        0.027165760145679056,
        0.048798235468425114,
        0.024830962693047114,
