{
  "version": "1.0",
  "config": {
    "vocabSize": 458,
    "embeddingDim": 32,
    "numLayers": 2,
    "vocab": [
      "[PAD]",
      "[UNK]",
      "[EOS]",
      "hello",
      "hi",
      "there",
      "friend",
      "hey",
      "how",
      "are",
      "you",
      "good",
      "morning",
      "to",
      "afternoon",
      "evening",
      "goodbye",
      "see",
      "later",
      "bye",
      "i",
      "am",
      "doing",
      "well",
      "thank",
      "what",
      "is",
      "your",
      "name",
      "a",
      "simple",
      "ai",
      "assistant",
      "who",
      "an",
      "chatbot",
      "where",
      "from",
      "exist",
      "in",
      "the",
      "digital",
      "world",
      "can",
      "do",
      "chat",
      "and",
      "answer",
      "questions",
      "old",
      "was",
      "just",
      "created",
      "recently",
      "welcome",
      "thanks",
      "my",
      "pleasure",
      "help",
      "sorry",
      "no",
      "problem",
      "at",
      "all",
      "excuse",
      "me",
      "yes",
      "weather",
      "hope",
      "it",
      "nice",
      "today",
      "sunny",
      "cannot",
      "outside",
      "but",
      "so",
      "raining",
      "not",
      "sure",
      "about",
      "colors",
      "know",
      "red",
      "blue",
      "green",
      "yellow",
      "orange",
      "purple",
      "pink",
      "primary",
      "favorite",
      "color",
      "like",
      "animals",
      "cat",
      "dog",
      "bird",
      "fish",
      "elephant",
      "lion",
      "tiger",
      "bear",
      "pets",
      "hamster",
      "wild",
      "wolf",
      "animal",
      "think",
      "cats",
      "dogs",
      "fruits",
      "apple",
      "banana",
      "grape",
      "strawberry",
      "melon",
      "fruit",
      "apples",
      "popular",
      "food",
      "pizza",
      "pasta",
      "burger",
      "salad",
      "rice",
      "eat",
      "people",
      "many",
      "count",
      "five",
      "one",
      "two",
      "three",
      "four",
      "numbers",
      "six",
      "seven",
      "things",
      "happy",
      "sad",
      "have",
      "feelings",
      "enjoy",
      "talking",
      "that",
      "wonderful",
      "hear",
      "learning",
      "chatting",
      "hobbies",
      "reading",
      "music",
      "sports",
      "games",
      "art",
      "very",
      "fun",
      "healthy",
      "family",
      "mother",
      "father",
      "sister",
      "brother",
      "important",
      "live",
      "computer",
      "places",
      "home",
      "school",
      "park",
      "city",
      "beach",
      "mountain",
      "place",
      "time",
      "current",
      "when",
      "days",
      "of",
      "week",
      "monday",
      "tuesday",
      "wednesday",
      "thursday",
      "friday",
      "saturday",
      "sunday",
      "okay",
      "great",
      "understand",
      "maybe",
      "possible",
      "agree",
      "we",
      "on",
      "same",
      "page",
      "disagree",
      "differ",
      "need",
      "with",
      "will",
      "try",
      "teach",
      "would",
      "learn",
      "want",
      "tell",
      "topic",
      "interests",
      "greetings",
      "howdy",
      "partner",
      "meet",
      "too",
      "pleased",
      "mine",
      "as",
      "excited",
      "tired",
      "should",
      "get",
      "some",
      "rest",
      "confused",
      "let",
      "clarify",
      "grateful",
      "glad",
      "could",
      "feel",
      "keep",
      "energy",
      "terrible",
      "better",
      "soon",
      "lovely",
      "bad",
      "improves",
      "cold",
      "make",
      "stay",
      "warm",
      "hot",
      "cool",
      "hydrated",
      "forecast",
      "check",
      "drinks",
      "water",
      "juice",
      "coffee",
      "tea",
      "soda",
      "milk",
      "breakfast",
      "eggs",
      "toast",
      "cereal",
      "pancakes",
      "bacon",
      "lunch",
      "sandwich",
      "soup",
      "dinner",
      "chicken",
      "vegetables",
      "dessert",
      "cake",
      "ice",
      "cream",
      "cookies",
      "pie",
      "chocolate",
      "hungry",
      "something",
      "thirsty",
      "glass",
      "soccer",
      "basketball",
      "football",
      "tennis",
      "baseball",
      "play",
      "sport",
      "exciting",
      "go",
      "swimming",
      "exercise",
      "movies",
      "action",
      "comedy",
      "drama",
      "horror",
      "romance",
      "genres",
      "rock",
      "pop",
      "jazz",
      "classical",
      "hip",
      "hop",
      "books",
      "fiction",
      "mystery",
      "thriller",
      "fantasy",
      "biography",
      "video",
      "board",
      "card",
      "puzzles",
      "watch",
      "entertaining",
      "listen",
      "read",
      "enriching",
      "computers",
      "useful",
      "tools",
      "phone",
      "phones",
      "us",
      "connected",
      "internet",
      "connects",
      "technology",
      "advancing",
      "rapidly",
      "laptop",
      "laptops",
      "portable",
      "tablet",
      "tablets",
      "convenient",
      "devices",
      "work",
      "going",
      "job",
      "kind",
      "study",
      "studying",
      "homework",
      "difficult",
      "exam",
      "luck",
      "project",
      "working",
      "friends",
      "life",
      "best",
      "special",
      "meeting",
      "new",
      "talk",
      "someone",
      "communication",
      "wake",
      "up",
      "rise",
      "shine",
      "sleep",
      "night",
      "take",
      "break",
      "breaks",
      "for",
      "relax",
      "relaxation",
      "health",
      "body",
      "mind",
      "cook",
      "cooking",
      "skill",
      "clean",
      "keeping",
      "nature",
      "beautiful",
      "peaceful",
      "trees",
      "provide",
      "oxygen",
      "shade",
      "flowers",
      "colorful",
      "pretty",
      "mountains",
      "majestic",
      "ocean",
      "vast",
      "mysterious",
      "river",
      "rivers",
      "flow",
      "through",
      "land",
      "forest",
      "forests",
      "full",
      "seasons",
      "spring",
      "summer",
      "autumn",
      "winter",
      "brings",
      "growth",
      "has",
      "fall",
      "harvest",
      "snowy",
      "months",
      "january",
      "february",
      "march",
      "april",
      "may",
      "june",
      "bright",
      "dark",
      "black",
      "brown",
      "gray",
      "navy",
      "rainbow",
      "indigo",
      "violet",
      "course",
      "certainly",
      "why",
      "question",
      "timing",
      "depends",
      "context",
      "location",
      "varies",
      "by",
      "situation",
      "which",
      "several",
      "options",
      "amazing",
      "truly",
      "absolutely",
      "perfect",
      "sounds",
      "excellent",
      "indeed",
      "fantastic",
      "news",
      "much",
      "done",
      "appreciate",
      "makes",
      "sense",
      "clear",
      "got"
    ]
  },
  "weights": {
    "embedding": [
      [
        0.1392490994176473,
        0.09403973595350229,
        -0.08116094712622691,
        0.1392602427925119,
        0.1346421221504974,
        0.0015691489913203102,
        -0.0019749119554573064,
        -0.13431088453168952,
        0.1101259508485366,
        -0.12728200953164856,
        0.07936653370870031,
        0.0727903123639245,
        -0.03947054755892539,
        0.006299661016944693,
        -0.1356279694096771,
        0.1361541500946086,
        -0.022117125000662766,
        0.16872809986068155,
        -0.02297226711801673,
        0.08097607356837021,
        -0.15373835247764303,
        -0.10261806678347574,
        -0.0596160662825061,
        -0.037311255363439884,
        0.10220222917062399,
        0.07356231316482924,
        0.10022106348451125,
        0.06290230909611903,
        -0.15630418306226232,
        -0.07444840767989433,
        0.122737802003679,
        0.05066545204801139
      ],
      [
        -0.16604482289310452,
        -0.11730456145947889,
        0.03456744208687516,
        0.009439722658468621,
        -0.08331971027472641,
        -0.12357502806195607,
        0.12380563989847372,
        0.05662603317488784,
        -0.11583680468358037,
        0.027120404904942785,
        0.07451706288345203,
        0.16351273702550537,
        0.12898754790458508,
        0.14817579126161748,
        0.09719733143179425,
        -0.03833794148392234,
        0.08473333590713457,
        -0.12799799897857353,
        -0.149056353119954,
        0.03868421807246501,
        0.03131528209098259,
        0.0208691183452538,
        0.16664298624690832,
        0.1333920187280343,
        0.12432383633707388,
        0.14786917577349837,
        -0.04356469724437865,
        -0.008660547327207455,
        0.14255969186918824,
        0.12818037835893076,
        0.1399354973334991,
        -0.15777478004285658
      ],
      [
        -0.0002170593856995287,
        0.14083926028957097,
        -0.11575852325211174,
        -0.12781057450891106,
        -0.06646818258390212,
        -0.15505326603341021,
        -0.06390878074329577,
        -0.03135981714843876,
        -0.032679388652992754,
        -0.17495017727129072,
        -0.06866635562618346,
        0.08094095565027648,
        0.11587589650343885,
        0.14878619394114642,
        0.01956683090156649,
        0.11900759906622208,
        -0.06857220235199525,
        0.12017205783274805,
        0.15239826121573433,
        0.1763490218265284,
        0.03288282470706408,
        -0.12726134295321206,
        0.0655015176117271,
        0.09188579031409651,
        -0.007495138794738768,
        -0.17293274551437485,
        0.0489087985341817,
        0.17377737219110706,
        -0.13178343860051117,
        0.12267173310946328,
        0.027074731772563976,
        0.10016036345915329
      ],
      [
        -0.11900511582312304,
        0.16342091793317684,
        0.008196509040070635,
        0.11734162069364211,
        0.07246953962281995,
        -0.12633826420168706,
        0.13303647179466288,
        0.1043317650366901,
        -0.05976500318988476,
        -0.2922432963752464,
        -0.15975067226372217,
        -0.0393994959551208,
        -0.25945388041842754,
        0.1795582415185368,
        0.009832643568597515,
        0.14412686306914016,
        0.054550088488647536,
        -0.1918552315959958,
        -0.20742697306415928,
        0.10645074630739881,
        -0.00914916678462405,
        0.06966130184040521,
        -0.10719299902296343,
        -0.009982072365270793,
        0.26000056020130424,
        0.04262139785341336,
        -0.0683407558872876,
        0.12992723236489057,
        0.04902115334479704,
        -0.10650658245958941,
        0.21666981160799575,
        -0.1658661449825189
      ],
      [
        -0.04016698012960667,
        -0.0022772430082156317,
        0.023630398485603082,
        -0.024687923563644243,
        0.1492143504634379,
        0.13912134046849997,
        0.17823983682068356,
        -0.10777814942006898,
        0.15620005921616525,
        0.24396271141237863,
        -0.23137951064160656,
        -0.14415905156841216,
        0.07733825462352276,
        -0.016542413218585374,
        -0.11904734124359913,
        0.015083983516093274,
        -0.30136095947466796,
        0.10834828362930621,
        0.1620018751330057,
        0.018074334489540857,
        -0.017699328822024678,
        -0.15680564604519137,
        -0.06735465197204168,
        -0.10903879859343317,
        -0.071762446829874,
        -0.07960848206097007,
        -0.22795334935747524,
        -0.04919696660414967,
        0.14670495308078063,
        -0.17653505776745193,
        0.00490718711491965,
        0.11358569957223243
      ],
      [
        0.029448712536822692,
        0.08212903002918066,
        0.1420036817532176,
        0.1445676820006411,
        -0.029870382285620077,
        -0.02816299150919366,
        -0.09726939585153133,
        -0.16914982932114378,
        0.14660325380328923,
        0.11325567276672807,
        -0.10847553411293483,
        -0.059402075249925065,
        0.00996241435368536,
        -0.004872062467627505,
        -0.06589994123755892,
        -0.10783814394342159,
        0.14324809859473595,
        -0.08280626849661502,
        0.15563816782651438,
        0.14724112659138347,
        0.026480423859241,
        -0.14699360699438999,
        -0.011898605570363638,
        -0.1692709145738231,
        -0.11028299235489285,
        -0.018197269379170714,
        -0.10526093472132847,
        0.07403017887291483,
        -0.15001190464171157,
        0.06683799337917441,
        -0.16678234392563937,
        0.030350499222549142
      ],
      [
        0.06493308832642787,
        -0.0432807094684796,
        -0.2549040571708216,
        -0.03607842657149536,
        -0.061590273755845026,
        0.007545219991037006,
        0.1945784930362245,
        0.09573132812696412,
        0.09507686410501835,
        -0.07049698810984525,
        0.05357629835288349,
        -0.1360088421844132,
        0.12506096804041333,
        0.07479297058061549,
        0.10074474897157011,
        -0.03254887466082013,
        0.1478881211302422,
        -0.22006862166545868,
        -0.16319030756239344,
        -0.038416176510637015,
        0.1210584365948102,
        -0.04248431869364886,
        -0.29253903261383024,
        0.22877186939187993,
        -0.013674633217126125,
        0.16243546343116014,
        0.04918517535178858,
        -0.13063912176589218,
        -0.07307126692531238,
        0.15289231275909765,
        0.24370239874399333,
        -0.085798994905406
      ],
      [
        -0.04589512062092307,
        0.07001599213500861,
        0.17299484859881917,
        -0.031114298267340523,
        -0.11463024224402536,
        -0.06047937947907723,
        0.19530930274145156,
        0.006241049388469742,
        -0.11567392116024665,
        0.06502665580941926,
        -0.08532430865044423,
        -0.06906905935245178,
        0.16353721678272556,
        -0.06041182593984079,
        -0.08561831148431213,
        0.0758316235403752,
        -0.09597890559323882,
        0.027202573053564317,
        0.08342245058256817,
        -0.1804355922849729,
        -0.16015016338522545,
        0.09356800787113553,
        -0.16104979438873512,
        -0.029548571323710512,
        -0.05266062966574622,
        0.02101337211992674,
        0.09785501523803404,
        0.07424663519459658,
        0.156888026030583,
        0.09006549989433432,
        0.10600155476312391,
        0.04232124574178439
      ],
      [
        -0.040957131949634476,
        0.008086247794180072,
        0.23348967828129752,
        -0.22785857582616523,
        -0.2463522430388699,
        0.23513921465327603,
        0.04249263002989311,
        -0.07377965946799413,
        0.09688766843520483,
        -0.19065271449475515,
        0.12809871909500575,
        -0.1483656076021436,
        0.25331376484085316,
        0.09986943862404249,
        0.04015798126139387,
        -0.4074421172890353,
        -0.03776899132105827,
        -0.017447785224847263,
        -0.09833761290863914,
        -0.10414712928044809,
        -0.23173882711427732,
        0.004136603782027411,
        0.2843443588275582,
        -0.06356062645377289,
        -0.1844523660610568,
        0.1651359858065811,
        0.11671208692174229,
        -0.021328907211659084,
        0.09628332912263537,
        -0.0730527869206628,
        -0.05749558412263255,
        -0.19194221467680345
      ],
      [
        -0.19878053998666853,
        0.22052685548498585,
        -0.010048974272345744,
        -0.027989933698252575,
        0.09982279450324683,
        -0.19760303508700897,
        -0.08669613944263153,
        0.03979329218486948,
        -0.05381266192379492,
        -0.024455011446764603,
        -0.3474962794523213,
        -0.05912569159622632,
        -0.29241163844279655,
        0.008617876903226664,
        0.3364927000265599,
        -0.14150807503458268,
        0.3911421121995728,
        0.12155714920989948,
        0.23257349598376278,
        0.18224972111932186,
        -0.18335608778694354,
        -0.06651718442955329,
        0.30034603651099123,
        -0.19660991988338883,
        0.2702517843360879,
        -0.13568445301173207,
        -0.2370607827092859,
        -0.11049743134615118,
        -0.002523162904278525,
        -0.024343693336708053,
        -0.049817196470647,
        -0.2031180125772156
      ],
      [
        -0.11592106793119356,
        0.16402576417287074,
        -0.1659855868295959,
        0.31076286551729815,
        -0.3384848916570945,
        -0.070021261798642,
        0.0911948125307044,
        0.45010136432941755,
        0.008121179074260295,
        -0.1268359739348541,
        -0.1212172778841071,
        -0.3469058818369998,
        -0.005882993800472563,
        0.14486088715809514,
        -0.02429335036331172,
        0.08564788440695209,
        -0.1640164088247588,
        -0.03376603811713008,
        -0.429081792580192,
        0.17831558172561782,
        -0.2605813362748822,
        -0.19189846907206057,
        0.019723671395547416,
        0.3302553736764777,
        -0.2153356656382987,
        -0.07052938828022459,
        0.10316544684426743,
        -0.5425860167728289,
        0.019644193975277457,
        -0.48924172289170426,
        0.1456501945978577,
        -0.1347956568559309
      ],
      [
        -0.029637020586511707,
        0.12488182746533154,
        0.31722112128493773,
        0.1454211799444695,
        -0.13955525579283928,
        0.18606434404844593,
        -0.3682642344401148,
        0.04217964128596554,
        -0.046114778409418584,
        -0.10310972637551565,
        0.10141074493755071,
        -0.045739195261554774,
        -0.3311025347181054,
        -0.08343791375677247,
        -0.08267710295727862,
        0.3222556272360671,
        -0.15041504912006867,
        0.07999737811859407,
        -0.18607534108992202,
        0.26701374028093566,
        0.3041353418327588,
        -0.06455948992316325,
        -0.12544072389965677,
        -0.1040145984959198,
        -0.0033536869080141828,
        0.2197788526296687,
        0.09818477395876722,
        -0.1778956083037934,
        0.2205942216142574,
        -0.2593636017045939,
        -0.342160321171185,
        0.17736615744302558
      ],
      [
        0.1781857312107119,
        0.17155609965193114,
        -0.03957473583701247,
        -0.08991125710788142,
        0.19252361127498654,
        0.12117579969324811,
        0.16081335316078277,
        0.018367729411473833,
        0.06277161661441077,
        -0.018033218081728853,
        0.0013208812656441196,
        0.0168763600712553,
        0.15276278525474693,
        -0.10511822130037807,
        0.02753821156303368,
        0.028549944352467396,
        -0.3286193685577215,
        -0.30613420842460715,
        0.10652116993442251,
        -0.06905492777353776,
        -0.016123044909164608,
        0.10563851035320254,
        0.1598273916881435,
        -0.1775842374917779,
        0.04852457227448473,
        -0.1540948608435053,
        -0.07594329604808388,
        0.1846360085569825,
        -0.11950063316002364,
        0.23252992891149757,
        -0.11692146847107024,
        0.00671312213306071
      ],
      [
        0.16448470733298418,
        0.1363392360257745,
        0.1788058884552114,
        0.06303588730549688,
        -0.028015874795871948,
        0.07704640728464471,
        -0.294461274704575,
        0.17227362504912594,
        -0.3423174289556826,
        -0.11945375590626166,
        0.06420762719688064,
        0.13941221636662593,
        -0.039499246596962835,
        -0.4248320142118036,
        0.002411613811856807,
        0.012130055724388458,
        0.032457755131394185,
        0.04350207645819251,
        0.18318558475785152,
        0.03367775264391558,
        -0.1621097528567992,
        -0.1755919752183052,
        -0.19967339740550405,
        0.117237333849637,
        -0.2741203071868325,
        0.0053190348430061166,
        0.1308926677711958,
        -0.31648830371052333,
        -0.19119897669361016,
        0.18804411493876505,
        0.14093078268097534,
        0.2632416100131605
      ],
      [
        -0.03536421732692715,
        0.08650122111776316,
        -0.19597915466323818,
        -0.2351645640852887,
        0.12966089909696676,
        -0.12873895571412586,
        0.026062589714902724,
        -0.20378940887132968,
        0.1614916087263689,
        0.1031511446147361,
        -0.11010255272646705,
        0.13800690418644307,
        -0.21477557657318241,
        -0.16092434333654804,
        -0.20145561625078373,
        0.2126764033323539,
        -0.05803143131824316,
        0.019645546528433425,
        0.08839024389555557,
        -0.12784601430421322,
        0.13974458530719053,
        -0.2592303561861758,
        0.12732976237275953,
        0.15127640515628007,
        0.15538575544538027,
        0.11363949178137826,
        -0.23200797071290588,
        0.12149690689598418,
        0.2525339894435793,
        -0.08319786366895875,
        -0.14913155052735308,
        -0.12123755662667031
      ],
      [
        0.15549613737376455,
        0.1981757476093184,
        -0.14469586944159332,
        0.027674712667367193,
        0.10321397802486032,
        -0.19528086073374518,
        0.047249763888827304,
        0.12487079410334762,
        -0.23109253679056746,
        -0.14266630685197276,
        0.0696414684754893,
        0.19117677199015862,
        -0.007530844374265944,
        -0.019619943901409257,
        0.03974395900444439,
        -0.09391217536322678,
        -0.15676936146355944,
        -0.19079237577918712,
        -0.08375003482995151,
        -0.07605377877378491,
        -0.09275372337809404,
        -0.2885792256848293,
        0.16905307489529192,
        0.21408896382771395,
        -0.07013515720597321,
        0.12586329857119202,
        -0.0007606304598128207,
        -0.10108775080185309,
        0.15455681022478743,
        -0.19317930638797953,
        -0.018664036907125967,
        -0.08327806629458948
      ],
      [
        0.16911705007299235,
        -0.012386613221290935,
        0.04860434765944716,
        -0.2108050159358563,
        0.2987386089281171,
        0.03757077779295022,
        0.11721771113596532,
        0.0752847979610319,
        -0.08660607282485097,
        -0.12069001473059533,
        0.07812279897855123,
        0.0412333342770761,
        -0.14974424814735726,
        -0.23019300582026547,
        -0.0017051316214810187,
        -0.13898175083491396,
        -0.02902917754828633,
        0.08861891674094957,
        -0.07507796679545846,
        -0.15434905860488418,
        0.019031969344680502,
        0.1669947448716296,
        -0.02697649840317141,
        0.14936412743751287,
        -0.22271391257462114,
        -0.07709893345899112,
        0.28396014303451816,
        -0.157181684439623,
        -0.12130297758761419,
        0.09132451945955118,
        -0.05819058023807897,
        0.10414976213569431
      ],
      [
        -0.15351957737869584,
        0.09436669870867256,
        -0.02299819334807853,
        -0.16904228345798042,
        -0.11069153988349387,
        0.15053606355778784,
        -0.07688866862456599,
        0.4097096565867187,
        0.10741386648106332,
        0.09539841695350981,
        -0.007704262405905311,
        -0.07017699615802084,
        0.09271073817576334,
        -0.14394988000077152,
        -0.04986882072574416,
        -0.2802420981421591,
        -0.02253806040973282,
        -0.08772584186519423,
        -0.29306817798091317,
        0.09628526313883118,
        -0.12067379905140763,
        0.037803902182375816,
        -0.02258222242677422,
        0.32987439806440805,
        -0.36682360641803013,
        0.06408356738173639,
        0.08635305248617806,
        -0.16123846055032912,
        0.1088603279600672,
        0.20179560484542872,
        -0.16149519990729777,
        -0.1987956240030474
      ],
      [
        0.15485503067359427,
        -0.032635578049788096,
        0.1684375780545915,
        0.1754862613173706,
        -0.13868023837276716,
        0.017158842238185153,
        -0.1359978263928015,
        -0.13837895480297216,
        -0.09792026848256201,
        -0.08412071025995453,
        -0.10039356970014622,
        -0.13568046604071396,
        -0.086454927500593,
        -0.16710625440391705,
        0.16032706258124574,
        -0.08351154888421193,
        0.0959666649599628,
        -0.14593761168653047,
        -0.16118704617059826,
        0.08380991996922282,
        0.07261872552366216,
        -0.167328043752895,
        -0.03962601108410983,
        -0.16462999770454856,
        -0.07698968443235724,
        0.07417963171948347,
        0.055801429991541474,
        0.12719841991935696,
        0.05520789666207209,
        0.11606119655211557,
        0.16326595497557694,
        0.04082941173087432
      ],
      [
        -0.14071913101189867,
        0.16062489633789204,
        -0.1862269643305453,
        0.13896225290641473,
        -0.013549530988958652,
        -0.1446884318754068,
        -0.2135798763761154,
        0.06335251786613703,
        0.0772804681858145,
        0.040884500297339615,
        0.11017972526799492,
        0.13303210319531864,
        -0.0015636757566972472,
        -0.11453109601834097,
        -0.1614354772584665,
        0.12516011427512058,
        -0.20176736118075297,
        -0.06357238376604361,
        0.059736861596505805,
        -0.14519874548356104,
        0.02894415525200093,
        -0.1586657622449996,
        0.10455083575722032,
        -0.1252659902980899,
        -0.20800585100473404,
        -0.1425838717924438,
        0.028515907257144698,
        0.013015222924511594,
        -0.025342198382429144,
        -0.12673196442065837,
        -0.11871321098010915,
        0.14058572646337167
      ],
      [
        0.21630781826658727,
        0.12474022445478582,
        -0.012203670989595933,
        0.21286979565585412,
        -0.04182088787310939,
        -0.17968999181492046,
        -0.38625071624508395,
        0.39970303154501063,
        -0.29345086339097515,
        0.026800946057120564,
        0.2498488963101616,
        0.0373894666462444,
        0.016494424183317747,
        0.06497272286460357,
        -0.24759689570787624,
        -0.3854132155087612,
        -0.10039777913691254,
        0.05475777690310042,
        -0.010550151606321322,
        -0.09334962828671292,
        -0.31037542226136133,
        -0.08058382644380392,
        -0.22873410391648807,
        -0.1619334762014088,
        0.48933171638909645,
        -0.14210974805816837,
        0.12273735242707261,
        -0.24546061069678765,
        0.12314543338175332,
        0.019950944788404576,
        0.30611857058459707,
        0.1213805845417245
      ],
      [
        0.11195261694502513,
        0.028203712039626985,
        -0.305539141953657,
        -0.17217400792272974,
        -0.04668604034076156,
        -0.10908873578455136,
        0.16177311756279272,
        0.12059746105378435,
        0.20251435804053583,
        -0.28713651444802757,
        0.17541095050426825,
        -0.08897418296841024,
        -0.23307133591822393,
        -0.1948767071040008,
        0.17974312107783938,
        0.1938161948656826,
        0.14560017841287715,
        0.244724326834591,
        0.1368605001539098,
        -0.13244504428733733,
        0.0980748506676733,
        -0.019535885018604773,
        -0.2654795892626776,
        -0.1530974181297341,
        0.3600634242526045,
        -0.4096256535180432,
        -0.11389379097349783,
        0.2320886055165466,
        0.008451132204709187,
        -0.008531659418389053,
        0.04250232901358194,
        -0.04126054895341253
      ],
      [
        0.0939890256139866,
        -0.10519992383641998,
        0.1375423659459052,
        0.14215386903512137,
        0.01259375433152932,
        0.11533357542322638,
        -0.11031940058896485,
        -0.07677374370647483,
        -0.0046503981735899706,
        0.031700652377317166,
        -0.16387104002037825,
        0.12413950776650952,
        0.11427806120341208,
        0.13986604185866922,
        0.15005516584232034,
        -0.03050869698075098,
        -0.05594147742390695,
        0.13492815676992279,
        0.12805082555747546,
        0.16165414395663072,
        0.05823090835455383,
        -0.1201607718121981,
        0.17411341433427502,
        -0.018626856920768483,
        0.15823496868321435,
        -0.07774897507629594,
        0.04009948766680234,
        -0.007759587648534621,
        0.02347092527527682,
        -0.003268926817772376,
        -0.017963424168760077,
        0.10559917180962465
      ],
      [
        0.059203115975421876,
        0.22856777274687104,
        -0.07820743522128001,
        -0.07827903585888847,
        0.014370183134500506,
        0.04241060633903969,
        -0.1436922440618435,
        -0.07228979326848399,
        0.03018984750522322,
        0.10736288262147954,
        0.023894219693182134,
        -0.04268760241647439,
        0.1614815628187549,
        -0.03440080069415982,
        0.18312180731211467,
        -0.10733950226512853,
        -0.21142316726025892,
        0.08191997279518762,
        0.07164874994792181,
        -0.049148355647264094,
        0.12816004669192577,
        -0.04447026760184585,
        -0.00042882481433069306,
        0.13696276126367954,
        -0.029442311748365663,
        -0.026203356510641696,
        -0.049321025964834696,
        -0.04005228513875811,
        -0.10747140289856857,
        -0.04933683151962344,
        -0.19896239825121365,
        -0.2420830345093175
      ],
      [
        -0.2184801777163058,
        -0.25149863685963875,
        0.34805334334762544,
        -0.14543928266698883,
        0.3162200499928939,
        -0.40412744239864695,
        0.16493480404916225,
        -0.0748077569342404,
        -0.16930163653186606,
        0.17019045961260484,
        0.1315741139220286,
        0.26676375915324296,
        0.26395955430798784,
        -0.08413127237891858,
        -0.19392978664645197,
        -0.12855176653303937,
        -0.24443543570429363,
        0.45276972524538067,
        0.21977567061387154,
        -0.33908231963090835,
        -0.2724681877431459,
        -0.12878890971659324,
        0.0021001430823944876,
        -0.07836083916696616,
        0.015301129032711386,
        0.158977001636587,
        -0.05976455102941905,
        -0.20185493310596783,
        -0.11632144986548647,
        0.2398942247995806,
        0.34597075531093296,
        -0.17703650384289335
      ],
      [
        -0.1324384492614358,
        0.0382380873258211,
        -0.06783645730342631,
        -0.038405004077796054,
        -0.07375834519312997,
        0.37328301896621224,
        -0.20518908196132413,
        0.2567492356670787,
        -0.13879134590331937,
        0.14314238981236305,
        -0.4574691009992749,
        0.2478623325895494,
        0.37503868142629404,
        0.008311711638738329,
        0.16153772730587213,
        -0.2564340780430563,
        0.009976263902578863,
        0.11127139786637884,
        -0.14366286791099234,
        0.07630246899549022,
        -0.2144504770759125,
        0.1508996500843775,
        0.2440168930317271,
        0.14283759949274916,
        0.0019290714481360728,
        0.09829920757550137,
        -0.2566673787156071,
        -0.01022491682794188,
        0.24305267140274253,
        -0.10477850918353622,
        -0.06377718965994578,
        0.1719748739306684
      ],
      [
        -0.02168119086370212,
        0.09528741407855522,
        0.1652446947230049,
        0.03207056159023765,
        -0.12515180321545313,
        0.11042477350905329,
        0.25141053637043964,
        0.1323874751712886,
        0.08271157429011006,
        0.15061275698170482,
        -0.06437887961199519,
        0.03980443140825559,
        -0.04291679215531409,
        -0.25708296279828896,
        -0.024175427790456058,
        -0.4109672391119254,
        -0.01794431612519133,
        -0.10690931750016786,
        -0.19294619633779936,
        -0.1009098384877977,
        0.04044395771031764,
        0.11608079701893038,
        0.09111850185562936,
        0.15423196384579024,
        -0.0710876933865482,
        0.011558264742287185,
        0.03315407651081011,
        -0.10217997090633028,
        -0.2028673274455337,
        -0.10499850788769363,
        0.03948085393542737,
        0.11399752336872539
      ],
      [
        0.10007946359013782,
        0.11332040250643084,
        -0.1720928857929883,
        0.16082579306288056,
        0.18648999890171064,
        0.12289446936438829,
        0.04817177675232964,
        0.14182682875560448,
        0.03688449681897792,
        -0.16877586755127952,
        0.20506774404070122,
        0.008116091619911885,
        -0.24075414664661268,
        -0.1063835716241954,
        0.2001611860026551,
        0.18659129209853262,
        -0.108589129453806,
        0.17662459565566094,
        0.18484760792819172,
        -0.012838860582933846,
        0.018780265158313672,
        0.0769731546270936,
        -0.13996289174607643,
        0.21571340132652334,
        0.03429759631789931,
        0.16243424440287657,
        -0.11431648182783455,
        0.039260596136302464,
        -0.0814652065675623,
        -0.14957991464786294,
        -0.04126191926263792,
        -0.1519873901143946
      ],
      [
        0.2182132468899261,
        0.13270271307732284,
        0.03978861774762589,
        0.12405430319050974,
        0.11207818530923214,
        0.15194639836776105,
        0.08029011438484526,
        0.10304889639548917,
        -0.15783441253917802,
        -0.2969999077070804,
        0.18357088676822358,
        -0.0028162440868368783,
        -0.03213014073960963,
        -0.12044710240677457,
        -0.03050527639258023,
        0.07325563797007698,
        -0.22740346682229629,
        -0.1853937833007535,
        -0.02825024246248561,
        0.23031268840318234,
        -0.2726643602769068,
        0.0987831507196184,
        -0.06393803092562787,
        0.08675632897258014,
        0.20717729169705068,
        0.11115041018860371,
        -0.0765799910964926,
        0.029995207013009652,
        0.11591098491361043,
        -0.26702201475095977,
        -0.07549867614110185,
        -0.15899420536403033
      ],
      [
        0.08534860654277363,
        0.0015615259676900022,
        0.12136209655725118,
        0.10875846870083028,
        0.28516477235737775,
        -0.10615577957737819,
        -0.056792927961032275,
        0.1180149127215903,
        0.06437691963259509,
        0.07345905093826666,
        0.014413561006046252,
        0.08063723258188168,
        -0.07458788235384756,
        0.16104054847362817,
        -0.13397742342105443,
        0.002646199358181107,
        -0.08407429489563321,
        -0.18026931496682752,
        0.08864690713662135,
        0.2318231358996245,
        -0.1930971153416359,
        0.19974217406776695,
        0.074442094127473,
        0.038504012512406385,
        0.11758077791137878,
        -0.06697857548794264,
        0.1611191197344204,
        -0.1284710551423028,
        0.09966744022751865,
        -0.12921556739563517,
        0.10096622174748962,
        -0.08271909750410235
      ],
      [
        -0.0003502449082206317,
        -0.09131667792179293,
        0.08735848893104962,
        0.11047571137605616,
        0.09872796921970671,
        0.1586315910016255,
        -0.11932674291336234,
        -0.09278135983588479,
        0.11295050964053711,
        -0.16016983054250458,
        -0.030789549676253823,
        0.048283968223145526,
        -0.1762172045842856,
        0.12182906829606954,
        -0.06616652577567167,
        -0.07187197700063713,
        0.06435932122589119,
        0.10122594779948219,
        -0.09986715504669438,
        0.15821155848770602,
        -0.007361800634567551,
        -0.1706698467290167,
        -0.010405339295019722,
        -0.06628088534881173,
        0.08489890816058174,
        0.1072111356016107,
        -0.15732506089547807,
        0.15858270971845584,
        -0.16082580044328074,
        -0.11078173372326211,
        0.05649833720452657,
        0.12354667415067654
      ],
      [
        -0.05398125527940754,
        -0.08008551206702312,
        0.008478327347425992,
        -0.07816046535488076,
        -0.16163435276178298,
        -0.11607708224290886,
        -0.052848292790550914,
        0.07793233786940124,
        0.07536823113348769,
        -0.08332089288027764,
        -0.003213506124602835,
        -0.036455112270517454,
        -0.12423781454285582,
        0.004614943062715678,
        0.12090866412864217,
        0.054164767488649006,
        0.05179817474700423,
        0.010197241300806575,
        0.049961317887440036,
        0.09720951003751724,
        -0.17662221090942465,
        -0.006092253539064138,
        0.0016105144908201393,
        -0.15477991964281296,
        -0.017648698115775713,
        0.1562380114795624,
        -0.02669341432409038,
        -0.07547017709861985,
        0.16247364864258235,
        -0.15703394406695484,
        -0.12933641965020606,
        -0.09397368622489514
      ],
      [
        -0.14929790829696798,
        0.04421082964397363,
        -0.1333970652037106,
        0.15369507119724946,
        -0.02905276656428273,
        0.17105389057397544,
        0.006440800638120825,
        -0.13965289146815987,
        0.10253440334787738,
        0.09995631293975385,
        -0.035094484050618255,
        0.014503242338050166,
        0.14067834262748288,
        -0.018291895965294246,
        -0.09945368121020051,
        -0.09577110580038468,
        0.09820737439519611,
        -0.008485318922790159,
        -0.027353986447624754,
        0.0964733697265383,
        0.011861730265103653,
        -0.04596914291296752,
        -0.1509670287253206,
        0.07353284683765775,
        -0.11965319353475155,
        -0.14417482052310296,
        0.15596196019269704,
        -0.047525767138539364,
        0.07786424090278721,
        -0.1703698736100899,
        -0.15881237264294665,
        0.1738375407738464
      ],
      [
        0.07105186185154187,
        0.04814374728100383,
        -0.2583804571212989,
        0.0075088882366491925,
        -0.03367337692851474,
        0.21321519017948812,
        0.03601707421410122,
        0.19183582959023499,
        0.022162660427421276,
        0.2232192623130979,
        0.2958753996323441,
        -0.14167926074397622,
        0.16867734135991092,
        0.012646407131004114,
        0.09813602128341982,
        -0.1435999849109454,
        0.08275808033187654,
        -0.15358802487052806,
        -0.019250806777785935,
        0.0985894146504211,
        0.07659456402946405,
        -0.08079219153950265,
        -0.05310960464905483,
        -0.04419992929196892,
        -0.2181078277717095,
        0.1544622128609772,
        0.08459085177441802,
        -0.07540781128928706,
        -0.02893702799449191,
        -0.12691280461602653,
        -0.11949170599352409,
        0.04609672745971493
      ],
      [
        -0.09688792859220959,
        -0.005332820172878581,
        -0.1596168045435172,
        -0.14050021097471155,
        0.05154663680175544,
        0.15063925640290665,
        0.0985755595258584,
        -0.005084581623253774,
        -0.003698648322552321,
        0.06877411854480402,
        -0.07727002933159392,
        0.07438536478947415,
        0.08481670792079248,
        -0.03600076632265397,
        -0.035899263348016595,
        0.09892205752292248,
        -0.011483927306806528,
        0.17170956085859215,
        -0.007030771138483262,
        0.17400467521618404,
        0.003454609505039381,
        -0.009687831215518463,
        0.05622146502604671,
        0.08123617144767785,
        -0.1683287776095011,
        -0.14341857551503526,
        -0.15404188206552877,
        -0.10976488268180849,
        0.007664178767329584,
        -0.14984959428646072,
        -0.004147717122749777,
        0.027288524361381912
      ],
      [
        -0.11121694575519908,
        -0.052350520417758915,
        -0.11664956411678358,
        -0.039624567255344016,
        -0.16474906993888266,
        0.08574088643346381,
        -0.04572663714384856,
        -0.048134114264440475,
        0.14215347629419403,
        0.16869985268929893,
        0.10534675653928885,
        -0.10530183488192883,
        0.013806863461449593,
        0.15089862900832013,
        -0.11378404561955707,
        0.13583942487398762,
        0.16527238511043063,
        0.04260311105692388,
        0.1391671890930358,
        0.10984061767368715,
        0.06205569337835627,
        -0.06595239162086965,
        -0.016766119227244407,
        0.07373117365494498,
        0.15591747027366143,
        -0.0836890150534655,
        -0.06317555993793625,
        0.16881839747980393,
        -0.001605464557951916,
        -0.06497860436686258,
        0.10601057242333939,
        0.0394553930147351
      ],
      [
        -0.21805536575651877,
        -0.11105535782486095,
        -0.1714860797409134,
        0.10591487190705383,
        -0.11096747663497625,
        -0.024344969321594814,
        0.17250495539153848,
        0.09748485547733335,
        -0.2399807351073969,
        0.14582740850432166,
        -0.09922172399584209,
        0.19684147054376744,
        0.05389520640166577,
        0.15958333418069937,
        -0.02518703840346725,
        -0.05545995837738214,
        -0.15078174921344206,
        -0.2692083321120215,
        -0.030491830618457064,
        -0.03974302976690266,
        0.3225709550696387,
        -0.3857570377232252,
        -0.04320786801996562,
        -0.016673775278986315,
        -0.164666197792234,
        -0.20462368848824894,
        0.2039461284351528,
        0.02219761105672423,
        0.1638592644727783,
        0.399006530602773,
        -0.23398730582697913,
        -0.2880292443367938
      ],
      [
        -0.14148108684277425,
        0.13672378723195017,
        -0.21504670006145093,
        0.1824653120900661,
        0.22526995067138655,
        0.002784946595983032,
        -0.21331287988492134,
        -0.2731241958776425,
        0.19326932754075946,
        -0.1242132320198559,
        0.06355845218763187,
        0.1630693619403055,
        -0.17873796538112,
        0.08583138169820861,
        -0.22488376026164333,
        -0.16152009539711382,
        0.25279937991447254,
        -0.21521165743408993,
        -0.18418970118890088,
        -0.2548438762589054,
        -0.018156136245775875,
        -0.17534245228795015,
        0.27954398806375014,
        -0.052398201432411286,
        -0.17115005832314661,
        0.08012103503050107,
        0.1508368465057144,
        0.18321640249111898,
        -0.06799418922429784,
        0.03786100326892924,
        -0.23871153535757317,
        -0.12823841764066488
      ],
      [
        0.03905906474585312,
        0.05289980712249382,
        0.12482361863255982,
        -0.10514124315364871,
        0.17086674072628713,
        0.11683629505538035,
        0.13718857347261793,
        -0.1533947974113937,
        0.026281989867327053,
        -0.13648794875635867,
        -0.05871579221993088,
        -0.0962164737847897,
        0.057001200761840926,
        -0.04280653327809816,
        0.16441136827564426,
        0.05417299621819513,
        0.12095886445497772,
        0.002214350839499125,
        -0.06420600201573086,
        0.029412863997142852,
        -0.08640173392447484,
        -0.0664752482131242,
        -0.02257261382767322,
        0.0014283411295109396,
        0.11695447959373073,
        0.0757549937011212,
        -0.004096162728599834,
        0.11032127327708269,
        -0.04457459435543443,
        0.045323211593295866,
        -0.155963277505207,
        -0.1507406592308456
      ],
      [
        -0.10466288267112565,
        -0.003592329414439237,
        0.06184952646599328,
        -0.09289928581215107,
        0.1030370055771573,
        -0.049900954907154696,
        -0.1717577400965823,
        0.0009183733814989443,
        -0.026641194208072684,
        0.136208501571795,
        0.0812291662076309,
        -0.011805155940523735,
        0.03325265532407407,
        -0.03274643531323011,
        0.030939639002504633,
        -0.027209644123443795,
        -0.1429983191701657,
        0.06763459748422505,
        -0.029086603955969455,
        -0.1607077111672341,
        0.022792128256452823,
        -0.029848442689887674,
        -0.04127391994283538,
        -0.09105964809225085,
        -0.0015914171185003815,
        0.10825884004167163,
        0.0337457660665774,
        -0.16470455788744023,
        -0.10562570744863208,
        0.13261100668926126,
        -0.12186723507965906,
        0.0187767282841014
      ],
      [
        -0.1808114901496383,
        -0.07263235055086929,
        0.10741422584255034,
        -0.085022921046683,
        0.14040914146650527,
        -0.12270437389770338,
        0.16468531956479968,
        -0.13044111181574647,
        -0.250742691099397,
        -0.18354652158980564,
        -0.028933031408221663,
        -0.15954185665646395,
        0.22144521803429754,
        -0.12667026241470455,
        -0.19204102859336025,
        -0.08369760804121872,
        -0.01630999328811452,
        0.030216617903817685,
        0.1371718531907804,
        -0.05612582911791431,
        0.12186508266658956,
        -0.07194436725544828,
        -0.224027922661638,
        0.07686178342379955,
        -0.0002668659152586187,
        0.09761485682685311,
        0.16624434330848456,
        -0.016082770973744873,
        -0.090731229461277,
        -0.2123958561927927,
        0.11670269715111939,
        0.21873781200768855
      ],
      [
        -0.07916942153777265,
        -0.05549766445778089,
        -0.024476171269811352,
        0.12636897526000546,
        0.07542144878791306,
        0.009870535455321959,
        0.10185586608896408,
        -0.012823337973904978,
        0.09179792184161463,
        0.04522563701279591,
        0.06955961459475109,
        0.09219630753138676,
        0.05584128039343515,
        -0.09347882968846849,
        -0.14937148546667225,
        0.06477665074154237,
        -0.002854700737057441,
        -0.14926771054560817,
        -0.07342123703584995,
        -0.0501339287631424,
        0.0475726103914863,
        0.1380737965355503,
        -0.057383731091025326,
        0.031933450552083235,
        0.17358066763117952,
        0.024816232214331307,
        0.11407540808988025,
        -0.0950386369214559,
        0.07566599997326183,
        -0.1499051872777215,
        -0.15292711262934408,
        0.1593318594190583
      ],
      [
        0.08481153896883355,
        -0.00016184289203406975,
        0.1174123151349958,
        -0.026014898617621955,
        0.03885316252783611,
        0.11839994440340401,
        -0.0068724146386672505,
        0.13287124031440564,
        0.15631142538885914,
        0.15087206145581852,
        -0.07551141772008518,
        -0.10398388000837606,
        0.16594957126553456,
        -0.1690706167114957,
        -0.15462642207357177,
        0.07703911315451284,
        -0.06995879872299478,
        -0.052051752893982825,
        -0.011631334186873288,
        0.12565286162481756,
        0.08494166545533857,
        0.07960038710115121,
        0.16683838361975822,
        0.13290016668332746,
        0.010069962079634034,
        0.008606465704200556,
        -0.02279105880030888,
        -0.059348337239799764,
        0.03393637421531061,
        -0.1046290888563686,
        0.16191893441909466,
        0.06251306647255328
      ],
      [
        0.1435071940712773,
        -0.28131855373036185,
        -0.5827089357585032,
        0.06466764436076751,
        -0.14227444211642365,
        0.012078271403137355,
        -0.35162056363338845,
        0.03910829343792216,
        0.10339919644266822,
        -0.09874869597170635,
        -0.05873978583639962,
        -0.09435490103276961,
        0.09287384491664896,
        -0.005854594489639103,
        0.007195660840138142,
        -0.14796713374271617,
        -0.16162396776058374,
        -0.3073046382851294,
        -0.3079764768083877,
        0.18977213290091574,
        0.11631916173300132,
        0.10529220721022237,
        0.39841083236929137,
        0.12824544319647285,
        0.15858750264029609,
        -0.07371415366382338,
        0.15817079648482646,
        -0.09613330033094092,
        -0.03505435328752002,
        0.12520571301084663,
        -0.04002915025907201,
        0.12649661536521767
      ],
      [
        -0.07170951931360038,
        -0.20899157871609048,
        -0.13270149369866693,
        0.056839678472396744,
        -0.3991819917651683,
        0.3482038692319123,
        0.4463511198117546,
        -0.2545297867381261,
        0.04356262209381967,
        0.11857125666531436,
        0.1746393151295281,
        -0.3570240506432225,
        0.2110884769364468,
        0.11927152370647942,
        0.2841152433558347,
        0.07404765604874497,
        0.0450653015624188,
        0.11652306811514121,
        0.10563692930448486,
        -0.21054043134879577,
        -0.0030491868931879595,
        -0.29294028956270995,
        0.2440178875149663,
        -0.16456417676126248,
        -0.4061293332441338,
        0.25724632614670295,
        0.2909415185252859,
        -0.05194229927522011,
        -0.08069440814740403,
        0.04290987294106368,
        -0.0644642144061624,
        -0.004760073557500125
      ],
      [
        -0.10801908064883216,
        0.03954322955739148,
        0.057389594255736774,
        -0.16292529172087225,
        0.013790961585837067,
        0.09617073266079094,
        0.0015360335401967433,
        -0.0583968581773673,
        -0.07958346750493116,
        0.04942968434094579,
        0.007461398969341021,
        -0.05105599725063016,
        -0.17278986214518466,
        -0.1536696735306252,
        0.14381849105481956,
        0.11354660934160131,
        -0.10811787557627624,
        0.11314613126191221,
        -0.16701747015130586,
        -0.10616075073711255,
        -0.029932086217042044,
        -0.09058915480950007,
        -0.03453259050017069,
        -0.1752073426238424,
        0.04653626471783345,
        0.08138839267552904,
        0.04007467867499585,
        -0.027569252641221325,
        0.014115927081379352,
        0.0697534275501448,
        0.14017615568116693,
        0.09472405477231928
      ],
      [
        -0.1756794496109902,
        -0.006783455437193413,
        -0.16951207505329402,
        -0.06813167910369099,
        0.07904105956336857,
        -0.014106739470967323,
        -0.11476090042166165,
        0.0997662504632544,
        0.12103404057386351,
        -0.14825292863537412,
        0.025492576876914048,
        0.10148937145135568,
        0.04566733164789515,
        0.15662492137061865,
        0.014773096480685565,
        -0.1490158121879006,
        -0.0417416488035717,
        0.1256698770939007,
        0.021126032158317605,
        0.09912414345337812,
        -0.000552831144295996,
        0.13813980938713383,
        0.05184248835159716,
        0.12639783398873472,
        -0.11870169596638075,
        0.14566001832206174,
        -0.10334753017595043,
        -0.0425250010007307,
        -0.00754895651333149,
        0.032992407536609675,
        0.08769778504890263,
        0.09582831711787694
      ],
      [
        -0.043950729314479436,
        -0.12822464164782635,
        -0.13438023771933402,
        0.06977615431235332,
        0.01276320979245322,
        0.033157584881570015,
        -0.10078705910272061,
        0.14119992032192297,
        0.10426620777389989,
        -0.05232183673186521,
        0.04040331968006482,
        0.1199613555391669,
        0.12662293868611954,
        -0.03634422173154783,
        0.022014698045205904,
        0.06888452928324099,
        -0.10815669214677263,
        -0.0279162635102787,
        -0.14463347287537037,
        0.004450412128293234,
        -0.12220690711353507,
        -0.15118324442228676,
        -0.028179367343527627,
        -0.034465369678501695,
        -0.16963575315312565,
        -0.11129350336170843,
        -0.001699684191459933,
        -0.14053570363782716,
        -0.0990755509046536,
        0.07218577511529815,
        -0.07755783843058818,
        -0.03824301381260958
      ],
      [
        -0.04773085558042532,
        -0.019992163134808318,
        0.16773517777114183,
        0.09025377929223737,
        -0.14752150666343425,
        -0.00259385758954449,
        -0.0018296332823678856,
        0.011941109671998936,
        -0.1014901274239217,
        -0.11473296978597383,
        0.11622498420519964,
        0.022237073853677455,
        -0.16393200899365828,
        -0.0029782694289762403,
        -0.07285001634797253,
        -0.00492923017719754,
        0.0005456632776575557,
        0.04451412572882294,
        0.06446485059064708,
        -0.11241701934913083,
        0.08998479668989146,
        0.08330503006845272,
        0.1643419649658518,
        0.05516828287722801,
        -0.05880977293173654,
        0.06497089967228438,
        -0.1507916497403236,
        0.08924133619280815,
        -0.14388382918967196,
        0.17146721105519327,
        -0.06632225380821508,
        -0.07909454782764931
      ],
      [
        0.10298720091663062,
        0.11110046511360401,
        -0.26930766969801856,
        -0.05915680895315971,
        -0.09735945174987778,
        -0.013968995969336923,
        -0.257271619105004,
        -0.34964517684450225,
        0.038398701872572244,
        0.17596177326283194,
        0.08651971493154927,
        0.1717642225970452,
        0.013213020745187353,
        0.08126223879198217,
        0.11611518338666764,
        0.12252084491540027,
        0.006654634118729455,
        0.1166999660112729,
        0.14327906722091763,
        -0.08545080940848555,
        0.05724361745530642,
        0.25011747920570016,
        -0.14708361455362914,
        -0.006807516260106558,
        -0.3810848955685677,
        -0.11569195655430806,
        -0.035971427498355385,
        -0.1120198813249043,
        0.03390544008863302,
        0.17013128968513438,
        -0.12842651046635972,
        -0.04853326776266367
      ],
      [
        -0.17180944263642534,
        -0.11255113376806904,
        0.028619384427410008,
        0.04533146881631458,
        0.1570040396398845,
        0.09983718494877696,
        -0.03184909566541967,
        0.010426631015310668,
        -0.15690239611170895,
        -0.10397506399064002,
        0.1735947253565918,
        -0.10095223891397798,
        0.06517923266655708,
        -0.11817653047533716,
        -0.1637505986276846,
        -0.11917813600968583,
        -0.12398995803909868,
        -0.08807404547553883,
        0.14099766662706192,
        0.10952791765973716,
        -0.04223496568492784,
        -0.005132313539808069,
        -0.02282266822963636,
        0.08992834380132259,
        0.031540772004714196,
        -0.13730055372674754,
        -0.08952455466691839,
        0.1376286688344546,
        -0.16383686110304796,
        0.023159207619616488,
        0.12834942988398998,
        0.10012399081528865
      ],
      [
        -0.1659523699012849,
        0.03835174943581282,
        -0.07793564019715467,
        0.08654275344907834,
        -0.1685715895046835,
        0.16443922947824735,
        -0.10323580653617148,
        0.0652435923337753,
        -0.09124726717711167,
        0.0058992138108613715,
        -0.07926262784864771,
        -0.07360051333285574,
        0.1465050121384209,
        0.15799295436210692,
        -0.005716149917790164,
        0.10711336073405518,
        -0.016648014771927445,
        -0.1366713289218822,
        0.13595016209875774,
        -0.02367499879716486,
        -0.11492094249277596,
        -0.10812291607301372,
        0.08707061103071699,
        0.07402344700917081,
        0.10432115258343473,
        0.056241042874953774,
        0.004842794180435021,
        0.0247072298569293,
        0.08242607167888928,
        0.06058636894845091,
        -0.08304095246586235,
        0.06883197184918463
      ],
      [
        -0.04449400693196775,
        -0.15657392504799197,
        0.05583112828337901,
        -0.17504712963621383,
        0.1693334913349081,
        0.12791181418411748,
        0.10806097533457996,
        0.01375764201203785,
        0.035985647973853216,
        -0.13909859140912517,
        0.020185055593286802,
        -0.025370296703165728,
        0.07501571458938586,
        0.07793847442968879,
        0.1480019837159911,
        0.04382790930965291,
        0.16609430470016173,
        -0.1463936877861116,
        -0.022718141437768104,
        0.016139374666285542,
        0.13937199957566043,
        0.1693964696243182,
        -0.13459279957845,
        -0.053821494404117334,
        -0.06701277116040504,
        0.0757903860438317,
        -0.07470180389468677,
        0.14568783483311185,
        -0.1584975363594601,
        0.017619633667219577,
        0.08036359753818073,
        0.06711698177586893
      ],
      [
        -0.043289432113433536,
        0.03148644706335777,
        0.013826842045605754,
        0.00604729710806788,
        -0.09435194926791816,
        -0.04525876618175774,
        -0.14868369485678887,
        0.021471870828431897,
        0.06774272095773787,
        -0.08501775930885297,
        0.1341406513386156,
        -0.10095592317046254,
        0.16181237818918387,
        0.0905116641035445,
        -0.06338850607328175,
        0.05569483636118743,
        0.009184703943009192,
        -0.05526229563798433,
        -0.08873378603472248,
        0.02024207353962539,
        -0.0236434600582064,
        -0.09895338903302986,
        0.10440303798625204,
        -0.12262440836773297,
        0.05233080358204192,
        -0.006713319614895067,
        0.11035651018040184,
        0.17109796840114738,
        0.1416971071589343,
        -0.15146380134353957,
        0.17100970235745014,
        -0.1299290914804838
      ],
      [
        0.044487672717798625,
        0.15864699003028465,
        0.018332567229545394,
        -0.0036166627281695274,
        0.04585388792035232,
        0.10230165820850153,
        0.127556582143067,
        0.16186454554322688,
        0.08717252013070995,
        0.025645845092539254,
        0.02148611072141333,
        -0.07002107501723051,
        0.08169119134127309,
        -0.03938211714695097,
        -0.03261636337482716,
        0.0705638856592951,
        -0.15095400449052587,
        -0.11794439229922488,
        0.06036994785123277,
        -0.005745459216221554,
        0.08230514219127609,
        0.09237274255930071,
        -0.09597506421586927,
        0.09089065768647653,
        -0.048714817144245075,
        0.03685548156055095,
        -0.028863397775940228,
        0.07463133307899256,
        -0.0853923127068281,
        -0.12122938865201226,
        -0.03270022210163145,
        -0.10352549540683482
      ],
      [
        -0.19693385967814458,
        0.2892353167459871,
        0.01008302244473219,
        -0.1122588960249579,
        0.17380661092736766,
        -0.2666738034132765,
        -0.08229504571398115,
        -0.16332215107857118,
        -0.10287230229353542,
        0.14215783637250617,
        -0.12888837903051856,
        -0.23683983993627028,
        0.060708404385661316,
        0.078635585826416,
        0.038482143581099415,
        -0.04317758118441942,
        -0.030696238709477495,
        0.17642254385615716,
        -0.1673722495140628,
        0.10359343542803721,
        -0.0754476502366318,
        -0.04037728940881749,
        -0.05251627037870047,
        -0.015114904759034683,
        -0.00020929158009291534,
        -0.09936566562514,
        0.13664405097476578,
        0.06423625249206376,
        -0.136212618870277,
        0.04441151155355337,
        0.1599759486990098,
        -0.11748931706272031
      ],
      [
        -0.11653208992554923,
        -0.004500859460594839,
        -0.0969064181973232,
        -0.1428265504098108,
        -0.1191890944795853,
        0.12071885373680497,
        0.13335760701073487,
        -0.0922860864218135,
        -0.16798579585498985,
        0.09529086339708266,
        0.012914312655220325,
        -0.14036184584500486,
        -0.01239442337747454,
        0.013528712386926404,
        -0.028469792203516076,
        -0.09140130476303267,
        0.16644488768209095,
        0.10083962454437503,
        -0.15706620532933596,
        0.07993130831477573,
        -0.06514242598249263,
        -0.020860852374029727,
        -0.17138572815020842,
        -0.15739081026888543,
        -0.05140476875801967,
        -0.12546461650146742,
        -0.08691855023824654,
        -0.1074476019988477,
        -0.13469667368342542,
        0.012982394500425081,
        -0.15800526431750714,
        0.04499400056083894
      ],
      [
        -0.07788084681074957,
        0.1364176749054184,
        -0.017287464037350722,
        0.03492532466786438,
        -0.003157279770160615,
        0.15621986856662562,
        0.11826567316032052,
        0.06553314624133807,
        -0.053482279705226184,
        0.12042775512147363,
        -0.12828751832554844,
        0.017490119036688425,
        0.04942202882419758,
        0.07972829093279789,
        0.018389495677991426,
        0.15701672577329512,
        -0.15283853168619838,
        -0.09683121075833652,
        0.010711060380932395,
        0.04626396857087796,
        0.04835956887924957,
        0.054398838112954956,
        -0.06981893992428433,
        0.050000252247224194,
        0.04608034146048697,
        -0.003706289771111365,
        -0.1260621944739153,
        0.10654274782096194,
        -0.06643364753033214,
        0.08576227182953013,
        -0.15143915260548815,
        -0.1616062047514308
      ],
      [
        -0.21137641675162064,
        -0.2013896422415218,
        -0.11787762526454262,
        -0.040204370755330336,
        0.21545663499377085,
        0.04390206449970591,
        0.20004758297168446,
        -0.13686538551124977,
        -0.025558774973673724,
        0.013990741173804238,
        -0.19320376059382435,
        0.1625183345854178,
        0.2181800559963624,
        -0.2687965788437695,
        -0.026718637115944285,
        -0.35662429996805645,
        0.1972704034881853,
        0.1000837208960277,
        0.1772141841058672,
        -0.17790751499753127,
        -0.4413698952623745,
        -0.08871481870580726,
        -0.2891520100409601,
        0.2199874397891704,
        0.022056279990479623,
        0.1975152781672608,
        0.13007543402581437,
        -0.22989283048900688,
        -0.13808727605915203,
        -0.01676765022085059,
        0.2678837965955401,
        -0.2846498781699224
      ],
      [
        0.04458038149299138,
        0.18479857495525506,
        0.008564787466483864,
        -0.0700583804055724,
        0.03074579423583914,
        -0.12543184829126755,
        -0.03754409319625683,
        0.18243615306437905,
        0.11440131865315688,
        0.11417685441942649,
        -0.2986960731398533,
        -0.11376213291989457,
        -0.1169393093822771,
        -0.1096360917056576,
        0.1662604743331707,
        -0.1553232959394912,
        0.051504838112607684,
        -0.07094337113010461,
        0.020508924262847093,
        0.24520532803588038,
        0.020394954608270083,
        -0.036188569970173376,
        0.15027881918871447,
        0.10446706419258478,
        -0.05546006421147151,
        0.1600157801580508,
        -0.012727961490861021,
        -0.11494628144908485,
        0.08227359884230193,
        0.021461204190827938,
        0.16130697035388525,
        -0.0492806350844081
      ],
      [
        -0.03565112346856874,
        -0.014550277473888587,
        0.15170491884389362,
        0.0542825581007512,
        -0.23133917586433034,
        0.1323554289377089,
        -0.04573999968870645,
        -0.06810781258727354,
        0.11561371276152138,
        0.02897804949434228,
        0.09035725984395143,
        -0.04823344804964472,
        -0.08525087603898218,
        0.03964859968171296,
        0.2346310185637224,
        -0.033752614372863476,
        0.06753804868340428,
        -0.11123579403915225,
        -0.076449870567699,
        0.13726205635746164,
        -0.08408352585185802,
        0.034819172126451504,
        -0.10097020023124521,
        0.18598927082806813,
        -0.051527674664621534,
        0.19048229750163387,
        0.1746356948649325,
        0.14654054767353653,
        -0.03778437738465631,
        -0.1621605946630028,
        -0.23345450929117695,
        0.023089560798971363
      ],
      [
        0.09242348814560902,
        -0.1093119295840761,
        -0.15859357562041498,
        -0.13762799945835633,
        -0.1317803322896658,
        0.09032937822612386,
        0.07281906296835604,
        0.026731128712169015,
        -0.011955614640991262,
        -0.06514323510205929,
        -0.059394247138376904,
        -0.14052382571614117,
        -0.12391816588045802,
        0.12437960258306002,
        -0.12253029345069717,
        0.08064008273527211,
        0.06677022501114792,
        -0.14156257872523637,
        -0.11641260866318479,
        0.03494676203260727,
        0.03624469485231161,
        -0.15358800176045861,
        -0.04357137337882625,
        -0.05242675286214344,
        -0.13106556759161173,
        -0.08061367676910595,
        -0.007976412498985725,
        -0.13458929607143555,
        0.0016889463054427702,
        0.12764486075278794,
        0.1285031912860464,
        0.040419907098925456
      ],
      [
        -0.13648914505821508,
        0.018398167075984746,
        0.09277020062067892,
        0.1762922465527977,
        -0.11101820972942676,
        -0.134728057127515,
        0.11729079745193247,
        0.010951618454323193,
        -0.11184827463883085,
        0.00014398037915887852,
        0.06445521785378153,
        0.02035627983091534,
        -0.07873750318606863,
        0.10323314253633431,
        0.02103266882510093,
        0.15004040617326553,
        -0.027733889332866964,
        0.09575874651710696,
        -0.13891307462143798,
        0.004512341284079362,
        -0.14775844041417677,
        0.0630694812076869,
        0.05923288888151012,
        0.00016165544432656412,
        -0.10847645834526212,
        -0.051291832894527496,
        0.07183976158007066,
        -0.03423569375003122,
        -0.10918782203852366,
        0.010703352867654671,
        0.03413195874107494,
        0.06446409769456092
      ],
      [
        0.12042239195739324,
        -0.07488356219319063,
        0.0683605945306834,
        -0.09857546217925033,
        -0.08218876526187993,
        -0.08200570390310678,
        -0.12555709919229896,
        -0.16640497128030105,
        -0.13887731235282502,
        -0.03934330346049776,
        0.03760754398750959,
        0.038932114192347704,
        -0.1270069091193834,
        -0.055655337636700164,
        0.017988064002109908,
        -0.1295840694440467,
        -0.001202710363440846,
        0.17376119906257745,
        0.09755230602178108,
        0.10737912600055945,
        0.16703377486650517,
        0.05303125424766033,
        0.07953657811642081,
        0.006037856707696367,
        0.05838466334782155,
        0.001242939373361783,
        -0.13752945664864438,
        0.12205538802738641,
        -0.0077766944169877245,
        0.11327346706610127,
        0.13093915107855736,
        -0.015520430761647153
      ],
      [
        0.10775677008824165,
        0.06596415483029469,
        -0.21305535363742148,
        -0.027313279129995052,
        -0.0578070148008506,
        -0.24266473759578802,
        -0.19136235463433623,
        0.06877852720894632,
        -0.10193063477891935,
        0.021430083726451766,
        0.23673512521051993,
        0.06292952146072953,
        -0.011858884102290471,
        0.12766249346798458,
        -0.11156127498356413,
        0.07362200099611274,
        -0.06665285219963042,
        -0.08865817331999194,
        -0.07161636081516287,
        -0.11283722813271134,
        0.01899113870908132,
        0.20469366616465107,
        -0.2148877899676957,
        0.22205181889876874,
        0.2596692711682189,
        -0.18577220684467846,
        -0.1407732030118909,
        0.04789543577064087,
        -0.12894566024330556,
        0.0650086192072852,
        -0.12187535358037187,
        -0.041897097471326715
      ],
      [
        0.04401703484676969,
        0.05260663884408481,
        -0.35067063475773536,
        0.29573210531023375,
        -0.02439337224990923,
        0.0021458315132466166,
        -0.27007733500478154,
        -0.30416754896926185,
        -0.17704161785468078,
        0.31187661991745597,
        0.30663474818059877,
        -0.06084943735346314,
        0.12492466844968945,
        -0.27999198606933096,
        0.10568439790016655,
        0.007723786509019691,
        -0.04673974176223337,
        -0.0310219150178197,
        0.0969760589532175,
        -0.04464713741496679,
        -0.17556596239254524,
        0.16960871838231809,
        -0.1479657214758122,
        -0.001870602403916196,
        0.13878203346690127,
        0.24754630263006436,
        0.08809436415243294,
        -0.28274713559205883,
        -0.1847370527251323,
        0.1601543279041645,
        0.26291324439453156,
        0.290124603708567
      ],
      [
        -0.19085227088490575,
        -0.214268498535066,
        -0.34549090832418305,
        -0.00018059997464242526,
        -0.06560090090606986,
        0.14662174307480771,
        0.018598172169754235,
        -0.1307626586994191,
        0.20831969807110437,
        0.10125614392372538,
        0.12490076803251403,
        0.22008943297268924,
        -0.24870956503032676,
        -0.08460291304265151,
        0.09463092703767421,
        0.14204757560715237,
        0.3027699544535275,
        0.09789547648671193,
        0.1351422296488574,
        0.17931675071449799,
        0.07823081746330396,
        0.05680285027244068,
        0.10873937416026401,
        -0.14211527738660945,
        -0.07525226072910754,
        -0.2066092052616709,
        0.09621138322165608,
        -0.03808610917800247,
        -0.09571976131102458,
        0.1304056074724434,
        0.057842874402500015,
        0.150065704683937
      ],
      [
        -0.07473606294217179,
        -0.03682049795118988,
        0.2004081309069309,
        0.17000769086332704,
        -0.1606865649282957,
        0.06065819859552941,
        0.19882924538244318,
        -0.07940407542592201,
        0.49248943036661397,
        -0.031993797381976316,
        0.11964026358480244,
        -0.17680702400948614,
        0.12601895651073405,
        -0.2035808385072498,
        -0.13288567028763085,
        0.10263500721078439,
        0.2029058343889607,
        -0.05433566509797257,
        -0.19851369439948202,
        -0.3146814405213732,
        0.09587308417342906,
        0.31599590151539386,
        -0.04152598010038407,
        0.3573019798648612,
        -0.06361293618542187,
        -0.07041605047517423,
        0.23086125208654698,
        -0.28727073673899955,
        -0.10765686082877432,
        -0.11313829994536162,
        -0.3675782121195366,
        -0.3274763049657209
      ],
      [
        0.03332927475593259,
        0.12212569967972027,
        0.17328005530925455,
        0.05922418517433239,
        0.136719896724574,
        -0.09766885429348648,
        -0.11872088896873757,
        -0.06413885234003344,
        -0.0327170779552534,
        -0.06454434095322062,
        0.03683498169585759,
        -0.06313047468578435,
        0.02103318584356919,
        0.09054108700177331,
        -0.054172225778571885,
        0.056272077987978675,
        0.01345582290445952,
        0.10995497146275367,
        0.10834730523062205,
        0.15067333656572557,
        -0.14428323654837905,
        -0.037481798528362274,
        0.16697631161789572,
        -0.05088520612539281,
        -0.06776783652483301,
        -0.17066055247049713,
        -0.0621578309768385,
        -0.11460236052214678,
        0.06570789837102355,
        -0.1325310333972759,
        -0.07905843523015813,
        0.09475903911333075
      ],
      [
        0.16106311208126392,
        0.07566163236081964,
        -0.19375358502075543,
        -0.11598726938575614,
        0.2085860209893719,
        -0.05767805088638227,
        0.31431237367720744,
        0.2696180743799337,
        0.006333712158817694,
        0.08871934590953175,
        -0.17310583593215784,
        -0.1884896246843659,
        -0.32677077545214267,
        -0.027842630562455718,
        -0.05626810916435283,
        -0.026123210183202055,
        0.11586093770820244,
        0.02865377443665268,
        0.11767319581033747,
        0.15984278193600565,
        -0.19009570640468357,
        0.13128092182459594,
        0.1373704210436631,
        -0.29927726177177344,
        0.328929360845351,
        -0.1719740259192301,
        0.04852680156304009,
        0.0916878044186811,
        -0.054542305764600965,
        -0.45618373099085713,
        0.26202660643958625,
        0.19339187614427625
      ],
      [
        -0.09206224727584882,
        -0.1089838432693582,
        -0.14223478137153303,
        -0.036392033873863944,
        -0.1116623542095038,
        -0.23458102043295967,
        0.09864783797604157,
        0.09382859284329101,
        0.18019411298939347,
        0.17290857429436174,
        -0.0002920804135769975,
        0.1242092219957367,
        -0.09074474212533168,
        0.16693939665225194,
        -0.12768904285148153,
        0.40731666671681516,
        0.07945872628770409,
        0.08593227872192548,
        -0.22506091727989022,
        -0.25077367565199515,
        0.3388248490048249,
        0.031773503849173906,
        -0.13795468865409372,
        -0.01087951117236562,
        0.2592125857619281,
        -0.1028247639034848,
        -0.02971710372826852,
        0.10963149263428874,
        0.04328203271628532,
        0.005662240299426404,
        -0.07878446183935969,
        -0.11445375763693474
      ],
      [
        -0.07918470369357315,
        -0.1596810103587338,
        0.11674397259180248,
        -0.030328252681580223,
        -0.0752516822104382,
        -0.07711316286685883,
        0.035073705256247756,
        -0.016864402471043913,
        0.1615891257970125,
        -0.15385691930093948,
        0.014643477176047179,
        -0.0927416260134718,
        0.15550472890384848,
        -0.08610008758497739,
        -0.13595268147920336,
        -0.06680355246544867,
        0.005264513107895785,
        -0.12257454496416739,
        -0.11996449032253294,
        0.04505758078477327,
        -0.051731723615054445,
        -0.13249452507104065,
        -0.02334340782825273,
        -0.02985623127005868,
        0.09487515886122419,
        0.14924115864783558,
        0.09663542914706302,
        -0.059235183378819514,
        -0.12642719739632682,
        -0.13272866854319973,
        -0.135833512341831,
        0.09628088371589988
      ],
      [
        0.030216143557258716,
        0.054921976909291695,
        -0.25881633790010017,
        -0.22301424902459815,
        -0.18074727880817223,
        0.15488640006427035,
        0.19669648105342638,
        0.28651894578509934,
        0.03615717298257876,
        -0.04103675036790679,
        0.31181477807575636,
        -0.04245454323145134,
        0.0534997644882625,
        -0.12495692834192272,
        -0.052634478152723714,
        -0.26362140584903143,
        0.3480975588826206,
        -0.045924757065542395,
        -0.2097172275735746,
        0.10445193944324097,
        -0.037638529432734026,
        -0.011383368953573858,
        -0.07678317149906252,
        0.008786522467194234,
        0.0602842051092662,
        -0.01743463393624893,
        0.14830898908895276,
        -0.08756426614388801,
        0.17186806347312628,
        0.2887971733720435,
        -0.05808232601954517,
        -0.01301041366349507
      ],
      [
        0.01485842589039492,
        0.07433896266653015,
        -0.06601867876952101,
        -0.07033990133737657,
        -0.12183405387752921,
        -0.10383190683896093,
        -0.06086720352012638,
        -0.1567897573178863,
        0.06326153195601493,
        0.11662456423422855,
        -0.15391057966820823,
        -0.022850054265096106,
        0.1558589850633043,
        0.15312584134407736,
        -0.14360746170485436,
        -0.0629881429480288,
        -0.11007414549856723,
        -0.020535416600209213,
        0.09134522356704865,
        0.09691252490169427,
        -0.026839559526590697,
        0.09232327890661048,
        0.020499431695552937,
        -0.024178039740244843,
        -0.1689775940043735,
        -0.1529050794414264,
        -0.022365794945111758,
        -0.10211821951843894,
        0.12427316495960203,
        0.04563898079665012,
        0.02005317392271309,
        0.07145794217088339
      ],
      [
        -0.17071117211810466,
        0.05331630777212448,
        0.048841369904453424,
        -0.17090412176100894,
        -0.05586560809517211,
        -0.07787616164184441,
        0.039496340638997166,
        -0.013067306780768229,
        0.014753520248687388,
        -0.12217706060954202,
        0.07852687379893454,
        0.09860138649940861,
        0.044952516670841935,
        -0.010774457255419223,
        0.11152431362787044,
        -0.030990756588880744,
        -0.09877870464546455,
        -0.14234650124357287,
        0.15255413472772517,
        0.05951098617905808,
        0.04831853396431268,
        0.06646434628493879,
        -0.1056621436792793,
        -0.14266368479042435,
        0.17283182780522138,
        -0.02133572169258953,
        -0.03746808842070681,
        -0.08461121706555053,
        -0.03972706007636789,
        -0.05455920175322477,
        -0.04589242222262423,
        -0.121767929668046
      ],
      [
        -0.047289221581396625,
        -0.17429983105731411,
        -0.03777511517159605,
        -0.10221561956182562,
        0.07084522279241241,
        -0.13353379263679832,
        -0.15296651857051632,
        0.1056839290894598,
        0.1428012031731253,
        0.07714907327992379,
        0.005039744167278243,
        -0.09038513708481226,
        0.16902366780890993,
        0.03178720910989626,
        -0.15922837519901384,
        0.01900317475201568,
        0.056355274508855364,
        -0.07122415268349173,
        -0.1507654321335908,
        0.028543733541477774,
        0.02192664664090585,
        0.15326237676119162,
        0.1215482962735833,
        -0.14611157014880655,
        0.13297394690919961,
        -0.15841314560073805,
        0.09023716860416182,
        0.020115900961431683,
        -0.004900784884661838,
        0.08046753377756646,
        -0.07659222204187327,
        -0.1570895236063845
      ],
      [
        0.053107773699791104,
        0.1436617594059937,
        0.13147640134872285,
        0.12364371996228034,
        -0.1393513847515355,
        0.024167901830041503,
        -0.0878797704812971,
        -0.10787764559885485,
        0.12267938866280247,
        0.14471187904043595,
        -0.06059800582682673,
        0.05565571764171103,
        0.05720816530199789,
        -0.018098469892858262,
        0.10684968258079237,
        -0.16874777425773477,
        -0.1672165338175856,
        0.033174357927243055,
        -0.102053592525251,
        0.0008296262256707447,
        -0.040499756884425246,
        0.16244276674857752,
        -0.04501849105248074,
        0.10870360875956298,
        0.07292947978039206,
        0.11131621922490273,
        0.03148925701659562,
        -0.15995393703841224,
        -0.08439152643863843,
        0.11545904146719402,
        -0.10946334685408204,
        0.08755452958609
      ],
      [
        0.04163109093196265,
        0.09467314550452477,
        0.2197739035138644,
        0.12708760048076226,
        0.015570620512811424,
        0.07350901572256643,
        0.09767154625600774,
        0.020561876357998582,
        0.06443848569327235,
        -0.052682284574980656,
        -0.17621870325639524,
        -0.030469511790845435,
        0.08463640581482583,
        0.058353423578182545,
        0.26978523477352856,
        -0.08369884085096962,
        -0.24157025534939197,
        -0.007998067460677643,
        -0.003105074121700783,
        -0.22884043003006493,
        -0.1560132989613306,
        -0.16606711213001857,
        0.3865869001576788,
        0.04563440474012723,
        -0.1358317807045028,
        -0.04145926176162581,
        -0.03337782363141408,
        0.06935983010473039,
        -0.10797543439144025,
        -0.21138305087528758,
        -0.01792229782511768,
        -0.16468597278559233
      ],
      [
        0.09921769488460606,
        0.17209610000725836,
        0.09018262230026904,
        -0.17589101130412643,
        -0.07379708573198475,
        0.1377769377991625,
        -0.0804291292404914,
        0.0021840562064915424,
        -0.06460030457208822,
        -0.16151216642536928,
        0.16807491528827448,
        -0.12798148404795606,
        -0.06951487968137433,
        0.04430589703834969,
        -0.018427966823245392,
        -0.015403592065307784,
        -0.17317457193208086,
        -0.009190370711813634,
        -0.1471910645585982,
        0.016463903755387328,
        -0.10749774248047743,
        -0.16904870243782172,
        -0.17136747584543616,
        0.06560294638596792,
        -0.041802053404629044,
        0.1328291724179353,
        0.022716437796629258,
        -0.04313658022044365,
        0.13461884939072782,
        -0.16690748279640935,
        -0.053515718698637554,
        0.07626164193398241
      ],
      [
        -0.09159872251811595,
        0.08936237352107229,
        0.11853329770638486,
        0.14968912534417206,
        0.07170104225573173,
        0.025380486751569394,
        -0.05992327411804075,
        0.13178392720014756,
        -0.01878502002712047,
        0.15242990498728903,
        -0.1442454586851233,
        0.11971855248381809,
        0.11943785049740367,
        0.1320766274928207,
        -0.004563472837920894,
        -0.10832138050355974,
        0.06944013598230846,
        0.11167967918519808,
        -0.12920802335844261,
        0.10342690037662322,
        0.009434168726103096,
        -0.035794089244834196,
        0.09525049275048109,
        -0.048414759551026434,
        -0.10399651947678562,
        0.10514406507188817,
        -0.08247928625229368,
        0.08734113401692468,
        0.041615562023911375,
        0.17169850010073665,
        0.0673379281137565,
        -0.16542156436099126
      ],
      [
        -0.09812940242367235,
        0.09773768998069804,
        -0.09881884055762634,
        -0.1578129489163299,
        -0.194037831502998,
        0.278196519603734,
        -0.12666491342573344,
        -0.08242977569104407,
        0.07439680837943638,
        0.16138724030229662,
        0.012238190159194803,
        0.0018334642532132363,
        0.19458221531697203,
        -0.1616867461582888,
        -0.0945892236822647,
        -0.010134052491020094,
        0.20208793840203892,
        0.01781392433670834,
        0.23237286694095388,
        0.06935941896869272,
        0.1631394660813085,
        -0.08982642676867741,
        0.020848997416551208,
        -0.1585923598159778,
        0.07880250900539715,
        -0.09494371516726247,
        -0.06749367502944792,
        -0.14086602450764743,
        0.08308756202770626,
        0.012165725097835433,
        0.17311542767840318,
        0.12223333911006391
      ],
      [
        -0.16070307595758243,
        -0.02556628731716014,
        0.17309373144131548,
        0.07686189459520487,
        -0.01657825881547505,
        -0.20550522815227049,
        -0.15307552462683052,
        -0.36450662839050046,
        0.18617248425841862,
        0.11305149752894568,
        0.16383047129602457,
        0.21187136392803585,
        -0.05927886643397832,
        0.3935036583244355,
        -0.1772076559385399,
        -0.21571116394299364,
        0.4196297157346107,
        -0.1594634985880547,
        0.13661186624652333,
        -0.21359667951933325,
        0.18842211101549644,
        -0.3570693819298394,
        -0.14078625914405324,
        -0.31165360430921496,
        0.13447711111331928,
        0.15139826185295005,
        -0.06969542628389283,
        -0.09246541319625624,
        0.24447081885861216,
        -0.01222833259670269,
        -0.23118309682629454,
        0.0570475890096883
      ],
      [
        -0.23248300553366133,
        0.44675218740751677,
        0.05479723932932716,
        -0.16680989296105278,
        0.0473100564203823,
        -0.11133047395745573,
        -0.1035272598589843,
        -0.10357571948216396,
        -0.005711531964065775,
        -0.046460505080112666,
        0.15846919757924785,
        0.18500164797962315,
        -0.07051758461213685,
        -0.2515149284600513,
        -0.2738678544839725,
        0.017710971349312342,
        0.3022451417796767,
        0.08947618301232593,
        0.08851936345411228,
        0.11689495445593193,
        -0.1924795481635098,
        0.055405334983841405,
        -0.11237235088516617,
        -0.28353011375189846,
        0.0409437369746108,
        0.03435326170546185,
        -0.16305586638525177,
        0.16538895309098864,
        0.03722584731950229,
        0.08225622175295508,
        0.052670053667331206,
        0.014281889992634224
      ],
      [
        -0.17482878560898849,
        -0.09578302529486932,
        0.11151697529458554,
        0.007076010527896473,
        0.011869558339149131,
        -0.15684789450889508,
        0.13854661180708663,
        -0.09634669207204312,
        0.003335306007997581,
        0.15767841106670824,
        -0.1295465018126521,
        0.017653307073565713,
        0.14836442035486608,
        -0.0945006370254319,
        0.17037097156275935,
        -0.12550830370143234,
        -0.039380087483075185,
        -0.012138031368066229,
        -0.045964834877642635,
        0.03002232700310562,
        0.17020099407718856,
        0.03320358072760553,
        -0.04311972356634346,
        0.10343195698627727,
        -0.06420933357927093,
        -0.1750846846496832,
        -0.16708695179217434,
        -0.06852515823462801,
        -0.03234660482545812,
        -0.11319324165497337,
        0.0032513667297344347,
        -0.15393142858467748
      ],
      [
        -0.14036720736167893,
        0.07904645105924347,
        -0.09964608357576347,
        0.03288807512711319,
        -0.1401164928187604,
        0.056949459903878105,
        -0.08343879295888235,
        -0.0904430137298838,
        0.006971677499296356,
        -0.1092092893326318,
        0.15940449245098962,
        -0.06017130258810045,
        -0.08243009454057347,
        0.10925094795846091,
        -0.07784077004540438,
        -0.05285434740476292,
        -0.16883415925633183,
        0.1573452143963437,
        0.15229460687088595,
        -0.11207465763633458,
        0.12410506637350187,
        0.04061099271894663,
        0.1699568610070638,
        0.14259992139726183,
        0.06642384094855491,
        0.03660440323444976,
        -0.012362413904005014,
        0.01552093104509559,
        -0.17004377957652972,
        -0.056577261539374625,
        -0.12554317739936277,
        0.005138583556404537
      ],
      [
        -0.10345965703540147,
        0.1766796431644619,
        -0.01713342204344538,
        0.018403168709686734,
        0.017585664941565722,
        -0.08396713223238192,
        -0.1435976912829397,
        -0.043705218449565285,
        -0.10440801504273083,
        0.10872401676040044,
        -0.1601155418308005,
        -0.011386994930401122,
        -0.07014039693087426,
        -0.1306014886084033,
        -0.04539075652424465,
        0.12441343561710412,
        0.10624876121262694,
        0.08807307493836798,
        0.052546702767461144,
        0.0786213056510053,
        0.16734144492242078,
        -0.07383820000889414,
        0.11195603864799895,
        0.05122469992363421,
        0.13345511215020656,
        0.1766575346926258,
        -0.1497785178568413,
        -0.029004469607089255,
        -0.028865699163574666,
        0.013234259338001928,
        -0.15406000970561262,
        0.15422574844915643
      ],
      [
        -0.13224301403834005,
        -0.10011753809704985,
        -0.014678888120895356,
        -0.148109532725637,
        0.06996359256698574,
        -0.17162939982780603,
        0.11326929236513567,
        -0.10307163978549506,
        0.07905060246243177,
        0.11445475605656918,
        0.06437243153206176,
        0.011402996477731492,
        -0.17557006691292992,
        -0.04271562392795262,
        -0.06268875040782677,
        -0.07979075049787593,
        0.16308086131749272,
        0.1206525358563203,
        -0.14629625392921608,
        -0.10585320317081878,
        0.042164707546286685,
        0.17585390363727932,
        -0.16678357627421322,
        -0.1157584761232457,
        0.0812166639197332,
        0.09109317813527094,
        -0.09331526034838655,
        0.010943828699753607,
        -0.14724993313622214,
        0.10234200366388312,
        0.12690837631253082,
        0.009981115045643165
      ],
      [
        -0.1599523765418446,
        0.016070129839021823,
        -0.024766039779507296,
        -0.004105920840806647,
        0.0774700239700901,
        -0.05623352344901685,
        -0.011559633108087386,
        -0.12255334043271958,
        0.08766881395010351,
        0.016555369643625008,
        -0.09931356735697837,
        -0.17232233435266553,
        0.16454036080298273,
        -0.024511949479133783,
        0.16563338177938777,
        -0.16076752799040672,
        0.12571634273710167,
        -0.11858610186389405,
        -0.004611052657564329,
        -0.16109084509418284,
        0.10146418588421828,
        -0.026206333656414664,
        -0.08511876797798826,
        0.058554849306664526,
        -0.0066628024770749,
        0.16129515249010296,
        0.07073523445595291,
        0.05012827684992884,
        -0.0978525412911187,
        0.02636782945486084,
        -0.08024578991077512,
        -0.0032388306599289533
      ],
      [
        0.054606910724327724,
        0.11975778886161896,
        -0.13275281863540794,
        -0.00777484181657287,
        -0.02317806754810057,
        -0.031683324978257696,
        -0.08729222287796097,
        -0.0832186819734982,
        -0.08250438299006937,
        -0.0921099890016366,
        -0.14094503030494052,
        -0.1673571640141201,
        0.022677978367717826,
        -0.06087881425768862,
        0.1711004513164118,
        -0.049199282580333556,
        -0.03249126630390949,
        -0.021698830093330238,
        -0.08188414646023821,
        -0.12199645220164736,
        -0.06620615784230913,
        0.03786940384222637,
        0.17171748098225445,
        0.13772757767457416,
        0.08688571256926245,
        0.06157704909490256,
        -0.01465490586649198,
        -0.006664696491061399,
        -0.08720603131695659,
        0.028771195647868446,
        0.040283084765385974,
        -0.02305907182097779
      ],
      [
        -0.17304446791764588,
        -0.05886109919667464,
        0.151941779700727,
        0.10523538987660146,
        -0.11197035021096911,
        -0.09362471970051682,
        -0.13369414231222296,
        -0.14250307897088366,
        0.06372294403062094,
        0.10048826501565092,
        0.07612773754853389,
        -0.008087178455561247,
        -0.09730721271084368,
        -0.1036076814398275,
        0.06294044417985163,
        -0.17166800814715913,
        0.005393286860078737,
        0.04696103578809577,
        0.09985338258434985,
        -0.023745449414180667,
        -0.0362431808524376,
        0.12424776403186658,
        0.06793688658147504,
        0.1605885801654365,
        0.0655768258941154,
        0.04647806851041008,
        0.055393124693377795,
        0.13912421499557362,
        -0.10971142939363933,
        0.17622719187419628,
        0.16919937510632505,
        0.003815155093541232
      ],
      [
        0.0742144197004015,
        0.03660114230215215,
        -0.11627627108330262,
        -0.028826611373759355,
        0.05174524811737904,
        0.15814216128848976,
        -0.09788986732713882,
        0.05949116643313851,
        -0.19515134249647578,
        0.12975507234654482,
        -0.023113722866036045,
        0.16051369662856363,
        -0.03213725169524774,
        -0.13506910314354253,
        -0.004635638859052695,
        0.09074525000685513,
        -0.008271856453144837,
        0.08474458021382818,
        0.13858317869513948,
        0.03357524944834972,
        -0.15804990211619924,
        -0.07250283587010825,
        0.13362240606814446,
        -0.02364582124658468,
        0.1872615859976799,
        0.10529937186576578,
        -0.25085389570586825,
        -0.07637933615206391,
        -0.11550340813554161,
        -0.18322592857590242,
        -0.09190809926662666,
        0.06185630317919866
      ],
      [
        -0.40790268205622704,
        0.1769521471469212,
        -0.15457769725067094,
        0.005476984782105156,
        0.02320949689073083,
        0.2697598393120861,
        0.07911026025205854,
        0.013337086370632967,
        -0.07596960651532207,
        -0.3707772688232263,
        -0.3163838263176095,
        -0.13652107752470827,
        0.07439075922984303,
        0.0528399161601931,
        0.2249043864292805,
        -0.08336040881677717,
        -0.12118152216852249,
        -0.3499142495725777,
        -0.009980056499430174,
        0.37198175402125955,
        0.2743199647036961,
        -0.026507803843121045,
        0.05686815949749782,
        0.06242230508736045,
        0.2575817493591198,
        0.24181381145819078,
        0.10138316773951404,
        -0.015139971176974189,
        0.22382424043068383,
        -0.12196847135699043,
        0.058457872157118715,
        -0.17819049197155956
      ],
      [
        -0.09895056551793484,
        -0.21842367384340944,
        0.04554520311845113,
        0.21650272974021684,
        -0.1705013350381337,
        -0.1977780922126999,
        0.2458586114917255,
        -0.31462396736752574,
        0.0022340348933490763,
        0.03205082790596194,
        0.061976967796594395,
        0.10756936079714863,
        -0.08658894239050717,
        0.22263737431920905,
        0.12473960554206469,
        0.2731113809739899,
        -0.023883254924883426,
        -0.25480475060714314,
        -0.14062821351078872,
        0.02510374548647433,
        -0.0003386226196896903,
        0.0026434239807178743,
        0.08852837407271694,
        -0.21780931487792926,
        -0.00389108695122,
        0.3405834711580143,
        -0.1180641619735214,
        -0.0714126089359579,
        0.07605879611430584,
        0.1490409043108943,
        -0.16822315881865235,
        -0.1319965568876919
      ],
      [
        0.04406981370004186,
        0.15024387684340137,
        -0.014600781776919492,
        -0.030375618723406623,
        0.08112021590068527,
        0.45660458870441484,
        0.19787784192342836,
        0.09502009908611339,
        0.06971695507261923,
        -0.18773141965189186,
        0.37311444359392987,
        0.23235861726519558,
        -0.09033326332628829,
        0.2130055096485002,
        -0.09476338393978503,
        -0.05539698644369244,
        -0.3423946021388243,
        0.12354871602524257,
        0.11334739917982155,
        -0.314298942254801,
        0.379551154921425,
        -0.3890818210163077,
        0.014785718468435956,
        -0.18953740965026217,
        -0.3023099126318919,
        0.17505193614393144,
        -0.02735105535989996,
        -0.12602369228139296,
        0.08786470709345873,
        -0.2669661160883503,
        -0.020723602262194763,
        0.11836042989731026
      ],
      [
        -0.1264534725730199,
        0.22355578968537598,
        -0.025678301778742165,
        -0.32449543440305223,
        0.28821908710012273,
        0.04385852486244795,
        -0.228730232980458,
        0.07163511495044297,
        -0.23045797633607856,
        -0.06925215162366541,
        -0.013385843628641703,
        0.0646917279522299,
        0.1932537576681557,
        0.4235414132998236,
        0.11923942147094865,
        0.09457361352823469,
        -0.35380036964643663,
        0.1107699621175786,
        0.2768284146622116,
        -0.037407572942609435,
        0.33273015255639676,
        -0.0440984875327683,
        0.03193068696826898,
        -0.03165908179883667,
        0.10995877974084334,
        -0.21012855259293808,
        0.08657411058832878,
        -0.20208291426170527,
        0.2269114285373221,
        0.14250608394203462,
        0.24389485599445943,
        -0.30531421199370234
      ],
      [
        0.0033445656412258136,
        0.147711948034682,
        -0.14987096974679645,
        -0.028044910390777052,
        -0.11015975384976925,
        -0.13165345821914376,
        -0.08716337839806737,
        -0.0011941836314406937,
        0.006734844319645874,
        0.11511919220963718,
        -0.027312117414186453,
        0.16497040551557468,
        0.05688476680906493,
        -0.07304061139135064,
        0.1278913768238333,
        0.04826219644330836,
        0.13419984871096594,
        -0.05932004179250007,
        0.05501011210780333,
        -0.08137419671234436,
        0.15096225890694115,
        0.10474011900193932,
        0.03592086280678546,
        0.09077325085049663,
        -0.08797218506308432,
        -0.0786167788105762,
        0.1303939135357264,
        -0.0770366074598779,
        -0.14612002593179332,
        -0.016857804640572734,
        0.16730042370139497,
        -0.08993860553697652
      ],
      [
        -0.055699104148501634,
        -0.03520412430213094,
        -0.16746151612679638,
        0.08544059144621276,
        0.07215540717966089,
        -0.048314815078394045,
        -0.027022092797146534,
        -0.11996577407846058,
        -0.04677338785072018,
        -0.004721667383304161,
        -0.02783064780188145,
        0.09639017223261656,
        -0.14415458253257515,
        0.06296092209483728,
        -0.03590440040561457,
        0.11553201789026195,
        -0.01367855886942311,
        -0.07847591948577562,
        -0.12185808350068669,
        0.02196596527336188,
