{
  "version": "1.0",
  "config": {
    "vocabSize": 43,
    "embeddingDim": 16,
    "numLayers": 2,
    "vocab": [
      "[PAD]",
      "[UNK]",
      "[EOS]",
      "the",
      "quick",
      "brown",
      "fox",
      "jumps",
      "over",
      "lazy",
      "dog.",
      "this",
      "is",
      "simple",
      "test",
      "sentence",
      "for",
      "training",
      "pipeline.",
      "machine",
      "learning",
      "fascinating",
      "and",
      "powerful.",
      "neural",
      "networks",
      "can",
      "learn",
      "complex",
      "patterns",
      "from",
      "data.",
      "natural",
      "language",
      "processing",
      "enables",
      "computers",
      "to",
      "understand",
      "human",
      "language.",
      "deep",
      "models"
    ]
  },
  "weights": {
    "embedding": [
      [
        -0.1396138187844692,
        -0.14550356999972947,
        0.1951494773226179,
        0.22156865315192942,
        -0.17954366129469956,
        -0.05521173988331918,
        0.0489531081928527,
        -0.20569861400327316,
        0.051155810607801167,
        -0.014630439664250483,
        -0.002657794378529421,
        0.1652338399367056,
        -0.12421221044752295,
        -0.07481242406662325,
        -0.21068119677786024,
        -0.104561565467999
      ],
      [
        -0.1881043161487609,
        0.06718182369121273,
        0.15971442593140295,
        -0.08332287358167678,
        -0.09803874572640814,
        0.16009710947705735,
        -0.2257459423575091,
        -0.24193496403830828,
        -0.0900025159051765,
        -0.04205904907098723,
        0.06406132022739597,
        0.1661008670205888,
        0.07101457230938901,
        -0.11983345729628969,
        -0.16127307443379657,
        -0.05997788568306106
      ],
      [
        -0.03407835153265726,
        0.11601601276348383,
        -0.02560671255106428,
        -0.0018471054423814248,
        0.1656409411522669,
        -0.1978111449905796,
        0.20747608791562877,
        -0.0582862750943447,
        0.000693323156750858,
        0.21614384950289955,
        0.11791001695205561,
        -0.1223819806147447,
        0.1640058269126473,
        0.15200629073317495,
        -0.012774920237656917,
        -0.08764637086455473
      ],
      [
        0.0046509333034498454,
        -0.02205313888951514,
        -0.23390476192194876,
        0.1639946976908018,
        0.24661778745961863,
        -0.01645364623247432,
        0.2133386003461378,
        0.046834149492661445,
        -0.22812430996458533,
        -0.19727162301659512,
        0.19743759599974395,
        -0.21202064682290186,
        0.060458263043492874,
        0.12008629238732457,
        0.23457932737133355,
        0.15416382551479013
      ],
      [
        -0.13911491683927796,
        0.1982198347513831,
        0.1399337465849462,
        0.18940902503030216,
        0.00008346322205746582,
        -0.052955231197461296,
        0.06384822252095991,
        0.11343543076455136,
        0.021473983684951074,
        0.07794483549079553,
        -0.025019628803299988,
        0.060961748426638616,
        -0.1351995604528544,
        -0.03554109508948463,
        -0.23481077786145563,
        -0.24370345735729407
      ],
      [
        -0.07645583741145402,
        0.04399786865777443,
        -0.20446957668714622,
        -0.013107267591388139,
        0.1221987545275769,
        -0.13973213718213076,
        -0.05595092691001623,
        -0.10687938921912353,
        0.14391758618803235,
        -0.10083833764373408,
        0.012165271074282068,
        -0.19912205258698432,
        -0.15343499004639427,
        -0.04497824244994663,
        0.06877376955404921,
        -0.2367384943376317
      ],
      [
        0.13248094279099726,
        0.0344957677623718,
        0.1666734476631315,
        -0.008013650480984435,
        0.11428260264851876,
        0.01539771373362108,
        -0.17559915868894282,
        0.017340815307310926,
        -0.19375791813917695,
        0.11724523337255459,
        0.24456217363834473,
        -0.1909373675424542,
        -0.03200415387729371,
        0.021228817994077047,
        -0.05156409314523805,
        -0.12097165201101599
      ],
      [
        -0.046722731409640776,
        -0.0644512668148087,
        0.1401309646828645,
        -0.1676847969625899,
        0.166416701992149,
        -0.04786264558468692,
        -0.00019605666746418766,
        0.009685239817315366,
        0.22535138314549394,
        -0.1770242631281324,
        0.24523693904599753,
        -0.09908371800240044,
        0.12007022436509487,
        -0.10918618195948304,
        0.16412399043505116,
        -0.19028300650374488
      ],
      [
        0.044217058804242954,
        0.009980392538272086,
        0.0763347363877131,
        0.1710187097339363,
        0.19917434931783778,
        0.0940890986791003,
        -0.0621707379703243,
        0.17999488034115013,
        0.19721027058143376,
        -0.1623126865676898,
        -0.14676253917913895,
        0.18259968524744422,
        0.06679226904418029,
        -0.017522795577716258,
        0.13350696065201634,
        0.1502482069561448
      ],
      [
        -0.2140983442848711,
        0.06939454462182433,
        -0.18513417119929318,
        -0.13802283999933676,
        -0.23526890354765578,
        0.06672253663771399,
        -0.09195565771082415,
        0.21958729968949073,
        0.10451531924268238,
        -0.043952773920319356,
        0.01727295945122463,
        -0.16095129778850553,
        0.1888361284760086,
        -0.12191454721587161,
        -0.15438394095177227,
        -0.07067547578688414
      ],
      [
        0.06521427640168105,
        -0.12475454348966968,
        0.0405352251415517,
        0.22439611259815098,
        0.033001153268913244,
        -0.22230329858013717,
        0.04164893610444101,
        0.16191609862512182,
        0.09721267844763049,
        0.12934614273645248,
        -0.17291561556132118,
        0.2264476247858603,
        0.19848369750699724,
        0.022644684786260534,
        -0.20444801697940249,
        0.21651905618252656
      ],
      [
        -0.06749535982905958,
        -0.22786077645538777,
        -0.20365097657225742,
        0.23989907873299662,
        -0.16647992402995757,
        0.237091788527782,
        -0.14167912812180927,
        -0.041891208137868514,
        -0.20893852132974342,
        0.09077472112189448,
        0.1189214667996783,
        -0.12765840351437122,
        -0.06983802958658454,
        0.05003464432362717,
        0.017222012258746422,
        0.06166348126197738
      ],
      [
        -0.21220676022524565,
        -0.21450174691240745,
        0.13479749428743687,
        0.10098490658609366,
        0.01596075901760552,
        0.16689078477491912,
        0.09796499966325804,
        0.22901898269982585,
        -0.17400784355506607,
        0.2479072412637115,
        0.07743507896754553,
        -0.023641171835185833,
        -0.08669212020850871,
        0.06238416260407746,
        -0.06196165825543931,
        -0.051962576285099246
      ],
      [
        0.03964393409867806,
        0.20514335942438705,
        0.21315993012832965,
        -0.10264559401992165,
        0.22524724390375953,
        0.04324366208910457,
        0.14664074010385159,
        0.20614524160954828,
        -0.21623686539268705,
        -0.03357763632297224,
        0.1424840601159202,
        -0.05695162146273665,
        0.20427532656115038,
        -0.0789375183589706,
        -0.22665353469333618,
        0.06778262041911613
      ],
      [
        -0.24067584390458022,
        0.06906233158678805,
        0.15771393895396163,
        -0.2061996247822284,
        -0.08956607966964947,
        0.17181701075556982,
        -0.09995001066058654,
        -0.1998168702777069,
        0.031126461432268437,
        -0.0462559234344242,
        0.21009491291575808,
        0.02105444784525738,
        -0.07538368669801879,
        -0.17499052342950247,
        -0.20756610614472665,
        -0.23959313598922372
      ],
      [
        0.1273778098393652,
        0.06583832789535059,
        0.07669977469580248,
        0.2255465522914226,
        0.07643567836876267,
        0.15926847314038536,
        -0.17857702235938408,
        -0.16162777233819434,
        0.20311897684750893,
        -0.11584220818944092,
        -0.2001340571854347,
        0.08215713317087482,
        0.03598521493085986,
        -0.14149276547382017,
        0.0433884218580413,
        -0.20834643904581968
      ],
      [
        0.1444665232785644,
        -0.15831903728003952,
        -0.09656521225388769,
        -0.05788972768862049,
        -0.24430409001772946,
        0.10090378958153588,
        0.15946286498360288,
        0.07712002830271728,
        0.19868382038696636,
        -0.1654490460867328,
        0.004072336633222782,
        -0.022038927457863677,
        0.16218760462653112,
        0.2010905139180649,
        -0.012860536735294064,
        0.14810953833564947
      ],
      [
        0.16194605041640153,
        0.08069824746665703,
        -0.1044860529069665,
        0.1570370854752651,
        -0.006080803846901583,
        -0.11751385417113103,
        0.07825784088167603,
        -0.0188090068252017,
        -0.11460675872667254,
        0.07458031142182006,
        -0.077987297149913,
        0.24834715111757044,
        0.12308914352907852,
        -0.11463678519888171,
        0.14941182645912596,
        -0.134624642366741
      ],
      [
        -0.018277294046879236,
        0.06776369482676682,
        0.05814491991248487,
        0.17794422470848387,
        -0.11468887067846946,
        0.12170462849539652,
        -0.06617650234201101,
        -0.03500269543812246,
        -0.17999850904746437,
        -0.11488317315617122,
        0.13518702750679082,
        0.07507277840075822,
        0.01735689541137408,
        -0.2293253084716761,
        0.17859485075311657,
        0.15578894076891667
      ],
      [
        -0.11085162793138491,
        -0.07434934962792987,
        0.14094512869841125,
        0.22464566684036474,
        0.09966783952897637,
        -0.015410611878302203,
        -0.18146148550295849,
        0.0016883602291970848,
        0.12657034191717215,
        0.036780871456659016,
        -0.028860517612489204,
        0.02302269392004205,
        0.17945495027754868,
        -0.1456475920023051,
        0.21509006399344346,
        0.05690073735042409
      ],
      [
        -0.20990511912679294,
        -0.09532747311170855,
        -0.07749874988804258,
        0.17125836136487452,
        -0.03204252727933961,
        -0.10450803822516476,
        -0.2237543692550231,
        -0.1828950542583204,
        0.06512098621643642,
        -0.23736530353374333,
        0.07792870122221195,
        -0.04270895981924118,
        0.21016227500435597,
        0.22132150359888444,
        0.12595136815517471,
        0.17510577452979337
      ],
      [
        -0.2065573964869741,
        0.2271458148321003,
        0.15384536995952489,
        0.19815984547336388,
        -0.1865354142143763,
        -0.0006204000554622155,
        0.17175666220993038,
        0.037849815177444686,
        0.17208738166342405,
        0.11447090618844641,
        0.08248415234102693,
        0.014253103681057932,
        -0.11810685003633141,
        0.14631724390976045,
        -0.10322323973925995,
        0.24493454291254005
      ],
      [
        -0.034266753007375986,
        0.08484806106500364,
        0.04534874968536336,
        -0.197323390326568,
        0.018803402005415967,
        0.1785995082223875,
        0.16641082795583,
        0.09197157066773297,
        0.1631321784432473,
        -0.1292212365797066,
        -0.1656153005387108,
        0.23505955207219234,
        0.15719907784881504,
        0.1600509162553201,
        -0.21512212663482963,
        0.07667185617182032
      ],
      [
        0.10694316335999168,
        0.14756928364529495,
        0.07992733658099317,
        -0.22037114559842114,
        -0.18972147086357352,
        -0.208119005776248,
        0.030392811186646242,
        -0.04976392969136926,
        -0.09278638017544139,
        0.15649898512919394,
        -0.22854138549495093,
        0.06847969837852692,
        -0.027200315740474178,
        -0.16888988112701478,
        -0.1755379504043282,
        -0.1262599354761729
      ],
      [
        0.08697279528622608,
        -0.13682985690604743,
        0.17652321033538848,
        -0.2469985563960263,
        0.16297534613713296,
        0.02712903252587265,
        -0.0896452349307129,
        -0.03613014168786562,
        -0.09101228650395396,
        0.21900199327146586,
        0.005653085318938776,
        -0.0944364617224013,
        0.2125892656431096,
        -0.24839045649998626,
        -0.02230120302269687,
        -0.04500945317594133
      ],
      [
        0.06443994445599707,
        0.19581266656445404,
        0.21002003593246527,
        -0.20725686525528836,
        -0.13919153485119284,
        -0.06010811372147577,
        -0.06835444252263606,
        -0.05981083125453519,
        0.03789338135358253,
        0.13069363127854583,
        0.21946608174403615,
        -0.0784949039286652,
        -0.07854436432124973,
        -0.08783204246342012,
        0.05898266097123736,
        -0.06088479372426607
      ],
      [
        -0.2522734182040443,
        0.2158191718021158,
        0.1878864676373846,
        -0.13797824976146303,
        0.23585993652158682,
        0.15878226191960465,
        0.19610125552821434,
        -0.16029049431363437,
        0.13428579643224864,
        -0.20253843761088888,
        -0.054841684553724915,
        -0.19963208452569106,
        -0.18589629139127947,
        0.054101864388305776,
        -0.1604296448984969,
        0.24303057134807787
      ],
      [
        0.21460738671879437,
        0.10396595105578597,
        0.061264145783139025,
        0.07910481822317643,
        -0.035132033813998265,
        0.022754497242461653,
        -0.18122603287571368,
        -0.12123424455131335,
        0.15533900756900643,
        -0.2252719354150963,
        0.1080042457120994,
        0.11952466092904639,
        0.08177600471932522,
        -0.08718865596803903,
        0.21746213338111534,
        -0.06029462846504405
      ],
      [
        -0.06194771552075116,
        0.1318474513238207,
        0.041013584520466745,
        0.006105438826901373,
        -0.10974186011654266,
        -0.15729000861483602,
        -0.18608137526990512,
        0.1965617343981924,
        -0.07908890815368354,
        0.041791456550632954,
        0.23657806030442724,
        -0.11730845930066815,
        0.07307142355480557,
        0.051920771666888264,
        -0.2075669504014356,
        -0.12332820097981521
      ],
      [
        0.02701629855395891,
        -0.12447480535684027,
        -0.2391169325341719,
        -0.1935851247923761,
        -0.1266156272299237,
        -0.001339859644514496,
        -0.2133966113169852,
        -0.13789978805948414,
        0.16411562236661717,
        -0.11000228482029006,
        0.19385062732600625,
        0.1250895565041934,
        -0.1910505070192328,
        0.22550983751665607,
        0.15580740715704697,
        0.09191201516953514
      ],
      [
        0.1096862033687296,
        -0.10496675797718506,
        0.1697664051883898,
        0.0684609596791412,
        -0.2298950492196136,
        0.14254145200286858,
        -0.012799014199942303,
        -0.15513994492881744,
        0.10863224619086717,
        0.20417964314609754,
        -0.2034976424496592,
        0.005359533521900103,
        0.18861804447622707,
        0.05095291945239844,
        -0.032276739847736706,
        -0.10545125138813966
      ],
      [
        0.1919306232414081,
        -0.11364933448170333,
        -0.06702312664685661,
        0.18692087372397195,
        -0.089059402926862,
        0.14489044790976666,
        -0.05850787653164368,
        0.09069235377579919,
        -0.013098809624511364,
        0.060241990321647586,
        0.17127189786067007,
        0.20462344473584276,
        -0.2493587116652318,
        0.14274482883647419,
        0.1470287964777355,
        0.03301430186779724
      ],
      [
        0.08584077062952616,
        0.21619885365786345,
        0.07036915337646632,
        -0.16868015516238682,
        0.15283560059777426,
        -0.04286189913682314,
        0.08164075201109494,
        0.07439202992146864,
        0.08305485586076579,
        -0.06960175963505907,
        0.19162971044917343,
        0.22093482521141847,
        -0.10103804585713994,
        0.18988267075432472,
        0.13281464902344514,
        -0.1528362399738487
      ],
      [
        0.1324713925414305,
        -0.019182350822842274,
        0.23318475551716691,
        -0.19046666922539487,
        0.07457895144202421,
        -0.0881950453188623,
        0.11920384602763139,
        0.06195197755089136,
        -0.16896414460898093,
        0.11564613513239612,
        0.21887687197682443,
        -0.07412246224440935,
        -0.0647095141801403,
        0.22715541136422246,
        -0.008685908437205308,
        -0.13546262677392112
      ],
      [
        -0.13226623164097703,
        0.14551607370275527,
        -0.08592700965846294,
        0.2407015840051302,
        -0.01784551191533465,
        0.0772033132187655,
        -0.09304384065181553,
        -0.006500828833927451,
        -0.12304770475043864,
        0.09354559139701998,
        0.18296550220373975,
        0.06519350643478031,
        0.2067928436257803,
        -0.0756542463580071,
        -0.1082696248397323,
        0.05538128138333775
      ],
      [
        -0.21964741125189793,
        0.0964346922760228,
        -0.020794474748075675,
        -0.11491023108123818,
        0.03548389296183603,
        -0.24309781475608627,
        0.22661517674012496,
        -0.0026358635552731994,
        0.08963033374903139,
        -0.1832162138665906,
        -0.11031708588035334,
        -0.16778900029809732,
        0.19226682832518785,
        -0.10014422267290524,
        0.12975405659082018,
        -0.19890347820031937
      ],
      [
        0.005512501509834604,
        0.07566166414992746,
        -0.03713610614455383,
        -0.001659212261857236,
        -0.036716933950450996,
        0.16056525700226165,
        0.06809332873711653,
        0.15699223628711878,
        -0.16161893965709292,
        -0.030753394857524798,
        0.06441911553500583,
        0.04110129505051819,
        0.02462086196982208,
        -0.08873744005241191,
        -0.06690746157177895,
        -0.04700752133463682
      ],
      [
        0.03502120502802281,
        0.2226633239627167,
        0.13175969011618777,
        0.00665212196948386,
        0.0479231984353123,
        -0.04865278573425347,
        0.12009000539215971,
        -0.10233945675362255,
        0.012847568522639269,
        -0.09554600589562634,
        -0.22789630902411995,
        0.231733780813763,
        -0.11414369084004354,
        -0.08300955604024467,
        0.20155315285438855,
        0.010303263419840652
      ],
      [
        0.1892987238249143,
        -0.2131127551329387,
        -0.12429289039707352,
        0.18595180766260372,
        -0.03879100722710869,
        0.1534420161142885,
        0.1891382246496384,
        -0.16172566701134541,
        0.18494321243653358,
        -0.19372440051252232,
        -0.020844420096463367,
        -0.1404884425819698,
        0.19690631208430392,
        -0.0957950765356343,
        -0.00965284553902641,
        0.1970485316643861
      ],
      [
        -0.13482180514819067,
        -0.2377435500014684,
        0.133998564644383,
        0.0531743743082752,
        0.029321391772312286,
        0.13661981090720893,
        0.23525617173099625,
        -0.0023386933248209438,
        0.0613645352330178,
        -0.09413341839466924,
        0.12271503774460761,
        -0.09585355379287765,
        -0.10795504955999037,
        0.22458813712306946,
        -0.02043047019535048,
        -0.1737045971298621
      ],
      [
        -0.06396939023900353,
        -0.14661442725967358,
        -0.1272871219886242,
        -0.011294127364116014,
        0.010233715821695525,
        -0.0265889712904418,
        -0.13458295918446242,
        -0.20490051550068744,
        -0.11748450850455097,
        -0.09778318044270837,
        0.21219629123629655,
        -0.014035448213654269,
        -0.025373288716570165,
        0.07280398968532678,
        -0.011685008670923891,
        -0.16986392336737727
      ],
      [
        -0.07933107209338316,
        0.007213396216196504,
        0.08329380724098959,
        -0.1651181262349418,
        -0.02961384718905541,
        0.08259781574232411,
        -0.18948002491628976,
        -0.14753150025321,
        0.02452854258552353,
        0.1866574389704635,
        0.03134671018206716,
        0.06866621770327275,
        -0.006960583645186707,
        0.023041012214532825,
        -0.028345160992274115,
        -0.0655709698027857
      ],
      [
        -0.24082689543197822,
        0.18133559955027556,
        -0.0216163591207561,
        -0.054888260591448024,
        0.18318532657702047,
        0.012465847727452628,
        -0.020421851862059692,
        -0.12268205295094736,
        0.034748831165494876,
        -0.23798192507628424,
        -0.0876996654652139,
        -0.17076560908799965,
        -0.07082175458610973,
        0.13420568211089656,
        -0.11104602548636977,
        0.16137774689034368
      ]
    ],
    "transformers": [
      {
        "wq": [
          [
            -0.21471366711914325,
            0.2445922927720366,
            -0.18509656499415064,
            -0.19681917495182727,
            0.15546927767367688,
            -0.1658177262546657,
            0.1927867861588098,
            0.054096475427234295,
            0.13129364507666075,
            -0.027182480199923087,
            0.1511026369683823,
            0.19767335938473293,
            -0.1988044508852774,
            0.20500264685759537,
            0.19251979855057474,
            -0.10457822999320482
          ],
          [
            -0.09401451738052753,
            -0.10950188189816368,
            0.10107281065826759,
            0.18918482843869955,
            0.10909416434670761,
            0.15149989345943898,
            -0.18373422813585805,
            0.12163323319301607,
            -0.18039133790932677,
            0.06237465824624152,
            0.0572356683898336,
            -0.02380764675939064,
            -0.09420742943986053,
            -0.15618501564944257,
            -0.022653052943108473,
            0.2457855150279681
          ],
          [
            -0.14969578703026368,
            -0.20562985588309599,
            -0.20025227338700505,
            -0.10335520238581425,
            0.07582933765371186,
            0.18702491572052118,
            -0.17822842481663045,
            -0.13397311328675376,
            -0.030974729212042255,
            -0.24914526130060768,
            0.1692091384165705,
            -0.057630932801637356,
            -0.14530427933602036,
            0.0766389841238046,
            0.017107214420469783,
            -0.23777635667088762
          ],
          [
            0.08118773209424686,
            -0.23575426690398338,
            0.23901195893983512,
            0.02858734968696073,
            0.05707006369868393,
            -0.08066993783619235,
            0.1943475113733935,
            -0.1387594357868641,
            -0.028219435898295064,
            -0.046673929298594145,
            -0.03425233779932531,
            0.1937523904292233,
            -0.07082010438766849,
            -0.22394781498414704,
            -0.15835747131557965,
            -0.029804886193590813
          ],
          [
            0.10377485289238025,
            -0.03313355874590845,
            -0.23022426186165088,
            0.0790308823746602,
            0.16839910088880908,
            0.04380857032393967,
            0.028789433578036157,
            -0.21109342820744975,
            0.009477011628924755,
            -0.008748825100535384,
            0.22191841007311303,
            0.061761001933541566,
            0.07133935563070884,
            0.02436135669333565,
            -0.21180167240858444,
            -0.01190161635303478
          ],
          [
            -0.06625927675045468,
            0.12670814132944855,
            0.038130733815617615,
            0.09080647678155625,
            -0.1905053743926254,
            -0.013009798165948829,
            0.21076015169274673,
            0.025083769478126492,
            -0.08516540096889495,
            -0.21966723418642095,
            -0.0024254287650966218,
            -0.07075971782424172,
            -0.0645728625505161,
            0.0615875841684026,
            -0.08322566462973123,
            -0.22832692648157984
          ],
          [
            0.002224970288717378,
            0.10216756872659871,
            -0.07302331573224054,
            0.11116601769882126,
            -0.21976352683692,
            -0.12111761596986076,
            0.01577239679492548,
            0.22341918640465203,
            -0.14728782537826138,
            -0.028632834664843364,
            -0.04768903315204932,
            0.05694468189551081,
            -0.15912884630950025,
            -0.0237444919067532,
            -0.06929558222192102,
            -0.072093756996499
          ],
          [
            -0.14824883233461866,
            0.21443512581177268,
            0.055549795977989376,
            -0.19323284425375103,
            -0.17619616358581291,
            -0.11769075384679172,
            -0.023037838911682984,
            0.13234196986779312,
            0.21683074440336583,
            0.007573899515787414,
            -0.006833323736801508,
            -0.11926673755621142,
            0.21656149473478736,
            0.08724669610764733,
            0.07154228785682334,
            0.17266311030264403
          ],
          [
            -0.1243678166695095,
            0.23102743035365877,
            0.07442097125928249,
            0.07753700921754418,
            -0.12236766964345283,
            0.05487010780785925,
            -0.04642704147124258,
            0.1829862962296087,
            -0.12412046226883862,
            -0.14943496943216636,
            -0.032812270183225495,
            -0.10709153240364278,
            -0.053065656546378785,
            -0.18223012788927181,
            -0.16192877274655934,
            -0.04661257104191765
          ],
          [
            0.0758651409423877,
            -0.05893979330305114,
            -0.09417584523719282,
            0.07394055080334323,
            0.12129436874459215,
            -0.11798519581374153,
            0.18656611263474432,
            -0.2446474760441029,
            0.13941696090634034,
            -0.1487755675694094,
            0.14365329452403405,
            0.13556861051808064,
            0.1474838640896211,
            0.0839992250673105,
            0.06491320646988061,
            0.19938892128977576
          ],
          [
            0.20006297612464635,
            -0.24575492453012027,
            0.043242846046732376,
            -0.07892707176600192,
            0.22265446722209495,
            0.10360279726535282,
            0.0906373898389514,
            -0.01826024617767218,
            -0.21845501573376694,
            -0.04031366068062808,
            0.1608233304431941,
            -0.16317774531020668,
            -0.18000684953399615,
            0.24325518959183348,
            0.08866443141362315,
            -0.1862997988296834
          ],
          [
            0.19596231795404723,
            0.23759980982760262,
            0.1083748476307691,
            0.2046994560526664,
            -0.1391737159465715,
            0.08265495357364769,
            0.17243016866139943,
            -0.23218609805266804,
            -0.23579117706586358,
            -0.2391735715486362,
            0.006164717798636113,
            0.22072212153204857,
            -0.23330904929576007,
            0.09882355804366749,
            0.04637376780037241,
            0.22472129249040115
          ],
          [
            0.10251380002292572,
            -0.23023374523238532,
            0.1178508948865247,
            0.21436062216725113,
            -0.19641300154756286,
            0.0852060255753025,
            -0.030618532888506324,
            -0.2425560751179411,
            0.0363038266189245,
            0.12393509123534036,
            0.027668086006811053,
            0.15710333355971967,
            -0.19010625730559846,
            0.024171568279182765,
            0.13235089416651458,
            -0.0639024574803429
          ],
          [
            0.09944874234979437,
            -0.02058172164028397,
            -0.21696176608873002,
            -0.05476358567212745,
            -0.0017268742511387105,
            -0.07993504632943882,
            0.1878542250877704,
            0.1771587455220149,
            -0.07216223495321483,
            -0.23029373662957492,
            0.2450613259648049,
            0.16114862637320662,
            0.016643573107532,
            -0.12051973765733227,
            -0.20071818168147337,
            0.058258300190117684
          ],
          [
            0.06346112029394971,
            -0.0025258187581749304,
            -0.04373488713826337,
            0.24717786601030248,
            -0.14276412097362426,
            0.03361808606130226,
            0.19969254449334528,
            0.17594646116277407,
            0.18848610395508233,
            0.22679238865672632,
            -0.060261306908772405,
            -0.13567449739122742,
            0.20107761760865384,
            -0.0246909343203935,
            -0.06691214845926394,
            0.18758680175291223
          ],
          [
            0.04585164785335148,
            0.0989991480557335,
            -0.13522485890180513,
            0.15377045259391497,
            -0.157260207640016,
            -0.16870370455453507,
            0.1735053410292049,
            0.11983325221432624,
            0.16520307445299032,
            0.13015922259704799,
            -0.000963209294026889,
            -0.1063399058842667,
            0.20925230181653617,
            0.22811535150525586,
            -0.21100124124474548,
            -0.09471334565590836
          ]
        ],
        "wk": [
          [
            -0.13359848841855657,
            0.14709315059731373,
            0.05716533766127991,
            -0.10565352766156035,
            0.0805465714498447,
            0.13043475185629352,
            0.12739078121699063,
            0.04712702333997881,
            -0.1022605001039161,
            -0.038941261926160355,
            -0.031079005462191386,
            0.09129160071046237,
            0.08738642376440793,
            0.14292043250846287,
            0.028682393566946747,
            -0.04369584158256138
          ],
          [
            0.1408401674615637,
            0.2079491814111635,
            0.20004155878593272,
            -0.018425552437858487,
            0.10045039638185806,
            -0.07635091360646211,
            -0.13981942002597272,
            0.20540685975295483,
            -0.21878839132014513,
            0.08375937691484196,
            -0.00474893326961649,
            0.22789395496315715,
            0.06646744938260998,
            0.1028588384444448,
            0.08705117680867143,
            -0.22355867783984965
          ],
          [
            0.08565934691002426,
            0.001417079156887615,
            -0.17728121422510415,
            0.2037158087962992,
            -0.16029162386972176,
            -0.004648348370257622,
            -0.0827272227282958,
            0.14826061279044658,
            -0.19056566151622717,
            0.05203238704483707,
            -0.19669647236454466,
            0.2394658571280122,
            0.11824846539023476,
            0.10480941356307281,
            -0.02937374301180272,
            0.1118456810190781
          ],
          [
            -0.11950628667367284,
            0.029807417303735113,
            0.07966632914990589,
            0.006452405837584462,
            0.14464757825285882,
            0.2410976589696658,
            0.12127853341781229,
            -0.11751121958938054,
            -0.15197792714471006,
            0.03712981847847184,
            -0.21255936161882988,
            -0.06723522146695898,
            0.17121954906673229,
            -0.09767522546550567,
            0.11049515916703555,
            0.18629889668898433
          ],
          [
            0.06673425448570079,
            -0.13189558764201886,
            -0.19448085581006663,
            0.11064402753629808,
            -0.24933112534020413,
            -0.07822492107647573,
            -0.0302500579504308,
            0.11821109426084522,
            -0.09489757184109901,
            -0.15090690322762723,
            -0.2164858522005377,
            -0.06916376812643339,
            0.13681392364974707,
            -0.12166203671147924,
            -0.13516355369069505,
            -0.02434049484057733
          ],
          [
            0.13712462259366454,
            -0.12139383595970929,
            -0.22980124463417487,
            -0.07118170387452274,
            -0.110503028520594,
            -0.028335093870679874,
            -0.20755853999103469,
            -0.029428240536807673,
            -0.22023089180515246,
            -0.05841837345670642,
            -0.22019301511803888,
            -0.14270027834811144,
            0.08133094043119062,
            -0.0755988793124937,
            -0.1307748044162171,
            0.03323119314408281
          ],
          [
            0.135115029970375,
            0.09679370788264714,
            0.23262741968065,
            -0.14445643368474193,
            0.06873226760856785,
            0.052413738032762995,
            -0.2151952636189909,
            -0.19147514820290867,
            0.18875659350724816,
            -0.08353397735017731,
            -0.2442953148209869,
            0.09145838473543964,
            -0.04667206408878426,
            -0.17538556571449812,
            -0.15081399424494474,
            0.0015270333892806126
          ],
          [
            -0.1880120553872114,
            0.0027624788872219258,
            0.08360353809921431,
            0.21979103318758342,
            -0.15736947424400738,
            -0.03028235414929495,
            -0.127710503538356,
            -0.15255574511440126,
            0.20801265307105957,
            0.192074971495097,
            0.24843153572508697,
            0.07532975931236191,
            -0.17102494505139507,
            -0.11889562884497859,
            -0.19439902437525247,
            -0.01867710983710216
          ],
          [
            -0.23047967328819388,
            -0.16100577646867917,
            0.031090443373262385,
            -0.04285209818370557,
            0.1498385195234427,
            0.0205320780261331,
            -0.0805666065904409,
            0.13551849784307152,
            -0.12046415500678395,
            0.1319325228706827,
            0.16127992097501126,
            -0.1532680787033142,
            0.20249009954608674,
            -0.19802315528962425,
            0.035785861163991656,
            -0.0006727931924798774
          ],
          [
            0.04345236236399753,
            -0.04846606899641575,
            0.1637632594132649,
            0.21057623979986687,
            -0.23926932383947147,
            -0.036746702979844406,
            0.17661687058196401,
            -0.21792429127066337,
            0.0012184738715978244,
            0.19386166810459057,
            0.19005486528913493,
            -0.2230201272394674,
            -0.12314579811178109,
            0.23243958771575388,
            0.012878100577878073,
            -0.05454146655922
          ],
          [
            -0.12891805285993127,
            -0.18418475613313792,
            -0.05149486192371542,
            -0.05581378440364411,
            -0.1387482705922754,
            0.20961685249618092,
            0.004474117757422342,
            0.19297752559305145,
            -0.17378697909506838,
            -0.1243929051564945,
            0.055667340451928456,
            -0.14470387216768452,
            -0.10572524293202787,
            -0.1906899838805753,
            -0.10900533117655187,
            -0.19008484606276638
          ],
          [
            0.1468834151983002,
            -0.17913145725082844,
            -0.15667311147784638,
            -0.21378585945281445,
            0.19901204935227765,
            -0.1701603437111177,
            0.2366350497385658,
            0.07429665131275807,
            0.09182390995313618,
            0.09677246926712157,
            -0.21299154661965228,
            -0.2148643224511363,
            -0.22836498733612778,
            -0.0344263795895877,
            -0.18406054337641684,
            0.11387155222284571
          ],
          [
            -0.20226401968990523,
            -0.22053156527050238,
            -0.031469886622409654,
            -0.24363252882475878,
            0.22015204884877176,
            0.013056241495421377,
            0.008894585621109577,
            -0.10622193336747723,
            0.017905523922637067,
            0.16298635113328142,
            0.022079190979749017,
            0.22960478876668933,
            -0.08892033434719238,
            -0.12629592857205804,
            -0.2237609465222983,
            0.20644282759663724
          ],
          [
            0.21482679725027917,
            -0.16259417590263828,
            -0.06253304746902275,
            -0.11916406381801697,
            -0.11262847060836731,
            -0.025525557368538263,
            0.2404831307454434,
            -0.09223048952083085,
            -0.0631448960738212,
            -0.07713348225343745,
            -0.04134239787348294,
            0.0762220618685141,
            0.2398048869218263,
            0.008605780425928362,
            -0.015085310676907675,
            -0.1836836312441307
          ],
          [
            0.23507320256057024,
            -0.08659054330366184,
            0.22002434677686736,
            0.10005625025280564,
            -0.09384532356120923,
            0.12129493802090333,
            -0.18113862457206675,
            0.15868577631604294,
            0.12179931464714124,
            0.13822377431512514,
            0.10761931487102215,
            -0.20767384976982745,
            -0.03965330903572534,
            -0.16423274059836887,
            0.1340825548313717,
            -0.11894322729559748
          ],
          [
            0.24631633730871832,
            -0.11711970344119958,
            0.05087375031310694,
            -0.20659533776355932,
            0.003241696631173531,
            -0.15323901210603738,
            0.1663618515508681,
            0.19984801885221895,
            -0.08279126214622219,
            0.06693462033174997,
            0.1091343810016181,
            0.06628693770073835,
            0.21683670192801238,
            0.17295101431110707,
            0.16659056668659028,
            0.10495709399003539
          ]
        ],
        "wv": [
          [
            0.18936118005728178,
            -0.09329568030244718,
            0.16176289065908278,
            -0.18548437091877046,
            -0.1438654560188476,
            0.045344383049376026,
            0.15870937241299932,
            -0.06472721524738141,
            0.17168522942510644,
            0.12368954493894786,
            0.09990285048098176,
            0.06641529688415086,
            -0.11595090294832053,
            -0.18983236808436188,
            0.10685093114034942,
            0.20365011689479995
          ],
          [
            0.021768252262770654,
            -0.2168886227624353,
            0.03518848148942055,
            -0.0986577464826028,
            -0.07704227580602221,
            -0.07734274782966806,
            0.06569195397906694,
            -0.0237968011833897,
            -0.1416246452056455,
            0.24085018251580745,
            0.11492244119719716,
            -0.23943914859406615,
            -0.1294355478963488,
            -0.1773526489335729,
            -0.1574259183102943,
            -0.10758605353088489
          ],
          [
            -0.24514170205278127,
            -0.11177155215358042,
            -0.054210275283152434,
            0.1858501575827919,
            -0.2085976729726655,
            -0.031194667112074262,
            0.15559851180616302,
            -0.12158477830587906,
            0.031513365439640846,
            0.22692725312356662,
            0.21259703523655368,
            0.15021384628410808,
            0.20447183451279008,
            -0.02600333938170214,
            0.08544832128525716,
            -0.16127612019585455
          ],
          [
            -0.2300975596581457,
            0.07661275480191253,
            0.045950737540271375,
            0.1997316006894078,
            0.06201914899228042,
            0.005173568940908485,
            -0.14142767933657624,
            -0.1578738130630476,
            -0.1153021624378539,
            -0.1709249144417146,
            -0.061167940845788825,
            -0.21171953018533854,
            0.22874058809652145,
            -0.18524877567327377,
            -0.24513256798511512,
            -0.025000243559841956
          ],
          [
            -0.1812704418437936,
            -0.04168104200069923,
            0.19681542243421388,
            -0.01051616160766484,
            -0.1267357875148483,
            0.19050276544945624,
            -0.2294880459087098,
            0.17626686031709055,
            -0.04138882902942632,
            0.20866313570692696,
            -0.08434469330070782,
            0.21199192063454753,
            0.05236661483637571,
            -0.02491262406819833,
            -0.008348026823903674,
            -0.09582592534590412
          ],
          [
            -0.18976354470640758,
            0.032213784601655755,
            0.04764670001960462,
            0.08478991224182601,
            0.045377503499549825,
            -0.12060222894181039,
            -0.10536662324140057,
            -0.20816156416163506,
            0.1885516532990121,
            0.22579556028284992,
            0.10939709719463471,
            -0.0585941514351449,
            -0.07148067040981285,
            -0.232321710098247,
            -0.018373205813825202,
            0.12341085073036735
          ],
          [
            0.15225960252963588,
            0.22387745701025744,
            -0.0007180410159922705,
            -0.1714973512194738,
            0.22704102855057368,
            0.002146915901969776,
            -0.10048690821569488,
            0.23514576565561576,
            -0.09208093929113303,
            -0.22146486976078064,
            -0.15037439749213669,
            0.12196416956488546,
            0.197243800710421,
            0.06799940331616244,
            -0.1832002590073242,
            0.10524405291496958
          ],
          [
            -0.18698305335310206,
            -0.21987173037060653,
            0.07819954951248197,
            0.07801512855780948,
            0.23620239257953302,
            -0.03409440771647118,
            0.21702652106782364,
            -0.052377585089085146,
            -0.14850440168896506,
            0.1385293470231631,
            -0.19715989436768752,
            -0.1499699345530554,
            0.17936485931182436,
            0.21719795389348517,
            -0.0055618099754669885,
            0.17518500485736227
          ],
          [
            0.0034273792894315637,
            -0.024414744242949878,
            0.026482743232330526,
            -0.07957108225222097,
            0.10013741252034142,
            0.004728773170572893,
            -0.11989683422782256,
            0.23142921209459144,
            0.08445519298382771,
            -0.08336124292889252,
            0.0796474368585839,
            0.031756788529700035,
            0.13673114697507718,
            0.03972502602128906,
            0.021266293478652016,
            0.20616078771875979
          ],
          [
            0.03545335629697311,
            0.024788455998499492,
            -0.061846107945960384,
            0.15863979593709443,
            0.18792135915465302,
            0.06978867836444562,
            -0.19402483763684125,
            0.22782457151798233,
            -0.12826210132930385,
            0.12645994716174774,
            0.17709836734714546,
            -0.06501446547041449,
            -0.21939691268516537,
            0.19699591374163528,
            -0.10865921552066353,
            -0.018362427106087934
          ],
          [
            -0.09344089308063423,
            0.24854863558124232,
            -0.12410313052608674,
            -0.2487456022892307,
            -0.06856439027808986,
            0.24439166114615624,
            -0.08083583702225754,
            -0.20580452593289408,
            0.07636378542223857,
            -0.21715024672519984,
            -0.16716600181381316,
            0.15545961782881787,
            0.06716041179749335,
            -0.00428872855749659,
            0.1914238287036152,
            -0.2358094952666673
          ],
          [
            0.00646489432547156,
            -0.008037300269237622,
            -0.1670493945523102,
            -0.023245078083903477,
            0.0803983467779823,
            0.16268710530466587,
            -0.01870310964672521,
            0.23825420770137143,
            -0.03858900454246347,
            0.04331758487584947,
            0.05240588805006381,
            0.14423179235688222,
            0.16666315263757148,
            0.046145395966050266,
            -0.20640755816305073,
            -0.057641039580705634
          ],
          [
            -0.07105693454018987,
            -0.026290234553666424,
            0.11034072872958772,
            -0.16463811270239972,
            -0.16231370531961553,
            -0.13986181947029702,
            0.02263403360650891,
            -0.2064950174185978,
            -0.24872383191488473,
            0.1305174946229115,
            0.23171600025820352,
            0.042011978200852666,
            0.21537126520706876,
            0.08121227653639991,
            0.20267849645001204,
            -0.021805916710588468
          ],
          [
            -0.11259492207315155,
            0.16908950031568068,
            0.18717277576757269,
            0.195852568871511,
            -0.17276822427354135,
            -0.24945744985883894,
            -0.03916350942029509,
            0.031244266540945767,
            -0.05864606273322568,
            -0.16049603729708267,
            0.21988126628122698,
            -0.02649243263986829,
            0.048525342860791354,
            -0.20415012807634042,
            -0.012277857158689455,
            0.0669342621634081
          ],
          [
            0.24298291608564432,
            -0.03369933569752128,
            0.13415855317090117,
            0.11615927947016852,
            -0.05708656107577986,
            -0.223041209131634,
            -0.026473337650561,
            0.1608296358322384,
            -0.16288783595574635,
            -0.07841372816602106,
            0.0783111266396053,
            -0.14470022735650415,
            -0.1989177957065235,
            -0.14082418806854327,
            0.021022319296677174,
            0.24119243631478918
          ],
          [
            -0.05673606636971699,
            0.09877724977258953,
            0.17769195278789068,
            0.14496947723073372,
            0.17487550148423517,
            0.2258959069534502,
            0.06659944131401883,
            -0.004121247065254124,
            0.0637985706903141,
            0.22038633185869758,
            0.09776703023888232,
            0.017356110718843278,
            0.11453532291299505,
            0.01850685393963061,
            -0.13319600787139316,
            -0.07125520537553968
          ]
        ],
        "w1": [
          [
            -0.19549620006871318,
            0.14343098092057002,
            -0.06257644157721476,
            -0.001329899062122667,
            0.15064747880054857,
            -0.11977058397229273,
            0.07981686899638778,
            0.2101983129837396,
            0.04833572235697747,
            -0.24574589630469287,
            0.03646258977036421,
            0.020560517214927087,
            -0.15380362066164444,
            0.22074003775026074,
            0.06714452025953765,
            -0.21897462578506102
          ],
          [
            -0.14783636043747456,
            -0.03636438333741439,
            -0.042572844122421905,
            -0.06201316598250001,
            0.23573341790161156,
            -0.0288449497336964,
            0.16911092373610295,
            0.03972555381764775,
            0.17699537260129328,
            0.12578091805727065,
            0.11682034956920376,
            -0.11389232132674047,
            0.01606232188668263,
            0.06763752849523752,
            -0.03258838787529024,
            0.025099009618404083
          ],
          [
            -0.0364543383195503,
            0.17678894119814403,
            -0.23123933464190227,
            -0.08234888368119149,
            0.15120894513548155,
            0.14491446185103724,
            -0.24608069323368462,
            -0.10227736752661154,
            -0.06230013592718975,
            -0.06339327853856298,
            0.10221034432810083,
            0.1169749780199938,
            -0.019072622152140253,
            -0.058519799877882694,
            0.0011140107168463248,
            -0.02466726866540821
          ],
          [
            -0.1040624538308885,
            0.10481038187401501,
            -0.19831884452695558,
            0.1429373600469072,
            0.12092145455436054,
            0.05577292292896645,
            -0.23044664896893668,
            -0.07068539831791643,
            -0.02518420625837059,
            -0.14646419856435447,
            0.23660142007628665,
            0.03046423240166917,
            -0.21011946945700818,
            0.09315104525888362,
            -0.08364710258154705,
            -0.06385491661014853
          ],
          [
            -0.03517969509344822,
            -0.19025871560675578,
            -0.14867328061353968,
            0.16629296054934717,
            0.036591965932066345,
            0.10434892365756009,
            -0.06421293833416451,
            -0.1328047612847797,
            -0.013606125003402858,
            0.16096474140119982,
            0.15897426876532053,
            0.065263318003106,
            0.20400067991594645,
            0.09987479338310667,
            -0.08237649999624194,
            -0.004945176271652663
          ],
          [
            0.22019993167375798,
            0.2168909314026896,
            -0.019472094613816604,
            -0.1691378951881865,
            0.1725996130153443,
            0.001431257278208443,
            -0.10735390963696077,
            0.08833762440690196,
            -0.0798180283446066,
            0.10997843280062185,
            0.2018298109926138,
            -0.1620722573482345,
            -0.21225971210622022,
            -0.1590301951446934,
            0.10582126607299909,
            -0.1511808700205126
          ],
          [
            -0.023008425167043066,
            0.16986998860658092,
            -0.2010851059120845,
            -0.008194471149124069,
            0.007761377442201718,
            0.03920207374235573,
            0.122479603554753,
            -0.24162070999044416,
            -0.08260137237866338,
            -0.229489165244746,
            -0.2472251968468747,
            -0.0577920502382473,
            -0.13331804816981996,
            0.11858534204448667,
            0.14849773741793407,
            0.15536876196030747
          ],
          [
            -0.0695648164026257,
            0.10695331099419239,
            0.0963314981831398,
            0.12819381913789288,
            -0.07548254973826181,
            0.11628925602724044,
            0.046207581045256754,
            0.09083023775982668,
            0.12995701922852299,
            0.16790319090084563,
            -0.16967301764466963,
            -0.23421331541257956,
            -0.19140036685102216,
            -0.11904088548140968,
            -0.21848536852812925,
            0.19796589180813648
          ],
          [
            0.09032968430234134,
            -0.11306269560095161,
            -0.0005297918022487691,
            -0.08561794253532387,
            -0.14091901368125948,
            -0.20448732638731668,
            0.06372807222062023,
            0.07431769793285514,
            -0.04192015958220341,
            0.07428470560499705,
            0.08978259245342333,
            0.22650457267754345,
            -0.14923906407234686,
            -0.14246583336076957,
            -0.1914050942525746,
            -0.011049021357654287
          ],
          [
            0.12911414633288604,
            -0.15614091624277604,
            0.0624621171628118,
            -0.0731369706702651,
            0.18009192932350152,
            0.17886474163725002,
            0.201251860662052,
            -0.23475568076515219,
            -0.13055545919953238,
            -0.04780081069121769,
            -0.1513643657304217,
            -0.04346570410910684,
            0.1049754118351251,
            0.15606856781721878,
            -0.1663833923801005,
            -0.18013288363792518
          ],
          [
            -0.20582131209704602,
            0.145465448405892,
            0.12042333941813099,
            -0.21427823519157904,
            0.18829870301228127,
            0.05505809397318373,
            0.0054848771335495585,
            -0.24523406553027516,
            -0.22662761541514487,
            -0.13699337980696027,
            -0.19844232181344287,
            -0.1520140059758954,
            0.17457737583700111,
            0.17231358278894082,
            0.0963684588861325,
            -0.09955548853238964
          ],
          [
            0.24204660391107616,
            -0.058809007633784244,
            -0.09974516432408098,
            0.14829473916758548,
            0.1641617019850648,
            -0.15786420891121947,
            0.14301293889945796,
            -0.1618909360934323,
            0.20182067233493917,
            -0.1411957547515012,
            0.11576758895045061,
            0.22924619094700827,
            0.14939907563504976,
            -0.11170753873754291,
            0.07434642246821972,
            0.21911565515758652
          ],
          [
            -0.015693631370868207,
            0.23849758230456064,
            0.10830582539520706,
            0.1872034384237075,
            -0.17612499921478203,
            -0.07754476489987108,
            -0.21032676277794374,
            -0.24422488760401573,
            -0.05391905016892229,
            -0.1624471355719604,
            -0.21112396782624177,
            -0.1732041655937925,
            -0.2421515991842418,
            0.21737854468829554,
            0.06764846308486538,
            0.11486936669673402
          ],
          [
            -0.12780774449825574,
            -0.0032882960537413677,
            -0.062325946900071094,
            -0.24791801243538797,
            0.15481731320611572,
            0.025855625598959018,
            0.01921757731340198,
            0.24539494377939874,
            0.13163451651086155,
            -0.2477865240742706,
            -0.20021778504232898,
            0.21597936078556287,
            0.23170320811522782,
            0.19670581731639314,
            0.09863367663258531,
            0.07504659167666783
          ],
          [
            -0.20559522089479712,
            -0.11818712548039911,
            0.23465429652642233,
            -0.08731344573473251,
            0.20450036474564764,
            0.22387202648158802,
            0.009434907849118308,
            0.21024987118207505,
            0.20681962553862177,
            0.06791030875672786,
            0.22094782403869836,
            -0.18975456915944125,
            -0.24940682228421263,
            0.10571585044699516,
            -0.10958274176172425,
            -0.019144049551693892
          ],
          [
            0.19181810144663344,
            0.1551171736944196,
            -0.18026488584900002,
            -0.11968058945967594,
            -0.08376481688815167,
            0.22402826011708124,
            0.22592124568733876,
            0.12728606324281755,
            -0.10337749277690444,
            0.14135092993256257,
            0.09535702600638335,
            0.018886034049145906,
            0.1612720524091245,
            -0.21695689611334634,
            0.20335691037724882,
            0.1641455388795086
          ]
        ],
        "w2": [
          [
            -0.14472532554425224,
            -0.19238409389805028,
            0.10982537137853118,
            0.13345651628239186,
            -0.0024394499023551184,
            -0.13583684442382016,
            0.04840870757908597,
            -0.17385976409019668,
            -0.11998696498370899,
            -0.0617006657768417,
            -0.14127748333597034,
            0.12962570714125968,
            -0.01942179464337841,
            0.1634998342176953,
            -0.04964478235027332,
            -0.051007264581805094
          ],
          [
            0.16359399924420115,
            -0.20857631795608547,
            0.08989378137503237,
            0.011035210105166848,
            0.24078976360202578,
            -0.07721306942604612,
            0.11151535305017159,
            -0.15616058090498705,
            -0.24937519621328635,
            -0.12914790216920782,
            -0.08537020479129509,
            -0.11445644418023261,
            0.04248161022009339,
            -0.1646447215424491,
            -0.21637070862638724,
            -0.16630246869918536
          ],
          [
            -0.005341871068401449,
            -0.08408391384831337,
            -0.1508974966012444,
            -0.21420970835942676,
            0.07545647171776304,
            -0.12164312850788994,
            0.212169232709838,
            -0.24067004541554093,
            -0.004861081509054288,
            -0.23090228798976353,
            -0.13893679981216622,
            0.20613675391423414,
            -0.13551414483477087,
            0.24084235177086444,
            0.06213494343872805,
            0.21986529697964718
          ],
          [
            0.05625640689090783,
            -0.19151352221186743,
            0.14027264612788926,
            0.11040167259507586,
            0.15412934045002183,
            -0.18765042002702614,
            -0.061399152079987133,
            -0.17005904532764754,
            0.1551984707709303,
            0.0012671386299729069,
            0.05233474321421924,
            0.11844445016908028,
            -0.038403516920066084,
            -0.022426795988711955,
            0.23384410656059862,
            0.10436203160078528
          ],
          [
            0.12202717966677935,
            -0.1851362171605932,
            -0.07049245397451942,
            0.19020489532975637,
            -0.08596062749563436,
            0.11790500985609806,
            -0.006958480158548167,
            -0.01861628268358496,
            0.010668272354044805,
            0.10359039525654402,
            -0.088822438176929,
            0.05552443060578156,
            -0.06301615347989965,
            0.07706242270952356,
            -0.14318207787030726,
            -0.09424072698649553
          ],
          [
            0.1607122523870028,
            0.16562542205882871,
            -0.07012237189193087,
            0.13995483068051232,
            0.20954821217550018,
            0.024276048129462005,
            0.08105111838745781,
            0.22580228367615374,
            0.06061062222999968,
            0.018878018680593387,
            0.06845176724054995,
            -0.1734493335263442,
            -0.20381385174355482,
            -0.19117983944840883,
            0.21113214103159628,
            0.23929396015879995
          ],
          [
            0.09324798208776217,
            0.174278313033665,
            -0.20055455518610588,
            0.1981731436129447,
            0.12830967944870073,
            -0.12984629444877419,
            0.05884233777132509,
            -0.03892207857472852,
            -0.07397478184817505,
            0.13999854689229974,
            0.07375615408249382,
            -0.02304903230655312,
            0.18627836223975175,
            0.1936281859314542,
            0.09866630578019257,
            -0.07900360672914002
          ],
          [
            0.1911868462581905,
            -0.05421240200532418,
            0.1204618943011978,
            -0.1558245472508415,
            0.11506344178924277,
            -0.23521503496159868,
            -0.09986001587183269,
            0.20118282276920518,
            -0.08420640247915911,
            -0.10773515812867385,
            0.22725772308977743,
            -0.023698877703211885,
            0.06287557811434341,
            0.017536244142706603,
            -0.13664519350092308,
            0.0020758630447854642
          ],
          [
            -0.01558519827372462,
            -0.054675363683791,
            0.13915371038777757,
            0.1136936603660923,
            0.13650117649597016,
            -0.18660924592264605,
            0.2371555634269853,
            0.04939593382251206,
            0.08764885663404365,
            -0.22116391467567253,
            0.05536688828809311,
            -0.049699368865665394,
            0.10906334524370631,
            -0.045470611684718776,
            -0.1320093937628375,
            0.15192744720123796
          ],
          [
            -0.025106009198576317,
            0.24812486166342873,
            -0.17098668965006808,
            -0.14538238359369254,
            -0.1228683198801581,
            -0.2129113890168585,
            0.11955614332776357,
            -0.2251115535718444,
            -0.23625471345300866,
            -0.0211776523308727,
            -0.19577200028798009,
            0.08287097797562785,
            0.11219612786866319,
            0.11058068336213951,
            0.1938759223906243,
            0.058490336375029366
          ],
          [
            -0.14242099454564305,
            -0.023677511576031728,
            -0.13664400958247275,
            0.045132110441809745,
            0.2285900678958173,
            0.214220225084436,
            0.20567043522350148,
            -0.11051329224314455,
            0.065707886441105,
            0.06233149793020781,
            0.09209561618027666,
            -0.1986925878430656,
            -0.2383799093165829,
            -0.11308934046144734,
            -0.22342431112857083,
            0.17087004522474122
          ],
          [
            -0.11266275903512901,
            -0.21757078700688504,
            0.2427530121034103,
            -0.1602754578525376,
            -0.21915911028365742,
            0.10360974822484949,
            0.14320164087285475,
            -0.1471443571612769,
            0.13342394711410493,
            0.09883639169960812,
            -0.02133035546183305,
            0.09839160661186837,
            0.048158831432196056,
            0.05776210158082282,
            0.018715332031360637,
            0.11403609870512948
          ],
          [
            -0.21229035852163158,
            -0.09871678222875853,
            0.030147673871655397,
            -0.20924104625264797,
            -0.17275154419052496,
            -0.07444917140316909,
            0.13894447368043988,
            0.20270917409183997,
            0.17079492832363288,
            0.24395699156935152,
            0.19599959092901248,
            -0.14205581297191952,
            -0.13072802082208904,
            0.030007472920718356,
            0.1796429863215861,
            0.029624199714292143
          ],
          [
            0.20354087995535952,
            0.08784370089308613,
            0.11140131898621886,
            0.20714855194010673,
            -0.12812945680053156,
            0.1417155929121603,
            0.10886789889520232,
            0.0421996662993992,
            0.1411796758021484,
            0.22482595937600358,
            -0.05400411061657584,
            0.02021641216966108,
            0.20906496165365118,
            0.11757170347955925,
            0.1301814666074007,
            0.12451504201924879
          ],
          [
            0.009143798091914821,
            -0.13183326177138055,
            -0.18439957493164386,
            0.08721721042103635,
            -0.03163534564174916,
            0.13991458338051338,
            0.19344787242236033,
            -0.016505800166819334,
            0.1414237792351068,
            -0.24659914813537784,
            -0.02909268854943883,
            0.24365658480919627,
            0.10491319951156249,
            -0.2074151572024222,
            0.18143751883363804,
            0.2330433261956531
          ],
          [
            0.2179463447238324,
            0.08195965383419217,
            -0.23600420117787554,
            0.024859232010186406,
            0.1966335109429428,
            0.21324950349361432,
            0.02969693202376915,
            0.22062127534388512,
            -0.17393389917305038,
            0.1659523366508057,
            -0.11478239215911695,
            0.2109092223016492,
            0.18563193112243673,
            0.1914100270668964,
            -0.24086358075892889,
            0.20109660981769464
          ]
        ],
        "layerNorm1": {
          "gamma": [
            1.0097981206351765,
            0.994999051305538,
            0.9985155147962125,
            0.9990907849680897,
            0.998416515414565,
            0.999156482118807,
            1.0039084288592282,
            0.9990454758901324,
            0.9981314859008021,
            0.9940820864908548,
            0.9985991640853566,
            1.0012583526166012,
            1.0003711953227408,
            0.9997375941793474,
            1.0036320573414466,
            1.0010874390935367
          ],
          "beta": [
            -0.006085128128255849,
            0.0017803991783297073,
            0.0016166213080211296,
            -0.0018213749500258537,
            -0.0065601580355917075,
            -0.0004983305593685276,
            -0.005394287191055108,
            0.0006878937314897559,
            0.0026500641907689013,
            -0.005413538564897377,
            0.007311270258082645,
            0.005173189207371956,
            0.005389206302399103,
            0.0007480438080607411,
            -0.0041029399969367405,
            -0.0007385537231600641
          ]
        },
        "layerNorm2": {
          "gamma": [
            1.013547596799261,
            0.9947623001614,
            0.9982674272473285,
            1.0007093071505333,
            0.9975949174375697,
            1.0003856295254328,
            1.0012376439349855,
            1.000290032654758,
            0.9992063195496812,
            0.9918969044145652,
            0.9980814831876189,
            1.0011971820390748,
            0.998907149724847,
            0.9998252987013535,
            1.0010386203598751,
            1.003209910015824
          ],
          "beta": [
            -0.007472993986147359,
            0.0017021027218015697,
            0.002673187515712185,
            -0.0004624892619209196,
            -0.006765653646841879,
            0.00008585491703723493,
            -0.004511110463824312,
            0.003011525914106301,
            0.00113016740065881,
            -0.006630744110934133,
            0.007036399388115027,
            0.004702010627894111,
            0.007345837700044478,
            -0.00032739685439099516,
            -0.003517595343736838,
            0.0012402895308408607
          ]
        }
      },
      {
        "wq": [
          [
            0.1913959969277004,
            -0.20183670076510069,
            0.034057142180589015,
            0.14616770836926962,
            -0.07988634386425604,
            0.21742663935691794,
            0.23021564702248323,
            -0.02499942279590368,
            0.17696248173617599,
            -0.22354993760367448,
            0.13727882360438445,
            0.08767306036140579,
            -0.07502645878049578,
            0.21796769465470167,
            0.06047843467274371,
            -0.018146591233560348
          ],
          [
            0.04582602849080096,
            0.23957165543986103,
            0.05161310954206174,
            0.06497995686665445,
            -0.12526772743711487,
            0.048604735880166734,
            0.21956846238612568,
            0.025274853046080726,
            0.09857550497091443,
            -0.14364500901910116,
            -0.14252404827653034,
            0.1511330654849997,
            0.05728143587671454,
            0.20687862048933559,
            -0.17433361925953583,
            -0.11783267812041079
          ],
          [
            -0.23345752848785956,
            0.0183822635325208,
            -0.055295231334918725,
            -0.03795523914972759,
            0.21029987800794464,
            0.011267464145841026,
            -0.09287739250065297,
            -0.014010870570051822,
            0.10637853503514107,
            0.06604010735482302,
            0.017617435266381994,
            0.13771650132677202,
            0.2406272881638335,
            0.23379736348344263,
            -0.06083503856770775,
            -0.18982212394440157
          ],
          [
            0.07787250201964561,
            0.17460807916314836,
            0.14897432127374377,
            0.17857775848099208,
            -0.08121972284641868,
            -0.13520214458430985,
            -0.0855865113379886,
            0.0032670615914802397,
            0.23125750381488713,
            0.09161281874281584,
            -0.008958363453460272,
            0.18553756333480503,
            -0.2264321896269422,
            0.08587260071650557,
            -0.18306801996452435,
            0.15033623614040506
          ],
          [
            -0.21068347672235452,
            0.15109478095854928,
            0.1652271261041132,
            -0.1919043358291409,
            0.21333601580325345,
            -0.15477480302764368,
            0.04472763894123909,
            -0.24914090341978015,
            -0.14063210487447603,
            0.23696568098442167,
            -0.10197300909387214,
            0.010297350343963908,
            0.02143306894931584,
            0.08609714161929416,
            0.21715111092512174,
            -0.05981389260252473
          ],
          [
            0.05243472876200068,
            0.13321494911997084,
            -0.23359626629513724,
            0.10452737128280959,
            0.21324646540492595,
            0.14751002757231785,
            -0.22576008844555925,
            -0.0197956004303274,
            0.155389260731579,
            0.13162848628790969,
            -0.1778876467169643,
            0.2357554019050669,
            0.18728663635790282,
            -0.24389267474143445,
            -0.0777320938869138,
            0.2484367800549445
          ],
          [
            0.06821793703312157,
            0.2017322823545545,
            0.20732898330617813,
            0.10150513772244887,
            0.18342561315289757,
            -0.025412770103335237,
            0.17341333011169022,
            0.15707890044282724,
            -0.008852368244371413,
            0.17294210921949213,
            0.015784872338945936,
            -0.11663404187951468,
            0.09532782967522033,
            0.05881769809362656,
            -0.1594480476674264,
            -0.09724736044861869
          ],
          [
            0.20600789282958426,
            0.014479098961681484,
            0.08356915587511163,
            -0.1693834713879334,
            -0.11713241172257523,
            -0.1697898025557883,
            0.018078736666143447,
            0.1182683281691973,
            -0.14871588973457797,
            0.11459704440954087,
            -0.19206929860925104,
            -0.06458960561457962,
            -0.1404033925651332,
            -0.10725046842085584,
            -0.10679022336699051,
            -0.10879593369750831
          ],
          [
            0.024074933790724798,
            -0.0865442820711774,
            -0.1520459818748454,
            0.12635042355238876,
            0.2133040748239912,
            0.11197911766505313,
            0.17292787091517506,
            -0.11853285931315706,
            0.20547258514052366,
            -0.03321300876706216,
            0.035896511797955895,
            -0.010746915116032936,
            -0.16307374240691733,
            -0.009723021906982408,
            -0.10725571315281456,
            0.13175372885723713
          ],
          [
            -0.2001228180021846,
            -0.2292452000528135,
            0.07000023464377308,
            0.03637834371007327,
            0.1688702448218639,
            -0.004073489273374863,
            -0.18865090589809366,
            -0.17250582680435414,
            -0.05133547604857095,
            0.10274095652631224,
            0.07025396720701493,
            -0.03226586656319369,
            0.20746401619123092,
            0.196941687167138,
            0.16864903398133022,
            0.11100253935581648
          ],
          [
            0.027973859821624186,
            0.027900785189713395,
            0.09611661415361589,
            -0.09841993291212077,
            -0.24396853381144967,
            -0.18544440007136517,
            0.1428825742372806,
            -0.005937181863299953,
            -0.09384216631767936,
            -0.10861202361562583,
            0.15474294983083103,
            -0.19268712013435405,
            0.16860010665333178,
            -0.23670992819389358,
            -0.19201093288632715,
            0.09277825900373934
          ],
          [
            0.20230477129538213,
            -0.17320331785796753,
            -0.24713405145626968,
            0.2042623226450878,
            -0.025208769473244214,
            -0.12003320301497981,
            -0.21980668144999183,
            -0.06593517377567629,
            -0.014739856966807598,
            -0.20187082855390362,
            -0.11609568873859238,
            0.07026106317728151,
            -0.0028150014021408303,
            -0.07939467236144405,
            -0.1384454820570445,
            -0.23629332468843503
          ],
          [
            0.10915246991043832,
            0.10900208385445338,
            0.04168803673571907,
            0.18574991554756837,
            0.07426167325940249,
            -0.14911681035627147,
            -0.017630632192810136,
            -0.22602293766284026,
            -0.19296587288072947,
            -0.01431322737132089,
            0.012818566901670514,
            -0.24894258632765828,
            0.1798589037649413,
            -0.037375504823234866,
            -0.030520571680051286,
            -0.1652816058653698
          ],
          [
            -0.045161869620559555,
            -0.11959425048598175,
            -0.2166646862847086,
            0.05098707601224784,
            0.22797768958968082,
            0.14513684085528947,
            0.09315591586451577,
            0.2460852026676655,
            0.22514298167321048,
            -0.11377299447781716,
            -0.22898518002045767,
            0.14510309269703914,
            -0.23471566924176152,
            0.056933667484875605,
            -0.24344867032723178,
            -0.07753138036741339
          ],
          [
            0.20319007259738286,
            -0.2501586139920815,
            -0.03994803053733978,
            -0.2275054779312889,
            -0.07875711070954089,
            0.034701492077579596,
            -0.2303667734986905,
            -0.19000173867821488,
            -0.005843994153845466,
            0.17341242929296485,
            0.23024139870280164,
            0.13832059458284726,
            0.14353561661009986,
            0.16335716844716341,
            -0.1696090673290319,
            -0.1455282019147049
          ],
          [
            0.18680131615626835,
            -0.07490518864514277,
            -0.13267743632047055,
            0.12152834213952494,
            0.23078293667499544,
            -0.12951130338655298,
            0.20531576800039014,
            0.21249098692182433,
            -0.22042626558019082,
            -0.1829072808816081,
            0.04823085863404369,
            0.039795815210080424,
            -0.1864817328664307,
            0.1681776659595028,
            -0.1965665709885017,
            -0.1534557036760676
          ]
        ],
        "wk": [
          [
            0.21298347487043606,
            0.001051635995027227,
            0.1229766041006621,
            0.20445106495201187,
            -0.14011202208890008,
            -0.011201998480853532,
            -0.018646993017395055,
            0.0287927544247989,
            0.2072622699296883,
            0.23403532091642268,
            0.20501646741538998,
            0.21017581487549372,
            -0.04022762957625956,
            -0.10566711519608336,
            0.12319537246721365,
            0.14643567306074826
          ],
          [
            -0.031084501643095744,
            -0.09141375559972396,
            -0.029373503236276518,
            0.237290358321554,
            0.04916262960340368,
            0.1797187221403114,
            -0.08615019087102245,
            0.13834327110431094,
            0.09346856112109826,
            -0.03665479093448444,
            0.19281476814090975,
            -0.24807050916549747,
            0.15659715690106416,
            0.21493714503976655,
            0.18489984691741143,
            0.20623948263338257
          ],
          [
            -0.23783862850991672,
            0.18325501050466106,
            0.23141646342444427,
            -0.015196430424391285,
            0.2187531692526129,
            -0.24132651584948658,
            -0.20026881273636515,
            0.14430888963147134,
            0.16585737241973522,
            0.12365088203387153,
            0.20811289274826444,
            -0.21103161944739246,
            -0.058430237208299644,
            0.08734633712024895,
            0.03989706724261429,
            -0.16461795283306033
          ],
          [
            0.17656937044934723,
            0.0689286192829158,
            0.04874759273214983,
            -0.17897444054800493,
            0.041401107351216,
            0.011045943788994107,
            0.18476505724177056,
            0.007462838172295003,
            -0.21684294798864212,
            0.20704758542819707,
            0.11960052756767944,
            -0.07292312034714787,
            -0.16260331213584395,
            -0.16597853851029806,
            0.013699636536375358,
            -0.08799336653285461
          ],
          [
            0.015587614707400395,
            0.19776927613713857,
            -0.22333099405934426,
            -0.20061723229745476,
            -0.19158546420779804,
            -0.024821456429132988,
            0.09523545184366669,
            -0.05886387179919682,
            -0.12245907883856894,
            -0.19976100627425483,
            0.16206175296378672,
            -0.17688861684137927,
            -0.004841736232043011,
            -0.18816938951837686,
            -0.09196061975885385,
            0.13889208441048292
          ],
          [
            -0.22296562286282767,
            0.08347538527996777,
            0.06517934223385814,
            0.20589731955345209,
            -0.021092224421643324,
            -0.20663233923372415,
            -0.001616103680984597,
            -0.15628269751504612,
            0.239179075455276,
            -0.1906266714084639,
            -0.1453322808529593,
            0.00813313045614235,
            -0.07427277044706543,
            -0.1963628794442347,
            -0.21207847256142875,
            0.011944099412700008
          ],
          [
            0.11779076800703517,
            0.18898906262330614,
            -0.24529975877590754,
            -0.2062940644133338,
            -0.09450789020677974,
            0.08327678123288502,
            -0.016528563536739847,
            -0.05011787111512833,
            -0.19485974680107943,
            0.1355411626736487,
            -0.16305404631013148,
            -0.08448175127394608,
            0.1641839150804953,
            -0.18920669341279908,
            0.21862680383640407,
            -0.2065436843743468
          ],
          [
            0.05468585807474126,
            -0.2190957402926099,
            0.1070432202954822,
            -0.16696853710396492,
            0.0483041435579234,
            0.08756702915941178,
            -0.010624699763703567,
            0.022443520759539877,
            -0.057575848000742245,
            -0.12037311709826357,
            0.24286375994786366,
            -0.24116251700841815,
            -0.13027014559939182,
            0.1630525091989546,
            0.22196137380772715,
            0.11979653109316357
          ],
          [
            0.10998267125448935,
            0.017860256935547825,
            0.0353487805844074,
            0.015624188783053836,
            -0.11434795524515641,
            -0.1346588760319669,
            -0.2202024380114641,
            -0.04914665960550718,
            -0.012271457563350378,
            0.19616737279550145,
            -0.10706418543285587,
            -0.013108723776424717,
            0.01843716848243767,
            -0.13272523224247193,
            -0.18587461706417777,
            0.22143043361098808
          ],
          [
            -0.16124899633162668,
            -0.24311097775109564,
            -0.005636515995258877,
            0.002664781898493904,
            0.19956426322659618,
            -0.026786592778895828,
            0.15178080927174448,
            0.05499510419205897,
            -0.016110191214226136,
            -0.03255576584387933,
            0.15598359870037307,
            0.08937073001322854,
            -0.12325754326338897,
            -0.12639869940872583,
            0.23834352182122995,
            0.0278551082993079
          ],
          [
            -0.21686310977200118,
            -0.03646985209734643,
            -0.0035119439923599004,
            -0.09757240459136832,
            -0.1873763865111516,
            0.09455521544435277,
            0.10777379859160383,
            -0.139136874366902,
            -0.05943680327780493,
            -0.14439355574853538,
            0.0033765392569491425,
            0.22419065691556816,
            -0.008229893925443297,
            -0.1062839035419939,
            -0.23530071853749532,
            0.1066361846990906
          ],
          [
            -0.08816422383780695,
            0.1270011646228355,
            -0.048467537161163476,
            -0.12876647320853063,
            -0.0907735704573425,
            0.07744770060049942,
            0.1657550303611928,
            -0.16768326363873384,
            -0.17716337421873782,
            0.19131076654226503,
            -0.09551191773933826,
            -0.07423764160094,
            -0.1281041703668219,
            0.1657125895330035,
            -0.12230970518123382,
            0.24862629080026163
          ],
          [
            -0.06462438070717974,
            -0.09336224884716167,
            0.1120217921012081,
            0.04687356483505677,
            0.24574464521380318,
            0.23463313980112352,
            -0.13311584108204724,
            -0.1754004241115624,
            -0.2379239629294518,
            -0.201884925282358,
            0.1537201284380308,
            -0.1352385309826123,
            -0.13605951888260742,
            -0.12045083226898536,
            0.08522451566529932,
            0.20636753581861828
          ],
          [
            0.21122506588662632,
            0.04143719369106001,
            -0.2437386164284278,
            -0.1239940822484561,
            -0.20844508109644752,
            -0.05876051056708054,
            0.14776485978989193,
            0.13438588497554257,
            0.022506945274591107,
            -0.22486550236492261,
            -0.2455746336947932,
            -0.15963538620246415,
            -0.059515780408842395,
            -0.048465509266941265,
            0.037287254388555444,
            -0.1308955926740718
          ],
          [
            0.1655649290902216,
            -0.20260786768310318,
            -0.13695512983553024,
            -0.24449688715689716,
            0.17765551234801225,
            -0.21920393352856032,
            -0.1678295563943061,
            0.03653377245938998,
            0.10972331021423197,
            0.19613930541539998,
            -0.09541437049574812,
            -0.11212530244823195,
            0.0771761804344144,
            0.036294258700301715,
            0.19625878424983625,
            -0.10101936931030622
          ],
          [
            -0.2359028406574607,
            0.20049633846991297,
            -0.17235196164082198,
            0.10577196514692425,
            -0.08734450316257715,
            -0.20294397858409263,
            -0.2197582560459748,
            -0.22729914382308905,
            -0.0015796243933437917,
            -0.13874817736342226,
            -0.18566495203998468,
            0.07748203728874035,
            -0.02337057625070183,
            -0.24678789180746763,
            -0.12128558797127392,
            -0.1666170566811698
          ]
        ],
        "wv": [
          [
            0.10498969847294416,
            -0.15665916773686556,
            0.11258690311300296,
            0.09266665123157586,
            0.0409799818625497,
            -0.20631553549788936,
            -0.0775401841333647,
            0.1999967468473976,
            -0.1222116040457297,
            -0.1680164168879896,
            -0.10195343956943496,
            -0.21478154467739147,
            0.01036164444069824,
            0.09845857987172711,
            0.12267503955689715,
            -0.20990466474607797
          ],
          [
            -0.13918608621217865,
            -0.20402853116303782,
            0.014517570367929682,
            -0.19990615388423844,
            0.11932128621455301,
            -0.024150037498225335,
            0.18585453738162183,
            -0.16095292046950435,
            0.13800590335482668,
            -0.15108885582644746,
            0.016466412670112857,
            0.2422947690994247,
            0.15320844613529563,
            -0.2461167333600101,
            0.044255682813874694,
            0.2326676210469826
          ],
          [
            -0.23263275338348846,
            0.05328929494315833,
            -0.09745165670124874,
            -0.06858380304501137,
            -0.2471107475575748,
            -0.13788281835354435,
            -0.1927359593596687,
            -0.12861052563607428,
            -0.04261720249714101,
            0.14553130745599016,
            -0.11147441180642764,
            0.24896148296782988,
            -0.19982942112202348,
            0.17036288575801067,
            -0.11787775660437941,
            0.2339070962214002
          ],
          [
            -0.0158359325675661,
            -0.24447346232099634,
            0.058359238690650045,
            -0.2222747132347947,
            -0.18497556802653178,
            -0.023969863028893236,
            0.04724620589968421,
            0.05719647971935209,
            0.042630114080806,
            -0.2515031908782411,
            -0.09352259249464383,
            -0.15534250744088787,
            0.14759451328652268,
            0.20049091649077527,
            -0.16597782052579751,
            0.07540743508651247
          ],
          [
            -0.21821128079689545,
            -0.03410381687098887,
            -0.21934997081520055,
            0.14411963871936256,
            -0.003380708957288748,
            0.19491566567350194,
            -0.20772497281761518,
            -0.05087413424868935,
            -0.03538388160822995,
            -0.007793818619187637,
            -0.16349346942335746,
            -0.1606915644036078,
            -0.049991561811572036,
            -0.2085823454267429,
            0.0344872171495004,
            -0.1664931630456515
          ],
          [
            -0.056882070402659184,
            -0.05987703390639469,
            -0.13451872881552737,
            0.22115762628986144,
            -0.10724358392938775,
            -0.09183351423022831,
            0.10049349033797383,
            0.1556012108210429,
            0.2261413924040671,
            0.11202048829512157,
            0.11769688620723534,
            -0.18613330108138906,
            0.1767870045922584,
            -0.10824406771692446,
            0.22257737029264898,
            -0.14517528105864808
          ],
          [
            -0.24242820257014544,
            0.21847862634290577,
            0.1654279225298991,
            0.03346994492548156,
            0.24621468692943854,
            0.03934453583601813,
            0.03217262871723742,
            -0.16072093618586175,
            0.1195108760916435,
            -0.04558252992730988,
            -0.009164791444570324,
            -0.14568682178305126,
            0.19777757662039602,
            -0.002808708774723752,
            0.10647864332046002,
            0.11032011803892937
          ],
          [
            -0.06822530664151087,
            0.1516101935175815,
            0.04140704333437095,
            0.09115908133399898,
            0.11684875353279207,
            0.22207656281439547,
            -0.077371367575153,
            -0.1279523631693759,
            -0.1636596250324154,
            -0.09467825441937192,
            -0.21251118491506457,
            -0.062123715950694304,
            -0.1213162566518737,
            -0.022589626751250914,
            -0.004510607960466265,
            0.16822248079607868
          ],
          [
            -0.06284615484326918,
            -0.16883937295806042,
            0.2333923983852582,
            0.15598154943028902,
            0.06900550496875739,
            -0.21539324127071202,
            0.15315826099621782,
            -0.1293468734997681,
            -0.2405898282944428,
            0.04438511099320403,
            -0.2431138423068331,
            0.16173426948302635,
            -0.07044633315547129,
            -0.01764296943644783,
            -0.15971051828590738,
            -0.06614159754284016
          ],
          [
            0.06445411598899199,
            0.09105067261085115,
            0.21404409564201354,
            0.09475824339963591,
            0.14499951084594184,
            -0.008458741733917972,
            0.19592700539584046,
            -0.01603385528462302,
            0.17177243291637026,
            0.1981363024257854,
            -0.17600560010802876,
            -0.2169854341051971,
            -0.09788302118772521,
            -0.08261814231597511,
            0.06586303724323822,
            0.22040095278709354
          ],
          [
            0.22659368494302676,
            0.14769295473937197,
            0.16121214936028805,
            -0.15160658787592368,
            -0.2220878338695977,
            0.0715463741589061,
            0.15814169096695715,
            0.041412504986102806,
            0.07008670698000714,
            0.23055271938342417,
            0.13214968919610875,
            -0.23931317804540797,
            -0.07527503830236629,
            -0.017895508814771394,
            -0.12004083829152798,
            0.035650308609567555
          ],
          [
            -0.1548703113078921,
            -0.018634581768465233,
            0.24175488051574467,
            -0.09942704368666204,
            -0.08610719183885775,
            -0.051792765126707004,
            0.04384158220872465,
            -0.06484154827461336,
            -0.13603196077440854,
            0.04739351906891491,
            0.13179391541975174,
            0.004669181431167457,
            -0.11146007528106897,
            0.21124516340582253,
            0.008070972922071939,
            -0.09604900407615137
          ],
          [
            -0.15094329706827248,
            0.24812051192031886,
            0.24810648685951844,
            -0.221566239481265,
            0.0774019315656421,
            0.025274772575361745,
            -0.12930267572212475,
            0.14177836447318926,
            0.20862440162274287,
            0.001012181766763262,
            0.07318058932282316,
            -0.2275393931415865,
            -0.06686630353686933,
            -0.20195950715385574,
            0.17317037815170788,
            -0.24623432284453795
          ],
          [
            -0.11815127475316557,
            -0.19100909022082999,
            0.14637154281875187,
            -0.060219820959921205,
            -0.010136291659510082,
            0.2217036670813569,
            0.0727301651803401,
            -0.04710013569788415,
            0.09096936348567984,
            -0.08809347191375382,
            -0.14786053237366523,
            -0.02388706919464789,
            0.12504034374986478,
            -0.049447848743879426,
            0.16918126798379193,
            -0.13344069850893134
          ],
          [
            0.08650509544641934,
            -0.15513170878149168,
            0.15402111431462698,
            -0.22619297279198033,
            -0.1074554951794685,
            0.20649942192119342,
            -0.1708623105280243,
            0.23087633833234264,
            -0.19703250232908184,
            -0.05681178724407027,
            -0.23755081785704127,
            0.21112138012560364,
            0.212677123999132,
            -0.0949624332979822,
            0.2208214983068018,
            -0.17843029225657828
          ],
          [
            -0.13889637979670605,
            -0.03281044988776987,
            0.16259146173278313,
            -0.07058274216164595,
            -0.14760315855807485,
            -0.21747563826263117,
            -0.0717748268991776,
            -0.17495961809106797,
            -0.0372510849746565,
            0.18186913696129284,
            0.10331583397530843,
            0.1659594268716343,
            0.15012794209797856,
            -0.13615403508942847,
            0.06355689627143607,
            0.01782729097817676
          ]
        ],
        "w1": [
          [
            -0.013474494731371488,
            0.14344055414694143,
            0.11597883947553822,
            -0.0896294291401522,
            -0.23326066716533164,
            -0.1951959605342812,
            -0.21944455973811317,
            0.07347140861912582,
            -0.04988301955902952,
            -0.1979246370295121,
            0.04926527219014129,
            0.08086928185438853,
            -0.24530509378731077,
            0.06709034686283678,
            -0.10630484065258149,
            -0.14779642126202885
          ],
          [
            0.07008984649873344,
            0.23454267463333692,
            -0.13000158175578713,
            0.062015336659798796,
            -0.12679558215430167,
            -0.1205738524978154,
            -0.06170374998487626,
            0.12050435617336452,
            -0.13196469077051398,
            -0.18909049577617407,
            0.12851094639388796,
            -0.012719957500135754,
            -0.1430803562647505,
            -0.13820431059342392,
            -0.14457110054153577,
            0.0026473535155557624
          ],
          [
            0.05076216105459981,
            -0.21873192369073885,
            -0.23550685834372476,
            0.1099254244025929,
            -0.04054051037081309,
            -0.1524445613860027,
            -0.21117521158775032,
            0.2196481726530587,
            -0.2045376926832786,
            -0.19644486457477564,
            -0.0861502529750436,
            -0.2159502403104255,
            -0.175204292521089,
            0.18107003860139248,
            -0.19927324578669975,
            0.09503714236273925
          ],
          [
            -0.05879440225175097,
            -0.049088982345877455,
            -0.13689880092469775,
            0.16076950961178715,
            0.1889864821205264,
            0.20942975055759822,
            0.08507934520059421,
            -0.057355395057118064,
            -0.1075048740398652,
            -0.12778627934065873,
            0.11203150855539505,
            -0.026130297761686048,
            0.18413873335178074,
            -0.06190481093218375,
            0.05628419950327887,
            -0.008326254365394014
          ],
          [
            -0.17413133224029398,
            -0.1946477460617957,
            -0.02806476952327197,
            0.21381094889764304,
            0.18860548627293638,
            0.08706124085123314,
            -0.05423168711361821,
            0.09901484784487746,
            -0.060870187807621434,
            0.03166069199214468,
            0.0130497900525034,
            -0.032450771592288485,
            -0.07762338834514058,
            -0.12341752026715098,
            0.17968491445343948,
            0.09621430738111948
          ],
          [
            -0.24023777684954986,
            0.045215636219640816,
            0.03992152399148785,
            0.15312759025030567,
            0.17860744672837023,
            0.20385478042106342,
            -0.023189507791984896,
            0.04671579853208374,
            -0.06882424658639341,
            -0.06479795431516779,
            0.20152982835278457,
            0.018538794237916368,
            0.1651003246907192,
            0.18424491548964558,
            0.15492277945823493,
            0.20544569768690688
          ],
          [
            -0.0759797255118861,
            0.08633200112490466,
            -0.023518411756962787,
            -0.12684200363148418,
            -0.08804619816592861,
            0.018787188479615538,
            0.10927259410492478,
            -0.09636709099747731,
            -0.1140730559894576,
            0.1624881721872656,
            0.11208081718804049,
            0.10435747158295307,
            0.11843869076087048,
            0.206650718367307,
            0.0015397736323341145,
            -0.20576747111464888
          ],
          [
            0.19251127684926228,
            -0.10114328420478563,
            -0.24385936986793577,
            0.09705993805469419,
