{
  "version": "1.0",
  "config": {
    "vocabSize": 173,
    "embeddingDim": 32,
    "numLayers": 2,
    "vocab": [
      "[PAD]",
      "[UNK]",
      "[EOS]",
      "there",
      "was",
      "once",
      "little",
      "boy",
      "called",
      "willie.",
      "never",
      "knew",
      "his",
      "other",
      "name,",
      "and",
      "as",
      "he",
      "lived",
      "far",
      "off",
      "behind",
      "the",
      "mountain,",
      "we",
      "cannot",
      "go",
      "to",
      "inquire.",
      "had",
      "fair",
      "hair",
      "blue",
      "eyes,",
      "something",
      "in",
      "face",
      "that,",
      "when",
      "you",
      "looked",
      "at",
      "him,",
      "made",
      "feel",
      "quite",
      "happy",
      "rested,",
      "think",
      "of",
      "all",
      "things",
      "meant",
      "do",
      "by-and-by",
      "were",
      "wiser",
      "stronger.",
      "alone",
      "with",
      "tall",
      "aunt,",
      "who",
      "very",
      "rich,",
      "big",
      "house",
      "end",
      "village.",
      "every",
      "morning",
      "went",
      "down",
      "street",
      "goat",
      "under",
      "arm,",
      "village",
      "folk",
      "after",
      "him",
      "said,",
      "goes",
      "master",
      "aunt",
      "long",
      "neck;",
      "on",
      "top",
      "it",
      "her",
      "head,",
      "head",
      "she",
      "wore",
      "white",
      "cap.",
      "willie",
      "used",
      "often",
      "look",
      "up",
      "that",
      "cap",
      "like",
      "snow",
      "upon",
      "mountain.",
      "fond",
      "willie,",
      "but",
      "great",
      "many",
      "years",
      "always",
      "sitting",
      "still",
      "them",
      "over,",
      "forgotten",
      "games",
      "know,",
      "stories",
      "read",
      "little,",
      "asked",
      "about",
      "them,",
      "would",
      "say,",
      "no,",
      "dear,",
      "can't",
      "remember;",
      "woods",
      "play.",
      "sometimes",
      "take",
      "between",
      "two",
      "hands",
      "well",
      "while",
      "felt",
      "sure",
      "not",
      "thinking",
      "someone",
      "else",
      "did",
      "then",
      "kiss",
      "turn",
      "away",
      "quickly,",
      "saying,",
      "woods,",
      "dear;",
      "is",
      "no",
      "good",
      "staying",
      "an",
      "old",
      "woman.",
      "he,",
      "knowing",
      "wanted",
      "be",
      "alone,",
      "pick",
      "hurry",
      "away."
    ]
  },
  "weights": {
    "embedding": [
      [
        0.08978797837296867,
        0.14157536297194817,
        -0.10279805715161038,
        0.15582196245341678,
        -0.16166802743453476,
        -0.004881510172962087,
        -0.020812534207430018,
        -0.00340439307313553,
        -0.03522429530495397,
        0.08247685706842123,
        0.004277246393006402,
        -0.0015197194936145862,
        -0.15230400451549583,
        -0.03492549014966987,
        -0.056203575820738996,
        -0.09568282730063332,
        -0.10423702309561571,
        -0.14553660417947145,
        0.13524631885376545,
        0.03938097934824301,
        -0.17585479657305203,
        -0.04962202406300757,
        -0.061821374160659394,
        -0.16520418101828382,
        0.06926589730283297,
        0.06346203099279255,
        0.12354723923128337,
        -0.12219330964761989,
        -0.03780856367449778,
        -0.16662485695082685,
        0.13370074108349947,
        0.16775162712197209
      ],
      [
        -0.1566192868394048,
        -0.03289512534586125,
        -0.10855581093564547,
        -0.15796696430810814,
        0.13498627696668875,
        -0.13401779241850362,
        -0.12747546716353736,
        -0.018508691080565336,
        0.1751272230454396,
        -0.06334246200205515,
        -0.17404361226162512,
        0.02139360804325075,
        -0.17167572326612962,
        0.12005396412324255,
        -0.1674961351038972,
        -0.050438923012211645,
        0.12350166763030762,
        -0.10962759035896681,
        -0.1229695077399174,
        0.1196188991365294,
        0.05381837879599272,
        -0.09707142921814507,
        -0.05575131237645508,
        0.05160282247145273,
        -0.1121969396716233,
        -0.038564242655610335,
        -0.11266542156896193,
        -0.14305418750075197,
        0.0828791450674706,
        0.13058992300263336,
        0.1735245442287981,
        0.17550768994866847
      ],
      [
        0.10287000139293631,
        0.15564961392992233,
        0.13075254291101668,
        0.01191190695343444,
        -0.06277187170371473,
        -0.11336726882859433,
        -0.07439423647173612,
        0.12211112636215618,
        -0.07193274916597042,
        0.10473206710683718,
        -0.07360391634062183,
        0.09994578421280244,
        -0.10285918500313601,
        0.16599957851858282,
        -0.16486132730586772,
        -0.15328092807984628,
        0.1739056895595446,
        -0.030944657813673594,
        0.043505201264720586,
        0.0694349632674496,
        0.04164646859331474,
        0.15092861281547937,
        -0.018736128459656585,
        0.16428257450663158,
        0.02935245908907101,
        -0.15905422218826187,
        -0.14816970936788934,
        0.04587759161717771,
        -0.024120563196742592,
        0.09617970001743273,
        0.1216929327474546,
        0.03642505687811571
      ],
      [
        -0.09597192817235388,
        0.06017937112426245,
        -0.05412866069823498,
        0.05511537743215576,
        0.09387638923709088,
        0.26526216695148197,
        -0.24425621239199444,
        0.12577715912364737,
        -0.1717581658430819,
        0.10804796261194473,
        -0.06943991149586251,
        -0.1863265595490206,
        0.07828954041348346,
        -0.12907950140801072,
        -0.16065114613474007,
        -0.10690805799054591,
        -0.00549259715708365,
        -0.22125431973743237,
        -0.052462595593122344,
        -0.08521245652596722,
        0.00709628279212924,
        -0.1336082055014024,
        0.11975992568061615,
        -0.18000052315589563,
        -0.2617151370039058,
        -0.07948645554482467,
        -0.015638490702581134,
        0.06489472536089219,
        -0.028700656726542127,
        -0.05717004331463052,
        0.14500550591600692,
        0.03989361311484954
      ],
      [
        0.13710056977387958,
        -0.10090439207456917,
        -0.07757517868569264,
        -0.054489012779948116,
        -0.1571947075926764,
        0.03548875357606047,
        0.0638352216775916,
        0.09017432177714063,
        -0.18172705636075157,
        -0.37127588732546457,
        -0.15284913033614952,
        -0.11443923428240467,
        0.0034693134991940185,
        0.1731746953798765,
        -0.13671118060087067,
        0.01856279762553733,
        0.09176465400534022,
        0.03326472175895417,
        0.06783059131859243,
        0.1431938975629107,
        0.24961480744725442,
        -0.17199956648065362,
        -0.04109829631273798,
        -0.04756126626639114,
        0.030143666999867424,
        -0.10265810577957134,
        0.19216185150783066,
        0.11002293773790336,
        0.17598873537323176,
        -0.13547489790230954,
        -0.06360712032256165,
        0.013852631554388088
      ],
      [
        0.10644016252329058,
        -0.0891035045940999,
        -0.04083262605088125,
        -0.05506665150826147,
        -0.07213086696818542,
        0.17891862437855952,
        -0.013999555853843248,
        -0.14870645306014646,
        0.12125898774810663,
        0.13905896225821832,
        0.0920268260722423,
        0.26186682486189483,
        -0.010736114625925466,
        -0.04588046676605896,
        -0.1996542354251999,
        -0.001818413472243408,
        -0.04361341121305462,
        -0.0056804451389444125,
        -0.04275811228015173,
        -0.15482375843687157,
        0.008812833207956785,
        -0.2705677227189987,
        -0.04206008178950501,
        -0.060113662690516836,
        -0.16757314945254384,
        0.0005175334459776113,
        -0.04580981768132967,
        0.10226499754691869,
        0.1338740548333245,
        0.17784356413134433,
        0.1407465976197372,
        0.11228729323146643
      ],
      [
        0.21798245265552849,
        -0.1722252967833002,
        -0.20255872102427466,
        -0.13916063407974977,
        0.1612133529398488,
        0.07340550624800186,
        -0.0417931464008681,
        0.07605226054159461,
        0.09834470656828108,
        0.07941485146517613,
        -0.05539440023199298,
        -0.304151954065054,
        -0.09383862062382863,
        -0.14747882448533933,
        0.06053749386806379,
        0.1870316415309779,
        0.14089914401934311,
        0.10172897705694466,
        0.07541535774259153,
        -0.07116155490503329,
        0.33627821688677323,
        0.19778458210557606,
        0.2759738924016345,
        -0.09555557202504177,
        0.14057422452275317,
        0.08097575217639177,
        0.031714961956041676,
        -0.05572417634137647,
        0.18298571213269801,
        0.04455865976570559,
        0.13263269123170038,
        0.18330327005916996
      ],
      [
        0.08925350986836422,
        0.022521923797543413,
        0.12432936727303762,
        -0.08323096201973984,
        -0.05475429496086187,
        -0.12713216839574434,
        -0.12205948445215471,
        0.18100236980492518,
        0.09722791682091886,
        0.08647784968026936,
        0.13686340180542067,
        -0.039988819283769364,
        0.19263919411489513,
        -0.07895544753955243,
        -0.08477581446515982,
        0.10992646073316338,
        0.009043614419130366,
        -0.15954914905745796,
        0.10252719689800746,
        -0.005712080989512338,
        0.01794509020508112,
        0.08051452187112661,
        0.12453073112904019,
        -0.04170380190053737,
        0.04614283181618413,
        -0.17062862493333236,
        -0.008628832874999206,
        -0.20265842875640136,
        -0.13355677328139165,
        -0.04902781121948122,
        0.0861312720290328,
        -0.06487125232439411
      ],
      [
        -0.023735522011678015,
        -0.014421021065661838,
        0.041370094639764016,
        -0.056721502757826635,
        -0.0072685878954987515,
        0.08698542837378197,
        -0.10067102634778126,
        -0.1074923402841193,
        -0.06675453800286592,
        -0.021172289826481956,
        0.06015627523800192,
        -0.01791113556877666,
        -0.005606727349538813,
        0.143021221902839,
        0.17073184815019968,
        0.03911064534323083,
        0.08962624058668904,
        0.008797901697340233,
        -0.21384023406264227,
        -0.1332134911737833,
        -0.08596712418271105,
        0.14624452948479377,
        -0.12566802626139875,
        -0.17416901285401015,
        -0.003680626841230896,
        0.21731657957414843,
        -0.09172119900577842,
        0.17875118038207513,
        0.09020062728357699,
        0.058305553736066294,
        -0.059758040988504395,
        -0.10457263628128889
      ],
      [
        -0.09151956678799064,
        0.18097698649277846,
        0.06972326346770998,
        0.20398144276229085,
        -0.03450574524378814,
        -0.1760345929599156,
        -0.17643605543958182,
        -0.02454338983767875,
        0.20031804435116152,
        -0.04242610356051844,
        -0.051297760788027294,
        -0.12798759293881118,
        -0.09238895287061372,
        0.11835631222205406,
        -0.031060901914878272,
        0.12145479609759334,
        0.09798218579739085,
        -0.14372754880221414,
        -0.07326580239032172,
        -0.12086656558272199,
        -0.08548405831037295,
        -0.1700473501928761,
        0.08986712256764415,
        0.06207294016806774,
        -0.23002021737457035,
        -0.13626754539138422,
        0.12975719264664995,
        -0.020678940518369937,
        -0.0806721606925402,
        -0.11212367927539041,
        0.16979631406795345,
        0.026168393979712337
      ],
      [
        0.08943663869535455,
        -0.020062180501490775,
        0.013561941535831977,
        0.19090926229880448,
        0.1915016127151409,
        0.16771996347933785,
        0.045253674082536374,
        0.09517968702181032,
        -0.028554209102272087,
        -0.021596130522565496,
        -0.06597406402409106,
        -0.11506291965561745,
        0.18813570231318913,
        -0.0786507018843296,
        -0.05920134852383783,
        -0.055257871302997974,
        -0.15480227502501007,
        0.10737519226885968,
        -0.16054375395672962,
        0.07611070100404177,
        -0.07398701266771644,
        0.12343477496530991,
        0.06174770485089639,
        0.025005626149964526,
        -0.06998703388583341,
        -0.12182684730230672,
        -0.1749540747376345,
        -0.06516617068815964,
        -0.05388370987574979,
        -0.18852572742837498,
        0.011554603705491528,
        -0.15362782475581832
      ],
      [
        -0.11221606356261396,
        0.09313195589838826,
        -0.008522377858215122,
        -0.04227856552799496,
        -0.14147268882912875,
        -0.05965828279203623,
        -0.1261815270431009,
        -0.009234139719591064,
        0.08053378720267369,
        0.002483046897826281,
        0.12538313790061953,
        0.06026960592391689,
        -0.2467084439453218,
        0.05484083746961131,
        -0.15075962796643,
        0.1198676990100514,
        0.0020167852253739375,
        -0.14015951158892848,
        -0.12861498027582335,
        0.20213498062285679,
        -0.10596150298318069,
        0.10459943095218711,
        -0.0848169552706514,
        0.08347411280958111,
        -0.12455447200538161,
        -0.05444811198001586,
        -0.03274652004504208,
        0.02177366643655924,
        -0.20178083402725783,
        0.07105177871447921,
        0.09253412617957955,
        -0.01869870774685912
      ],
      [
        0.12303783672100296,
        -0.18050610316909174,
        0.09000316450696084,
        -0.11089209218179708,
        0.19983922318218653,
        -0.014779919401280331,
        -0.24916169708971742,
        -0.09731227814712572,
        0.0027704705481293706,
        0.11172804477970642,
        -0.03727386021595277,
        0.05215403736906858,
        -0.11547354995952532,
        0.13056231494604084,
        -0.12093112844941277,
        0.19660106488522575,
        -0.10047104663329683,
        -0.03642287907161592,
        0.14384028125662626,
        -0.16171533227021898,
        0.2255383368957673,
        -0.012685861346427426,
        0.21882786229017742,
        -0.12125607712782943,
        0.13592355133570164,
        -0.2803989315995853,
        -0.1317968830410573,
        0.1652481475176832,
        0.011269186831998198,
        0.01951523059584701,
        -0.015305573352517542,
        0.12282987464059572
      ],
      [
        0.13636669418778652,
        -0.18425803388082987,
        0.014836430716019627,
        -0.028558511146192785,
        -0.06996455236794752,
        -0.08162397013392886,
        0.0635397502863652,
        0.013786846194794285,
        0.17636473508496717,
        -0.06489655846676992,
        -0.03503499485338432,
        0.17176740426743517,
        -0.15107860951345675,
        -0.12337330604118503,
        -0.0985906361984939,
        -0.038971235116129585,
        0.18210407535036335,
        0.15916588830159645,
        0.09058726961179109,
        -0.08353361479609221,
        0.15136997776817865,
        -0.03514099039750907,
        -0.10562149433454088,
        0.02354681429195325,
        0.0415440648430935,
        -0.0901472682732313,
        -0.070082340176945,
        0.08758320807957425,
        0.029373994377671978,
        -0.047473032359016946,
        -0.14777252312649172,
        0.0076384700908111135
      ],
      [
        0.17519161875163816,
        0.05408577823647045,
        -0.18390386038897444,
        -0.11222130906060536,
        -0.055509011702071086,
        -0.18462214344437386,
        0.03689694276329199,
        -0.04584218040615461,
        0.06493982086066531,
        0.20211971500513798,
        -0.18779448710592672,
        -0.06461731720030806,
        0.09226511180034505,
        0.011050338087621021,
        -0.006896980384469188,
        -0.1705409923869207,
        0.05612638195147844,
        -0.04886768428436785,
        -0.11141744205106381,
        0.09392478480020337,
        -0.1567803470414937,
        -0.020031815640296078,
        -0.14293522360308725,
        0.044787664373029994,
        0.08369978570844226,
        0.04148371917940069,
        0.1432873912366436,
        -0.12095068157140923,
        0.09031645183909395,
        0.15965230830192742,
        0.1270850633747062,
        -0.014083135577821792
      ],
      [
        0.1597309134474834,
        0.21043381238742573,
        0.015178937652703242,
        -0.03578675291111452,
        0.04740004969362004,
        0.03797350807262612,
        -0.02827386186905241,
        0.056096571759823,
        -0.008878841436815827,
        0.028990958489992755,
        0.09798124107204695,
        -0.11149009365372153,
        -0.19208093285547795,
        -0.02361198529657685,
        -0.2095939766983681,
        0.09585612535267689,
        -0.07319379400994028,
        -0.1563804350107697,
        0.02874346349192889,
        0.08917791657507139,
        -0.0028425230765835143,
        -0.029420102089035834,
        0.07060730435977133,
        -0.18923790902161494,
        -0.10135529056239188,
        0.038582818273435945,
        0.1438604277102227,
        -0.07814228064802585,
        -0.04628804800557119,
        -0.23138244472891298,
        -0.08502743561053895,
        0.10456481176111258
      ],
      [
        -0.032634916467457364,
        0.027651088432280677,
        0.10836554982497089,
        0.036033252959906024,
        0.07121583116554867,
        0.2515984927837057,
        0.0026867578148586685,
        -0.127066881607936,
        -0.18291201791938863,
        0.02244858319597351,
        -0.22180206424925097,
        -0.07117107077400578,
        -0.1041144544619259,
        -0.08836590398428298,
        0.07830128555569178,
        0.057627031149445826,
        0.03547271538399097,
        -0.12748214671537128,
        -0.08074298469563691,
        -0.1968512163031369,
        -0.023024717818233495,
        0.011858957050135153,
        -0.028777188504454376,
        0.07810972331287287,
        -0.12887416213164582,
        0.06967369989085816,
        0.0013323285950362549,
        0.12009861403071283,
        0.1346986558197345,
        -0.016277131008862324,
        -0.2128173952798334,
        0.053896038256145695
      ],
      [
        -0.034312489176313646,
        0.2044292516846977,
        0.01937248926653582,
        -0.16609852704166128,
        0.12325010330920176,
        0.1492289364682845,
        0.10794208908349616,
        -0.07276999027252239,
        -0.20334398549432667,
        -0.17448132975037112,
        -0.03693793662558662,
        -0.05930417687070322,
        0.16769925777664232,
        -0.08566035695307084,
        -0.17003654953136352,
        0.1305938694958529,
        -0.11152497977262701,
        -0.041625898726128166,
        -0.06530755905680484,
        0.03158099139572672,
        -0.15859678006479017,
        -0.06811776310627268,
        -0.19378945311481485,
        -0.17840361754249032,
        -0.22207830179340932,
        0.13233712902379496,
        -0.1639114255862852,
        -0.02430205148393982,
        0.05882681158976923,
        -0.24136657861945826,
        -0.08780337688814777,
        -0.09833895907125789
      ],
      [
        0.035746563682642604,
        0.09472734352659723,
        0.057714474673872446,
        0.15578245905490937,
        -0.24326171038482938,
        0.0883395922751892,
        -0.10075531573821715,
        -0.24949056363883917,
        -0.2253184072423265,
        -0.006706654006401415,
        0.22917392751866983,
        0.15059314721187428,
        -0.0356965597130215,
        -0.162854777121264,
        -0.13972117409912418,
        -0.028791643431610156,
        0.16479835422677797,
        -0.12466750306482402,
        -0.0866389110515672,
        -0.013484015044008093,
        0.10516831857724641,
        0.08900718402863513,
        0.2066553066985037,
        0.17811334039858454,
        -0.009998172776481637,
        -0.06143992715735329,
        -0.11603781879979465,
        -0.14895776966173319,
        -0.010899973123260246,
        -0.08699656986119328,
        0.023920782391312588,
        0.07087775695664159
      ],
      [
        -0.04505726312891635,
        -0.12299356168518763,
        -0.04276904665044639,
        0.1542261507654653,
        0.17718415196408613,
        0.04878332256094723,
        0.054942531499536436,
        -0.203545750902094,
        -0.0753288759089521,
        -0.0722326539857628,
        -0.177352024685685,
        -0.09109731260269026,
        0.03188691522595089,
        -0.15876040725277873,
        0.1937079580918294,
        0.16439403335620642,
        -0.09545096047345111,
        0.0055912382876525234,
        -0.010807195624624259,
        -0.19040463594790868,
        0.1846038692301753,
        -0.02045142767397525,
        0.07405583520814307,
        0.13432394030109776,
        -0.07603918971743649,
        0.06588307171960421,
        -0.08861972396486091,
        0.06890900131523782,
        -0.03691643003669741,
        -0.005427275950987407,
        -0.13991331425387202,
        0.06771868966684881
      ],
      [
        -0.1555549801820694,
        0.15035419044869408,
        0.028725301012435426,
        0.16549452832819983,
        -0.07615396862478896,
        0.11802079066553955,
        0.18310149825432911,
        -0.06659840341889488,
        -0.013961132900737847,
        -0.03094169210805427,
        -0.10349374011283032,
        0.12169383347909091,
        -0.06446747862678201,
        0.010164805353749017,
        0.06485070068068795,
        -0.11812598861570696,
        -0.09607260575266298,
        -0.08318242263786424,
        0.12485157023210525,
        0.09536441018452473,
        0.0946869251885983,
        0.0036682487494221197,
        -0.04851455401783104,
        0.0612821536850685,
        0.1490310985819445,
        -0.1473245916548738,
        0.16989776160550438,
        -0.12145258673892259,
        -0.14507203711780567,
        0.025107326304582348,
        0.022176923638032295,
        0.16234405022531448
      ],
      [
        0.016034991405342182,
        0.01696073080728599,
        0.21523848735035167,
        -0.07731419561811032,
        0.22885918982342113,
        -0.07129045456372626,
        0.05025227203522628,
        0.02322720754220185,
        -0.10976415479219712,
        0.23253938671060342,
        0.035052836547306315,
        0.04760877449772199,
        -0.002758996595920369,
        0.07308108522704727,
        0.13566460335026304,
        -0.0007582277593769545,
        0.08906852948242758,
        -0.15359710274649513,
        0.04035978801555835,
        -0.1565680215358818,
        -0.05084112647113325,
        0.10758067934245402,
        -0.19417797878644977,
        -0.032672495189351086,
        0.01242324070966644,
        -0.004978583751880227,
        0.20598960342808287,
        0.051463330964253234,
        -0.009521893200560346,
        0.11974965478612834,
        -0.032663084557748426,
        0.04234857600491159
      ],
      [
        0.14077036017812858,
        -0.2107450830710542,
        0.17553651877681622,
        0.20770912765572097,
        -0.043639998169165,
        -0.05671156739223282,
        -0.08158529351428247,
        -0.0011852003600430405,
        -0.02700356993201611,
        -0.2116465621593583,
        -0.0559772845464002,
        -0.12257497036260201,
        0.17645794351457267,
        -0.17954595466883733,
        0.08398214200867453,
        0.18980900018854707,
        -0.10744529527782767,
        0.07702172351343804,
        0.1764054088270039,
        -0.05453954703490413,
        0.0904264337939082,
        0.04022342326148802,
        -0.18781962333917046,
        -0.06745961517496381,
        0.13973232594255713,
        -0.10108036995307276,
        0.12021695095309172,
        0.02912845877298835,
        -0.02938226470721861,
        -0.13457699934638992,
        0.11240283830036962,
        0.11695432506300742
      ],
      [
        -0.057678534856748044,
        0.05115512596840277,
        -0.001982198112121825,
        -0.161263174168401,
        -0.10950382552505608,
        0.14262638725292298,
        -0.03847290650240422,
        -0.12416210499275702,
        -0.12728907370672882,
        -0.008748122283660701,
        -0.0895450876803823,
        -0.011798100233417543,
        0.08529317792871634,
        0.022693147398546634,
        -0.15120697993665608,
        0.18455820685144245,
        0.24572571172813065,
        0.05204642113449694,
        0.051602848444375085,
        0.0646199660926887,
        -0.15331707165672753,
        -0.10653388369177735,
        -0.10124302081757294,
        -0.07179043038884263,
        -0.09261992800054142,
        -0.12484575919224013,
        0.16310972778702254,
        -0.206719144845865,
        0.06010412313243363,
        -0.14605862743025597,
        -0.06984921160043235,
        -0.0008383858895909763
      ],
      [
        -0.026821684649384857,
        0.004720160886943871,
        0.008633443163439248,
        0.10819648696619892,
        -0.10611959996329588,
        0.09970587869133071,
        -0.060111498042143725,
        0.06772107716174369,
        -0.18363530823044605,
        0.1863936777597849,
        0.18544536957244345,
        0.09685229282091888,
        -0.08644094190340694,
        0.047285497772298166,
        0.012588497971739096,
        -0.019930214613175526,
        -0.1740921815704658,
        0.08714812567543045,
        0.1228222376508093,
        -0.07595633288373341,
        0.08832384774147393,
        -0.156975639591526,
        0.07034577010082088,
        -0.01723344329637226,
        -0.1157636407781935,
        0.030869929971329944,
        -0.07391633188766253,
        -0.1827646992371522,
        0.020041416910451873,
        -0.11592838044936703,
        -0.09862475423583075,
        -0.004399948297964014
      ],
      [
        0.016372583969382026,
        0.1162985296455355,
        0.036310549486935004,
        0.16884618260074757,
        -0.1246629525138468,
        -0.09160264812215213,
        -0.008886824621627333,
        0.0877577589949897,
        0.016521307538370927,
        -0.12934478245073458,
        -0.046047895531350636,
        0.017056428897872088,
        0.030460783682835564,
        -0.02623810544137554,
        0.1727803410561632,
        0.011945370444205726,
        0.10557982345319604,
        -0.09015487111264088,
        -0.06185376794686911,
        0.1263982447903278,
        0.11741508145241702,
        -0.16647450571320682,
        0.13972714240818698,
        0.16650626773025395,
        0.1428135127030179,
        -0.11922993911635422,
        0.0897098445484335,
        -0.09875520473715221,
        -0.1524339104543243,
        0.2549591254368495,
        0.10710259838544477,
        -0.07809114042039458
      ],
      [
        -0.1444976660550682,
        -0.08383646223690269,
        -0.06937684567956012,
        0.19640750654466052,
        0.04563647372633766,
        -0.10654277748956645,
        -0.159041755369925,
        0.04898054827359556,
        0.09103583872735867,
        0.0020775612609721054,
        0.09815315458013076,
        0.13760789639763177,
        0.1804224690076258,
        0.1923941478496887,
        0.03814069095605252,
        0.07376020403098249,
        0.062360353871542686,
        0.07456209081575821,
        -0.11058211891368563,
        -0.008267053042352394,
        0.16615829279474573,
        -0.0556065301093816,
        0.17924114254901607,
        0.03301931777348427,
        -0.03901431299914186,
        0.07021988867141052,
        -0.2757639485833682,
        -0.08350790076925073,
        0.17476050910197258,
        0.04619075475507296,
        -0.14120075959180406,
        -0.11433712289191116
      ],
      [
        -0.2140567690807572,
        -0.09042675863865426,
        0.13932179038282716,
        0.12122207023518511,
        0.2695792853051509,
        -0.16575388172123084,
        0.11319535634664575,
        0.1652814899457628,
        0.0020117090354849444,
        0.07927225507257152,
        0.19766443451222257,
        0.05658448760190443,
        -0.2608076328011488,
        0.020649412225879172,
        -0.09676574668033021,
        0.13718681435071226,
        -0.14060126106203633,
        -0.20255572614607353,
        0.12763419409270962,
        -0.13518603037916355,
        0.0567586707854809,
        0.01849303418992761,
        0.010385144435525434,
        -0.14971459510709972,
        0.024480108908529908,
        -0.046401986842194765,
        0.04307363981330355,
        -0.12430329055223846,
        -0.07327118684010872,
        0.07950902389519011,
        -0.00505166343345078,
        -0.027169011867195007
      ],
      [
        -0.1834498851501397,
        -0.05707803482185956,
        0.06518598010416152,
        -0.09395266249284681,
        0.1203486607212499,
        0.12693270563897743,
        0.13385614184727593,
        -0.090940947367868,
        -0.038028708734799764,
        0.07056800804872287,
        -0.11688657267020394,
        -0.004578931885642379,
        -0.10140217203731325,
        -0.10654599369153855,
        -0.04201102337682086,
        0.006102448279202275,
        0.11440339278796383,
        -0.008417765579647902,
        0.004970973470398941,
        -0.14910030742714017,
        -0.020954671578847867,
        -0.0855408016801723,
        -0.11085537210831008,
        -0.0563179644977782,
        -0.058303696429959535,
        0.08111734243928292,
        0.03129814320752962,
        0.27978487036218475,
        -0.027613973908862163,
        -0.000262850054477823,
        -0.22808117265035624,
        -0.048581206876684366
      ],
      [
        0.015409266846340886,
        0.08511853806146091,
        0.19548385666246887,
        -0.02869588419893458,
        -0.08245615793094824,
        -0.02157132284085943,
        0.25336732828129943,
        0.1848891239971261,
        -0.23376394043830426,
        -0.24452988165541403,
        -0.14316450642893022,
        0.042277043899993975,
        -0.035137562613368964,
        -0.036061137729439356,
        -0.12764102598946692,
        0.04165362089455923,
        0.01014506956829343,
        -0.1692405885768245,
        0.2525324632701465,
        -0.052350515602941794,
        0.10347109576533138,
        -0.003648099509135013,
        0.08232888700933993,
        0.1147672300915642,
        0.09163422871326257,
        0.08176256830185744,
        -0.08743733987712328,
        0.11011474463159411,
        0.0878271546967156,
        -0.002764934324364328,
        -0.0984870693405858,
        0.13884153335778632
      ],
      [
        -0.06224472188512477,
        -0.15491959469457095,
        0.15034547245285346,
        -0.12444231187324453,
        -0.18694418141690367,
        -0.09170020720670505,
        -0.1760229177315732,
        -0.17476814515550826,
        -0.14762434838607197,
        -0.14119516058871595,
        -0.14949641883324166,
        -0.1165335076322712,
        -0.13300167949500366,
        0.05375407939443499,
        -0.16326722643544256,
        -0.08679897481054095,
        0.21751008232072688,
        -0.05399744963665483,
        0.06657100624727896,
        -0.12816154306033642,
        0.04817440867883696,
        -0.13895582756553845,
        0.07004401240278575,
        -0.2463499498273582,
        -0.1292921110336011,
        0.09600257766211524,
        -0.07853118687455618,
        -0.07720130892639086,
        -0.04255332831476443,
        0.10489514671321848,
        -0.05252292390163645,
        -0.08973737883280906
      ],
      [
        0.1805479067763923,
        -0.13836034952793386,
        0.1332313877575343,
        0.011212908529493732,
        0.10707799896981504,
        -0.1297989698187551,
        0.08164761284347863,
        0.016772256427397058,
        -0.02618131971542328,
        0.13020211453558145,
        0.00668190903968215,
        0.0038346167323660683,
        -0.05166890466821926,
        0.013527148938934482,
        -0.07629286023768403,
        -0.19609122238714036,
        -0.04124896365140002,
        0.005833725167198165,
        -0.07977387209667612,
        -0.05880265882313599,
        -0.032467584448063525,
        0.17325548732603283,
        0.13657551088075465,
        -0.041580907492261864,
        -0.0109131060283438,
        0.015212903298081311,
        0.09422670821007616,
        -0.04524429629539428,
        -0.017620211029350744,
        0.0921543283942916,
        0.08292821436359438,
        0.09580227750625397
      ],
      [
        -0.10998023313942884,
        0.15814938367800224,
        -0.1040892269381923,
        0.18167200663703653,
        0.23562730971949183,
        0.047232487615988035,
        -0.14375157478057946,
        -0.07652657896779948,
        -0.07982553856657526,
        0.03369861595895077,
        -0.0264336905229349,
        -0.0104166476894897,
        0.051593937892403526,
        0.014624774704556634,
        -0.11274647828082332,
        -0.025103013479383877,
        -0.16966788764295546,
        -0.14862912936203948,
        0.01813293544869996,
        -0.20860693735868752,
        -0.12804230013056264,
        -0.07863537944780166,
        0.06897604833958645,
        0.14030631995165987,
        0.06333929898458814,
        0.0270232046801985,
        -0.06910480770639012,
        -0.1318029820450531,
        0.24729562243984257,
        0.14263203278238756,
        -0.14097857440857267,
        0.10825934287367872
      ],
      [
        -0.08449179878562754,
        -0.022400442196902376,
        -0.03349215111418954,
        -0.04487524703926873,
        -0.02974518564777576,
        -0.028897438681780137,
        -0.09649064687673897,
        0.12947723975243383,
        0.08181455475291038,
        0.07858651453331879,
        0.006015172543039532,
        0.11387740190577247,
        -0.12628767011858552,
        0.12586997553653798,
        -0.012319093936600259,
        0.04506999734912798,
        -0.10091186767933133,
        -0.10931144404630458,
        -0.08862082688303276,
        -0.04583788774448447,
        -0.11387108173009122,
        0.08545961069018769,
        -0.09320772936203965,
        -0.052571502595016625,
        0.04496772944359036,
        0.0700778808567336,
        0.007641373174245426,
        0.07452935701118191,
        0.0017371716344303288,
        0.008637944107848164,
        0.18908717643511808,
        -0.15203782887073533
      ],
      [
        -0.09405284335664617,
        -0.04583677954423356,
        -0.17043865818492432,
        -0.032631404344341336,
        0.07084318017005083,
        0.19903835481297463,
        -0.12472282348311121,
        0.06579407181658808,
        -0.029610502569365423,
        0.028634698257506412,
        -0.12921966298642745,
        0.06626416619664936,
        -0.031717827613939244,
        -0.15958451310130825,
        -0.020203242175604555,
        -0.17779938308114168,
        -0.08076844138602286,
        0.0801250837867342,
        -0.18502912569631985,
        0.1072031120210693,
        0.1762568536641817,
        -0.10560107922546287,
        -0.041832351661203956,
        -0.1375622805372597,
        0.04762244504938013,
        0.09901506596551407,
        -0.020123961088858066,
        -0.022248795946944965,
        -0.18707388240309314,
        0.015580738090498559,
        -0.1307059792168028,
        0.14882713159045982
      ],
      [
        -0.1254078880168097,
        -0.10577448606329952,
        0.12203384615543625,
        0.17698333471849267,
        0.1289675096805978,
        -0.18341634249089284,
        0.1996515757921057,
        -0.13390912798984464,
        0.14529919493998664,
        0.05720884962896546,
        0.031504113845980515,
        0.13356891345034747,
        -0.1698553072818566,
        0.13760151835602516,
        -0.11830931005078486,
        0.07787463275953321,
        0.001914449148134482,
        -0.12916328064202653,
        0.058440553553814986,
        0.08809310532964311,
        -0.005656144351583913,
        0.08564503401514743,
        -0.19933263802829373,
        0.023860953797499845,
        0.021010547626456166,
        -0.11906846407041966,
        0.07992407693224748,
        0.09093529383561948,
        -0.164512152834076,
        0.20378654671412855,
        0.13479065545492647,
        0.016350504483714483
      ],
      [
        -0.05498708587180754,
        -0.06432873434614964,
        0.1618460240711726,
        -0.12385093230326606,
        -0.23134419625126343,
        -0.04757501983332148,
        0.10863335701226541,
        0.08231938610374248,
        0.07773056861104366,
        -0.15994304353220148,
        -0.029334337392617284,
        0.2290559789353876,
        -0.10861882055694326,
        0.12646607566656812,
        0.16407251009147755,
        -0.08745500459783681,
        0.03937184542536744,
        -0.0861669943927316,
        0.0929392956824211,
        0.023371056154341915,
        0.1585413941125447,
        0.13885462856675743,
        0.052876230930369555,
        0.055972676237937474,
        0.04489335949862047,
        0.1722929665110618,
        0.09054327699153318,
        0.1500355493333296,
        0.1811734412204382,
        -0.19865279347024778,
        -0.023527205152926306,
        -0.12523818766428232
      ],
      [
        0.03173287178937176,
        0.035998444059877385,
        -0.16815050024182415,
        0.07693679610998715,
        -0.08717806251465984,
        0.07023736902880905,
        0.12149945820293949,
        -0.0731529183064389,
        -0.15271779708662964,
        0.08573105178582172,
        -0.14500959299538177,
        0.05301342496835052,
        -0.14837626804285528,
        -0.11613370339347201,
        0.04935716225589813,
        0.015073797118307185,
        0.12275652177604925,
        -0.35748953557502877,
        -0.014954709668700387,
        -0.01925078156683415,
        0.20551772043384686,
        0.10958691532635703,
        -0.06019198884571402,
        -0.013347799148531861,
        0.009812237237732339,
        0.16336961280589754,
        -0.15306114970448703,
        0.11318320717150233,
        0.03732105776664136,
        0.08828485782107513,
        0.1396618928844325,
        0.13701126947129535
      ],
      [
        -0.18398543516530666,
        0.20482800518941569,
        -0.0969615091925327,
        -0.17509309884349558,
        0.06000693585135389,
        0.07840982375542979,
        0.09126453899188028,
        -0.12840121094226506,
        -0.09125344667839608,
        -0.09634502602189635,
        -0.11088411548288815,
        0.2693132015634109,
        0.03872439895705076,
        -0.08336300470367487,
        -0.17754703664959337,
        0.0013539559819804616,
        -0.11515778890434737,
        -0.02965638993433661,
        -0.1766183029127466,
        -0.1445827799208511,
        0.005402367148597449,
        -0.13741064293511407,
        0.03219980787976199,
        0.03025191681126977,
        -0.2266807481474275,
        -0.07245596391667909,
        0.01155750346768654,
        0.02727200930857612,
        -0.016254988772556947,
        0.13774787541048572,
        -0.021501011061355026,
        -0.052670379367749764
      ],
      [
        -0.13763952675400137,
        0.04836976624311757,
        -0.019482675447180915,
        0.01776456183071829,
        0.011429472802318584,
        -0.1556095623909831,
        0.23417648791955648,
        -0.09103044107805645,
        0.004493527554243727,
        -0.1819240663190258,
        0.24991042890096807,
        -0.03018687885754345,
        -0.028785814780054063,
        0.10835089903019937,
        -0.1576030399182761,
        -0.03710654674007991,
        0.1264367758125494,
        0.028431569836913553,
        -0.07402201032004771,
        0.14655375998614756,
        0.14561110290940896,
        0.045076866083409495,
        -0.15003340605868987,
        -0.16124771470750693,
        -0.031934729395006564,
        0.09353971568725189,
        0.15936716891214844,
        -0.15271389614518038,
        0.013344110918249082,
        -0.08832633549467647,
        -0.08991560454689951,
        -0.20308814880824547
      ],
      [
        0.19539804218308332,
        -0.1798980877103566,
        0.013938016035769668,
        0.04217761744854022,
        -0.30166606185892186,
        -0.05494280380565297,
        0.005675757755946962,
        -0.20172924041673546,
        -0.08133093926436198,
        0.17390998582972755,
        0.2382545190233799,
        -0.11150668796134737,
        -0.06825272709089332,
        0.026563584893067888,
        -0.14950669652509052,
        0.0630060359926776,
        -0.09991165352940062,
        0.24726816667969145,
        -0.13384384580439024,
        -0.07594216993156416,
        -0.17558860903152598,
        -0.009914446250495887,
        -0.060157143694553536,
        0.1672193875118886,
        -0.16651082520362287,
        -0.12258317939478112,
        -0.08646205601845125,
        0.007928850038648906,
        0.04183467386831239,
        0.0726172807142188,
        0.07934240549735014,
        0.1695146002267802
      ],
      [
        0.2237973241820291,
        0.016719275543132833,
        0.13918008878398752,
        0.17622523897253184,
        -0.02190648482487226,
        -0.08187260860145729,
        -0.11228088688407321,
        -0.12229630841865224,
        0.1117536214015573,
        -0.015992879752166855,
        0.015379420467263307,
        -0.00038295273061840333,
        -0.023453843246745758,
        -0.10235898975163946,
        -0.04636221362781512,
        -0.07841338239423283,
        0.049624116368691504,
        -0.29510737294471845,
        0.010660868239430132,
        0.005312357952290294,
        0.1437569773378625,
        0.10409959540306828,
        -0.011082664886222029,
        0.13099006479644867,
        -0.1323471855500111,
        -0.18909775467861625,
        0.01979332285268837,
        -0.021802139436325366,
        0.03020403439331114,
        -0.01521702045309507,
        0.1545824641078419,
        0.0072916934879884
      ],
      [
        -0.026146744387540145,
        0.034257250474679875,
        -0.010424257316429077,
        0.03121526293769221,
        0.11614203510557984,
        -0.13356763228326846,
        -0.14458961199590906,
        0.1631608698694403,
        0.1853806745237049,
        0.16661477063797558,
        0.02683719739025198,
        0.006684986023301169,
        -0.09512844852817427,
        0.1152566070165966,
        0.13742320276599648,
        -0.013534042592790554,
        0.11914570197088414,
        0.13348597752230676,
        -0.2636693124283793,
        -0.04669059107434296,
        0.06795901842779141,
        0.06709445048367825,
        -0.050009591941266675,
        -0.07000622204487657,
        -0.007980709157174314,
        0.18935608558029116,
        -0.14253810731988004,
        -0.07190419846540329,
        0.018398907201776112,
        -0.0007826472805221007,
        0.07464210755908435,
        -0.18950995015808875
      ],
      [
        -0.15532790319754664,
        0.015279520071222857,
        -0.00382591609973729,
        0.09608231892715204,
        -0.027127768098753207,
        0.19363675071466324,
        -0.06557872728035442,
        0.14202275062535594,
        0.046672039707002136,
        -0.08114254457518817,
        -0.13863318421415083,
        0.06464740140958761,
        0.0785280972998906,
        -0.08506776867553895,
        -0.15899774303675315,
        -0.1747573300625185,
        0.14633810406247338,
        0.03480333074525057,
        -0.10885482199978753,
        -0.07996387856974316,
        -0.036452882711546716,
        -0.07993553613974255,
        -0.07463460673936453,
        0.105750493237526,
        -0.10724630841158607,
        -0.14600389972565497,
        0.019684090891073692,
        0.11803341020305207,
        0.029772525182755145,
        0.12964118192385254,
        0.07240795798318768,
        0.12053924696177667
      ],
      [
        0.16309294284109224,
        -0.08915705553907995,
        -0.13867443666385953,
        -0.10802620517459596,
        -0.09407800773755724,
        -0.17923907098159134,
        -0.02974748372055009,
        -0.1288285627071901,
        -0.06655357078011576,
        -0.07610364421101244,
        0.0862870403068187,
        -0.15319971178212144,
        0.07716790810844644,
        0.037569889200245475,
        -0.16459242620396386,
        0.18468772611891343,
        0.10083080071417451,
        -0.014374076270094053,
        0.047442844382993093,
        -0.16772210232218032,
        0.20526830711238359,
        0.004818557363538064,
        0.173019015991935,
        0.05903556490548476,
        -0.047679883168337704,
        0.07858173843611149,
        -0.10446519902175613,
        0.03189558428278958,
        -0.009944833659282793,
        -0.08840204042339433,
        0.0952719903955758,
        0.12832481543884622
      ],
      [
        0.1313975101231289,
        0.16139997856478555,
        0.03854541604130947,
        -0.15803566050274814,
        0.19574895447657828,
        -0.12204086122095169,
        -0.012781035141923296,
        0.005686925601236719,
        0.06860666015104565,
        -0.03432033372144777,
        -0.14851206379711457,
        -0.24357695113674332,
        -0.1729971925294313,
        -0.1489495539365687,
        -0.05997024744120985,
        0.24404489993603318,
        -0.07494628516345236,
        0.09800547150306385,
        0.07337320193435203,
        0.20569738793505268,
        -0.054200678188815576,
        -0.05185185409509116,
        -0.0163731994446754,
        -0.10223876149934323,
        -0.0678515089970337,
        -0.17496532188649785,
        -0.11948500376035645,
        -0.02769382961569357,
        -0.0902493119137833,
        -0.16641266491557266,
        0.14785419856819842,
        -0.15144500832379088
      ],
      [
        0.09600540050763029,
        -0.10853109700161977,
        -0.15598625825508602,
        -0.004712423286932723,
        0.08376668221508739,
        -0.1822009022537945,
        0.030495383269677417,
        -0.10329099426047052,
        -0.02628815621845621,
        0.16545173220735715,
        -0.17307904492655313,
        0.11141345749242454,
        -0.05740893721475351,
        -0.07592489075567478,
        -0.19692648742368807,
        0.09936277211248173,
        0.0022404119182280386,
        0.009428971646585384,
        -0.025406622156405552,
        -0.13565766451926112,
        -0.02658591766238934,
        0.09214945796559142,
        0.09455851611869398,
        0.1691395241052957,
        0.1553626026112204,
        0.10681664659278563,
        -0.08911315708736832,
        -0.09990889302492036,
        -0.050603594250220034,
        0.05941780765035599,
        0.02281127960315523,
        0.02924990830496305
      ],
      [
        -0.0840632231924084,
        0.10798371683247628,
        0.03427635838067787,
        0.12107942568818526,
        -0.06861831820083798,
        0.07092715755580796,
        0.015095370884990215,
        0.07739345367863341,
        0.08270564517805284,
        0.06095299678464099,
        -0.13931842769221023,
        0.04124938128646481,
        0.12542063952948454,
        -0.14758213018605834,
        -0.05780881184421833,
        -0.12850830400665855,
        -0.07411491306484701,
        -0.0006183536050441754,
        0.10134656067351384,
        -0.17380169800281955,
        -0.15120588698061585,
        0.18487811223154774,
        -0.10792374271912976,
        0.10263638314588375,
        0.06682077599464735,
        0.14520830850197566,
        -0.12607936985276397,
        -0.1490300148698682,
        -0.018419052941689905,
        -0.1058991645551831,
        0.02007152522905585,
        0.030852283597522324
      ],
      [
        0.05304680859423739,
        -0.20158983793320517,
        -0.12900332784240084,
        0.18557857805991318,
        -0.11055673970553177,
        -0.03940116544579225,
        0.07124080878624886,
        -0.07815220703504533,
        0.1526822139703485,
        -0.2801952593756205,
        0.05610739812014518,
        -0.24398665306258036,
        0.12905425977357035,
        0.08814840990561011,
        -0.05517204047829006,
        0.09933031987324623,
        -0.07710762720205085,
        -0.03676037577129553,
        0.11777334774771395,
        -0.06622507850373759,
        -0.038492172260038995,
        0.09366380927200636,
        -0.019191421451485717,
        0.18681306030498243,
        0.05451534671862709,
        -0.04328200202218967,
        0.11435955151336367,
        0.29147256412720596,
        -0.1727680477120348,
        0.07791007331441627,
        -0.1705623932546946,
        -0.1259693535591128
      ],
      [
        -0.09889734381640562,
        -0.012624937835121792,
        0.012991447627813566,
        0.13009329943763442,
        -0.17395772385856006,
        0.016539367345707573,
        -0.008949126190744883,
        -0.04380452149390281,
        0.1752941492086757,
        0.03474870758736932,
        0.06660275436064386,
        -0.11109534912740651,
        0.07958380217882817,
        0.06965522404504182,
        -0.10316968857047017,
        0.0730408196402378,
        0.08111168221981818,
        -0.10699390520063265,
        0.05390343138637479,
        -0.07510841400672948,
        0.22547689796335987,
        -0.09013911177345187,
        0.09596157922046417,
        0.20879265258983434,
        0.0023715795867069985,
        -0.24993690184530712,
        -0.23624827332587187,
        -0.03794663124096943,
        -0.06023661378211907,
        -0.12046714256514832,
        0.09432339193593552,
        -0.16254826482148885
      ],
      [
        -0.03630102918692461,
        0.1010588064327201,
        0.14324391027097588,
        0.15099489922919984,
        0.05680653197699401,
        -0.033967332016938134,
        0.053665506782720404,
        0.006363358101174662,
        -0.03849567735822864,
        0.15927506333226443,
        0.20333368435744975,
        -0.0299732291368214,
        -0.22125773300573595,
        -0.14314276946143167,
        -0.051862632122448696,
        -0.018287691980918213,
        0.011303051960533451,
        -0.34840216317340206,
        -0.03397587102419778,
        -0.3440671997662798,
        -0.24201909007508463,
        -0.05093931100701122,
        -0.14626312925263787,
        0.07920278298964895,
        -0.0073050725462578655,
        -0.09868192667678986,
        -0.09473684691361643,
        -0.03731375786260237,
        0.010650486499820637,
        -0.19066043115570652,
        0.13414916185674056,
        -0.11641938917050437
      ],
      [
        0.046661635305417844,
        0.12809448783127095,
        0.011728877731617581,
        -0.035600751568074296,
        0.05447389122851829,
        0.2629627072716195,
        -0.07685702844472865,
        0.20093793459559767,
        0.07543154075345124,
        -0.11337706871320602,
        -0.0807013850534027,
        0.187761497764087,
        0.024377347236465362,
        0.0027865464385728156,
        -0.03935872114862519,
        -0.19556755481298957,
        0.0203018204435329,
        0.0788267514554961,
        0.007185224784424403,
        -0.0558989026595674,
        0.025064603935667,
        -0.06646680514249453,
        0.0859181306831299,
        0.034408081542340666,
        -0.14748512399940517,
        -0.04095299097466935,
        -0.06635945643206588,
        0.0068445595242002995,
        -0.09630343824081236,
        0.15661049131495117,
        0.11171964877959033,
        0.029456983449322707
      ],
      [
        -0.15150108041205132,
        -0.13312883213035176,
        -0.12931196124727798,
        0.04552496851395928,
        -0.12444755742936552,
        -0.15210290594911574,
        -0.14842353115502147,
        0.027457780322628224,
        -0.10533501500813706,
        -0.1431927051531789,
        -0.05036710989504309,
        0.0991778443255913,
        0.1153241219501019,
        0.026419553181669074,
        0.1311090756060013,
        -0.06306680620884629,
        0.0026284610730476668,
        0.08433746658363588,
        -0.0665672084689749,
        0.15898047166728033,
        0.1255492493675685,
        -0.07176130526955964,
        0.08911698626588438,
        0.08543146608638326,
        -0.06281025044185011,
        0.08797239418376751,
        0.001975103286206805,
        -0.04121793090397188,
        0.07749574960079256,
        -0.056018275061891346,
        -0.052155203150181205,
        -0.2234166269070354
      ],
      [
        -0.016752123983549205,
        -0.0011068570985160971,
        -0.10212732521667738,
        -0.07616706631515262,
        0.1923774986993078,
        -0.04995940170118841,
        -0.17696491820733432,
        0.016443846165823027,
        -0.17253247395214702,
        -0.14570512856247567,
        -0.056840531351312354,
        -0.04290199458823341,
        0.038374028297700986,
        -0.1678665794561986,
        0.12083192236336998,
        0.2038310215686828,
        -0.12428574154773095,
        -0.07039782286866329,
        -0.12376788230065912,
        0.08247321500442295,
        -0.028904876635466235,
        -0.2421089096147403,
        -0.13360128788574888,
        -0.11577380606690404,
        0.019677874919138003,
        0.09403244870050184,
        -0.15052010731627657,
        0.14150424987570479,
        -0.07903893626610349,
        0.03288624148305002,
        0.014096766217545801,
        -0.06536486514749687
      ],
      [
        0.022864762302489745,
        -0.015303610800698938,
        0.04541437022036601,
        -0.0240874597203457,
        0.13948310404674538,
        0.14765043547632328,
        0.11515707071336216,
        0.0631290946145268,
        0.17013282933080853,
        0.02208967056304528,
        -0.004236771985246041,
        -0.050333269280372926,
        0.010826034091981039,
        -0.05995002837950365,
        -0.12085593297681131,
        0.07607013529669304,
        0.14462005161178845,
        -0.29909984724269767,
        -0.01931967596350459,
        -0.18935199948700535,
        0.20852283335665875,
        0.20274807671604092,
        0.06553265111477038,
        0.1161768706388708,
        -0.07514193749324082,
        0.062336334315966246,
        -0.1012483619695165,
        0.11104055282217781,
        -0.1301826510558481,
        0.00430802707023387,
        0.1344723242526377,
        0.123224503793837
      ],
      [
        0.03701756975665698,
        0.14309632111805867,
        -0.05741393675768884,
        0.1324371581450418,
        -0.21469685385481896,
        0.09911847958365812,
        0.007585559405183041,
        -0.01191449439786723,
        0.02713262512885531,
        0.003611916959397103,
        0.03413421992039398,
        -0.07125280699086604,
        -0.06636421890750666,
        0.09670382050283989,
        -0.1201600786532544,
        -0.19273227791232383,
        0.04895351719994394,
        -0.15126705488483094,
        0.08563290087707759,
        -0.13346990652366772,
        -0.1260537141420158,
        -0.09552475263211785,
        -0.17817192425511852,
        -0.045531869261721904,
        0.12589581915589862,
        -0.1263664538412481,
        -0.12719793439413962,
        0.14404903933818686,
        0.008866867687590317,
        0.04594598574084806,
        -0.1824123706076746,
        -0.1624566409248458
      ],
      [
        -0.022630717082986574,
        -0.1901631210681395,
        0.034334444489980465,
        0.14011093616394532,
        -0.1788435820838606,
        -0.14552455724207616,
        0.11418292647161327,
        0.06927046312162773,
        -0.05546591257529985,
        -0.003622716531591705,
        0.08127836016284393,
        0.09772606455478668,
        0.10182360610626087,
        -0.065373696520019,
        -0.11050338592009162,
        -0.10748662761140645,
        -0.17160710647705282,
        0.13166514265024595,
        0.07033542502047563,
        -0.020060203436814077,
        -0.0778537540899625,
        0.14155936263975577,
        0.019535768908563567,
        0.19951212641824367,
        0.03444204362934113,
        0.1625636349647789,
        0.1304380789138506,
        -0.09641570261654227,
        -0.13009846300070274,
        0.08941365101485999,
        0.15875447932305256,
        -0.07644857408874041
      ],
      [
        -0.045029349656202644,
        -0.18298898423418136,
        -0.16389369688750616,
        -0.06763298812674769,
        -0.05457820235741722,
        0.2194972710587909,
        0.15421540238968814,
        -0.12323883839566407,
        0.13400705043432393,
        0.031896878302568474,
        -0.11272623927804362,
        -0.15457348191792056,
        0.014702477273610506,
        -0.1575205896267941,
        0.021483539909775,
        0.056416883457961885,
        0.1367775427349926,
        -0.05075059391780735,
        -0.14052907268457487,
        -0.13731906973245553,
        0.04460605599876946,
        0.056455396509424244,
        -0.10254992482825483,
        -0.042947848015543626,
        -0.07396069674700033,
        -0.12375316000559643,
        0.09582799879832232,
        0.14094339200654316,
        0.12185934007461542,
        0.042978322746749356,
        -0.10748189511379244,
        0.09101308236111048
      ],
      [
        0.06112658548307854,
        0.09064361383650213,
        -0.18007326061751183,
        -0.11592699168153114,
        0.08850244393866337,
        0.21052579425520754,
        -0.01637140831390392,
        -0.03179052572170019,
        0.096620889602102,
        -0.1301989346285583,
        0.15158415539199527,
        -0.05187773481963199,
        0.0675938195994687,
        -0.15183683608022405,
        0.09868065140198919,
        0.035509504910766564,
        0.0020484725951275726,
        0.12521200542636873,
        0.07249967197820982,
        -0.040494886037562676,
        -0.17066912571606405,
        -0.14366506123306644,
        -0.1942633331700725,
        0.21175637405920023,
        0.035120495535583295,
        0.2059695901292145,
        -0.050622674938164774,
        -0.1696993877082087,
        -0.05301483694726456,
        0.27919902736361674,
        0.15028010184501522,
        -0.03064161939292337
      ],
      [
        -0.0013563464938509322,
        0.13772473514584477,
        -0.11946091701548099,
        -0.023447591689562747,
        0.16219524100866758,
        -0.1265819852575589,
        -0.16027028587341646,
        -0.031106193011965263,
        -0.13128274622135291,
        -0.11630206017814088,
        0.1867332450350852,
        0.13466431600278322,
        -0.24030683360760982,
        -0.058473933453249756,
        -0.10689484192314712,
        0.03801066726417921,
        0.1256261207833069,
        0.05921969417664139,
        0.040143447010973644,
        -0.04253911023973222,
        -0.087794317740406,
        -0.011538846708838929,
        -0.26730329098681327,
        0.1973766639921378,
        -0.008812602586966657,
        0.07296880122264922,
        0.10011550640315549,
        0.03470005029338219,
        -0.1456279261801201,
        0.2307292013943347,
        0.14014346433828215,
        0.14211275860605269
      ],
      [
        0.1791226768003266,
        0.08335961807988729,
        0.09083111687185927,
        0.13195432218066966,
        -0.14423338906730204,
        -0.10382843103889165,
        0.2820965954273699,
        0.0817317115856621,
        -0.09452670822539132,
        -0.1597848215341669,
        0.0016176995563886758,
        -0.06396558135782203,
        0.023676510300278557,
        0.11112119198561318,
        -0.021054215910225656,
        0.2360742587264371,
        0.12866211997059537,
        0.015032893997073754,
        0.07664435815941514,
        -0.04495597228046657,
        0.021806310784289153,
        -0.008710649929682172,
        -0.23861588142102536,
        0.05350124908827714,
        0.145825382271075,
        -0.045193859778107616,
        -0.22269815437407986,
        -0.18445481356060955,
        -0.14405511236474644,
        -0.01801455517393903,
        0.025421468020770447,
        0.06306279480906203
      ],
      [
        -0.004684844393222678,
        -0.06897517905202649,
        0.13339713272188877,
        -0.16249116907241248,
        0.08800571776483777,
        0.07158698212876195,
        0.07085033481946337,
        0.10319524028844518,
        -0.13887054001382498,
        -0.14656221086020557,
        -0.197125731633067,
        0.07619139357181003,
        0.03901144045800863,
        -0.15385795847228398,
        -0.18338594721517532,
        0.07411978216977756,
        -0.19597639792430138,
        0.049829237975641004,
        0.10278429073624126,
        0.012349908743923294,
        -0.13443795440379286,
        -0.07418529624531311,
        0.0011298407022056847,
        0.07721016730194595,
        0.2572654886553567,
        -0.0035058728932427057,
        -0.01854832110564269,
        0.1333677531908309,
        -0.013111914238732595,
        0.011710288453513554,
        0.035836744977118716,
        -0.04132206459611854
      ],
      [
        0.025795427352331465,
        -0.00034230517447675417,
        0.1169456643275616,
        -0.21294569877529262,
        0.1043716490819625,
        0.25945912379094593,
        -0.19407259591846043,
        -0.16771118944072563,
        0.10023121477044386,
        0.004989835969598115,
        0.03249752355710976,
        -0.050923355672644305,
        0.007288017183003586,
        -0.05692560840693697,
        -0.1011938464231868,
        0.054420281377425696,
        -0.023164179844516693,
        -0.15578708317363915,
        -0.04736515141611061,
        -0.021663899770062185,
        0.15499772001557177,
        0.06392306880107639,
        0.08442367323403939,
        -0.06890551557052915,
        -0.08609580490675345,
        -0.08221129449492176,
        -0.09277854261000396,
        -0.1813018726781269,
        -0.04740442077859252,
        -0.06330041071617969,
        0.06152270975007198,
        0.210529591573797
      ],
      [
        -0.0989836749729318,
        -0.024227554476730594,
        -0.14311502383588318,
        0.14088681714491283,
        -0.12133198110616018,
        -0.06784262341251807,
        0.04073326110206787,
        -0.07145593698907418,
        0.08680016433132332,
        -0.25504158089701723,
        0.06761373657049412,
        -0.06294390214139756,
        -0.01715725518374872,
        -0.12759631310803238,
        0.13991048892937658,
        -0.05810737149951572,
        -0.26280260608373407,
        -0.11632262608367892,
        -0.008460394430296385,
        0.11957639130652178,
        -0.10520109304521069,
        -0.10206959043410295,
        -0.1382828048626472,
        -0.1015131212538295,
        0.1526476146668748,
        -0.13995995022032287,
        -0.20949672934464084,
        0.021000773225912,
        -0.17262148410524342,
        -0.01476515695242732,
        0.04629745125131621,
        0.32810066588957604
      ],
      [
        0.18470806344303242,
        -0.09295181711126935,
        -0.048653332074990056,
        -0.007396578065915132,
        0.06295139610814036,
        0.11191798419106912,
        -0.009700385056488063,
        -0.04566401907528622,
        0.09266379195980394,
        -0.1662927250897306,
        -0.017509242758932723,
        0.1732343273291268,
        0.04068957566902626,
        -0.10110154652793589,
        -0.13042667975027347,
        -0.1410465136414665,
        0.07115600794693505,
        0.13884428515210862,
        0.08254404323029627,
        0.106559335000398,
        0.08723959872451516,
        0.09854005190234401,
        -0.21120546740802815,
        -0.11287864939406494,
        0.0815049512664993,
        0.1409398196165702,
        -0.07665254433451327,
        -0.04940944382364782,
        -0.10523235922283729,
        0.12626530537920325,
        0.05990812177414256,
        0.1837804792734048
      ],
      [
        -0.09384190850439507,
        -0.19301133289480518,
        -0.10208527239616838,
        -0.08425498744676123,
        -0.000022746222815550436,
        0.05563465740307468,
        -0.09813924338560376,
        0.020890376563254095,
        0.11515519410802527,
        0.10389815268516206,
        0.04418251469846662,
        0.16445933328854098,
        0.0656483790867872,
        -0.0721632892791304,
        0.17165045545023327,
        0.11142112506966496,
        -0.07747869327738498,
        0.13166438573606318,
        -0.015827697644833286,
        0.0444657410100627,
        -0.06721250243998898,
        -0.18299723375522742,
        -0.11695660932295705,
        -0.12545995728453244,
        -0.01826753736930896,
        0.19698743138036143,
        0.09869229414635147,
        -0.11135541086130299,
        0.036928233413604974,
        0.12402189643336638,
        0.08397775641003935,
        0.136519672152206
      ],
      [
        0.15203953147052424,
        -0.12548900928137086,
        0.07966738699343467,
        0.07982914447034249,
        -0.05202723074460455,
        -0.036396145255382546,
        -0.006692738485862087,
        -0.1759268591426503,
        -0.0020253842055359076,
        0.10367947540499554,
        -0.08824442476119775,
        -0.04826639546404481,
        -0.06995033309425248,
        -0.1034531051274628,
        -0.05686769079248625,
        0.02531444340520715,
        -0.1842400806445357,
        0.20759163819971527,
        -0.0010227045389350688,
        -0.015687091794122563,
        -0.03657331093738663,
        0.11658485056556804,
        0.015886480354966134,
        0.1572537970593841,
        -0.20462406744701195,
        -0.08722853657143223,
        -0.06412593745887984,
        0.1438063000350113,
        0.06720511164884697,
        0.1458034404138856,
        -0.04647446082157244,
        0.07374686644340869
      ],
      [
        -0.180786494237235,
        -0.1417420528267673,
        0.08760339183593167,
        0.10331593246506096,
        -0.1869062423252067,
        0.014781035417102892,
        -0.135206358625566,
        -0.0023705154412945106,
        -0.17243821163868667,
        -0.062127259575396436,
        -0.15331673009761426,
        -0.22520954696001186,
        0.23055337243747026,
        0.1048400784844774,
        0.06998063459712989,
        0.10199178879175892,
        0.08457439216379846,
        -0.06614776235377479,
        -0.1276725786570559,
        0.0064163346891632335,
        -0.05171626194972979,
        0.04216911707164823,
        0.03830255983254714,
        0.030835956274149243,
        0.009447679082311776,
        -0.17055790268034215,
        0.022808742372361492,
        0.2066537186896961,
        0.08638850816481812,
        -0.02497214966347077,
        -0.13341866250510262,
        -0.05277475370409226
      ],
      [
        -0.06393116441137232,
        -0.09993446367246935,
        0.007862058191687275,
        -0.15130555453448355,
        -0.12841709619864908,
        0.0194976368915564,
        -0.09845847594026412,
        -0.13533344468636999,
        -0.07202537249895191,
        -0.28926543962560847,
        0.0762416740938542,
        0.060625029474206386,
        0.06224711392146309,
        -0.13475222668495204,
        -0.09619599315363714,
        0.08668424483362348,
        0.06339956000902917,
        -0.022849643745323073,
        0.08574861239735221,
        0.2340221717101246,
        -0.11427241093170014,
        0.04972936991257141,
        0.014035577521294832,
        -0.12170047654756691,
        -0.11265205738268659,
        0.007560955696466634,
        -0.1205329025458947,
        -0.12433110483869253,
        -0.029099621546830604,
        -0.06591465182509584,
        0.1982909281426771,
        0.10697505567829912
      ],
      [
        -0.10212643285582082,
        0.058055158032840844,
        -0.1753732948190998,
        -0.0019901055326571205,
        0.07943756210450731,
        0.08582520594094621,
        -0.05437739713563346,
        0.04206898016445248,
        -0.06610626440843981,
        -0.06800690242426999,
        -0.10937795883704443,
        0.17369639415016383,
        0.06587247345306829,
        0.10462886448813224,
        0.03137307337669546,
        -0.0194240379894635,
        0.029022460662274135,
        0.03018678967055926,
        -0.022855540573811037,
        0.09777547987102812,
        0.20866879275920244,
        0.04743823023782026,
        0.2082861066855159,
        -0.21260885201534596,
        0.18186799902908785,
        0.08167009554078612,
        0.18338270394979336,
        0.14424991493776673,
        0.11243578383705252,
        0.036484475312141926,
        -0.058262921851373106,
        -0.0216931958746889
      ],
      [
        -0.046348553217513265,
        -0.0037118902233458243,
        -0.06494948311065354,
        -0.10871527435767063,
        0.06567689320929465,
        0.22816660264387933,
        0.08121274927705564,
        -0.09911330408565436,
        0.1714195051369118,
        -0.044489971762906616,
        0.004220145268751894,
        0.05612624191217761,
        -0.1314559938114943,
        -0.11097349162021787,
        0.08996508675829759,
        0.134181657736846,
        0.14864572286241587,
        0.10400051893805179,
        0.09462429294316112,
        -0.1311923499011303,
        0.016039717260175803,
        0.11729964204518292,
        0.18931291394485494,
        0.013568382422068181,
        -0.02444128716846573,
        0.07857358607053534,
        0.13334990308832098,
        0.26312243014639747,
        0.14351524866275472,
        -0.0772518321482161,
        -0.11443336216235736,
        -0.035042649700252816
      ],
      [
        0.0906592402434408,
        0.14230626076649996,
        0.07032148910554684,
        -0.11799625440553817,
        -0.07853650816905305,
        0.03176971247347197,
        -0.15549912423256892,
        0.12082486270757271,
        -0.03522197824998735,
        -0.2981525048475782,
        -0.04433222991136225,
        0.028639007431098686,
        0.025828693580447044,
        -0.21167223112118555,
        -0.0018522243640743785,
        0.14695501641983166,
        -0.16816897241787757,
        0.05563533208050111,
        0.1189084316121066,
        0.03649933451276502,
        -0.033483333560934414,
        -0.14222556676024872,
        -0.14192323922765293,
        0.0852788330296519,
        -0.15087957577437908,
        -0.01565806643865427,
        0.11756951912912399,
        -0.04871602069245079,
        0.22446627817679854,
        0.05794281367827138,
        0.07984496415535301,
        -0.15749630558549027
      ],
      [
        0.14027857934727336,
        -0.0016996657256075436,
        0.10594744201384926,
        -0.044642528812664777,
        0.08103079584027904,
        -0.07795441916207772,
        0.07602351535355203,
        0.1346549852776822,
        -0.018576431522919348,
        0.0377642825181123,
        0.22175881864637226,
        -0.11467035703390027,
        -0.11741481368051401,
        0.07366550940612528,
        0.08627925826716805,
        -0.13870441091845678,
        -0.020059159089370594,
        -0.13645117269410875,
        -0.12803007147619394,
        -0.08493776462184473,
        0.06949514815203846,
        0.01670303793084591,
        -0.06502266225758738,
        0.0816687605795279,
        -0.0011573288522173039,
        -0.07604494839926929,
        -0.06024651087514942,
        0.00213455096079599,
        0.01980430956990768,
        -0.03923404880481029,
        0.02975991998374622,
        0.05289572663232676
      ],
      [
        0.08242859499369394,
        -0.17784472709248128,
        -0.1367187737039847,
        -0.13584339603047055,
        0.03148237030151991,
        -0.014324289735067648,
        -0.10954364032501196,
        -0.15225149031384919,
        0.09723237910055026,
        -0.15676493624755333,
        -0.01528872116413411,
        0.11037450074264117,
        0.025090906818272647,
        -0.13686053916910784,
        0.022114892654251924,
        -0.15680657918910476,
        0.06630396815695033,
        0.10436655281527038,
        -0.04893749264017891,
        -0.02413457421764929,
        -0.10655478620050814,
        -0.18127899127510647,
        -0.07996092395225725,
        0.2547017162172812,
        0.09093516088297224,
        -0.0921155664297006,
        -0.02265248653223762,
        -0.2068028410510193,
        0.16865095287867185,
        0.015450356702239414,
        0.1340552207583134,
        -0.05487592476674381
      ],
      [
        0.01641306446867182,
        0.0970054689590237,
        -0.09872880089269295,
        -0.09526854364241397,
        0.07692398916619626,
        0.19219253622351837,
        0.005530297118362177,
        0.023133083452860165,
        -0.10185748654015332,
        0.0594721516889004,
        -0.10361126304820502,
        0.11432542025769621,
        -0.03885018521024043,
        0.06963968869887066,
        -0.09955949984934642,
        -0.030580046720762002,
        -0.050432010353038174,
        -0.04603445564081017,
        -0.08392690815183726,
        -0.15164324144340738,
        -0.10045830813250152,
        0.20354172836795514,
        0.017288575016992873,
        -0.15751657469749133,
        0.2162652615089354,
        0.038128623916097316,
        -0.09458680292421086,
        -0.1446230916510178,
        -0.08736606955520647,
        0.004407081966063635,
        0.03458174701977728,
        -0.22220907821640742
      ],
      [
        0.09396243532656848,
        -0.16433092126169793,
        0.01963644068363068,
        0.16990168926964774,
        0.1261711555141291,
        0.06312566951931327,
        -0.06042408726588434,
        -0.13928709910131143,
        0.023222690961447953,
        -0.010087617909681745,
        -0.054126526433916786,
        0.11263978909857406,
        -0.1986939501951791,
        0.11679724725113992,
        -0.07861938110659128,
        -0.0253312860884225,
        0.02903654309413543,
        0.10064463888656179,
        0.12982532899396942,
        0.057820433766516466,
        0.033913462971346384,
        0.1744933838004914,
        0.10390985925584954,
        0.0170992324730249,
        0.09525859591412551,
        -0.07848439304584683,
        -0.10659248397359655,
        0.13204518720889963,
        -0.06950435747175027,
        -0.025444406024826883,
        0.10596699994782464,
        -0.03705053340014527
      ],
      [
        0.1524015434559729,
        -0.14665933398597647,
        -0.11395744216923002,
        -0.15950445896048734,
        -0.062492244507508884,
        -0.12410730126578119,
        -0.0873769715610127,
        0.1270414997323345,
        0.12161585089329151,
        0.05501833064844241,
        -0.05440040978052576,
        0.024106532633789635,
        0.0651565839959392,
        -0.05741119923864735,
        0.07802683423958962,
        -0.18901344353341193,
        0.1243191602315917,
        -0.015153756879394438,
        0.07714924964436619,
        0.025307231181587602,
        -0.14712069017864998,
        0.24263954881067876,
        0.2088517692316388,
        0.08102180370950693,
        -0.041985954988178927,
        0.040821250724540264,
        -0.10178740003978241,
        -0.17254066443484015,
        -0.0030563718253045825,
        -0.0031668529044949,
        0.04433886722764308,
        0.011458952346028853
      ],
      [
        0.07961821883339132,
        -0.02545470702988241,
        -0.019957732379025952,
        -0.046779764153719844,
        0.049618578277642336,
        0.08030670517255302,
        -0.05681310030723124,
        -0.009101392420863533,
        -0.004198863995113755,
        0.17579400177076931,
        -0.11202943857057807,
        0.07891928880757669,
        0.06794637341748032,
        0.008014537409234789,
        0.031905916871629886,
        0.21149280304957233,
        0.07416079242961274,
        0.18234739030653607,
        0.19421491029688717,
        0.006355279078406965,
        -0.10703844525210816,
        0.09768725201428705,
        0.14267913553609374,
        -0.269515738780031,
        0.02445830672632085,
        -0.26273548767405636,
        0.09740115083054256,
        -0.20353676354986322,
        0.02310243023370203,
        -0.15955547253187677,
        -0.014819373439247276,
        0.01409999032554383
      ],
      [
        -0.1435190737179324,
        0.054396302501256974,
        -0.09284781207632105,
        0.08661594662997145,
        0.16629814620445854,
        0.06919155866947711,
        -0.006495549687199755,
        -0.06038585520178807,
        0.007271140569886697,
        -0.24290440512810332,
        -0.022625808803706158,
        -0.0496612594432123,
        -0.1991814841370374,
        -0.20018406383176182,
        0.02713194789671918,
        0.017874234158582504,
        0.00577869920130144,
        -0.21583731624814018,
        0.07857131978502883,
        0.14383537614958858,
        -0.017622800167810298,
        0.05900384496676419,
        -0.008106951745611072,
        -0.20886194460587654,
        0.12998859979300764,
        -0.06388944989092445,
        0.005292722945992979,
        0.12876638869559404,
        0.2397387535446785,
        0.13419911339800478,
        -0.05383552871670205,
        -0.09264113327411888
      ],
      [
        0.15699817473935299,
        0.18092061074191165,
        0.16969377830609078,
        0.08469078103764531,
        -0.03346963005879068,
        -0.20615982278977324,
        0.09220291131910072,
        -0.17318742458802458,
        -0.11673020933204722,
        0.14810309054057888,
        0.19391819671086705,
        0.18624464226238746,
        -0.0813845718704967,
        -0.20826894949097557,
        -0.09562817891172613,
        -0.10546913129169072,
        -0.213479162245271,
        -0.15227086725776168,
        0.12088226330752397,
        -0.09845114593061617,
        -0.10864524627519333,
        -0.0615066718647387,
        0.22039036857673783,
        0.06040437137275892,
        -0.1807974680667125,
        -0.10074454646729189,
        0.10654755506648164,
        0.05203567713260004,
        0.14137066284344726,
        -0.13950318505602924,
        0.06323008112904377,
        0.1857546925890523
      ],
      [
        -0.10608610810526964,
        0.009742723338855655,
        -0.16342353961197642,
        -0.12482331936933364,
        -0.14852265103837103,
        -0.13172139945502556,
        -0.1651243228952016,
        -0.09210204620923299,
        0.03261001676977811,
        0.08116354784273816,
        -0.12828644704952127,
        -0.0442668883645673,
        0.09652465368665704,
        0.15492472486463205,
        0.08082425389625897,
        0.05573377792203446,
        -0.03544811240032179,
        0.14515180313287712,
        -0.0009241371764358909,
        0.09198728410559566,
        0.11849539475182314,
        0.16932328185533024,
        0.17979063356934072,
        -0.06343398295793291,
        0.09371162200484354,
        -0.02539210480554192,
        0.1311467647375478,
        -0.08360628294508507,
        0.04663123191557701,
        0.15274644535093615,
        0.15018638926962372,
        -0.09584455537865995
      ],
      [
        0.09353465865581714,
        -0.05026153281286862,
        -0.02836065368473785,
        -0.0025847203078645325,
        0.09228369820170403,
        -0.0016898315766160738,
        -0.09872396418367504,
        0.029205835749057,
        -0.006931357316336331,
        0.19041897179054826,
        0.0679583696846845,
        -0.006801813849936212,
        -0.14964232481523937,
        -0.04142587388238404,
        -0.16324699241444368,
        -0.020584740000679638,
        -0.14264422644186997,
        0.11961631337314252,
        0.06040588050078177,
        0.15150456127478326,
        0.03506089930327049,
        -0.20274997364733005,
        0.1481061818378257,
        -0.1054777773325271,
        -0.049492435726264314,
        0.12319094503577699,
        0.08794755070124921,
        -0.12743086079911325,
        -0.04285001267873844,
        -0.27952727142344874,
        -0.07550793916783917,
        -0.06423242282632986
      ],
      [
        -0.016131522130670126,
        0.1746805948486591,
        0.10217147426434672,
        0.004652376150424354,
        -0.16892285416593356,
        -0.014915734896991065,
        0.09243561502154016,
        0.035274839442368706,
        -0.13266245276849178,
        -0.08843941890891183,
        -0.07853185774307067,
        -0.08979095066534178,
        0.1317168936756358,
        -0.07679652331062495,
        -0.13773776840321375,
        0.13147432426485484,
        -0.1283970235594116,
        0.0473830033920978,
        0.16857283227800507,
        0.052867202004118034,
        -0.1160727344835519,
        -0.19652196261517357,
        -0.031172135523541034,
        -0.048124568040789795,
        0.005734489971118214,
        -0.061054527776787326,
        -0.1558728463597784,
        0.01285755104172276,
        0.17779926277874505,
        0.09053844438139264,
        -0.08732532956697324,
        -0.16000427666674397
      ],
      [
        -0.17250079070984103,
        0.16641393338144256,
        -0.007188802115044651,
        0.09865618441794836,
        -0.018228613499836226,
        0.09429440197192455,
        -0.08965351150480255,
        0.050423319059726475,
        0.06134436057036732,
        0.033421885709643336,
        0.15177937204170605,
        -0.020939065803256145,
        -0.05497272334868703,
        0.19952066864087972,
        0.2081819269067554,
        -0.06496981437048358,
        -0.025386998248671626,
        0.140424947549414,
        -0.1279727231794248,
        -0.029084825625246828,
        -0.1051234301177966,
        0.06564025926156188,
        0.1207413134450323,
        -0.19368306921068112,
        0.09930790999014731,
        0.01740517647444808,
        0.10395680619986496,
        0.07731195567513663,
        -0.08590972983476401,
        -0.05514314360769973,
        0.044807091786597475,
        -0.04351910960315821
      ],
      [
        -0.13053525853655276,
        0.19133696100629277,
        -0.15636049272323063,
        0.03529273508334427,
        -0.04129874529304312,
        0.1199061823546258,
        0.17377810666951027,
        0.06561844523269818,
        0.06551336377038025,
        -0.1499263019632976,
        0.08029729535246966,
        0.011244243488748152,
        0.19976517183736692,
        -0.027091773578635084,
        -0.02547977645645053,
        0.1441374894785284,
        0.10473409751395163,
        0.07917866876556837,
        -0.06466166378423036,
        -0.03182385957964239,
        -0.02258393721391089,
        -0.002991182978854589,
        0.11967400100007006,
        -0.04989233884262549,
        -0.15721980556897014,
        0.012251595296694935,
        0.08245137755627767,
        -0.048249506752411665,
        -0.15791305022258276,
        -0.138386078792662,
        0.09581466594222109,
        -0.07488768541030295
      ],
      [
        -0.020433604278514254,
        -0.03513555929502186,
        -0.13407070561571,
        0.06281786686044082,
        0.1507982417671516,
        0.08482015566444352,
        0.19453436351996198,
        -0.1151752249891364,
        0.12252387748460353,
        -0.24793484893015463,
        -0.04445153944100482,
        0.12948760664961492,
        -0.09016205386983978,
        0.07062347079330061,
        -0.12593348226175566,
        0.1469433848174526,
        0.04766752505730946,
        0.09095779595877955,
        0.01025516706933898,
        -0.15096700270657004,
        -0.09200271509756278,
        -0.03993258388913268,
        -0.16400400625280198,
        0.085215894409659,
        0.13874288883337824,
        -0.2325783132286691,
        0.12568626092654,
        -0.03479237744229407,
        -0.05678010869441722,
        -0.05335663511873679,
        0.046254725579155824,
        0.10131007034892649
      ],
      [
        -0.012929423113886328,
        -0.043976051626604486,
        0.050634133397693036,
        -0.1628684825412857,
        -0.14151718725467044,
        0.2297450269733354,
        -0.17952395800246357,
        -0.17970966020486429,
        -0.025720788162781595,
        -0.07944654046373394,
        -0.09037931638070396,
        0.023200073269468335,
        -0.12021895772011607,
        -0.02472534131147707,
        -0.11282817038156116,
        0.09974973186034965,
        0.12605675389059853,
        0.018530811149486452,
        -0.02997046142326875,
        0.05476644685239903,
        -0.1341940133015798,
        0.09177377355377239,
        0.010678863238370627,
        0.11749210426512328,
        -0.022698539504389183,
        -0.1275008950794134,
        0.01236249739997505,
        -0.12811758238915916,
        -0.1407906411166269,
        0.037096079495808745,
        -0.10061222609344621,
        -0.04845660286566521
      ],
      [
        0.08652068425170457,
        0.1032511665433645,
        0.02982977833900035,
        -0.008603676804996617,
        0.12685223952371844,
        -0.15547039428572842,
        0.005917679730116088,
        0.13207917929123222,
        0.2072134236628155,
        0.008120176765433631,
        0.029237159370421834,
        -0.013073333574321604,
        -0.20965663559177983,
        0.05182221574295592,
        0.0318765096939568,
        0.06948499022630986,
        -0.05581016335748563,
        -0.05950345675004151,
        0.09649998453090307,
        -0.16411260681183734,
        -0.029436792192895654,
        -0.0787828181021493,
        -0.12183822010017625,
        0.14942883226364498,
        -0.03815537925375228,
        0.07847933204925368,
        0.12131139327495061,
        -0.08089975968596848,
        0.0022037699565943315,
        0.031135610837982435,
        0.0914637626004321,
        -0.04338177616081833
      ],
      [
        -0.04496107049332307,
        -0.09744600856070759,
        -0.07935758454513687,
        -0.040940557171009896,
        -0.15091802758619954,
        -0.08198791192329494,
        0.19992916510162945,
        0.09889447047171614,
        0.033218619652209916,
        0.08019952060186569,
        -0.1919822767703891,
        -0.1532580708158246,
        -0.08918583689697113,
        -0.014948439588920925,
        0.06659175243823724,
        0.04084387768278155,
        0.040390916966141846,
        0.1432884315626143,
        0.13501277749609505,
        0.10267440937258746,
        -0.06594250472306266,
        -0.03208539773573363,
        -0.050310593844583466,
        -0.09224922972547875,
        0.002201937006791509,
        -0.058978438551406796,
        0.0826001842102512,
        0.08326941253213742,
        -0.03591869976385967,
        0.015222055251521604,
        -0.2503579345775318,
        0.06004926567335805
      ],
      [
        -0.08326912005600684,
        -0.006750153220442339,
        0.13222237944461962,
        -0.17349950231088565,
        0.05887844567629355,
        0.012108462271269618,
        -0.14416972347059934,
        0.050476945334434295,
        0.18923538839903079,
        -0.031428193850333505,
        -0.16926740450533231,
        -0.08383516542988316,
        -0.08100226122785023,
        0.05893196454812126,
        0.06030592780472763,
        0.14467229944609702,
        -0.03386863550227188,
        0.13624194386502383,
        0.1936460414980283,
        -0.050737070386974524,
        0.024571696848656874,
        -0.1478419945443388,
        0.20142834946677093,
        0.014785073212061857,
        -0.18898816905558602,
        -0.058738234769051476,
        0.03134488276078383,
        -0.14683386089680783,
        -0.14969561824189226,
        0.10797233354571412,
        0.014152966019808384,
        0.025432022427923102
      ],
      [
        -0.07107335051458856,
        0.11281899422140013,
        0.0710062096680202,
        -0.19436495946030247,
        -0.02235114732238022,
        -0.008673722589131194,
        0.13998527203396247,
        0.08586495679994333,
        0.09124941324085377,
        -0.18893163221171397,
        -0.16395639107565033,
        0.09850322524325072,
        0.02456700500626884,
        -0.27094832877026864,
        -0.044350702612938164,
        -0.017213460934655832,
        -0.16860160790206322,
        0.05203048483946389,
        -0.05042682609735345,
        0.06376824387333219,
        0.03178872559616289,
        0.11202190209191379,
        0.2022018464753601,
        0.05869265613405695,
        0.2733606791871475,
        0.07925139557179461,
        -0.09690609288576607,
        0.0022209089146299297,
        0.03271255553724415,
        -0.15799095140417999,
        -0.05097096432224889,
        -0.08888774451026239
      ],
      [
        0.12372940817230642,
        0.035730918607950204,
        0.08553123480936188,
        -0.18947365324360332,
        -0.13112091402233855,
        0.20848873662172024,
        -0.054055008842759864,
        -0.007428231801560935,
        0.09823303315582978,
        -0.07125945065040148,
        -0.07462335766042526,
        -0.01686769662315073,
        0.00228133488617065,
        0.07916227595376779,
        0.030422404690672252,
        -0.1265281511274528,
        -0.08366508564079621,
        -0.07733903207292395,
        0.1477405982314988,
        0.09980335483513414,
        -0.03599904536346586,
        0.1701402585911396,
        -0.19884221360534707,
        0.08363210422249982,
        0.18576670834705583,
        0.027755769426429884,
        0.10519600423228537,
        -0.17558734539402887,
        -0.022211700176008275,
        0.09390980900170504,
        0.13742723865542342,
        -0.06173260670343902
      ],
      [
        -0.14471952564481932,
        -0.028760784343120623,
        -0.021926287345874144,
        -0.07143841940235013,
        -0.08788090603049648,
        -0.09380434400617037,
        -0.06627134695495072,
        0.07947746183783479,
        -0.12813832789284754,
        0.2492340457991189,
        -0.018311276974816645,
        -0.13252762741435545,
        0.0696034725056387,
        -0.13645736462893274,
        0.12320894091825385,
        0.02323839391237998,
        -0.19900600733921067,
        0.12119489554361397,
        -0.004655860169886445,
        -0.05370471420990494,
        -0.015405895719814792,
        0.07550139888135272,
        0.051495031190928985,
        -0.025173035634226015,
        -0.10853282596491012,
        -0.03015159951798629,
        -0.021760772360075842,
        -0.03197463866307172,
        -0.0694005868818044,
        0.06326110745033181,
        0.1318113931775199,
        -0.06393901609013451
      ],
      [
        0.14815335847058533,
        -0.08401113640149231,
        0.1611624933130029,
        -0.08018505209857009,
        0.20850101007756064,
        0.17965073880486845,
        0.1450449799719188,
        -0.07807335125299336,
        -0.08411387095521823,
        -0.17577539484274418,
        0.05468779797256809,
        -0.2365645123606983,
        0.1647955296789792,
        0.09026864976188342,
        -0.021012289883705973,
        -0.11507502435664095,
        0.06855154053493963,
        -0.06496691883989089,
        -0.0064003690188585245,
        0.05021401176835224,
        -0.026153289929240448,
        -0.08551751257446841,
        -0.1356810657026476,
        -0.24040212654252074,
        -0.12983979116182603,
        -0.0405612875851814,
        -0.1410572492764165,
        -0.09663019279097575,
        -0.11730439311703798,
        0.007254281276036314,
        -0.11986899951754779,
        0.15304116390327807
      ],
      [
        0.08389718279666308,
        -0.05766081194988777,
        -0.07070352465791468,
        -0.0342087089559029,
        -0.10724132167811395,
        -0.20482750130134295,
        0.05764084382940035,
        0.0012053714908869535,
        0.018613649662520382,
        0.0620625015642416,
        0.18867248942971518,
        -0.1801860578893402,
        -0.0008256250336151493,
        -0.039046328612141766,
        -0.038920741568553546,
        -0.13158333001826672,
        -0.12176509161057456,
        -0.07546346846565857,
        0.09220679229313475,
        -0.08681526872610269,
        0.08045695515077449,
        -0.22324191946668165,
        0.053503964388844624,
        -0.10986161342375887,
        0.04896873872316094,
        0.15427141898932298,
        -0.20521062742414709,
        -0.22874573003810167,
        0.048768571898945026,
        0.0900477927021498,
        -0.059762607737048355,
        0.19201733753050396
      ],
      [
        -0.04812912160791021,
        -0.018558775208894603,
        0.029873578851871155,
        -0.17867234473681592,
        -0.12583257192614813,
        -0.1266935470225795,
        -0.01815886647247904,
        -0.08807420028919816,
        -0.19114269207012788,
        -0.13560567883098268,
        0.14404757234032267,
        -0.10649548355167898,
        -0.10894183044988971,
        -0.11895694913384972,
        -0.08761257680945042,
        0.03564908828743585,
        -0.06084311223863068,
        -0.011904996903294916,
        -0.02155137655714793,
        -0.21214110589140137,
        -0.14829758438394486,
        -0.09059165913086088,
        0.11250108646851073,
        -0.18876395698002257,
        0.18261071026893963,
        -0.02919187115159285,
        0.07561314513187613,
        -0.24841346803970787,
        0.06623355544400641,
        0.08605564113765703,
        0.09354072200064577,
        -0.03975624320086326
      ],
      [
        0.16765735231246726,
        0.10102748658965045,
        -0.09820025300740398,
        -0.19594793906778513,
        0.13583148492237018,
        0.14314794925364585,
        0.012790790435638945,
        0.12878147921287048,
        0.1334538812277342,
        -0.10459298809628186,
        -0.08867822269858942,
        0.11478944883824724,
        0.0033783780976737333,
        -0.022508984146214377,
        0.10608599273868709,
        0.09586716476700562,
        0.0099406005466944,
        -0.020884089235875713,
        -0.15871750039615862,
        -0.029321893540302475,
        -0.010372979107555422,
        0.03990124721759534,
        0.08154254034984952,
        0.1149117856203093,
        -0.12863529512099325,
        -0.03294189072614684,
        -0.1111042035341209,
        0.10909632406851522,
        0.04209230636712956,
        -0.010562321959127048,
        -0.014203173911288782,
        0.18498692993490706
      ],
      [
        0.05732213932596382,
        -0.05264012891396276,
        -0.16253090622251964,
        -0.0048199738962599195,
        0.007841103685282246,
        0.1504570386770856,
        -0.10416867263054998,
        0.08811519356704689,
        -0.1472019689150898,
        -0.08494852102380167,
        0.09096877295907489,
        -0.04290272452152895,
        0.14845251286208785,
        -0.03242676118582196,
        -0.1441205963457669,
        -0.10707743961570565,
        -0.07954166508404355,
        0.17983042732434046,
        0.14995384920279844,
        0.24578629735047028,
        -0.23411653627151335,
        0.10449524084281651,
        0.2660593278201729,
        -0.18961096976027364,
        0.061777952525407576,
        0.027235047441306687,
        -0.17132683439368027,
        -0.17603022265175122,
        -0.07183637988022584,
        -0.05510739661493549,
        0.08400167256406309,
        -0.09368576274084675
      ],
      [
        -0.13658399330997983,
        -0.17360090919320104,
        -0.1555262279396395,
        0.0006923141201984112,
        -0.08960234522407604,
        -0.0703758714200899,
        -0.18695543919521843,
        0.1925253912339758,
        -0.08916629282355289,
        -0.04715367927200168,
        0.027971683699182372,
        0.0062283342178305855,
        -0.09265812298350402,
        0.026886817537244354,
        0.04719906063348138,
        -0.2008918488660999,
        -0.06254815850779676,
        0.031499184950647886,
        0.1939716234281972,
        -0.1585084963107443,
        -0.030153347156367243,
        -0.07258879104969716,
        0.18777735537306037,
        -0.08934460533079919,
        -0.029340875351331154,
        -0.06783651443873227,
        -0.004176560382346503,
        -0.028624717774730482,
        0.2630806039151724,
        -0.019967058385590878,
        -0.07144768204414584,
        -0.05267634754667453
      ],
      [
        -0.03496296027717184,
        -0.09529080204758647,
        -0.0017693664038671072,
        0.013654749638287441,
        -0.06994684773932808,
        -0.1936141783032356,
        0.07680645552711451,
        0.12050810935341807,
        0.043288033065876676,
        -0.018036614318511356,
        0.0553518227948966,
        -0.06635924660101114,
        0.09069916529369487,
        0.051019675843560965,
        0.01597262665298438,
        0.046430891328102235,
        0.13236709796523594,
        0.17095816717688456,
        -0.04278738699468927,
        0.10642968725831715,
        -0.031663887748948696,
        -0.019691081455958662,
        0.09248384482450742,
        0.08050434171695502,
        -0.0047555881837555635,
        -0.14375452249218734,
        -0.2336960639400481,
        -0.0763084528666843,
        0.04867166748252963,
        -0.012264311031555342,
        -0.11834368700506942,
        -0.17184560654433545
      ],
      [
        0.06950793206640521,
        0.11180182282058694,
        0.10680357565524407,
        0.07831965867327692,
        -0.18243617424563852,
        -0.035424461237960024,
        -0.12652140818506344,
        -0.10121431105507336,
        0.20853620193106376,
        0.1600568376904919,
        0.02663823852102897,
        -0.05265218467745858,
        0.1862157924831449,
        -0.040874147166229106,
        -0.18224335869028463,
        -0.15340373154957318,
        -0.05645037479311593,
        0.15281643871465903,
        0.03420528465412339,
        -0.08566895535766522,
        -0.010747209271386816,
        0.005404176652002653,
        -0.22194453062931316,
        0.04324773011910356,
        0.08688139852878592,
        0.010528961481758832,
        -0.0032701249047180727,
        -0.04149693130214825,
        0.1047522251766486,
        -0.09619716012248848,
        -0.182924151624887,
        -0.13592997322465866
      ],
      [
        0.20837155386243045,
        -0.16099404492045247,
        0.16920778513384405,
