{
  "version": "1.0",
  "config": {
    "vocabSize": 400,
    "embeddingDim": 32,
    "numLayers": 2,
    "vocab": [
      "[PAD]",
      "[UNK]",
      "[EOS]",
      "there",
      "was",
      "once",
      "little",
      "boy",
      "called",
      "willie.",
      "never",
      "knew",
      "his",
      "other",
      "name,",
      "and",
      "as",
      "he",
      "lived",
      "far",
      "off",
      "behind",
      "the",
      "mountain,",
      "we",
      "cannot",
      "go",
      "to",
      "inquire.",
      "had",
      "fair",
      "hair",
      "blue",
      "eyes,",
      "something",
      "in",
      "face",
      "that,",
      "when",
      "you",
      "looked",
      "at",
      "him,",
      "made",
      "feel",
      "quite",
      "happy",
      "rested,",
      "think",
      "of",
      "all",
      "things",
      "meant",
      "do",
      "by-and-by",
      "were",
      "wiser",
      "stronger.",
      "alone",
      "with",
      "tall",
      "aunt,",
      "who",
      "very",
      "rich,",
      "big",
      "house",
      "end",
      "village.",
      "every",
      "morning",
      "went",
      "down",
      "street",
      "goat",
      "under",
      "arm,",
      "village",
      "folk",
      "after",
      "him",
      "said,",
      "goes",
      "master",
      "aunt",
      "long",
      "neck;",
      "on",
      "top",
      "it",
      "her",
      "head,",
      "head",
      "she",
      "wore",
      "white",
      "cap.",
      "willie",
      "used",
      "often",
      "look",
      "up",
      "that",
      "cap",
      "like",
      "snow",
      "upon",
      "mountain.",
      "fond",
      "willie,",
      "but",
      "great",
      "many",
      "years",
      "always",
      "sitting",
      "still",
      "them",
      "over,",
      "forgotten",
      "games",
      "know,",
      "stories",
      "read",
      "little,",
      "asked",
      "about",
      "them,",
      "would",
      "say,",
      "no,",
      "dear,",
      "can't",
      "remember;",
      "woods",
      "play.",
      "sometimes",
      "take",
      "between",
      "two",
      "hands",
      "well",
      "while",
      "felt",
      "sure",
      "not",
      "thinking",
      "someone",
      "else",
      "did",
      "then",
      "kiss",
      "turn",
      "away",
      "quickly,",
      "saying,",
      "woods,",
      "dear;",
      "is",
      "no",
      "good",
      "staying",
      "an",
      "old",
      "woman.",
      "he,",
      "knowing",
      "wanted",
      "be",
      "alone,",
      "pick",
      "hurry",
      "away.",
      "dear",
      "sister,",
      "apple-blossom,",
      "strange",
      "thing",
      "happened",
      "her.",
      "one",
      "day",
      "over-wound",
      "doll",
      "talked",
      "walked,",
      "consequence",
      "terrible.",
      "sooner",
      "winding-up",
      "key",
      "out",
      "doll's",
      "side",
      "than",
      "blinked",
      "its",
      "fast,",
      "faces,",
      "took",
      "apple-blossom",
      "by",
      "hand,",
      "am",
      "your",
      "any",
      "longer,",
      "are",
      "my",
      "girl,",
      "led",
      "right",
      "could",
      "tell",
      "whither,",
      "able",
      "follow.",
      "only",
      "gone",
      "girl",
      "some",
      "place,",
      "where",
      "dolls",
      "stronger",
      "more",
      "important",
      "human",
      "beings.",
      "left",
      "play",
      "with;",
      "poor",
      "horns,",
      "tail",
      "hardly",
      "hair,",
      "loved",
      "dearly,",
      "put",
      "arm",
      "along",
      "street.",
      "painted",
      "wood",
      "said",
      "blacksmith's",
      "wife",
      "day.",
      "why",
      "should",
      "care",
      "for",
      "it;",
      "even",
      "alive.",
      "if",
      "alive,",
      "anyone",
      "love",
      "it.",
      "living",
      "it,",
      "miller's",
      "said.",
      "wonder",
      "what",
      "they",
      "were;--take",
      "sake",
      "master.",
      "yes,",
      "dame,",
      "will,",
      "answered",
      "gratefully,",
      "way",
      "hands,",
      "wondering",
      "tasks",
      "been",
      "set",
      "since",
      "fashioned",
      "goat.",
      "stayed",
      "helping",
      "children",
      "gather",
      "nuts",
      "blackberries.",
      "afternoon",
      "watched",
      "home",
      "their",
      "aprons",
      "full;",
      "longingly",
      "singing.",
      "father",
      "mother,",
      "or",
      "brothers",
      "sisters,",
      "whom",
      "have",
      "carried",
      "blackberries,",
      "how",
      "merry",
      "been.",
      "told",
      "live",
      "cottage",
      "door",
      "open",
      "day,",
      "sweet",
      "breeze",
      "blowing",
      "in,",
      "cocks",
      "hens",
      "strutting",
      "outside,",
      "pigs",
      "grunting",
      "styes",
      "garden;",
      "see",
      "mother",
      "scrubbing",
      "washing,",
      "know",
      "working",
      "fields,",
      "run",
      "help",
      "play,",
      "cuffed",
      "kissed,",
      "just",
      "happened.",
      "answer,",
      "lady",
      "grand",
      "carriage",
      "drive",
      "poor,",
      "eat",
      "drink;",
      "tells",
      "us",
      "fine",
      "must",
      "you.",
      "food",
      "because",
      "hungry,",
      "sorrows",
      "house.",
      "carriage,",
      "better",
      "heart",
      "heavy,",
      "light,",
      "can",
      "swiftly",
      "own",
      "legs.",
      "ah,",
      "lonely",
      "was,",
      "yet",
      "dearly.",
      "hot",
      "drowsy",
      "days",
      "sleep",
      "resting",
      "against",
      "high",
      "thin",
      "shoulders,",
      "arms",
      "him.",
      "afternoon,",
      "clasping",
      "usual,",
      "sat",
      "pond.",
      "home,",
      "so",
      "glad",
      "pond",
      "think.",
      "world,",
      "seemed",
      "done",
      "hundred."
    ]
  },
  "weights": {
    "embedding": [
      [
        -0.05079719110432258,
        0.0878593782429512,
        -0.010868845672214498,
        0.1558847644900003,
        -0.12419914732810587,
        0.13405096901969596,
        0.09872001543695441,
        -0.06768874871938449,
        -0.030361624979521197,
        -0.037104768034523235,
        -0.08215764013864925,
        -0.17235826688705594,
        0.059854801621886264,
        -0.07445624812269366,
        -0.14483326321926293,
        -0.09340266861893788,
        -0.07698807240226835,
        -0.025014866809251,
        0.04352394313632832,
        -0.04531432422989808,
        -0.13283924329570035,
        0.015958726946441643,
        0.15190628148521657,
        0.023352977157487593,
        0.062189690136031824,
        0.1740651679028078,
        0.1395261604410937,
        -0.04265313850369719,
        -0.12547826428795322,
        0.046054573481812425,
        0.12958353508072581,
        -0.08475561624468708
      ],
      [
        -0.13043670968011742,
        -0.004083055278566006,
        -0.04546106535453216,
        0.08206103513348409,
        -0.12497291818322846,
        -0.16072150312766295,
        -0.05479147362017303,
        0.13997692108833376,
        0.1181990837039937,
        -0.16403544056779715,
        -0.15953969569090995,
        -0.17063657362205886,
        0.0010832808156953026,
        0.11098670100728342,
        -0.02958737312879392,
        -0.03068325029465695,
        0.04432902847133049,
        0.046509443856514156,
        -0.03203184038306846,
        -0.07754680601382453,
        0.05491281427761992,
        -0.16527444491679355,
        0.1408560443807785,
        0.17068968250933675,
        0.04739567942679005,
        0.1269663067494897,
        0.14793630535106989,
        -0.018866520000856143,
        0.14970722678350648,
        0.15595077558676124,
        0.04760873219472848,
        0.08191024694672047
      ],
      [
        -0.13466885859030248,
        -0.028629522373031888,
        -0.04800575962736598,
        0.06291368011996575,
        -0.010749868409701257,
        -0.04646439078946435,
        -0.06335090884914886,
        0.0655734003017604,
        -0.12734329438551384,
        -0.12971819289587805,
        -0.12418943365607353,
        -0.07398616654482748,
        -0.039988590147067835,
        0.0717443297400148,
        -0.10411359425420735,
        0.06385088071798678,
        -0.11139510218415812,
        0.0005133909595868519,
        0.12946413718351474,
        0.12051573298019107,
        0.03941533602932367,
        -0.02125081057225283,
        -0.17060357671583287,
        0.15019811688462187,
        0.09820739108385786,
        0.13829901707331618,
        -0.08919216767886248,
        0.1699597007564734,
        0.04310890750695032,
        -0.052012108915319495,
        -0.10106662746867623,
        0.11644182621074461
      ],
      [
        -0.05569500875362441,
        -0.2414650123284971,
        -0.47515552146198736,
        -0.49348680405269446,
        -0.00572352223529549,
        0.2462162946611275,
        -0.10429583562083956,
        -0.009188288128889163,
        0.2678454695671179,
        0.589701129014459,
        0.1501533916502101,
        0.23875427667964016,
        0.2664028831062091,
        0.016541109570855125,
        0.23527286801046843,
        -0.19759070703887183,
        0.09369402849131987,
        -0.22211445993466072,
        -0.03483515338696871,
        -0.06982774439874241,
        0.11572156986081,
        -0.029505592853172845,
        -0.5468974838390295,
        -0.0994970249141769,
        0.20517092105600757,
        0.6410204572692052,
        -0.2572957270631111,
        -0.1016328871469028,
        -0.0048748491453195555,
        0.259588923285151,
        -0.16667773411717232,
        0.032843445154879226
      ],
      [
        0.09092341690087553,
        -0.2919883333281166,
        0.19964004785493863,
        -0.3799923183128548,
        -0.6748371843113784,
        -0.8809888747048044,
        0.058558109568693895,
        -0.6684317107044943,
        0.034649557037784426,
        -0.23912872314396252,
        -0.34742563397590065,
        -0.32800263532457785,
        -0.12022596514704342,
        -0.8082325428453361,
        -0.01658587591635799,
        -0.548187135757342,
        0.1644763643852911,
        -0.7755680334132569,
        -0.3267535949591781,
        -0.606201311815643,
        0.2375605010125328,
        0.24266347974338623,
        0.0950543679031154,
        -0.24536953378049461,
        -0.7677235835512789,
        -0.32310045460105524,
        -0.10289824587076163,
        -0.8178304009159071,
        0.04962411823982106,
        -0.7936555522824534,
        0.3066698637588776,
        -0.46667043042830236
      ],
      [
        0.10773005725590594,
        -0.2839698731187119,
        -0.037081590476854095,
        -0.2803684960059545,
        -0.05780919192794801,
        0.25559741548833187,
        0.0912902362860541,
        0.31544653857960386,
        -0.26577294692129094,
        0.1094645143281884,
        0.18051559155927394,
        0.40328585539268824,
        0.30361327168984353,
        0.09689810541361207,
        -0.038548674777207165,
        -0.23508646022075863,
        -0.5294009002087202,
        0.16922021889149003,
        -0.23382881733927266,
        -0.2565996305606817,
        -0.21530635254232763,
        -0.0726308725966583,
        0.32167033184865806,
        0.30167318575885027,
        -0.03278050998959059,
        0.09511084976294194,
        -0.049230189295243525,
        0.17337940914976727,
        -0.4501477863203054,
        0.28733492661870025,
        -0.06401445493844372,
        -0.17998043671177558
      ],
      [
        -0.4177140037726113,
        0.09281164874183785,
        -0.16556995693254123,
        -0.46476216513201596,
        -0.14709989017434447,
        -0.01120460813272159,
        -0.011511840279770102,
        -0.04057129309776562,
        0.15999986549236828,
        -0.02969026290732934,
        -0.07478304440810828,
        -0.7643070576266268,
        -0.17150278046216633,
        -0.08614973620281789,
        0.20661540588781654,
        0.44710984422237293,
        0.04217324238178216,
        -0.19741548545844137,
        -0.20751591980645834,
        -0.7820669392289588,
        0.3872595304057298,
        -0.20521114043134042,
        -0.46880670324019663,
        -1.0851995061530784,
        0.1079454298432558,
        0.06626593506529253,
        -0.27667326906273304,
        -0.4936700923310925,
        0.1706845268948885,
        -0.5764278572836816,
        -0.31611916570694665,
        0.30734109198887327
      ],
      [
        -0.011048140819581772,
        -0.03659378474114578,
        0.05451444135039527,
        0.06683956358483258,
        0.053726106358606536,
        0.24124902299455656,
        -0.009346735892901826,
        -0.3310880260859671,
        -0.15992059765871294,
        -0.4254329932806549,
        0.1465352773637832,
        0.14042783577550352,
        0.4547223067942294,
        -0.47083204008993,
        -0.09349834454154982,
        -0.1567187585738235,
        -0.2273699878032886,
        0.37384110410716814,
        -0.17902897449044103,
        -0.15370277531023593,
        -0.018194309635697434,
        0.31507986400433546,
        -0.30673400414866747,
        0.025516070545715634,
        -0.13035598429023612,
        -0.3880446199100108,
        0.3618323307759421,
        0.2909493603803772,
        -0.010661718691238026,
        -0.2775970979679391,
        -0.20630620477574166,
        0.5373684480351604
      ],
      [
        0.17807730744114394,
        0.11114272665045799,
        0.032958384988568595,
        -0.008870257027330995,
        -0.2864594320427524,
        -0.4000266504729977,
        -0.4329167939372726,
        -0.09573178096826834,
        0.059457076140075206,
        0.16578649151769934,
        -0.6454306535446389,
        0.2049478020519604,
        -0.031752616917766235,
        -0.04888452107177252,
        0.04279570026341753,
        0.33270358041977466,
        0.07900361738134454,
        -0.28170097395286026,
        -0.017779100318040236,
        0.1517947432615895,
        0.27949982118892963,
        0.19325885196787865,
        0.06815769655366566,
        -0.30533994690340716,
        -0.33138581354456376,
        -0.2427476275153242,
        -0.032411904964264604,
        -0.038570465657824314,
        0.3641186031720363,
        -0.4542668366917188,
        -0.3777611650288136,
        -0.25974560912156136
      ],
      [
        0.47249298041950255,
        -0.3560275893981635,
        0.026483553098442008,
        -0.018677223755091742,
        0.007668227253210529,
        0.06577332954422922,
        0.0829159965186133,
        -0.13293128685759084,
        0.24862014261666757,
        -0.27333117430770976,
        -0.22189176064015192,
        -0.20337703931535345,
        0.16548158993118606,
        -0.15177808254633912,
        0.2555108706592859,
        -0.48122130616781067,
        0.09457758566015906,
        0.14146354160378077,
        -0.5184820663718541,
        -0.31620089069011054,
        0.3097243420604476,
        0.3856936551314935,
        -0.312034375057035,
        -0.4246834709172815,
        0.07949770789694557,
        -0.05424723672283794,
        0.17075454636208307,
        0.3243469813041173,
        -0.2144258342084414,
        -0.49312795970964035,
        0.09744974649768237,
        -0.1448642388920051
      ],
      [
        0.05343832354014524,
        -0.25471424198396586,
        0.2194966487152187,
        -0.25538660070626895,
        -0.007507842688475187,
        0.16874756226969656,
        -0.08590897760971217,
        0.209776690619061,
        -0.3152774371164736,
        -0.3176950631559968,
        0.6797350069104382,
        -0.23249959647547533,
        0.15814402428863547,
        0.3527808275144734,
        -0.12933341776596144,
        -0.17418525595349768,
        0.1860641128373118,
        0.19442991074658594,
        0.0899622875708122,
        -0.12542281466783933,
        -0.162519104889905,
        -0.008874145971224183,
        0.33461945007043664,
        -0.30430330229630737,
        -0.22149064089549553,
        0.01696057299984139,
        0.24303907542716985,
        -0.2804962000292205,
        -0.07604436674922835,
        -0.1416123615863102,
        -0.24661445669864446,
        -0.2706463330687952
      ],
      [
        0.1437330761352441,
        0.02925773023195058,
        0.3150383150805482,
        0.04794984454648472,
        0.15872646542086088,
        0.21603258239425968,
        0.09057693360641028,
        -0.623546034835994,
        -0.32414622659925074,
        0.4000459085379646,
        -0.03301448357782465,
        -0.4164391465738501,
        0.3165909004442217,
        0.18623348960775143,
        0.09576444293051542,
        0.08604875074218944,
        -0.11796479589137629,
        -0.07784345881659398,
        0.33421937809045493,
        0.08178558231457689,
        0.08633167081503725,
        -0.18729447440441263,
        -0.24153762617555466,
        -0.19924072091068218,
        0.09812904601200798,
        0.17293632173335177,
        0.17314494640310293,
        0.040125197791725256,
        0.29470722530918364,
        0.0055365831277495335,
        0.2535649292862733,
        -0.5425798754134067
      ],
      [
        -0.0983371546353272,
        0.5062775938929596,
        0.08437472687764389,
        -0.3442526153235851,
        0.0530108889934634,
        0.30080496451973143,
        0.12067791709883663,
        -0.6520640652863078,
        -0.09997612689165625,
        0.2764889960835806,
        0.4012636689282709,
        -0.14833890826142265,
        -0.28272766467781896,
        -0.0988570400859009,
        -0.06070146152050366,
        0.5691304587281122,
        0.07021877523590038,
        -0.5715342605213094,
        -0.3954099245319943,
        -0.5134943373866602,
        -0.12865962972845033,
        0.40651741850280126,
        -0.16321991506568684,
        -0.5171237637356171,
        0.22574681611534642,
        -0.7221628583746564,
        -0.13525338325701688,
        -0.7338724282184638,
        -0.42855803025508815,
        -0.6424507034720953,
        0.15157369448334368,
        -0.04083618325447851
      ],
      [
        -0.140619319015191,
        -0.02060942638145573,
        -0.06262150927181222,
        0.25800003944817546,
        0.04017337516116603,
        -0.052189088987727936,
        -0.171384835222702,
        -0.08858040260666919,
        0.22972334394099886,
        0.1479315299629887,
        -0.1666439239627601,
        -0.25281827685599023,
        -0.04798487867598009,
        0.08054359441193677,
        -0.054869923103383095,
        0.02844207282647395,
        0.04005953446646618,
        -0.08952480134229712,
        0.4127487515495504,
        0.12365066583021857,
        0.17787438245283788,
        0.28367437943482665,
        -0.5642009634326755,
        -0.20449050285237816,
        0.25239431106261434,
        -0.26234236272880607,
        0.0914056714352184,
        0.015651096881567277,
        0.2848841298379194,
        -0.2537319053733203,
        0.16276754123551873,
        0.45298565259085727
      ],
      [
        -0.24305475457785883,
        -0.10519964517385995,
        0.1520549935648013,
        0.04697111902896369,
        -0.05384916161387109,
        0.10049933888933736,
        0.03794459725167865,
        -0.3412035621810493,
        -0.005205842313567604,
        0.3028396813742644,
        -0.004220179937406712,
        -0.00611497606306865,
        -0.08557158714123407,
        0.1352368228776748,
        -0.25138458558188503,
        -0.08887695228029827,
        0.25590312005002547,
        -0.053967910202965264,
        0.18643370470619902,
        -0.3803566616901267,
        0.19923115265506766,
        -0.027630548574990532,
        -0.010547332028799502,
        0.06435102500948267,
        0.37356090970769507,
        -0.060253651746891596,
        0.19130987781771425,
        -0.29494774530030127,
        -0.1784471682631037,
        -0.26831766115389805,
        -0.14809483563690856,
        -0.41753988958321253
      ],
      [
        -0.25730620234043333,
        -0.33019119158107274,
        -0.10921445144664362,
        -0.6932610801599618,
        -0.5119477370963316,
        -0.9933105625037992,
        0.5195502434780732,
        -0.7550662028416164,
        0.110911715387345,
        -1.088116298739157,
        0.2891958775167613,
        -0.7179506131705711,
        0.1652281281250072,
        0.04629963150241017,
        0.10620693373357194,
        -0.3267031250704647,
        -0.20807804432266588,
        -0.45689886935770224,
        -0.7881336778395861,
        -0.8057148394421921,
        -1.1371037573436316,
        -0.27543130866298315,
        -0.27687389002786744,
        -0.723675437348274,
        -0.7873159337108351,
        -0.6512457720803221,
        -0.7463199087282271,
        -0.5940598605100329,
        0.08236111204842984,
        -0.6300810431681574,
        -0.25632021067029237,
        -0.6412332975420886
      ],
      [
        0.14718369274268756,
        0.02103576162884396,
        0.06632960807762482,
        -0.16166356955206232,
        -0.011864289468386382,
        -0.2520340491498023,
        -0.1925006171692241,
        -0.2628015292297863,
        -0.05256690163283085,
        -0.08224335577475118,
        -0.4506584720544501,
        0.04701809720994271,
        -0.21441384782743825,
        0.5540312854696425,
        -0.1552127972738601,
        -0.42891898044556503,
        0.21311736857342048,
        0.27896322566394827,
        0.04538305738424664,
        -0.9209214304694558,
        -0.08130353309325657,
        -0.3473124395582854,
        -0.06252517823323238,
        -0.21217894204601762,
        0.010153193703445949,
        -0.1816275713059718,
        0.11819393574791297,
        -0.14181077922773155,
        -0.15869988111078778,
        -0.267397002529217,
        0.019218348778933164,
        -0.11362116112754846
      ],
      [
        -0.22515271032082043,
        0.14453263756502546,
        0.29134601511302705,
        -0.07303147834242175,
        -0.1273996911548623,
        -0.9717327155079004,
        -0.6769243673401928,
        -0.13580920068249705,
        0.6936514901310553,
        -0.23038219950772124,
        0.4777291945104515,
        0.018160333656429845,
        0.06643124942302464,
        -0.14264368953698905,
        -0.03088779710722216,
        -0.8446805967918198,
        -0.054102003905543226,
        -0.09691390063219472,
        -0.09716252855129348,
        -0.2007845668162425,
        -0.7489993097021561,
        -0.01778081503073271,
        -0.022751435064637792,
        -0.575856595822786,
        -0.191892945669464,
        -0.45043208747320024,
        -0.7139362809162569,
        -0.7390846495305561,
        0.046025124705163165,
        -0.16044622541434506,
        -0.5006140470508341,
        -0.4402091049181766
      ],
      [
        -0.2606061612152237,
        -0.029073451863715568,
        0.284954768276987,
        -0.26596869423544045,
        0.05062730176294639,
        -0.023175347623238043,
        0.15799415798820046,
        -0.2377971044163567,
        -0.29139080940042345,
        -0.20399185532461309,
        -0.03665243784931324,
        -0.06583067648665895,
        0.09927136827421604,
        -0.10365296425101075,
        -0.21804488704423358,
        0.5852999173359891,
        0.2792327050556161,
        0.46285626591957624,
        -0.11664889670109464,
        0.012411934691488245,
        -0.1467955141328016,
        0.21166030897858942,
        -0.5273425650452004,
        -0.3630514839210712,
        0.28466318543298336,
        0.10501545498153057,
        -0.15681216988898186,
        -0.546937272652538,
        0.0986917007465705,
        -0.19981663983864462,
        -0.22662169426927367,
        0.22600215645040544
      ],
      [
        0.03805591733105642,
        0.0907766374567623,
        0.0944894531123181,
        0.023029273772293628,
        0.09224205552335538,
        0.20183569934445317,
        -0.14963510333096516,
        0.12381450594928473,
        0.32514908303973566,
        -0.2663906313446808,
        -0.022689882048800795,
        0.003282335522597359,
        -0.13069046725043937,
        -0.18487114839289936,
        0.1588573851243052,
        0.27484724803273686,
        -0.3066114243331653,
        -0.21083740372010898,
        0.1333193150437881,
        -0.10523379844546037,
        0.19089388777571167,
        0.05099094800138952,
        -0.02216447451291393,
        0.025032283494968183,
        -0.083609722570148,
        -0.5048198640438323,
        0.16249028163828538,
        -0.3369133710743184,
        -0.20709555207005634,
        0.19294597390195758,
        -0.20294773164363022,
        0.21303542266255687
      ],
      [
        0.1885672063096135,
        -0.1558205416595383,
        -0.18508202586663738,
        -0.04928399109404823,
        0.013080822022697478,
        0.06914130851172316,
        -0.07419298342215724,
        -0.051631934467424596,
        0.1054782912730479,
        -0.5648150596343489,
        -0.28443272963958055,
        -0.24187120141270305,
        0.21506143257297694,
        0.36567787276775954,
        0.0046103614165483794,
        -0.000015756238829736386,
        0.5024033786747274,
        -0.23651805977709425,
        0.3007157521056072,
        0.158199248585306,
        0.14963546736845057,
        -0.29779320108783874,
        -0.3664327862902677,
        0.15670425259584686,
        -0.15076273671315532,
        -0.339623033056303,
        0.11346409299563925,
        0.07222496039288533,
        -0.0987074661319239,
        -0.016081645127652113,
        0.14860627969084042,
        0.08466778238529198
      ],
      [
        0.1809946146782373,
        -0.030487885149169343,
        -0.10229195976543085,
        0.2331262160154372,
        -0.1226047737544303,
        -0.09875261735723784,
        -0.15579424427837427,
        0.24719620602871503,
        0.01639965999283483,
        -0.11707095578590372,
        -0.12779352223402432,
        -0.1358921160306836,
        0.14770941684259062,
        0.33157766879500117,
        -0.1617548606058372,
        0.09755676176199843,
        -0.23806295202399458,
        0.13096940768924423,
        -0.13140087594653221,
        -0.4240462091776838,
        -0.1336609081660518,
        0.07389045495880574,
        -0.1064235781413569,
        -0.01136620417527861,
        -0.2803842656129633,
        0.14233553006778796,
        -0.18017048243914036,
        -0.2496881844291901,
        -0.04450786534246971,
        -0.07378163746536082,
        -0.008737237895039253,
        -0.30721641404355005
      ],
      [
        -0.32301425939346146,
        -0.17742866182455982,
        -0.2703660706074305,
        -0.6879555941193054,
        -0.3286677361224098,
        -0.17187574512127746,
        0.08177539147748912,
        -0.5831084200876031,
        -0.07113446178064309,
        -0.8537646365100479,
        0.588570501335023,
        -0.510319161605417,
        -0.10879041389302513,
        -1.0241004596444045,
        0.3206182506940525,
        -0.7087244405099631,
        0.338264544325618,
        -0.5647978327138704,
        0.34681810556211334,
        -1.6160506476728758,
        -0.27709295622974867,
        -0.13267276825624158,
        -0.2744015641345252,
        -0.8192102995661918,
        -0.24044785539130165,
        -1.1080370295653095,
        -0.43521101042486837,
        -0.8270801511280504,
        -0.03455467619094283,
        -0.7944284049293053,
        -0.12699498881733756,
        -0.5214808237799577
      ],
      [
        -0.11840490395772946,
        -0.12273472311935817,
        -0.08474713565074696,
        0.050129180453258745,
        0.06216402198701271,
        0.13982746317439537,
        0.03451060024533561,
        -0.20416924026829167,
        0.0669061015297823,
        0.10777244128123283,
        0.06891892479828393,
        -0.16667381084257848,
        -0.030134841434014157,
        -0.05627999614295872,
        0.11273653122289755,
        -0.3963322007462689,
        -0.3058773030754835,
        0.23704511573761516,
        -0.054567244739853596,
        0.08746739616908218,
        0.17612158927214916,
        0.03767433880648904,
        0.13863566635825536,
        0.3472367511294267,
        -0.29607455507517766,
        -0.25467417337927806,
        0.04391761065449284,
        -0.35452811645463184,
        0.011911200346272218,
        0.24357117560942299,
        -0.3277082968434515,
        0.17645702435735597
      ],
      [
        -0.303784537118829,
        -0.13965304541471663,
        -0.18297215628585792,
        -0.2827190887624544,
        -0.03686587110408862,
        0.2509572525949686,
        -0.21574872702488115,
        -0.22405567486120662,
        -0.06477737297081863,
        -0.115252886119277,
        0.16823930466809192,
        -0.09639372017307944,
        -0.18019174333470966,
        0.28617292998013294,
        -0.247573710928385,
        -0.4860148329764453,
        0.12517733356789698,
        -0.5525463774265134,
        0.10144039729455194,
        -0.0626538656177305,
        0.029577304265861522,
        0.023827035276577636,
        0.32174267994980044,
        -0.47872028933701344,
        -0.3731154337144623,
        -0.5303912922672681,
        -0.11697007870150718,
        0.4672591610079254,
        -0.0011896809510982763,
        0.34259425515404873,
        -0.5128807805064179,
        0.15386592003768346
      ],
      [
        0.033565487695370856,
        -0.07673906297470189,
        0.11457457711770627,
        0.0590096487549355,
        0.009078984889093488,
        0.09693969283956662,
        0.02238066576557563,
        -0.49748060666745164,
        0.11181057687862177,
        -0.15996802148342154,
        -0.49158091602768444,
        0.18440832254328984,
        -0.28206635415468106,
        -0.1008842925549501,
        0.2664190628812629,
        0.14268186903893929,
        -0.2014653629864138,
        -0.33574892035439774,
        0.23333108421454182,
        -0.26228766784649815,
        0.08926436273386812,
        0.19890271439246826,
        0.4951530376096076,
        -0.251477943849748,
        0.15864615847181582,
        -0.12733690028298325,
        -0.2134259674598112,
        0.07747180339782364,
        0.18494403450488284,
        -0.32482133540008273,
        0.1791312539999741,
        0.28497058276312287
      ],
      [
        0.18904486094875794,
        -0.08364168300430139,
        -0.29545449800998724,
        -0.18954554183404276,
        -0.34418315662222476,
        0.164651595801024,
        0.12958607359027657,
        0.2584134769564215,
        0.030541413075841402,
        0.06438125654110745,
        0.4437538374669615,
        0.016566486733494017,
        0.07842356473285259,
        -0.29714492327096453,
        -0.27909375318701246,
        -0.12425107759084274,
        0.41011955961472757,
        -0.046791272880861656,
        -0.22155657132226772,
        -0.1702935227952317,
        0.10849050917300997,
        -0.45210314750691505,
        -0.04377459149117872,
        -0.21814235122744738,
        -0.12652471638510926,
        -0.16775457742914712,
        -0.48311571836198,
        -0.3551137890645339,
        0.3146862622172237,
        0.19447703566583685,
        0.2887924474798072,
        0.49358799819195764
      ],
      [
        -0.18976157327281581,
        -0.08879472540620671,
        -0.11376603891060379,
        -0.6280111811770823,
        -0.12349418420879861,
        -0.4209661237570685,
        0.042192728199911746,
        -0.47496969349539986,
        -0.18843080619564573,
        -0.722581688230053,
        -0.263839377098133,
        -0.4744385155269677,
        -0.36917897571024794,
        0.2594598366085922,
        -0.3480683294198041,
        0.09522699807760975,
        0.02365435506217821,
        -0.05819066117244243,
        0.5641370022352099,
        -0.2003714237811638,
        -0.5260821461189664,
        0.5921395383106252,
        0.06939088036585117,
        -0.4674667205278904,
        0.4262814972927644,
        -0.6441104855672547,
        -0.11663470471398016,
        -0.22160506427367768,
        0.4719873151389154,
        -0.22267876115484075,
        -0.9385955880693635,
        0.0801058351553685
      ],
      [
        0.09242668371960729,
        -0.08813489241148124,
        -0.12485562399088011,
        0.06231574494889776,
        -0.21549684308490422,
        -0.1866926592526554,
        0.08660050473439856,
        -0.018616959371318898,
        -0.4258127277113425,
        -0.27593074167267045,
        -0.3236347814497481,
        -0.13189305909975524,
        -0.1208288558641872,
        0.021372792473891154,
        -0.15247660475885597,
        0.0040009658441628165,
        -0.029216443609063114,
        0.34591220521854354,
        -0.0000939375162309936,
        -0.1337235784283217,
        -0.07849453474780402,
        -0.1048951612175871,
        0.45830474674086874,
        -0.3048369421281075,
        0.027057442027050346,
        0.06072538874070568,
        -0.3160116916759226,
        -0.1625103462709611,
        0.17596806807954904,
        0.1113647684368494,
        0.18905865098564326,
        0.3461461972163012
      ],
      [
        0.049843510326373804,
        -0.36937675679570264,
        -0.1423852430364734,
        0.17103615764291893,
        -0.004505941713745106,
        -0.8819624882782083,
        -0.3508631615128475,
        0.004723347935949162,
        0.8548667398949755,
        -0.2925498545932052,
        0.2710695785538382,
        0.17018911103369483,
        -0.08715311456871833,
        -1.0794848616125678,
        -0.2237970840721413,
        -0.293232210385468,
        0.0060612648937161595,
        -0.734826957051878,
        0.29502371319162535,
        -0.19808961980124162,
        -0.2761262555157692,
        0.30928363393991765,
        -0.19752815821900815,
        -0.38163447093632846,
        -0.0796541830561833,
        -0.2648101096382418,
        -0.21249863453569617,
        -0.002166047183352258,
        -0.1441531654573606,
        -0.058432676820753045,
        -0.22627917591446833,
        0.26183246480126465
      ],
      [
        0.12854952047119877,
        0.08256473007664811,
        0.06084280946543058,
        -0.1388810565563406,
        -0.09443355903087924,
        -0.13179377702510575,
        0.12167917964929112,
        0.11419782324523768,
        0.13302114329902714,
        0.0023112413536261387,
        0.0817118046178623,
        -0.3742968311741123,
        0.1290256712671079,
        -0.12815505170111205,
        0.06521110886063501,
        0.003165540735152442,
        0.11093393285350446,
        -0.30988119799900654,
        0.2655169467405431,
        0.006349623075562091,
        0.14573424872797813,
        0.4827619268538346,
        -0.16204544419842778,
        0.0917079525390721,
        -0.12980872342107416,
        -0.2600179748746642,
        -0.11369573179655669,
        0.1567709041984494,
        0.14422586342744287,
        -0.028877754570855767,
        0.40289145436209794,
        0.10854349160392351
      ],
      [
        -0.10220667956398327,
        -0.08027249340871753,
        0.02973117710149268,
        -0.08939769940038882,
        0.14602948254009895,
        0.212287121542034,
        0.28445564043101,
        0.21801578122991508,
        -0.05810342909860581,
        -0.2427266397763512,
        -0.1253701185370289,
        0.3399491777615869,
        0.33824195740115504,
        -0.059708627381035086,
        -0.41769455682223916,
        -0.12261186292441179,
        0.12214571539844071,
        -0.2748146210137921,
        0.014721557360223122,
        -0.2345448306984273,
        -0.19152186245030317,
        -0.050324254608340384,
        0.3412495720067936,
        -0.032508538138347164,
        0.1628532764601149,
        0.28275737179463806,
        -0.2385366910402033,
        0.11932619609767336,
        -0.17030936796490584,
        -0.07278371443350905,
        -0.08070915259850717,
        -0.07668616664891258
      ],
      [
        0.09305683552133859,
        0.31559632216978123,
        0.28774594644232376,
        0.16227085251341342,
        -0.11664276360551312,
        0.1554260426076049,
        0.3536273550821797,
        -0.18374626303793876,
        -0.3484908034773204,
        0.13618959207239378,
        0.14380372731427618,
        0.21426921885240732,
        0.6001151168215616,
        -0.34921339964415354,
        -0.07192109421306363,
        -0.24085731352329515,
        -0.3959649039838769,
        0.11234921581283275,
        0.17255488683315742,
        0.0753750393424003,
        -0.026979178631993832,
        0.211390562227528,
        -0.06694537895926876,
        -0.37744268391943925,
        -0.27443861275921616,
        0.07814095090737042,
        0.12195869230041859,
        0.21637683622761902,
        0.2267000482263889,
        -0.00663218338656136,
        -0.02162969473645434,
        0.2069215179124659
      ],
      [
        0.19568092224828043,
        0.04818538270774409,
        0.025185641383373994,
        0.0946555329739367,
        -0.20105794407465696,
        -0.004344705268138587,
        0.044101696115764505,
        -0.05380052620128462,
        -0.480299373413737,
        0.09119050859728889,
        0.14099622083475538,
        0.350054437573003,
        0.41497671671148395,
        -0.06342963129800412,
        -0.1460061583086186,
        -0.23695431543439285,
        -0.37002431319107576,
        -0.3462958169622006,
        -0.11981008000967139,
        -0.2861076157491087,
        0.16618535553239916,
        0.13886304703618377,
        0.23263200964623218,
        -0.3477654469359233,
        0.004985461291728319,
        0.24328357121334324,
        0.055348807605256206,
        0.4288967386237975,
        -0.4392078948953548,
        -0.16969657873475105,
        -0.08754865643250177,
        -0.6166553292025784
      ],
      [
        0.012410907859764581,
        -0.14939242238356448,
        -0.29646536522704625,
        -0.1272897487098979,
        -0.09379732044108958,
        -0.006545481251759337,
        -0.145012981774644,
        0.27800598690242345,
        0.05320193494942732,
        -0.081247630981421,
        0.5681886056752345,
        0.3932793295021064,
        -0.01893933455227473,
        -0.24186112432728463,
        -0.11504969256678436,
        -0.04596067981956488,
        -0.22052478122207814,
        -0.02707938093303092,
        -0.06634521384576532,
        0.010382870760436052,
        -0.26100671639167805,
        -0.09142442214762012,
        0.03941556018392678,
        0.04624073157795424,
        0.03956447593963237,
        0.10574833942652179,
        0.3164243559420561,
        0.34009269180565066,
        -0.4073250489285865,
        -0.37895820607793823,
        0.09548290795317883,
        -0.15470145443869363
      ],
      [
        0.06057599164194257,
        -0.17828696044249456,
        0.13927633484615903,
        0.17309698930699063,
        -0.44647663993593006,
        -0.04297043080140792,
        0.09482788373619497,
        -0.636563867590938,
        0.15771059693857756,
        -0.32487037726892803,
        -0.4412584172977259,
        -0.09676452033723501,
        0.22389377212649986,
        0.3438156118478569,
        -0.22679020855168794,
        0.06885865327855296,
        -0.3016152276702911,
        -0.41252781850358866,
        -0.09155274681537157,
        -0.6317032095454547,
        -0.036665344585011944,
        0.6108495896331424,
        -0.26204630762393605,
        -0.21216005706201502,
        -0.0028916505082168913,
        0.026534054156177305,
        -0.3093999316118294,
        -0.39918125691506695,
        0.29318237383190915,
        0.014200051698270152,
        -0.08597296031759484,
        -0.6691568919020104
      ],
      [
        0.1622476421595669,
        0.13868671790149448,
        0.018648097821946753,
        0.19877637716821267,
        -0.04959089699820039,
        -0.1688778849794814,
        0.016823018408661083,
        -0.07176151502628668,
        -0.22590657651603,
        0.17150827683494443,
        0.5144759524424075,
        -0.6452847639290854,
        0.21973125321693954,
        -0.26187986655435663,
        -0.18370752587916261,
        0.07013037989599853,
        0.3777564636786122,
        -0.5271659744197166,
        -0.0692676315028288,
        0.24685794008151538,
        0.1629418725811338,
        -0.2014140063576869,
        0.25487375593186457,
        0.16983158395354284,
        -0.05905414793855078,
        0.3038767352227909,
        -0.15339196000621083,
        -0.017913861000243805,
        0.03253550576387781,
        -0.5238136692649358,
        -0.3669207229722779,
        0.8438372265228163
      ],
      [
        -0.05131673282543498,
        -0.16930233913027462,
        0.06109641428738255,
        0.013283491350967406,
        0.07784598402339923,
        0.43048586866593325,
        -0.2522733404389298,
        -0.18469038228249635,
        -0.22954682027534193,
        -0.41946057838205975,
        -0.038516145301755074,
        -0.0954709884587559,
        0.13173678785094015,
        -0.30001671920680195,
        -0.2996825451513593,
        -0.27298651877147906,
        -0.3324825097217564,
        -0.20488219899838875,
        0.3421357324209456,
        -0.020725770805486328,
        -0.2969104977481043,
        0.4168441209952192,
        0.09306665247395726,
        0.27063967567533265,
        0.4567462825757141,
        -0.01839622948356246,
        -0.0915825867909697,
        0.48093057427073604,
        -0.20416335759108664,
        -0.4173803379491707,
        -0.3107574567643279,
        0.0472066805064727
      ],
      [
        -0.05106336288031514,
        -0.456262496715649,
        -0.21031247326217561,
        -0.3554857839687888,
        -0.4587268063057398,
        -0.012818557345840852,
        -0.37056590287988667,
        -0.21488450386284128,
        0.5257451589881673,
        -0.39003580789556397,
        0.23456511203694774,
        0.6838478007857232,
        -0.47801551273920223,
        0.3497399601697598,
        -0.20556404848459142,
        -0.8367774206897064,
        -0.45391937022140105,
        -0.24012231917736998,
        -0.34425906272233336,
        -0.30826749451805685,
        0.19875168496873108,
        -0.5234486814434003,
        0.625338393713457,
        -0.24877531680296128,
        -0.31713652547368953,
        -0.22960721765249972,
        0.10997327958918286,
        -0.04693247789284567,
        -0.10271400282107335,
        -0.38975871479758184,
        0.07834889529627918,
        -0.18100096961917103
      ],
      [
        -0.3621308067259348,
        -0.08692711543674247,
        -0.10813848177063974,
        -0.5597058706383572,
        0.011877449876492873,
        -0.2777486144276769,
        -0.09889996677034121,
        -0.45899155257783175,
        -0.11017374793991998,
        -0.6686803026499996,
        0.6235361690382083,
        -0.3785776710545142,
        -0.13902966335665087,
        0.1033134196597249,
        -0.3847946566597289,
        -0.7131681161123786,
        0.4384367883216056,
        -0.7489143198969661,
        -0.004101435070325884,
        -0.370439639489399,
        -0.10069677792256333,
        -0.01877753309696584,
        -0.16736103468059357,
        -0.4019094931057573,
        -0.2818255960378371,
        -0.23256319068475778,
        -0.11604003819482522,
        0.19207607288637918,
        0.080023454170599,
        -0.1140778153288929,
        -0.7663376074000615,
        0.1767588021443319
      ],
      [
        -0.009595002424849449,
        0.13972577417805462,
        -0.14748416458263713,
        -0.09983142188706311,
        -0.03407800549813759,
        -0.342941225558443,
        -0.08244953993923626,
        -0.03717567483606846,
        -0.4848846481064168,
        -0.14432116425002028,
        -0.06081337296863839,
        0.4157455662530507,
        -0.007473724025642573,
        0.5915573137433274,
        0.06428404296380484,
        -0.09028214925470816,
        0.3849605536646177,
        -0.4274397594869503,
        -0.17053064776375235,
        -0.5671341803837449,
        -0.038732048430396945,
        -0.0949757616750442,
        0.44719147668897286,
        -0.29379992894753515,
        -0.053169181647307225,
        -0.07397315018021433,
        0.31126860237940596,
        0.2687926148167592,
        0.777739922483209,
        -0.48450705680380596,
        -0.33202924857523064,
        0.4550243953515181
      ],
      [
        -0.07917480195531558,
        0.12523126721568775,
        -0.01697335597040698,
        -0.05291263056403377,
        -0.31258973826223885,
        0.10460412437378393,
        -0.23594050290970592,
        -0.9267080681672867,
        0.10292891397088082,
        -0.41015633613934765,
        -0.04790824457969131,
        -0.13076691004840815,
        0.10226556359433032,
        0.004932758658856743,
        -0.26616995192786985,
        -0.743490101305078,
        0.4332062995879426,
        0.13984058318640522,
        -0.8942857509641459,
        -0.37811695244698124,
        -0.11121932131167038,
        -0.06050429051069251,
        -0.16282852116198793,
        0.1176999162345552,
        0.20809412392398946,
        0.705835895725946,
        -0.010167275503393561,
        -0.049176257868069645,
        0.46436544385594397,
        -0.0796236082384283,
        0.2387709350301443,
        0.1454998953694301
      ],
      [
        -0.13072218403063476,
        0.10535924043706775,
        0.41295321063363033,
        -0.12825316777932297,
        -0.13599341994999975,
        0.03182926990210641,
        0.17287467855339933,
        0.20406129251621888,
        -0.16243584023312174,
        -0.06673331475353625,
        0.207090988002915,
        -0.3445024081137227,
        -0.2693787899146777,
        0.4226116037339245,
        -0.13158512998155406,
        -0.2816972015476815,
        0.012303777391592904,
        -0.33674696891030564,
        -0.4912320891795666,
        -0.07410759803273052,
        -0.2385755840854114,
        -0.0668382919941608,
        0.30123434579245834,
        0.45794732477953587,
        0.11397079324457672,
        0.07562535921717047,
        -0.12425600462480363,
        -0.21211869586651583,
        -0.4424266697794112,
        -0.4348060527599192,
        -0.10417550993813814,
        -0.07641196494874683
      ],
      [
        -0.23746322914951368,
        -0.13817525670282277,
        -0.05583167171020541,
        -0.07964005307929978,
        -0.05545201548549857,
        -0.006084985712011171,
        0.12516270596518314,
        0.251494581715358,
        0.14589298556506744,
        0.4921991878724252,
        -0.007237898393177339,
        -0.5082187985388636,
        -0.25047278084222635,
        0.2051856203142249,
        -0.05005257860613099,
        -0.49147629964666406,
        -0.5324438456135615,
        -0.07584515910658428,
        0.020212375393034596,
        0.036627640595785424,
        -0.18277869665450588,
        -0.6240942889392069,
        0.32865900925096264,
        -0.2751865135106198,
        -0.2937864572731494,
        -0.3249250237889595,
        -0.3704731762877764,
        0.40812346982646525,
        0.35497134697451155,
        0.25216836346589727,
        -0.26102490042768783,
        0.3068821131075992
      ],
      [
        -0.16606977019643623,
        -0.05557197339717044,
        0.2028778656782622,
        -0.0768521575584542,
        -0.011173844745907692,
        -0.004645943113939797,
        -0.22471475468853458,
        -0.35415608811656885,
        0.12082046210131589,
        -0.3900681915892799,
        -0.15889217031303035,
        -0.17298733764366933,
        -0.3484851966810676,
        -0.1306030953218496,
        -0.19713931738615506,
        0.46039410647161855,
        0.316708420865732,
        -0.4233452711472341,
        -0.5685763155636328,
        0.15292348610808423,
        0.0347163722193208,
        0.025960082577465106,
        0.3829255502115892,
        0.302670082758157,
        0.14681570140983877,
        0.14168030821538152,
        0.014653474887188725,
        -0.3281082534317316,
        0.4180652158297535,
        -0.444080117876515,
        0.2046271493453935,
        -0.0897125416591419
      ],
      [
        -0.3106888496141681,
        0.4178715843277352,
        -0.17264677256278452,
        -0.13871706859186078,
        0.055248632833548694,
        -0.0076301313019145,
        -0.084011326182225,
        0.11697426167510669,
        0.44757050879474086,
        -0.14916578939622702,
        0.03314671312904354,
        0.07597528349623565,
        -0.10310142311471587,
        -0.23979123558575305,
        -0.13023857258159222,
        -0.6223713849280412,
        0.24453026950259235,
        0.16984787787318992,
        -0.2909897745732962,
        -0.7611691940670209,
        -0.06696722819710743,
        0.29035372654585867,
        -0.5940999005874513,
        -0.3763738461786336,
        -0.26604567321077766,
        -0.048256818518208296,
        -0.4762151714560255,
        0.34254206930798575,
        -0.19986658580600844,
        0.04860185863415188,
        0.6836151581280043,
        0.11376729706429689
      ],
      [
        -0.30338145015427936,
        -0.008157869189874453,
        0.271351703552107,
        0.2905144470618238,
        0.0752998652509569,
        -0.2710231247744854,
        0.04892304875932073,
        -0.050935358251092404,
        0.2976111730811582,
        -0.009979841799731253,
        -0.32026716226745633,
        0.011641651734173978,
        0.0011139879420416561,
        0.4565784176846602,
        -0.20763564427559264,
        -0.20431202838600543,
        0.28945769668106913,
        0.036179427158681055,
        -0.14563799278391942,
        0.21310364853474564,
        -0.02451811394744481,
        0.22177650335128568,
        0.24485812755844272,
        -0.05606977376384037,
        0.21617871977390243,
        0.4748589283853592,
        0.10124803057219398,
        -0.596445345893052,
        -0.37309091960044083,
        -0.08660633671569537,
        0.024120570109756715,
        0.020820868960781797
      ],
      [
        -0.04298418244678699,
        0.00971159548216675,
        0.14832158914036678,
        0.23252661604704708,
        0.21410653793315806,
        0.028798888026784278,
        -0.05808754196831129,
        -0.1880614435869224,
        0.3592885622380236,
        -0.14535669291922546,
        -0.030985973036794408,
        0.15863437657078575,
        0.13840274423754573,
        0.21164024525522288,
        -0.17578132387957937,
        -0.3507419052714049,
        0.3176784181133372,
        -0.06254091672369097,
        0.16086582671545094,
        -0.08431395829972778,
        -0.053042381066315404,
        -0.11759807129484777,
        0.09450476152619638,
        0.2942260692664497,
        0.4298753934623681,
        0.2698842632902193,
        0.022563821983672516,
        -0.08946985913494421,
        -0.4079200524188018,
        -0.17088245498428414,
        0.09008750387405652,
        0.009688604801320501
      ],
      [
        -0.06901310306448197,
        0.05669274671290715,
        0.1241336276775134,
        -0.05396276059752086,
        -0.11089590032697971,
        -0.14844918955243608,
        -0.4017731058090598,
        -0.9948204107220694,
        0.0878880064926328,
        0.3700710658107154,
        0.3594565626288137,
        -0.6017407830930072,
        0.3298526587238191,
        -0.020490661360590537,
        -0.18767389341302013,
        -0.08207138630550154,
        0.499603664046408,
        -0.3536774410096155,
        -0.018875444263352668,
        0.1201021086971213,
        -0.33424266990888973,
        -0.44507340499573933,
        -0.025138744046355566,
        0.1064690066272624,
        0.45946186709938236,
        -0.4071429943431967,
        0.034412177688445025,
        0.6310723113216853,
        0.11961823192731057,
        -0.08387864980206897,
        0.2759137312504772,
        -0.19896798223232529
      ],
      [
        -0.3117584729512454,
        -0.5172679761034755,
        -0.4432468357640713,
        -0.7039891764910009,
        0.33373393708898547,
        -0.05856227645270708,
        0.36315788005965,
        -1.2031203140194646,
        -0.004714144653116352,
        0.2566418108772976,
        -0.5314901177021256,
        -0.1421781741769893,
        -0.047894016742949755,
        -0.22665124338698947,
        -0.09040711490503003,
        0.04967363146524018,
        0.12499295303812928,
        -0.3278036055717166,
        0.09305290936503195,
        -0.5640750811597117,
        -0.4874339558495432,
        0.40760886308336586,
        0.12497112664230739,
        -0.24483602986615216,
        -0.1721252815932239,
        0.015989437393079543,
        0.23125752350960876,
        -0.12727238991770123,
        0.18972654490408267,
        -0.20861849971248217,
        0.28709020683925346,
        -0.4104144279216891
      ],
      [
        0.08303320696035499,
        -0.09765977148954083,
        -0.5207394617416851,
        -0.17808307471023993,
        -0.1469278077493344,
        -0.3242443177864742,
        0.11302381013579856,
        -0.5514518820499674,
        0.7242287666771582,
        -0.5408240404447484,
        0.036105290366386544,
        -0.3162432482982477,
        0.5892479871791668,
        0.3443383400959241,
        -0.10928570855967595,
        -0.7018120801228467,
        -0.16646630136744037,
        -0.10199495492429433,
        -0.2479223265633122,
        -0.019216803176475807,
        -0.04550722743712569,
        0.2812233708994186,
        0.29677521723999084,
        -0.3015600625904906,
        -0.6560178630729524,
        0.23916008264176278,
        0.1375956603762549,
        -0.23724765038253928,
        0.16503110987379102,
        -0.26528903207608195,
        -0.4513388955759282,
        -0.45825281852471683
      ],
      [
        -0.15207332824819236,
        -0.11399737758900595,
        0.05671170852982906,
        -0.005309606339374823,
        -0.01747488933846843,
        -0.05694458573675155,
        -0.19061578383535124,
        0.012888798073646408,
        -0.039464484612878235,
        -0.28536885311658866,
        0.22060306388379633,
        0.5267696056673149,
        -0.11020243149102235,
        -0.08797644846521084,
        -0.0552057809691905,
        0.2749111414531815,
        -0.18211038205132515,
        0.291889226716213,
        0.20050312412885798,
        0.12338322574875529,
        -0.2516596243932996,
        -0.47917344264936934,
        -0.16739591176023613,
        -0.01562927080242612,
        -0.147520254199076,
        -0.41584637493122795,
        -0.19903486049671654,
        0.46158942769427125,
        -0.17339811123129728,
        0.18844840567360976,
        -0.00007339383714039189,
        -0.5634615178227474
      ],
      [
        0.0026420317722677575,
        0.08281962484254392,
        0.004787401716784071,
        0.14011554825535952,
        0.1307578663289718,
        0.1042161274214449,
        0.182068348153895,
        -0.023377319409174757,
        -0.10637538053392027,
        0.266791694950927,
        0.2836114595923619,
        0.3678060081007426,
        -0.15439118203621757,
        -0.09829656691175563,
        -0.01666757592789232,
        0.07993913617822446,
        0.5078693012260133,
        0.24124513919268328,
        -0.23147335389091786,
        -0.025295689659159678,
        0.1592140977549685,
        -0.38046998402952376,
        0.09210367219473171,
        -0.09554080174510089,
        0.04909004832795855,
        0.14490881336439218,
        -0.19199464420973644,
        -0.1452333138732768,
        0.07129876593506822,
        -0.1326170935508702,
        0.1893353735608442,
        0.008436733131855542
      ],
      [
        -0.20903303539312232,
        0.0060464572172372446,
        -0.022836650201352796,
        0.06780686547630965,
        0.15041440032672815,
        -0.6430478092874728,
        -0.1913488893809595,
        -0.27789654363322674,
        0.1115077695025225,
        0.259279622722036,
        0.06747764512667101,
        -0.2970166253439417,
        -0.3143548474391784,
        -0.6797865942613603,
        -0.060969741136329254,
        0.15297701994864668,
        0.23355511592341108,
        -0.10843274645527844,
        0.28973311749448194,
        -0.06431427211124705,
        -0.02693778765773866,
        0.49268827590982006,
        0.3671501020206093,
        -0.22608369246649082,
        0.17228074110033073,
        -0.24475823107213163,
        0.09417373454340108,
        0.12658474239417955,
        -0.24053955898511614,
        -0.17959632152708296,
        0.24663369078149386,
        0.27555154432242135
      ],
      [
        -0.22602666978616173,
        -0.04195053770687478,
        -0.014478935352488566,
        0.08849562496781183,
        0.17036436062875804,
        -0.1506769277614064,
        -0.02849533525948851,
        -0.3760738294378155,
        0.33754570590561317,
        -0.13813099432020068,
        0.19022843110114412,
        -0.20041627371114942,
        0.031758218190470984,
        -0.20890551234964053,
        0.03913697711832766,
        -0.015366109948099027,
        -0.25049777398966283,
        0.37192225329243683,
        0.46258422431687796,
        -0.05214470595083174,
        -0.07171896045265654,
        0.283711710697386,
        -0.048829699684763764,
        0.02773197314399178,
        0.37896391216372444,
        -0.5315303544594246,
        0.14498997802302035,
        0.3744654468926617,
        -0.10226890965250471,
        -0.008650031512360398,
        0.1260299860861079,
        -0.06041884782982586
      ],
      [
        -0.03318249735014791,
        -0.09615620096375438,
        -0.16495501017882697,
        -0.16606285914112515,
        -0.041101765032732676,
        -0.55781967263261,
        -0.11089818245011145,
        -0.5102591588229294,
        0.18527293644126905,
        0.3967292089302967,
        -0.38239035761293794,
        -0.23041598034955826,
        -0.38368689547565477,
        -0.31544146323755284,
        0.26251527151562326,
        0.09897902510869579,
        0.05832119927117158,
        0.4831636986050629,
        -0.1406313145117108,
        0.33266871925636693,
        0.24370112916070302,
        -0.04113564554795047,
        -0.10701479541651074,
        -0.19796162473462817,
        -0.10795773851193434,
        -0.46570702979072126,
        -0.6078178288411379,
        -0.22452500084319696,
        -0.22444015083305144,
        0.06590847938096739,
        0.42135422935199995,
        -0.3270048932725152
      ],
      [
        -0.3359314436109532,
        0.07549362716251773,
        0.12310114702809576,
        0.21476908282515697,
        0.13069598395491014,
        0.2403873395872945,
        0.09965353217522278,
        -0.08200614367202848,
        0.1541251092739902,
        -0.1544232201949848,
        -0.05156165303668073,
        0.14579911483417832,
        -0.17030468498961293,
        0.45410230947760627,
        -0.3680405589352232,
        0.020236269799420226,
        0.10925078301625663,
        -0.1932589828820477,
        0.06991074037179397,
        0.017916684560875112,
        -0.019263065097244236,
        -0.13420847418677992,
        0.4175545378479908,
        -0.0988770316552866,
        0.14198328420547396,
        -0.10640172899805835,
        0.39368616192642003,
        -0.25295409015438597,
        -0.38512953979288955,
        -0.07625364574468763,
        0.1357862166600907,
        -0.33103779236404074
      ],
      [
        0.004057826759053276,
        0.14950485534748675,
        0.09644606561133953,
        0.14313341700887816,
        -0.1633999749526045,
        -0.12678902445994292,
        -0.049517275503036674,
        -0.016524635918734574,
        -0.3517296416040926,
        0.05773136629928201,
        -0.352967801963492,
        -0.36337530721115463,
        -0.09712560820776858,
        0.44242248620516744,
        -0.008946818387488426,
        -0.0118160002198956,
        -0.038737557503891865,
        0.38272002798633964,
        -0.018763944646026973,
        -0.012774894040184084,
        0.15874365749447777,
        -0.2409065439931949,
        0.36926013291892007,
        0.1402465576545648,
        -0.06456387312388914,
        -0.0815767485766712,
        -0.06604222998095716,
        -0.1972322025615423,
        -0.4700844665939172,
        0.2842652313136189,
        0.05176733418955493,
        -0.1328696763809667
      ],
      [
        -0.06469466960475741,
        -0.20837603733107862,
        -0.06939733273296855,
        0.11805225329966217,
        -0.1447326239711663,
        -0.2559197092288542,
        -0.22188408928820888,
        0.1556831679626669,
        -0.1478224878574556,
        -0.18940784366196758,
        -0.500775410842391,
        0.02044144548380861,
        -0.3934848945066694,
        0.15290862854727844,
        0.36567068924988133,
        -0.5255990233107789,
        -0.015422103492680589,
        0.23080905576137412,
        -0.08395410544536178,
        0.23459413208158714,
        -0.0011001160334335172,
        -0.418754821412046,
        0.1033231878374556,
        -0.15700785275799362,
        0.6935518650229343,
        -0.2823046813738962,
        0.07067546826945133,
        -0.25242804190311635,
        -0.31747201269702346,
        -0.0933431118892914,
        -0.2034759034524936,
        0.6781048720696355
      ],
      [
        -0.3553224726747896,
        -0.17386645760807082,
        0.2133998905482414,
        -0.4446396763112954,
        0.1561850063644479,
        -0.744079350717841,
        -0.3632304983812014,
        -0.14518737986464242,
        -0.0506012385948884,
        -0.4113487909782471,
        -0.27019820523851407,
        -0.20266138069293477,
        0.32219310146132524,
        0.2685742230021079,
        0.18745887896544758,
        0.3538592997682642,
        -0.3807854809362036,
        -0.03424529289860879,
        -0.3252186178250649,
        0.33816198693304134,
        -0.21674997370032706,
        0.4516385686924534,
        -0.1280450682399527,
        -0.26804498715858777,
        -0.2958989036378525,
        -0.34050371560261483,
        -0.47032751386835303,
        -0.5720862433023854,
        0.2947258223716285,
        0.2529221549863664,
        0.28496059965708104,
        -0.6694414907373739
      ],
      [
        -0.10451766407284883,
        -0.1540784162655436,
        -0.064222541785251,
        -0.13278588707198521,
        -0.15943381398223774,
        -0.5558260058795699,
        0.046946254592988824,
        -0.1562873000320415,
        -0.5708497083803904,
        -0.3282699662773194,
        -0.07561672091589358,
        0.06677094012015643,
        -0.042889652056390684,
        0.6687076144357996,
        -0.2090272979902155,
        0.4776396233901256,
        0.42219900887855133,
        -0.31759638643708227,
        0.12803079974123197,
        0.38509221729995874,
        0.3008708755577165,
        0.19449832679985815,
        0.14835972116487783,
        0.04146720282222608,
        -0.10413911102102046,
        -0.7652310820594095,
        0.0632810048439345,
        -0.5956360915249842,
        -0.3359194081552886,
        0.2170930490065809,
        0.30728974545824495,
        0.4263104736780916
      ],
      [
        0.27979062036965774,
        0.06511366341557617,
        -0.17075364791962827,
        -0.052397225721584284,
        0.03863719032130091,
        0.0019002295788823468,
        0.3377417569299044,
        -0.019247715872897104,
        0.11668688888102217,
        -0.5452680125258231,
        0.32282379586600485,
        0.009613989779081972,
        0.21459940892979076,
        -0.21298878348299907,
        0.3482382772807346,
        -0.22123936255578885,
        0.08641569966749717,
        -0.7781199418748559,
        0.33831304007787166,
        -0.11431745184098908,
        -0.17012398573357096,
        -0.1544700350483853,
        -0.12175973067899519,
        -0.08255673740912278,
        -0.020766356569324924,
        0.2159987650112873,
        0.5720745819812442,
        0.29052454699486496,
        -0.03587848143627706,
        0.2475941234589346,
        0.1748873635958432,
        -0.11117465941829992
      ],
      [
        -0.08576993664175833,
        -0.045232565185271155,
        -0.18732033788381042,
        -0.18324663504526217,
        -0.1744760673058024,
        -0.15595271594948923,
        -0.18317291465820326,
        0.4577140513763664,
        -0.23690809041283975,
        0.5492488144707238,
        -0.16073330659020382,
        -0.22247313355276183,
        0.03209472334821879,
        0.38665043756602757,
        0.27577441906894684,
        -0.11535809699024943,
        0.09901162176450279,
        -0.19105443468256433,
        0.04507570428308995,
        0.3326652973266146,
        0.3248245512620856,
        -0.41525332672366605,
        -0.09669246241260628,
        -0.3876098622333761,
        0.47777797418910883,
        0.09216015467302321,
        -0.18924620826923308,
        -0.6491714054518116,
        0.0851883104728256,
        0.11039566672795151,
        -0.1873053022253577,
        -0.10921049467600834
      ],
      [
        0.04768812652812763,
        -0.18989416208731397,
        0.13425518287516508,
        -0.12571826847760484,
        -0.14972332448939213,
        -0.576642557330519,
        -0.12113453543698685,
        -0.3539690722547055,
        0.4455869548608459,
        -0.05054126809234062,
        -0.132642715152669,
        -0.19531469248910074,
        -0.4245214814663255,
        -0.008099170608164098,
        -0.04008219640725907,
        -0.6403342046272689,
        -0.2576263525031831,
        0.19828031340749427,
        0.4460001247988768,
        0.3551777452486792,
        0.2517585728390269,
        0.729669960423319,
        0.37562164155631805,
        -0.3021716893982918,
        0.43324540224081654,
        -0.525174611191974,
        -0.4430771165848758,
        -0.7025385843984733,
        0.07711478492745046,
        -0.3059081710551934,
        0.42726517333398933,
        0.45710168183395883
      ],
      [
        0.11342903179711337,
        0.12493531766741618,
        -0.1335120632664571,
        -0.03996473743844533,
        -0.11206303847190827,
        0.03976737308375563,
        -0.38082294918046483,
        -0.005131880665596052,
        -0.21029982744368297,
        -0.3237275914962343,
        0.5035906006916115,
        0.2711928428771824,
        0.25404725051477256,
        -0.39767917135444897,
        0.1255623932994936,
        -0.11099064042478438,
        0.25420978476713624,
        -0.15739878284066242,
        0.13570406872276639,
        -0.01273652338516787,
        -0.366334796674851,
        -0.6672335183366397,
        -0.22594299940444626,
        0.2972440168259684,
        -0.06285765382133225,
        -0.028994661580394293,
        0.3756606432229024,
        -0.25888216784227086,
        0.1622948913893974,
        -0.07088759430289353,
        0.13392874910412064,
        -0.009172864961562907
      ],
      [
        -0.08666567473643352,
        -0.10812005987598063,
        -0.029005864304585533,
        -0.08869130845949777,
        -0.14520332811150222,
        -0.06081451779048855,
        -0.04449882732001441,
        -0.07593296537726209,
        0.28158856787124475,
        -0.6007807115540368,
        0.007342788218445196,
        -0.16434265076595467,
        0.03313149671553369,
        0.18890008026671226,
        -0.18123570229560124,
        0.4733011188128063,
        0.22480829490800475,
        0.13116114037372906,
        0.12315683256612517,
        0.21122998390616934,
        0.07914848540750306,
        -0.13076385459596515,
        -0.25397867103615246,
        -0.3745493644319463,
        -0.4429329185893965,
        0.16721775970474437,
        0.5874588970853808,
        -1.1138170815090096,
        0.5481700720004001,
        0.0943461400147416,
        -0.16632300139165807,
        0.3550249859366021
      ],
      [
        0.2832391124716082,
        0.11908722528609188,
        0.004202980980241439,
        -0.0141501319901823,
        -0.005246356244512403,
        -0.08820507040820616,
        -0.036951344139522474,
        -0.062287857054445506,
        -0.48307187308901056,
        -0.44872111642355894,
        0.35758902945294074,
        0.3630489340338471,
        -0.005400869890105834,
        -0.14477429099773143,
        0.466972968050086,
        0.054517593141182555,
        0.535184458713932,
        0.37656105493375025,
        -0.09353224176321355,
        0.2269633875418322,
        0.17254751803131418,
        -0.6575490023692221,
        -0.3246987292044298,
        -0.2881175863548027,
        0.038837804650311926,
        -0.31108850902754226,
        -0.1281405244850576,
        0.12688257474689865,
        0.13944992092156702,
        -0.2504197875819262,
        0.1475461698372677,
        0.44968461170805135
      ],
      [
        0.2069908375873057,
        0.06541180955800106,
        -0.2751376221975718,
        0.19996516913839063,
        0.036008066448083284,
        -0.20589246321151353,
        -0.19888721500441792,
        -0.30899803332097053,
        -0.33829085271709614,
        0.7174931532034606,
        0.002561375670554476,
        0.05991311255414041,
        -0.07888818739130449,
        -0.39902936533688066,
        0.17607172137415114,
        -0.06919564698484114,
        -0.27291734953965524,
        -0.27453069800104624,
        0.5102096885912611,
        0.2867522328712405,
        -0.1395257514364495,
        -0.5242231501290138,
        0.22957095466381322,
        0.02738704602506185,
        0.26377834010504425,
        -0.7024290092543981,
        0.2667922661463433,
        0.4777716360864926,
        0.24487604262594515,
        0.06248861473785809,
        -0.6627121776305959,
        0.27967834197707464
      ],
      [
        -0.1353093549856418,
        0.07989295575600057,
        0.014223095949665764,
        -0.33711254380198247,
        -0.15585734730663306,
        -0.013969847886097626,
        0.10117693775972113,
        -0.049234694859053796,
        -0.18210395526747,
        0.14398566512783303,
        0.010932093065144729,
        0.3474686947116855,
        -0.10138533013651391,
        -0.0897425304570153,
        0.06724898058215989,
        -0.017730350928147832,
        -0.028601453268818064,
        -0.18366907622809606,
        0.2252194191649752,
        -0.006361503968758572,
        -0.17478739292569948,
        0.32293883616633257,
        -0.23867693098199597,
        0.18073302743444747,
        0.16902874297129125,
        -0.28553982157542807,
        -0.44027168820025453,
        0.5013454377618035,
        0.000024665564246716674,
        -0.17484920455728956,
        0.13108660803813402,
        -0.07522176192555641
      ],
      [
        0.08264119244780406,
        0.03857744306561915,
        0.24494796320023912,
        -0.024872344965439247,
        0.18190123424643972,
        0.5982067689521646,
        -0.11941639483025694,
        -0.1953757359827847,
        0.35917960150857414,
        0.5047466505479015,
        0.100359754943364,
        0.3276144126495695,
        0.12759865837583523,
        -0.060636588867538525,
        -0.13025625924147613,
        -0.20076245642973484,
        0.19810076749016753,
        -0.5002949077839981,
        0.5991496665964322,
        0.10305375870866695,
        0.17571486746697526,
        -0.04972939952176906,
        -0.1459982989454796,
        0.23028485563085832,
        -0.2121986266098319,
        -0.8518144192859807,
        0.053213425131638764,
        0.18968586020289174,
        -0.16137131173738395,
        -0.9207915581514008,
        -0.2769720494759779,
        -0.3816580538733609
      ],
      [
        0.03741854942984094,
        -0.04906599872156347,
        0.017388450155029354,
        -0.04794709783519313,
        -0.005392108474338437,
        -0.34366106208024244,
        0.06502266474203093,
        0.12554656587896923,
        -0.3276287383864008,
        0.08340586264003251,
        -0.03852509690225499,
        -0.0019238675679450062,
        0.07696842396857152,
        0.07693269122836462,
        0.06634864642143942,
        0.15577728418983283,
        0.4779371427182936,
        -0.1810653359732283,
        0.39617156434935125,
        -0.35882181649583933,
        -0.12121786730599003,
        -0.3772605492935992,
        0.5124554648014132,
        -0.14371957550814207,
        -0.028772823005921648,
        -0.5425516150120043,
        -0.24245502773056268,
        0.008870610900008456,
        0.26512584937145733,
        0.0256792905992633,
        -0.12056746681046518,
        -0.27436458653559953
      ],
      [
        -0.04240817616339753,
        -0.21006655119865167,
        -0.03694559200480575,
        -0.09697273859491028,
        0.10945027467760576,
        0.11722962654369816,
        -0.1786600988476708,
        0.44028111798326075,
        0.13707345600680823,
        0.10778638192456172,
        0.7464519277498252,
        -0.06345515040124725,
        -0.2588056697494739,
        -0.050769652026413835,
        -0.1599407459068751,
        0.49108524237477424,
        -0.11973020629574546,
        -0.04164907093599207,
        0.38390769157487115,
        -0.060768894943386435,
        -0.06339185475547064,
        -0.2684528371912252,
        -0.5087847099496176,
        0.5106632014478267,
        0.11860673790633482,
        -0.48336424758840435,
        0.22182646619946614,
        -0.13926760513436123,
        0.21568961681528223,
        -0.7712919854546637,
        -0.10778533366679953,
        -0.48736723171651636
      ],
      [
        -0.5007407501844794,
        0.11921417671942357,
        -0.008609614989710822,
        0.24492243537115646,
        -0.004711935980695022,
        -0.15310396078443125,
        -0.20571424492612175,
        -0.010499535548717912,
        0.4127470839044145,
        -0.5614267119688219,
        0.3796206754383323,
        -0.26604358713179715,
        -0.21324441718529732,
        0.20420297749046953,
        -0.34622348773592165,
        0.12554523776360785,
        -0.199316252313459,
        -0.47201880773200483,
        -0.23322247826410242,
        -0.06164515745602323,
        0.1755875112953275,
        -0.06736722871165031,
        -0.2033898294931743,
        0.04069399401336841,
        0.2814475790673849,
        0.03851567431108511,
        0.174688674388531,
        0.01332253352949023,
        -0.15459332094164388,
        -0.4963059054193135,
        0.44705460150844484,
        -0.5272116891858296
      ],
      [
        -0.13231188345216144,
        -0.05146903809604013,
        -0.2543996420763564,
        0.1605233360935954,
        -0.1389434102535303,
        -0.19578317645553844,
        0.04453907808743061,
        0.4112679920976461,
        0.22789606232237916,
        0.03534753814600163,
        -0.09978826932030327,
        0.13401372807058667,
        -0.15409655834055308,
        -0.5949412581861658,
        -0.055658630735288164,
        -0.20912300962934435,
        0.5215379729227735,
        0.05833728926302688,
        0.18850596271540862,
        0.44459470929995276,
        -0.19065381796692182,
        -0.08786339083620787,
        -0.13371966033777571,
        -0.1265857741362956,
        0.16901374828747312,
        -0.2680458441725528,
        0.5917823550032174,
        0.18413547791543577,
        0.0559819579094397,
        -0.5013996240924178,
        -0.1034723249176641,
        0.15216088461034544
      ],
      [
        0.09267695277431408,
        0.0911688756740788,
        0.3945446603800348,
        -0.022019734134911,
        0.25906738685114583,
        0.23453595096608018,
        0.0486915452949707,
        0.20626634666549767,
        0.06768630544609136,
        -0.26542045233235145,
        -0.15104443955159597,
        -0.13723838510998046,
        -0.16180747519912336,
        -0.35803697665864104,
        0.0421596749513823,
        -0.125668500131749,
        0.35062370092779194,
        -0.418891747614042,
        -0.31128852913562666,
        0.11124560223473612,
        -0.1430110225970126,
        -0.1432770801780459,
        0.11643372820623697,
        -0.04370072602842559,
        0.11812249747859423,
        0.21872669345889403,
        -0.4003260715588093,
        0.27385495998855813,
        0.2738587311359405,
        -0.23281016209631175,
        0.07961856803796104,
        -0.1621278226664418
      ],
      [
        0.22553285485442243,
        -0.09300597654472643,
        -0.020652391177450106,
        0.01753471869434399,
        -0.24300736893012714,
        -0.1835386965857707,
        0.056464529903576484,
        -0.21859644649959242,
        -0.11522151807010096,
        -0.03900134902211758,
        -0.28466525345450294,
        -0.24883825014080413,
        0.22308874958850253,
        0.22162642743088326,
        0.03705528122499004,
        0.08019024763624023,
        -0.268372365173238,
        -0.21622215196325936,
        -0.17392743212018055,
        -0.27144738039800903,
        0.07294110472665714,
        -0.3315847941623089,
        -0.01788044247181579,
        -0.14466780925329817,
        0.2795209065231421,
        0.14456381552386519,
        0.20028165927618502,
        -0.5990560018686035,
        0.44053798376649494,
        0.6281664035641483,
        0.0032890787270631766,
        -0.3636495304835509
      ],
      [
        0.05980032848205471,
        0.02558307302687919,
        0.12130309537377583,
        0.1171850525389315,
        0.10591885184508441,
        0.10513035480297812,
        0.29473755960918135,
        0.172762220102383,
        -0.4165339592284284,
        -0.030706246525973768,
        0.13970647208641143,
        0.24097024845718543,
        -0.007523418892568572,
        0.03577137823163216,
        -0.1688184887907113,
        -0.20255863438264432,
        0.4059390349748683,
        -0.379392429580652,
        0.1774670901619148,
        -0.0962334951604542,
        -0.09100258660722367,
        -0.5247431480872318,
        0.18959279286026787,
        -0.014403207123693699,
        0.49050392071206267,
        0.23242160549879382,
        -0.20927621349928535,
        0.029327759031937205,
        -0.08774663860182112,
        -0.24343508837340405,
        -0.29807386696751387,
        0.14253517858990408
      ],
      [
        -0.158773618932111,
        -0.15188076088788213,
        0.05790321198750573,
        -0.0022250833454234486,
        -0.1667860190231695,
        0.010860566235468968,
        0.030332832928414887,
        -0.3319708161890384,
        -0.24539140863756553,
        -0.00010064474996813403,
        0.29075932147936995,
        0.048959215422330095,
        -0.37876263036524477,
        -0.37456574016111277,
        0.12012990589232245,
        0.1662553318611376,
        -0.402771706186892,
        0.019234621549483914,
        -0.308631861080194,
        0.21940814707072753,
        -0.06975048087025026,
        0.1789855117222604,
        -0.056342425335485974,
        -0.08733532402523693,
        0.15264547293263298,
        -0.12952965855216586,
        -0.313955843504816,
        0.23069118488717003,
        0.033838261164960026,
        0.1075511848628405,
        0.24058990609532846,
        0.060175640351091485
      ],
      [
        0.006678216675323972,
        0.05967801920441147,
        -0.04582089129181435,
        0.2557474251096468,
        -0.0077066240556409775,
        -0.2681716073095434,
        -0.3131028398642724,
        0.4984771337859167,
        0.13796100818331328,
        0.050745601609757565,
        -0.010860108364179862,
        0.1714265200215892,
        -0.20553905151280097,
        -0.25169803803472834,
        0.1706922163167925,
        -0.14242968869175351,
        -0.19439999504086541,
        -0.024637709594670685,
        0.19583114766673562,
        0.3199393108340036,
        0.3135086832662099,
        0.32760033831704405,
        -0.49743524717165777,
        -0.06616494648888785,
        -0.09670841629988527,
        -0.3548813907213233,
        -0.138650515768205,
        -0.18804859316339714,
        0.2772443976865963,
        0.21964228835964897,
        -0.10263918395544126,
        0.2381525165645793
      ],
      [
        0.07771066347597944,
        0.027833000553044426,
        -0.12381299484053465,
        -0.21737836429873697,
        -0.07351348503577955,
        -0.11989522536383232,
        -0.11528151892322755,
        -0.7281580823540851,
        0.33979844835658385,
        0.2937079172545694,
        0.5923900515654064,
        0.016907338963958952,
        0.22630814561440643,
        0.04799960956835257,
        0.269293097633152,
        -0.29251528337610816,
        0.09602145531879977,
        0.2133428464453198,
        0.0971654435058721,
        -0.24051414155948792,
        0.13299662350950847,
        -0.544546820127082,
        -0.4211201431737845,
        0.16174097349407263,
        0.40665623585354704,
        -0.24085507862904285,
        -0.4546092701905241,
        0.317127781609689,
        0.03000936276419635,
        0.2096625712314367,
        0.31193320375152744,
        -0.47225042653963734
      ],
      [
        -0.004640542892741555,
        -0.11843170685728814,
        -0.037994880886302575,
        -0.24117098276537546,
        0.19655557264950818,
        0.1920838458861608,
        0.0006952121639426413,
        -0.07528143787187806,
        -0.5950692584333602,
        0.554834449442418,
        0.23139939890940764,
        0.012104090946838949,
        0.19695045232715847,
        -0.5234484695831515,
        -0.4044558401425441,
        -0.34158930301573964,
        0.11643796716767488,
        0.28898183875158023,
        -0.032534808328666634,
        -0.26456760742568375,
        -0.3563816720811408,
        0.28806239400875594,
        -0.18781362650417227,
        0.2840601189454717,
        0.1431197507191413,
        0.5051956964974795,
        0.239788559439898,
        -0.39372890938684446,
        -0.17301127831912297,
        -0.11829966978213644,
        -0.32217022612746155,
        0.06526962208709905
      ],
      [
        0.10552247969117796,
        -0.08246884364895511,
        -0.29045277199061226,
        -0.03106310591951649,
        0.12231169618594778,
        -0.13285386342873706,
        -0.1479751991616385,
        0.15586441063405548,
        -0.14442758283780602,
        -0.14223016535164715,
        0.17131946663388975,
        -0.5477397131628293,
        0.3264015053539915,
        -0.05420096908265134,
        0.2927608145843742,
        0.025506552498774482,
        0.3452232756589645,
        0.4888003263893309,
        -0.019060462312675257,
        0.041117481667632405,
        0.1609362671841433,
        -0.28380971527305077,
        0.0971963261119841,
        0.10187583616939919,
        -0.054785471685077185,
        -0.2406718058589724,
        -0.1888046139789498,
        -0.4157512487701663,
        0.24115828790766786,
        -0.3012148736463426,
        -0.0011845912509703752,
        0.27926166568721356
      ],
      [
        0.34916494143101773,
        -0.08407028844941317,
        -0.1384582630873091,
        -0.09377478868693012,
        -0.07807438386255924,
        -0.23157287483030475,
        -0.3370140659766384,
        0.1866117186224578,
        -0.2668529497105715,
        -0.33854557967601945,
        0.34695119010615105,
        -0.26584509892912184,
        0.5183114423124504,
        0.30567676408997485,
        0.02352402246042302,
        0.0357577140564736,
        -0.14158682137240108,
        -0.05738351243708009,
        -0.24927312699320162,
        0.0021304751833909337,
        -0.23602364850440613,
        -0.44834880284427486,
        -0.026591750618692,
        0.30810574915137695,
        0.042224914135757255,
        -0.2677393780556076,
        0.24494875623104861,
        0.20828145686085656,
        -0.4366744073037211,
        -0.15354051264488694,
        -0.02103486824599155,
        0.24267470329392116
      ],
      [
        0.12539066008458757,
        -0.0642853838592781,
        -0.08128303698816455,
        -0.20422853861526297,
        0.121111419676995,
        0.14583116922722206,
        -0.3012296674560324,
        0.08177940469162127,
        -0.222103733798549,
        0.2654241261853561,
        -0.7319025883211941,
        -0.01197228360233324,
        0.47706639037729953,
        0.12948512206023205,
        0.2981357127215058,
        0.16738906886937086,
        0.6421831421622489,
        -0.33969048725114254,
        -0.13991557296489113,
        -0.045358932655922765,
        0.07283331440134477,
        -0.04891026576314059,
        -0.2732186199519187,
        -0.05952555256022739,
        0.15732681600526252,
        -0.39907866999217495,
        -0.09023309037550616,
        0.10874173522847577,
        0.4588291468612017,
        -0.2733346189221508,
        -0.1373507917099027,
        0.04077862196740803
      ],
      [
        -0.005949665734825195,
        -0.3116386400131296,
        -0.06703815771520727,
        0.07267744924983274,
        -0.1382123276952731,
        -0.20204824685397535,
        -0.2642184071773172,
        0.1305238856769446,
        -0.5120892790059113,
        0.33446025682709496,
        -0.05420186512084985,
        -0.1346534397758396,
        -0.0885543242481962,
        0.11170485310464254,
        0.05727594498205744,
        -0.6136549526565381,
        0.5504665368559939,
        -0.1528550814802446,
        0.24192690507209885,
        0.353813028042489,
        0.08573442487614452,
        0.21967938465664302,
        0.11621640640522685,
        -0.4973763529924316,
        -0.37531058088070446,
        -0.34868783756798083,
        0.3645862226318524,
        -0.23861433277255206,
        -0.38502050872718124,
        0.6021567461806745,
        -0.15979789489291588,
        -0.08526958003195463
      ],
      [
        0.1083457365982606,
        -0.06218089154447795,
        -0.12092470494059519,
        0.038548672837926436,
        -0.2311954340735679,
        0.2627628255324876,
        0.06719536709446004,
        0.0146307232829694,
        0.3673233586987013,
        -0.5757414387472215,
        0.517056920058589,
        -0.08269173417893692,
        -0.1523160547478825,
        0.20258322222566036,
        0.32543223937193755,
        0.1310057264514717,
        -0.23504001680687592,
        -0.160611123896533,
        -0.1903024042983237,
        0.15349096008065466,
        0.003028117057552383,
        -0.001606228702394328,
        -0.08553214476682032,
        -0.22648761947374849,
        -0.060439091639067063,
        0.018941537117903418,
        0.2648510408941716,
        -0.5536277912233492,
        0.316821717855313,
        -0.31952331131040895,
        -0.17453909711754284,
        0.43150771993477754
      ],
      [
        -0.04398999097694458,
        -0.5108910403350063,
        0.047291509040403246,
        -0.16804748437190126,
        0.15713569113243492,
        0.004409104333748358,
        0.1536393884116863,
        0.5394288071612725,
        -0.36779115382013183,
        0.14301877797037565,
        -0.2303149674031363,
        -0.10751032432072598,
        -0.43344354126715584,
        -0.4175601953888523,
        0.1416720692243262,
        0.2771969646565351,
        0.06559568112051632,
        0.23490052478945972,
        0.44536487560343485,
        0.1824836614875859,
        0.25800205884264155,
        -0.2619573293428439,
        -0.45617037142132516,
        0.08340767489443512,
        -0.05099567672218886,
        -0.2552568677282981,
        0.16923718468786972,
        -0.4003758065771758,
        0.12151369713012682,
        -0.09681489192972544,
        0.18564220910492166,
        -0.1250750349685752
      ],
      [
        0.35664070076297066,
        -0.1956630679404761,
        -0.013404454871453966,
        -0.13368094738317426,
        -0.03716286030719184,
        -0.22142269676070633,
        -0.06439002097831685,
        -0.3142862914317446,
        -0.012436898034331264,
        -0.5270993917433984,
        -0.13533506103762746,
        -0.17677693563101968,
        0.16755896443181678,
        0.58514984902831,
        0.2072836809385751,
        0.20175440118864646,
        -0.28566579758307464,
        -0.05384374665114602,
        0.31954215967777977,
        -0.3457800161570733,
        -0.3051971611588687,
        0.2961482298198208,
        -0.21081901470337766,
        -0.5237783860598527,
        -0.17581282590480962,
        -0.1323240169937626,
        -0.020381130355530824,
        -0.5143714894436094,
        0.46599117927602196,
        0.05582935991082242,
        0.4944802414886548,
        -0.8638952511988415
      ],
      [
        -0.028408765782625314,
        0.014645367415886883,
        -0.5445643820286185,
        -0.20429802129861485,
        -0.2969129624462232,
        -0.1274559437323589,
        -0.39615359576337494,
        0.02762037928609949,
        0.1602404856525899,
        0.13258622988652544,
        -0.3025710989095857,
        -0.29464365361018446,
        -0.36080557936344826,
        -0.32779281781297603,
        -0.11567842204992007,
        0.056207486255472956,
        0.18220000595402336,
        0.05424645756489961,
        0.7392224431914433,
        0.28337442407318075,
        -0.16173666688504548,
        -0.4138314792297657,
        -0.03520455058334684,
        0.28571632865415764,
        -0.1801025543315585,
        -0.5197466982067139,
        0.5739736714198971,
        0.4868259824890816,
        0.19747085356942523,
        -0.005484572271458533,
        -0.3548405837803544,
        -0.38461454293981623
      ],
      [
        -0.30692951982878613,
        -0.30604174347793617,
        -0.2294841593885267,
        0.0075883446218102096,
        -0.29882940165162897,
        -0.4190996761041212,
        0.1976165304368864,
        -0.07899875892913827,
        0.5550747923892585,
        0.025229586002716436,
        -0.7042484172555563,
        -0.2429665954936641,
        -0.5076854854718449,
        -0.11000564419102143,
        0.743302425501668,
        -0.5851149602371014,
        0.18082461245800427,
        -0.7276056884633183,
        0.00927712601557665,
        -0.43243572251352935,
        0.13889625438727685,
        -0.05353499313213009,
        -0.7560684434480439,
        -0.40867964359141096,
        0.510812467307579,
        -0.23039861409112866,
        -0.10105481572229068,
        -0.7428245504598291,
        0.3640816975460444,
        0.32162598681927274,
        -0.22608493844793393,
        -0.1612773258777992
      ],
      [
        -0.27051996401848355,
        -0.05733346937077532,
        -0.04927887599362259,
        -0.4526605171650987,
        -0.24744214512031906,
        0.2670068587307362,
        -0.22497561557746712,
        -0.4597153662287265,
        0.523497101978656,
        -0.084372179771082,
        -0.20212303939289528,
        -0.07606305078677832,
        -0.29305158608469734,
        -0.421967817740334,
        0.0014347588274776157,
        0.48153992618670405,
        0.5183052967986074,
        -0.2578936445650104,
        -0.09976245263026286,
        -0.4047624145817548,
        -0.30376265080079745,
        0.2555302812826053,
        -0.3290230723273025,
        0.016011705746924836,
        0.036466620715959144,
        -0.0848726117827695,
        -0.09235179697348196,
        -0.3622890380380904,
        -0.28811027868477795,
        0.4587705857847603,
        0.16455599037959626,
        -0.11015694067000173
      ],
      [
        -0.038331301999867826,
        -0.05725325040902847,
        -0.230989347530747,
        -0.10720961746589973,
        0.1316793801390929,
        0.23480546134234448,
        0.26895417500191543,
        -0.037805249645913384,
        0.12600707177553966,
        0.10543842700687886,
        -0.00041997805578083795,
        -0.3288364238398388,
        -0.29149545795320325,
        0.09563933068844838,
        0.3705414159344692,
        0.30351077399423704,
        0.0815230179528789,
        0.22089849622058433,
        0.49800043249740866,
        -0.16806208571778872,
        -0.02021045669664348,
        -0.5500440086204238,
        -0.3614956043255883,
        0.3867566904627692,
        -0.07834080650714845,
        -0.40926782407598994,
        0.2530972360852386,
        -0.02914273138655496,
        0.036467167970865536,
        0.007136975962312937,
        0.19479838067797595,
        -0.3387957887439039
      ],
      [
        -0.20542882994011202,
        0.2967634036204405,
        -0.16519049868107297,
        -0.23883795129207247,
        0.029930733652418755,
        -0.1124880070637378,
        -0.21084542685289498,
        0.536297528856946,
        0.2525496085907551,
        -0.5215718200008048,
        0.04197211994812741,
        0.05157599904413131,
        0.2568249269063811,
        0.09201713201877344,
        0.011348399404313527,
        0.37052649587711095,
        0.13163959293991515,
        0.3232856155535706,
        0.19470187098726,
        -0.36088074285199034,
        -0.19945520853794302,
        -0.10769897411678395,
        -0.007405258557456719,
        -0.4248550954475729,
        -0.06928912533094006,
        -0.1401727199914263,
        0.1834881854229786,
        0.22358002113206135,
        -0.38761696615193475,
        -0.41102704682645413,
        0.03321203901597062,
        -0.23797067139209774
      ],
      [
        -0.3128556659246436,
        -0.35356863548871276,
        0.020459965169079667,
        0.034778916392523986,
        -0.15873561195652022,
        -0.7659200155748147,
        0.06832855447879549,
        -0.4696296298710612,
        0.3355503909220763,
        -0.010805218659988947,
        0.7406063254130187,
        -0.35466606547712687,
        -0.4149207355877519,
        -0.11112399220098007,
        0.45787807533610336,
        -0.6576140542430873,
        -0.1567308217822271,
        -0.5097529688707995,
        -0.10059291592777841,
        0.027471134424553977,
        0.21270525474536603,
        -0.008561645530956825,
        -0.7650826297296995,
        -0.49233845548806665,
        -0.5314334977434055,
        -0.3325537425798337,
        0.2139584018411826,
        -0.6129245251251433,
        -0.2633423814125113,
        0.1838748723470188,
        0.2456056722735316,
        -0.8480889697041134
      ],
      [
        -0.08236384975480728,
        0.06491222867235677,
        0.0662513644145705,
        0.05207610527168024,
        -0.1116243357293458,
        -0.18861776212051157,
        0.05591915227368498,
        0.0555397255096843,
        -0.0041824148445524945,
        -0.23009126566654833,
        -0.3882804944578009,
        -0.35979885608435774,
        0.15779998362218703,
        -0.26112978633058465,
        0.21492843340289308,
        0.3068702625093951,
        0.5339353405231446,
        0.14303618959674116,
        -0.08529460525186264,
        0.06791452946574564,
        -0.04279975042168023,
        0.5942282289509262,
        -0.00017211471466914256,
        -0.0012339502088952684,
        -0.2051747630633047,
        -0.19994963044648167,
        0.026026854403186448,
        0.20542466050939648,
        -0.33280888533705216,
        0.01939824146558832,
        0.19572735425344637,
        0.07211548100976961
      ],
      [
        0.024757968776904015,
        0.07826535332158191,
        0.14418770164105638,
        0.15920052812270108,
        -0.13303102014418258,
        0.06175443122618401,
        0.14289395070805141,
        0.31267761913799746,
        0.07373802241345005,
        0.027463931600631823,
        -0.15929382631534592,
        -0.4727500732609743,
        0.01777542673464809,
        0.23630110798800946,
        -0.0026270334042116502,
        -0.13846074314182702,
        -0.03486849499153603,
        -0.4123087605402344,
        0.5926061469633647,
        -0.026444205795499717,
        0.023640079043654123,
        0.35073588537571426,
        -0.1071186592459393,
        0.20576959723159116,
        -0.3255183828274676,
        -0.40295189005467474,
        0.11128365312146206,
        -0.0723366401873177,
        -0.14566795917587866,
        0.2112867226571383,
        -0.1753174402022749,
        0.01645957983346838
      ],
      [
        -0.0014651139107245345,
        0.21335944197166698,
        -0.0234250503684936,
        -0.03998111022907447,
        -0.08991006517347083,
        -0.15708973366144888,
        -0.21585830727340172,
        0.45011537480246283,
        0.6362486005231466,
        -0.13124158775624264,
        0.0019499770436257947,
        -0.0008128077454616725,
        0.03095010461622167,
        0.21569617956734277,
        0.042415985123052294,
        -0.10207146704166312,
        -0.13686986891485364,
        -0.22717664777473273,
        0.11685660563943379,
        -0.052175618137767166,
        -0.2750484627343779,
        -0.1497865796778969,
        0.3309040472519691,
        0.2801165739642673,
        0.23617196728067172,
        0.24216964852733272,
        0.002189921150373454,
        -0.01791574727857819,
        -0.08765223459110892,
        -0.4572801477874947,
        -0.0630722092946911,
        -0.23238224855290077
      ],
      [
        -0.0456690782979661,
        0.05732633836527617,
        -0.3888533317771236,
        0.28882471756609546,
        -0.07042862430617017,
        -0.41440193213623844,
        -0.2526095951774703,
        0.2076514221922182,
        0.36665028116816245,
        -0.18212698444911127,
        0.24188756150900587,
        0.019424176685016697,
        0.03672370995563395,
        -0.5357503837854524,
        -0.10655104480754385,
        -0.585239699097897,
        0.2511606560542804,
        -0.17774107369087272,
        -0.23256107151192995,
        0.3275083443396389,
        -0.11151616491508226,
        0.4976504151192545,
        -0.7871215308873045,
        -0.5768899374374479,
        -0.7063088591379154,
        0.07071128565459124,
        0.17280682877887835,
        0.0037585738183879606,
        -0.6362902389079748,
        0.200040228150414,
        -0.054822707313342794,
        -0.230335697984731
      ],
      [
        -0.20314968021475596,
        0.08883256749820768,
        -0.057600470502334154,
        0.19181481548661608,
        0.0937860731269405,
        0.21257321179710242,
        -0.2929897179906241,
        -0.04160044832542136,
        0.3506267306587556,
        0.06494705334613168,
