{
  "version": "1.0",
  "config": {
    "vocabSize": 400,
    "embeddingDim": 32,
    "numLayers": 2,
    "vocab": [
      "[PAD]",
      "[UNK]",
      "[EOS]",
      "there",
      "was",
      "once",
      "little",
      "boy",
      "called",
      "willie.",
      "never",
      "knew",
      "his",
      "other",
      "name,",
      "and",
      "as",
      "he",
      "lived",
      "far",
      "off",
      "behind",
      "the",
      "mountain,",
      "we",
      "cannot",
      "go",
      "to",
      "inquire.",
      "had",
      "fair",
      "hair",
      "blue",
      "eyes,",
      "something",
      "in",
      "face",
      "that,",
      "when",
      "you",
      "looked",
      "at",
      "him,",
      "made",
      "feel",
      "quite",
      "happy",
      "rested,",
      "think",
      "of",
      "all",
      "things",
      "meant",
      "do",
      "by-and-by",
      "were",
      "wiser",
      "stronger.",
      "alone",
      "with",
      "tall",
      "aunt,",
      "who",
      "very",
      "rich,",
      "big",
      "house",
      "end",
      "village.",
      "every",
      "morning",
      "went",
      "down",
      "street",
      "goat",
      "under",
      "arm,",
      "village",
      "folk",
      "after",
      "him",
      "said,",
      "goes",
      "master",
      "aunt",
      "long",
      "neck;",
      "on",
      "top",
      "it",
      "her",
      "head,",
      "head",
      "she",
      "wore",
      "white",
      "cap.",
      "willie",
      "used",
      "often",
      "look",
      "up",
      "that",
      "cap",
      "like",
      "snow",
      "upon",
      "mountain.",
      "fond",
      "willie,",
      "but",
      "great",
      "many",
      "years",
      "always",
      "sitting",
      "still",
      "them",
      "over,",
      "forgotten",
      "games",
      "know,",
      "stories",
      "read",
      "little,",
      "asked",
      "about",
      "them,",
      "would",
      "say,",
      "no,",
      "dear,",
      "can't",
      "remember;",
      "woods",
      "play.",
      "sometimes",
      "take",
      "between",
      "two",
      "hands",
      "well",
      "while",
      "felt",
      "sure",
      "not",
      "thinking",
      "someone",
      "else",
      "did",
      "then",
      "kiss",
      "turn",
      "away",
      "quickly,",
      "saying,",
      "woods,",
      "dear;",
      "is",
      "no",
      "good",
      "staying",
      "an",
      "old",
      "woman.",
      "he,",
      "knowing",
      "wanted",
      "be",
      "alone,",
      "pick",
      "hurry",
      "away.",
      "dear",
      "sister,",
      "apple-blossom,",
      "strange",
      "thing",
      "happened",
      "her.",
      "one",
      "day",
      "over-wound",
      "doll",
      "talked",
      "walked,",
      "consequence",
      "terrible.",
      "sooner",
      "winding-up",
      "key",
      "out",
      "doll's",
      "side",
      "than",
      "blinked",
      "its",
      "fast,",
      "faces,",
      "took",
      "apple-blossom",
      "by",
      "hand,",
      "am",
      "your",
      "any",
      "longer,",
      "are",
      "my",
      "girl,",
      "led",
      "right",
      "could",
      "tell",
      "whither,",
      "able",
      "follow.",
      "only",
      "gone",
      "girl",
      "some",
      "place,",
      "where",
      "dolls",
      "stronger",
      "more",
      "important",
      "human",
      "beings.",
      "left",
      "play",
      "with;",
      "poor",
      "horns,",
      "tail",
      "hardly",
      "hair,",
      "loved",
      "dearly,",
      "put",
      "arm",
      "along",
      "street.",
      "painted",
      "wood",
      "said",
      "blacksmith's",
      "wife",
      "day.",
      "why",
      "should",
      "care",
      "for",
      "it;",
      "even",
      "alive.",
      "if",
      "alive,",
      "anyone",
      "love",
      "it.",
      "living",
      "it,",
      "miller's",
      "said.",
      "wonder",
      "what",
      "they",
      "were;--take",
      "sake",
      "master.",
      "yes,",
      "dame,",
      "will,",
      "answered",
      "gratefully,",
      "way",
      "hands,",
      "wondering",
      "tasks",
      "been",
      "set",
      "since",
      "fashioned",
      "goat.",
      "stayed",
      "helping",
      "children",
      "gather",
      "nuts",
      "blackberries.",
      "afternoon",
      "watched",
      "home",
      "their",
      "aprons",
      "full;",
      "longingly",
      "singing.",
      "father",
      "mother,",
      "or",
      "brothers",
      "sisters,",
      "whom",
      "have",
      "carried",
      "blackberries,",
      "how",
      "merry",
      "been.",
      "told",
      "live",
      "cottage",
      "door",
      "open",
      "day,",
      "sweet",
      "breeze",
      "blowing",
      "in,",
      "cocks",
      "hens",
      "strutting",
      "outside,",
      "pigs",
      "grunting",
      "styes",
      "garden;",
      "see",
      "mother",
      "scrubbing",
      "washing,",
      "know",
      "working",
      "fields,",
      "run",
      "help",
      "play,",
      "cuffed",
      "kissed,",
      "just",
      "happened.",
      "answer,",
      "lady",
      "grand",
      "carriage",
      "drive",
      "poor,",
      "eat",
      "drink;",
      "tells",
      "us",
      "fine",
      "must",
      "you.",
      "food",
      "because",
      "hungry,",
      "sorrows",
      "house.",
      "carriage,",
      "better",
      "heart",
      "heavy,",
      "light,",
      "can",
      "swiftly",
      "own",
      "legs.",
      "ah,",
      "lonely",
      "was,",
      "yet",
      "dearly.",
      "hot",
      "drowsy",
      "days",
      "sleep",
      "resting",
      "against",
      "high",
      "thin",
      "shoulders,",
      "arms",
      "him.",
      "afternoon,",
      "clasping",
      "usual,",
      "sat",
      "pond.",
      "home,",
      "so",
      "glad",
      "pond",
      "think.",
      "world,",
      "seemed",
      "done",
      "hundred."
    ]
  },
  "weights": {
    "embedding": [
      [
        0.006715649703827422,
        0.12862663028570573,
        -0.052636946205336536,
        0.08756801120922672,
        -0.1397510266644715,
        0.14613211364462803,
        0.14980908160595635,
        0.03708499610481245,
        -0.15273067887489278,
        0.08960324295709633,
        -0.15518149862664216,
        -0.0934165530939956,
        0.12306053339408266,
        0.13626434502145934,
        0.0706864830317234,
        -0.15144735540545415,
        0.01879434081157659,
        0.12865693286855995,
        -0.07900047061325176,
        -0.11071438872187996,
        -0.060284355361390866,
        0.005272148023287548,
        -0.07767944188966434,
        -0.148117267546317,
        0.14994064827664424,
        0.060956452995407424,
        0.0946120259453223,
        0.04555555001927721,
        -0.1700832119326028,
        0.16269401370176387,
        0.06437477496966743,
        0.04636401916382719
      ],
      [
        0.027082368372200984,
        0.008957625862585493,
        -0.08500617507824537,
        0.03218010192403662,
        -0.09335982504004718,
        -0.003525380000769203,
        -0.14166102236898684,
        -0.14940676502993058,
        0.04664546276490126,
        -0.0325581516233312,
        0.032918432265274515,
        -0.05082026352325386,
        0.04987967453172621,
        -0.037558801210679775,
        0.03225082503969092,
        -0.11485231707255042,
        0.06242795790606613,
        0.13049049409184554,
        -0.04520092834375816,
        -0.07373098890755722,
        0.13548563718890225,
        -0.08252762080247915,
        0.131159832352224,
        0.06567457682335842,
        0.1298701899282583,
        0.07050172078299327,
        -0.14718844985262355,
        0.024815230618607485,
        0.15044496312403202,
        0.04669811229641951,
        0.004443702599704018,
        0.011170460285124984
      ],
      [
        0.04999537312908514,
        0.052643070026671346,
        -0.025145676481816603,
        -0.04692100811007288,
        -0.08670182257912769,
        0.10144724676483433,
        -0.05369488195342011,
        -0.0948338791444849,
        -0.16923555342928795,
        0.09816848057949078,
        -0.05376759413840504,
        0.07809208963929522,
        -0.045173930196823586,
        0.16033542369442313,
        -0.11682488952114439,
        0.1767058939431211,
        0.07051148387728998,
        -0.06654013735360907,
        -0.006153965511316536,
        -0.17179808963759904,
        -0.09098677361790879,
        -0.1099770569927896,
        0.016316963656567426,
        -0.1544608379809312,
        0.03872461001389253,
        0.050972573892202486,
        -0.09699612477105397,
        0.1629491323465952,
        -0.16505461288894177,
        -0.008315804281247913,
        0.1297978232959433,
        0.07668779566018438
      ],
      [
        -0.09739529534212762,
        -0.23872122182728106,
        0.052118722411750695,
        0.21772386798609178,
        0.11724182042086236,
        -0.23769330282791126,
        0.18911670787822193,
        -0.16859216690744022,
        0.21879227661219675,
        0.015966446862331847,
        -0.08867900321601947,
        -0.12227800118314283,
        0.0468189596995423,
        0.014118750384146879,
        0.07921821314016664,
        0.0248642708025927,
        0.1236271663825299,
        -0.13485566834749685,
        0.08933980066657396,
        0.19935524268253935,
        0.23876017935013152,
        -0.18813666619922154,
        -0.15422472832854436,
        -0.10154450478083901,
        0.1753045379552114,
        -0.0719534091579962,
        -0.11809278528469186,
        0.0007204904126678173,
        0.00847345493958715,
        -0.14059781105515823,
        0.04765443760449782,
        -0.1857057375767644
      ],
      [
        -0.17046043674769773,
        -0.4105916943608411,
        0.20186498201373776,
        0.4224526642309106,
        -0.13311820664910332,
        -0.009576624669970316,
        0.18121546002293848,
        -0.0484129874690551,
        0.15358593170091622,
        -0.17510494338554636,
        0.17565796229479588,
        0.22205255926890383,
        0.21331501511308212,
        -0.6430466955968405,
        0.08301957598947107,
        0.024674609374048667,
        -0.29187652381871526,
        0.3010121627087114,
        -0.19305966405946848,
        -0.09097543661617209,
        -0.4679951230895377,
        0.3334758524732895,
        0.08821524259788156,
        0.1551790921046125,
        -0.47566869170051906,
        -0.025821971085787553,
        -0.14072162523016724,
        0.07906211083615539,
        0.02827580012055714,
        -0.18771403185154464,
        -0.5029824538447597,
        -0.2242989891074419
      ],
      [
        -0.08691403028385175,
        -0.047198086992832525,
        -0.15019675335857993,
        -0.07511524223766723,
        -0.12430876133571064,
        0.16568665699485635,
        0.03500391186379004,
        0.007677891614017607,
        -0.027265611301861933,
        -0.03736776094352302,
        -0.007627793453334827,
        -0.06081881720468323,
        -0.2261558568740295,
        0.2042510708854182,
        -0.09081566759137515,
        -0.08466826974850726,
        0.12449141360852002,
        -0.0016411835136334043,
        -0.14169569348521927,
        0.2400044286043079,
        -0.02071561609744409,
        0.029794994164221263,
        0.18396931402535627,
        0.051142078793806466,
        -0.01923299891749787,
        -0.009792251915109147,
        -0.10271393417032343,
        -0.02892083336329722,
        -0.13576175088471315,
        0.11903129061876629,
        -0.06478315301301085,
        -0.06096430832972587
      ],
      [
        0.01295237974560661,
        -0.17353922294693125,
        -0.04397378397278411,
        0.25392779239472546,
        -0.1051323537388257,
        -0.3816795463605991,
        0.23767096662648282,
        -0.04212712768004871,
        -0.15543715841594308,
        -0.021970138518193055,
        0.15746553081721895,
        0.20370134499657286,
        -0.32584711285472745,
        0.04950443169413575,
        -0.35587672494537503,
        0.3075196262119182,
        0.020522774009429937,
        0.27099020842091426,
        -0.02525122219469459,
        0.1170179133237552,
        0.0673891372502956,
        0.13861753419035946,
        -0.3819007579063436,
        0.19423910587681664,
        0.03718844586834337,
        0.33026886069609684,
        -0.20374955517560964,
        0.16465951086490196,
        0.18193776906304485,
        -0.0016664615340380698,
        -0.4274204926712049,
        0.03750141574772143
      ],
      [
        0.0607450048261444,
        0.13603253900265375,
        -0.2431068568690734,
        0.0649508546010349,
        -0.070283803788507,
        0.1834461583146732,
        -0.003092682001788868,
        0.19380756777238645,
        -0.018119414993474067,
        0.07326722848960682,
        -0.09897484271954056,
        0.01601224332160083,
        0.02893806756730021,
        0.12371924635137073,
        0.008664844908716813,
        -0.048814195853885606,
        0.10117479124208158,
        -0.019323610509042462,
        -0.15301544918074428,
        0.24795704992137463,
        0.041004480432389835,
        0.1620053805519571,
        -0.013601654341556984,
        -0.007147863160661679,
        0.07070833844473753,
        0.12380053559971635,
        -0.0769043649240232,
        0.06378254024207722,
        0.10609094316233088,
        0.027028653849018144,
        -0.18352451160068647,
        -0.07857942104904587
      ],
      [
        -0.14425052655477325,
        -0.0998797125019131,
        -0.07495414327111717,
        -0.0027494921906858795,
        0.21123914456112702,
        -0.19692667984968037,
        0.18198723618471327,
        0.0370080656836643,
        0.08165868146358737,
        -0.20852366611229625,
        0.1508902290038564,
        0.022715107220900553,
        0.09835349744257131,
        -0.09917595305932074,
        0.05911933472544023,
        0.058905264805254105,
        -0.007787835127884411,
        0.20204930256987286,
        -0.11233686179872167,
        0.1187846387657598,
        -0.07460480962958295,
        -0.09349904527525792,
        -0.2487392719994675,
        0.03704176102263182,
        0.1632776342999129,
        -0.12446216576163875,
        -0.02044845143344338,
        0.05305503667765564,
        0.10836381146548146,
        0.11274694050636443,
        0.005567247826335172,
        0.05473644389475867
      ],
      [
        -0.21594334778960014,
        -0.021225994998683828,
        -0.0058532851181620615,
        0.04125923199587014,
        0.10431294442550493,
        -0.048854084074282114,
        -0.044019497263555474,
        -0.1523525588856395,
        -0.05632535841049369,
        0.09192261409832067,
        0.12486153863166595,
        0.17949457621329507,
        0.17222816623582649,
        -0.10763932197418495,
        0.16254974816465206,
        0.06687704316960405,
        -0.015379785727851772,
        0.014393051861478802,
        -0.16185721963135738,
        -0.062103210865926954,
        -0.1386352598461693,
        0.11167800119830007,
        -0.12218442118564271,
        0.09244856325870822,
        -0.015412440890691654,
        0.022804041554227265,
        -0.0498573042562821,
        0.11515142138795519,
        0.09299300110576658,
        0.028671638104226457,
        -0.05620898125736174,
        -0.035549243082388694
      ],
      [
        -0.20328604081272153,
        -0.027467287586942786,
        0.08671928055603227,
        0.1225976099060745,
        0.07424628443307336,
        -0.14591154297861747,
        0.03704485300087061,
        -0.09947589933922746,
        0.16385868967037354,
        -0.03014380150432937,
        0.20543345152384251,
        0.005408415830509122,
        0.18478477548124395,
        -0.18445165059846327,
        -0.01963839974842761,
        0.0523156318745691,
        0.028831839914780354,
        0.28237867436321806,
        0.03166293993737597,
        0.03890029695885375,
        -0.036010876898245565,
        0.14303440389211897,
        0.11234926225531187,
        0.21553091763026755,
        -0.17272933870730764,
        0.08073047839690788,
        0.11967009384163516,
        0.11132831324868864,
        0.07261334588303925,
        -0.1141640443877772,
        -0.14898484238625193,
        -0.06821690656074092
      ],
      [
        0.05720471438271028,
        -0.05418430372674217,
        -0.1424560158585723,
        0.07117300533906462,
        -0.013254542846597743,
        0.0685773075079808,
        -0.022390075255544588,
        -0.12444335130193655,
        -0.0021941909034623444,
        0.037280403244836134,
        0.0037100864701378393,
        0.11222839143223054,
        0.10190875212846423,
        0.015988527643355344,
        -0.06291496764866228,
        -0.021809444634879275,
        -0.1376608965271246,
        0.11403661175493787,
        -0.00800630919206065,
        -0.22829272837487957,
        -0.11838155864407338,
        0.09314501871117045,
        0.08480697150162507,
        0.13433576388142074,
        -0.3020349756101628,
        0.07496197310568727,
        -0.03530269757997986,
        0.018208474327636257,
        -0.05569155960225784,
        0.004698999071602902,
        -0.05657684226258165,
        -0.024766880089879234
      ],
      [
        -0.2021015807671626,
        0.09582750116252209,
        -0.06376148037850196,
        0.06223831683869726,
        0.20529599783414879,
        -0.566722420803973,
        0.29124814950083155,
        0.1465959945549354,
        -0.04831184036752751,
        -0.7508991798762907,
        0.4438592333194949,
        -0.13355543311333623,
        0.5269270635223141,
        -0.9949615360790919,
        0.17594833776337734,
        -0.19749012690225592,
        -0.5187252824815713,
        0.21928167285296243,
        -0.3690992073957333,
        0.052743732583996186,
        -0.45053903757209995,
        -0.3530326797228631,
        -0.06295471458516352,
        0.19134694004840036,
        -0.153329669277147,
        -0.2133517269271903,
        0.05752502039417601,
        -0.270786159899399,
        -0.299712578315502,
        -0.37189523348985754,
        -0.4636957597197995,
        -0.20762052245678403
      ],
      [
        0.07117138719549711,
        0.21051026738067846,
        0.00479184253309466,
        0.23713224178745562,
        -0.19556078893550669,
        -0.11608282674523884,
        -0.054266517450780746,
        -0.20382314377610894,
        0.02907801012687934,
        0.14971172533522092,
        -0.026707525278024325,
        0.07310028557634111,
        -0.12719038076788222,
        -0.0436451430081909,
        -0.12010083937543371,
        0.031740308354475104,
        0.14578403539834386,
        0.06349299699601776,
        -0.046978955062676055,
        -0.1378983046981611,
        -0.02218970262751774,
        -0.08397383276650688,
        -0.12752928983235498,
        -0.007731339223787172,
        -0.10823869073784895,
        -0.03281230324445505,
        -0.0804568794992563,
        0.16100580371715464,
        0.1260725184108968,
        0.06726916311545279,
        0.09108158096862962,
        -0.022979733698877493
      ],
      [
        -0.1033756870744598,
        -0.06714511080102274,
        0.21208480965546528,
        0.09950765870912291,
        0.1924744197692301,
        0.011953477076074739,
        0.18101154030388653,
        -0.19043130372691974,
        0.022501195665109795,
        -0.046416221973457336,
        -0.1766418358401074,
        -0.06816376715130601,
        0.1576577302506545,
        -0.1951911024355046,
        -0.048340119159406454,
        -0.021694078396492258,
        0.10163236842123484,
        -0.06150872819848695,
        0.1420876371628577,
        -0.09298010332535622,
        0.18055968085470064,
        -0.1659187044384137,
        0.055933147501154655,
        -0.002370061044931829,
        -0.004178226849928938,
        -0.004063637873661214,
        -0.24520572136622587,
        0.016612593362248823,
        0.1275958715123511,
        -0.14802907314386315,
        0.08595351911254655,
        -0.10898422438508182
      ],
      [
        -0.044438279569607504,
        0.5387005877020147,
        -0.4986492190910388,
        0.14931801465702424,
        -0.1236301424853166,
        -0.37198936681652417,
        0.5075313408529859,
        -0.1409737683387359,
        0.3843726910076716,
        -0.821534556119768,
        0.1530593198017269,
        -0.26090060144582233,
        -0.07425414151800998,
        -0.6547625769792504,
        0.12829096613517998,
        -0.29305166237024094,
        0.5490831521151169,
        0.21168447379002586,
        -0.5563563324406969,
        0.33809461667871876,
        0.12991485755881904,
        0.405187811467564,
        0.18522471594262443,
        -0.13817567817151138,
        0.27497124893210706,
        0.32826993377908315,
        0.32661743651895864,
        0.4180796621508563,
        -0.2813129186707654,
        0.032823652289803544,
        0.2931772877158782,
        -0.2431667852232841
      ],
      [
        0.04024890744695692,
        0.07179337382745923,
        -0.12785135266246467,
        -0.14523254422271606,
        -0.032737516162556136,
        -0.12579040116914994,
        0.17826664622579794,
        0.2109273108989104,
        0.10577968958359016,
        -0.19082646082709898,
        0.38517047075811955,
        -0.11177073571640166,
        0.055394766238345244,
        -0.015363680221354667,
        -0.04975524706452002,
        -0.17926627908573187,
        0.004337520433523262,
        0.10642507713091319,
        0.025908697641860663,
        -0.0005708235742741862,
        -0.03544256839287603,
        0.047170851196732505,
        0.14802448436391577,
        0.10000395572203276,
        0.12174369269780114,
        -0.022654372882348776,
        -0.0852981463912889,
        -0.08049091894807524,
        -0.11659758119704948,
        0.08089748132601908,
        -0.289234416970639,
        -0.06800939357324728
      ],
      [
        0.0874455565459556,
        -0.15801625117503212,
        -0.017977110667867634,
        0.22390615104545547,
        -0.3807041127801426,
        -0.5400567105653894,
        0.12794412122844057,
        0.34067794490830877,
        -0.7785087704882885,
        -0.48950765360499704,
        0.1216437543332237,
        0.12199119479748233,
        -0.39777246589878823,
        -0.2134352709269958,
        -0.7823184765871173,
        -0.34573295580751795,
        0.3180626523393594,
        0.061552266374497296,
        -0.34986679871420073,
        0.5427820375407333,
        -0.38373382298819886,
        0.07900802230711636,
        -0.5182763012806404,
        0.32767035782719395,
        0.04395632252395143,
        -0.4196291610190705,
        -0.3410145621832052,
        0.6492744660577099,
        0.3279236281578195,
        0.2073076372184597,
        -0.19865008498116332,
        0.29062145434182596
      ],
      [
        0.14131665217040232,
        -0.18715979531197882,
        0.003652880691727478,
        -0.07486646650656159,
        0.17077948211425326,
        0.23508519735071712,
        0.35587888203935836,
        0.3417293385943572,
        0.10219456405353844,
        -0.0766238389579449,
        0.2988911866197169,
        -0.07437228551632187,
        0.06446222658517314,
        0.05069798967655195,
        0.15057969064695936,
        -0.07425251734056702,
        -0.04441047850545173,
        0.02978498921514816,
        0.05193762094682849,
        0.02752244963050496,
        0.25323724517624535,
        0.15295553494500458,
        0.1988503780762443,
        0.06967919341854943,
        0.056762841207310594,
        -0.25248611945219174,
        0.34048212871768113,
        0.2500474700590435,
        -0.1840988268239813,
        0.24243039934280453,
        -0.1118055721588123,
        -0.030780469457611617
      ],
      [
        0.026844921937867305,
        -0.05466882066682222,
        -0.12928294012123703,
        0.07538355359779719,
        -0.16886518431116648,
        0.1065094275698495,
        -0.16753841242775022,
        0.047884831157240466,
        -0.10126494945571939,
        -0.0034583105256864475,
        -0.014748099761658985,
        -0.09108674532806177,
        -0.15355777371496557,
        0.03533222077490765,
        -0.1404099143963282,
        0.0049843988307084995,
        0.14372482953616408,
        -0.05266494352070073,
        -0.23000663200825486,
        0.24091813932586967,
        0.08933752667985631,
        -0.056370426313703544,
        -0.0381895545566602,
        -0.10088803572016009,
        -0.07373395894492639,
        0.029710804607349536,
        0.007117561981945398,
        0.21015433990366478,
        0.10288476867530652,
        0.02484102147208295,
        -0.12626334516503962,
        0.05551390454907081
      ],
      [
        0.12498722595665898,
        0.1033336388730369,
        0.19143651898225805,
        -0.13026085211677416,
        0.22120509869032018,
        0.04761551724656479,
        0.14929890409988933,
        -0.13726773724371244,
        -0.02591400787621008,
        -0.04608652053707767,
        -0.039477276743353384,
        -0.1439011149433625,
        0.07491925592809874,
        -0.01213133483939835,
        -0.10164570821495371,
        -0.07200121121369292,
        0.023209380657659005,
        -0.035657935858091454,
        -0.07279668384439325,
        0.08351091481496609,
        -0.06498173182753718,
        0.11799102305761894,
        -0.08495820120598373,
        -0.13100847383655875,
        0.16210437060905794,
        -0.0241548766785706,
        0.12609093727978374,
        -0.09426443287631452,
        -0.034698309987637524,
        -0.1253619982344509,
        -0.09996966338703984,
        -0.1335123324133179
      ],
      [
        0.15460799473763873,
        0.1540572103949655,
        -0.004171393228052073,
        -0.11432561012728847,
        0.009376899069651458,
        -0.07099266407392385,
        0.07104074799182712,
        -0.048091708749076686,
        -0.03488776051704365,
        0.10341177930995406,
        -0.13702001613117737,
        -0.14703612608023375,
        -0.03150997511304167,
        0.16962676719376113,
        0.07776249501094913,
        0.1404902307878481,
        -0.005310569196515011,
        0.08038062930275672,
        -0.13608422838577494,
        -0.0017150884850330307,
        0.26692916252660787,
        -0.13945195542824693,
        0.18544377563686898,
        -0.18502258279165873,
        -0.1568245033210132,
        -0.07003230022557484,
        0.07590633082991398,
        -0.08771891302984801,
        0.058116581617552565,
        -0.2279933732635269,
        0.002014427524901032,
        -0.12652271215258198
      ],
      [
        -0.27821869083784384,
        -0.2535362618132194,
        0.5315807564618423,
        0.7675971950016264,
        -0.18733460191462145,
        0.0621577515447838,
        0.18976854688054906,
        0.13443809780691923,
        -0.2941058953152933,
        -0.022758999461166874,
        0.01097092374619426,
        0.1533452660215876,
        -0.2038716201606071,
        -0.05493860370615135,
        -0.4022307542166024,
        0.4080490317988801,
        -0.26474309154758047,
        0.6851892266574947,
        -0.03560217245101548,
        0.10809204501042223,
        -0.21139738114775894,
        0.12737536809661731,
        -0.6314000653596472,
        0.35393442240313117,
        -0.21257709127205457,
        0.5089066430458169,
        -0.09549423078720701,
        0.5359056972793766,
        0.04578305133371581,
        0.3519370329793475,
        -0.7061583299214519,
        -0.18408289958082213
      ],
      [
        0.11277486225711683,
        -0.07625102027188645,
        0.09250075925578674,
        0.1827594357450639,
        0.06919845167369343,
        0.05618112248938912,
        -0.06283563500836939,
        0.028666913377263598,
        0.05339750971886248,
        0.21564490598409572,
        0.021571188583818394,
        0.15374704061492928,
        -0.05465820280071658,
        0.18950129067730742,
        0.059395182625865975,
        -0.004888996012816902,
        -0.10440859259747634,
        0.06979401643937837,
        0.09815803293017247,
        0.2205573284815057,
        0.12499097315823358,
        0.025903221778079515,
        0.22758543476865942,
        0.033175634604636677,
        0.08359855502353752,
        -0.015956069056874612,
        0.36644292864073424,
        0.05141114220030959,
        -0.24651015554366093,
        -0.02527296805471959,
        0.04016502660939231,
        0.0866268023981395
      ],
      [
        -0.0007159966902199992,
        -0.1473092607547773,
        0.16107048643953775,
        -0.005571516029849483,
        0.30456636933653086,
        -0.19598217139464844,
        0.1034182783402676,
        0.07988408722481743,
        0.12055179014697937,
        -0.234587011572989,
        0.24499574140783534,
        -0.22457467871504389,
        0.06499346866788855,
        -0.4970749226543288,
        -0.031097306577201403,
        0.13027534240462665,
        -0.170990428212937,
        0.16876199933492494,
        0.10868066748173909,
        -0.18448073441960855,
        -0.046112874299009156,
        -0.23404958162616488,
        -0.14538552252854794,
        0.09149073081262156,
        0.050558185827762066,
        -0.07519441665436156,
        0.08969981543862554,
        -0.07970526277213542,
        0.10272377549666847,
        -0.10376697839634787,
        -0.11864547163597532,
        -0.1393838028236733
      ],
      [
        0.20611631166932115,
        -0.006111869883974096,
        0.15503200261602698,
        0.09201309854007046,
        -0.24874693395751088,
        -0.037664343445105004,
        0.07675176414550576,
        0.011857480849221547,
        -0.03079865630702768,
        0.01894928962753531,
        0.0585635022690118,
        0.0691616642125966,
        -0.05197828463896019,
        -0.006266984065249074,
        0.0743106337622126,
        0.17819193595821947,
        -0.20172679695544884,
        -0.09410812984588775,
        -0.07803087518866435,
        -0.1247448692612139,
        0.1402352505114514,
        -0.18044492617481955,
        0.0013551144169291433,
        0.02943858359956031,
        -0.16963859971485354,
        0.18948144616388352,
        -0.14630457428257335,
        0.04598748679682753,
        0.15506228291515456,
        -0.10324456526983958,
        0.14346781058172497,
        0.02208575516310946
      ],
      [
        -0.15541166218372296,
        -0.1813834432648541,
        -0.07786050135775223,
        -0.1527062527361914,
        -0.18571506421812797,
        -0.16028791310544066,
        0.16488897535074964,
        0.19240487736752823,
        0.05917755974347087,
        -0.09461686305043396,
        -0.025677958575839394,
        -0.16878238697459164,
        0.1730239641255924,
        -0.1687318298542473,
        0.13215580993376447,
        -0.03858822006691413,
        -0.4843240629548356,
        0.23079999763175263,
        -0.1499829843276802,
        -0.17783349791920108,
        -0.06882619547149942,
        -0.10185163402250613,
        -0.05420118402208272,
        0.22675822181608943,
        -0.2697737587511841,
        0.10744728488303501,
        0.11065825490878668,
        0.02446387700613117,
        -0.22408188521134667,
        0.00713267261894242,
        -0.10465243581089302,
        0.00153417764581732
      ],
      [
        0.040737118268927494,
        -0.07996200624160575,
        0.4099543383003269,
        0.6518955254657983,
        -0.19708212387242116,
        0.18313784108726475,
        -0.05661551200419167,
        0.04865022336085531,
        0.037822886122544475,
        0.1834035813111674,
        0.006965053689841375,
        0.03962477403295195,
        -0.5161177710712367,
        -0.15244617015806441,
        -0.0624931601553656,
        -0.07299027156359202,
        0.2404324363034207,
        0.4177271525902726,
        -0.02441768263575711,
        -0.36792982906205257,
        -0.11117145452509035,
        0.2861405794899626,
        -0.285699622712955,
        -0.11385578054868717,
        -0.12689274000078826,
        0.6428579859908485,
        -0.10163957745337228,
        0.09656233121440151,
        0.020191841439673744,
        0.26533644413082136,
        -0.3789043307639855,
        -0.24527074018727835
      ],
      [
        0.02565586109004178,
        0.1053391501580484,
        0.05061551000785148,
        -0.12392845862655973,
        0.06747007538703913,
        -0.17682839931894945,
        -0.11286255602086268,
        0.07882103345742625,
        -0.02401427516508676,
        -0.24048687159503992,
        0.18429804886185555,
        0.010223447698758374,
        0.10646072771949829,
        0.041942946599791246,
        0.12020845834114603,
        -0.056862146019998665,
        -0.053494275632634,
        0.10734581761966124,
        -0.15233752552287705,
        -0.22817333381740104,
        0.08097409498496201,
        0.04361872484407167,
        0.034887663856270894,
        -0.060983015268926855,
        0.003984200569295382,
        0.042837023462670695,
        0.017450074768742108,
        -0.11615692071592418,
        -0.0033579702632382854,
        -0.15212883868669955,
        0.05949086583629002,
        -0.16572642228928278
      ],
      [
        0.1734982686616607,
        -0.1917594749047759,
        -0.04323288806901697,
        0.2460936966596699,
        -0.09256725339076623,
        -0.08777875040409551,
        0.3290562450958818,
        0.4063669206054119,
        0.2523846362045273,
        -0.17957998858034624,
        0.4139082043888445,
        0.07369192823226767,
        0.09987353052306484,
        -0.08632451396132368,
        0.0021776747127067618,
        -0.1509552421567143,
        0.16435973010931712,
        0.23485217318661814,
        0.4017274730310087,
        0.06813655681212924,
        -0.22185307853322994,
        0.3031985903945278,
        0.005281391929664759,
        0.09901225748562142,
        0.005561545903783459,
        0.1547634041737057,
        0.15618320146763312,
        -0.25284154509682377,
        -0.03527815841784939,
        -0.0006370380431104552,
        -0.5202340789193778,
        0.05321810221934435
      ],
      [
        0.16677544648322254,
        -0.19354263262926438,
        0.0553818671177408,
        -0.023980968318879553,
        -0.12968721030003777,
        -0.03382144857430744,
        -0.010580591497766117,
        0.13205271686449171,
        -0.012985582439598966,
        0.24420934823435167,
        0.08946395901293232,
        0.14570985303506162,
        -0.06044973529379111,
        0.2604191415680043,
        -0.21098227253018692,
        0.045953437782463066,
        0.06655449793896555,
        0.10402739003335432,
        0.06052604824735496,
        0.09395736380916204,
        0.08728943936444085,
        0.05056879028646858,
        -0.19498900989864673,
        0.038016572983527515,
        -0.06221342438521699,
        0.039122108864777766,
        -0.06754588377700034,
        0.2670474859681352,
        -0.017270904709547806,
        -0.022500229228680207,
        0.04718651812545633,
        0.25821017389362666
      ],
      [
        0.05432547118940255,
        -0.03965318780855409,
        0.22245177386057485,
        0.14495196438815386,
        0.13487416279583836,
        -0.2619130418799259,
        0.11588408647214138,
        -0.013433791076922958,
        0.00963601435666467,
        -0.1088896439936548,
        -0.008825572705974886,
        -0.01719040899215542,
        0.03582008082230047,
        -0.24232037359680778,
        0.07507726368356445,
        -0.26407709403552015,
        0.02997983771734498,
        0.0164508238615804,
        0.312741046849901,
        -0.015400101291385795,
        0.025785205442071964,
        -0.009542140070373871,
        -0.10223198687322065,
        0.03580173249144583,
        -0.06333171756640248,
        0.02916217690612572,
        0.07468938096258414,
        -0.24179845319913787,
        0.029472954440439667,
        -0.2710776300959587,
        0.03176856229231238,
        -0.10696369025683022
      ],
      [
        0.19900744532548234,
        0.15868107375629956,
        0.13557693399816187,
        -0.1653412719948597,
        0.04603153406329897,
        -0.09161924261970496,
        0.058373077062206055,
        0.045415358814750145,
        0.04892506695005202,
        -0.16085321880393305,
        0.10494143010066723,
        -0.029477162651288673,
        -0.16695209082193913,
        -0.021750048758031992,
        -0.044058897855633036,
        -0.07076040879747131,
        0.08741535557638168,
        -0.15337538590278807,
        -0.09678781709990236,
        -0.05158766350863828,
        -0.04565346889768345,
        -0.2060542707939185,
        -0.06754815999113341,
        -0.20413102887507995,
        -0.06456746365644987,
        -0.053995852637318036,
        0.06457550734301652,
        -0.024475896280028112,
        0.04636517840845459,
        -0.043948907232663106,
        -0.15814859142151477,
        -0.16041455464669316
      ],
      [
        0.015004582831832801,
        0.32484155837444373,
        -0.23092697742167256,
        0.13388075414396494,
        0.020862893642257935,
        -0.11825873371968687,
        -0.04996244437424023,
        -0.08388362175368276,
        -0.039596758641445504,
        0.1622480352454499,
        0.08086409377566381,
        -0.03952170954915673,
        -0.4443438656630956,
        0.08550693710842946,
        -0.052958134894158015,
        0.14309788176839905,
        0.10319874679321898,
        0.14929110296328302,
        0.003919492387471221,
        -0.06757220615777002,
        0.24130020323977272,
        -0.19009094160067397,
        -0.1261637806503282,
        0.31113719650153393,
        0.18773812803590717,
        0.10856207656084954,
        0.06370434474673911,
        0.16213753186616783,
        0.054157833558099264,
        0.14759930271840516,
        0.26268869385800453,
        0.055971972598527056
      ],
      [
        0.09750433412910306,
        0.13145325755250784,
        -0.004345277541316793,
        -0.11500529118512344,
        -0.03761816442812042,
        -0.08719206508819786,
        0.04182358423806275,
        0.015443371238576054,
        0.1975671963043909,
        0.050103165875165355,
        0.11172402478276473,
        -0.012303073993932708,
        -0.128248396172194,
        0.003754709733761244,
        -0.050929995184899185,
        -0.001744853353778014,
        0.10439930248766592,
        -0.06755819429865774,
        -0.11666921190357697,
        -0.1516742990852665,
        0.052914918004162925,
        0.16485359152735554,
        0.16331175230619582,
        0.11358528415619239,
        0.057843379185425634,
        -0.04726704886791117,
        0.10145577777948153,
        0.10030468145188928,
        -0.18887737523436596,
        0.0026230757383769172,
        0.02711347062152537,
        0.04061361730716417
      ],
      [
        -0.06196410862628335,
        -0.6251673797689598,
        0.16566888956996315,
        0.16048669718693967,
        0.06635991567203216,
        -0.23089485212487568,
        -0.19040277140025297,
        -0.372864867298914,
        -0.1577748832114435,
        -0.27812523899953817,
        -0.062390492292176594,
        0.09925147641369893,
        0.344321684108463,
        0.04142716709390849,
        0.26089300237247864,
        -0.008797359903445136,
        -0.7204507295934083,
        0.010021651661563928,
        -0.08226450885870873,
        -0.24575238075087807,
        -0.48147323309792245,
        -0.1312596586094236,
        -0.2336090150611458,
        -0.12088131501136788,
        -0.15788122845302974,
        0.3287080568083233,
        0.02891459799104232,
        -0.03749152988543194,
        0.09693184878259117,
        0.2861951165022333,
        -0.6263841001878119,
        -0.5008467889028931
      ],
      [
        -0.12944697610372566,
        -0.07805625562610469,
        0.04307226406773111,
        0.1363827346117136,
        0.0916311132831703,
        -0.22634046641791974,
        0.07554874181432607,
        0.12609991519138503,
        -0.0007230500046911384,
        0.1017923480631136,
        0.07786293350074336,
        0.19786401149771124,
        0.22150820384122313,
        -0.09187087506843494,
        0.1376076259899099,
        0.10942295744500463,
        -0.1996784376825827,
        0.39623155014319567,
        -0.16470724234261624,
        -0.053981253545409016,
        -0.27219553113184425,
        -0.0015997843177350645,
        -0.006761243531087517,
        0.0758567963197207,
        0.02977811458560114,
        -0.016897149509374494,
        0.0992632599829798,
        -0.09706785319711315,
        0.013991533591282773,
        0.17164245642890366,
        -0.03435778764083921,
        0.16527192516572137
      ],
      [
        -0.039072646396412516,
        -0.03876253562676149,
        -0.024652150234479083,
        0.09113650264299702,
        -0.24701676479725482,
        -0.08103592434556715,
        -0.2266433487357768,
        0.04009873310659908,
        -0.16020361759382118,
        0.10218662112825527,
        0.07190405009511056,
        0.07609382154065326,
        0.03714539893275149,
        -0.02301669210037006,
        0.06026589471832004,
        -0.12057376680046077,
        -0.1662275822752725,
        0.09860884872563558,
        -0.07679517577730718,
        0.031859911429889025,
        0.04874914280214385,
        -0.037049009026069224,
        -0.13266300541120363,
        0.07929079675736819,
        -0.030709526507406652,
        0.10904054763613802,
        -0.018644233385371835,
        0.2686436063406072,
        0.052624882078623224,
        0.006652851487053881,
        -0.086452465034152,
        -0.19927660539651398
      ],
      [
        0.20844604665841923,
        0.0950923098679207,
        -0.010593725527113228,
        0.1415245615128741,
        -0.20666552498018484,
        -0.20266282207152067,
        0.14857215982709038,
        0.00039637983951683537,
        0.2950883014066871,
        -0.05387000676461504,
        0.24096066165235203,
        -0.2820566508109842,
        0.2120398229019536,
        -0.15654566266156453,
        0.02843630927193716,
        -0.20735457565218543,
        0.033938536895967264,
        -0.061735321146811975,
        0.0007941103525824361,
        -0.13569606053243438,
        0.17025536803701113,
        -0.1515811747784635,
        -0.0317397988892751,
        0.03398428215704173,
        0.19299842735327127,
        -0.3310699260041971,
        -0.08468003862772701,
        -0.10451164503294558,
        -0.1275637959099645,
        -0.2094601090345435,
        -0.02175559942075546,
        -0.16392638290441544
      ],
      [
        0.29902698515706977,
        0.006148975847285843,
        -0.22028599513979083,
        0.05223613851346011,
        -0.12971577063508752,
        0.060888864928974044,
        0.20812346689877875,
        -0.047981905992571315,
        0.1510670076830207,
        -0.0208389171717348,
        -0.10368862020387003,
        -0.10069079354528272,
        -0.3945530689455874,
        0.16647880177513397,
        -0.31275270126895194,
        0.0016438058152621012,
        0.33247041003941974,
        -0.3123505978189741,
        0.08100088836571806,
        -0.17451861985199985,
        0.25894892278905923,
        0.17775380389207115,
        -0.11691551302703812,
        -0.10082380055131816,
        0.17634564337505146,
        -0.24806880920007893,
        0.0035919953445179833,
        0.09939811507022912,
        -0.24018684310193752,
        -0.07760114370324231,
        0.09449266304459356,
        0.21352248228584536
      ],
      [
        -0.028142087894297126,
        -0.10191259542193659,
        0.07343378997837395,
        0.09744845945353692,
        -0.05395700141238497,
        0.03338273800395647,
        0.14344067395504304,
        -0.06693013018214937,
        0.15799196866848303,
        -0.08896153443842546,
        0.25751715293041627,
        0.045556350242680885,
        0.15444145860721184,
        -0.051341849966756774,
        0.09065676894634411,
        0.044234050007671354,
        -0.05916305540740343,
        0.014424566680470775,
        0.3837405147470603,
        0.1436949546440942,
        0.025266338262583593,
        0.10920587943945477,
        -0.2276577851967255,
        0.0025262830148267586,
        -0.07050885722841103,
        -0.03669522601630355,
        -0.09718399228082333,
        0.07899735428835329,
        -0.021989304031152956,
        -0.2474093392039802,
        -0.1486940994637618,
        0.023544088561686185
      ],
      [
        -0.006497979894763981,
        -0.2612448300263472,
        -0.09756457339500064,
        -0.19113477663574552,
        0.18061971451730646,
        -0.4114001203309291,
        0.1489829358607635,
        -0.10231591346834426,
        0.024759490201161423,
        -0.2723134952233728,
        0.46767805036681714,
        0.02858283034446951,
        0.28897416246770075,
        -0.5624714869845776,
        0.24361985679753936,
        -0.32023419562644,
        -0.7172381911534957,
        0.006131752971911698,
        -0.0713885577731248,
        -0.056228651774617396,
        -0.436485245987606,
        -0.23575920667996203,
        -0.017479254916458263,
        -0.10999390887463605,
        -0.44654737791075433,
        -0.11726471574604086,
        0.17863499579434497,
        -0.33857971983156293,
        -0.18999915419643068,
        -0.32709431790515686,
        -0.4321219295171948,
        -0.5125586155958859
      ],
      [
        0.2488367110614983,
        0.344634539989145,
        -0.017844763477311017,
        0.22222577921435546,
        0.33488477642785636,
        -0.1781271906762604,
        0.45650684859864094,
        0.006873755133497591,
        0.31784480509463225,
        -0.21230998774560067,
        0.11067634595817748,
        -0.45593272058930423,
        0.08023165960873013,
        -0.47238854592235385,
        0.16909504581116705,
        -0.042843060170203784,
        -0.13543343195763097,
        -0.18490460309085582,
        0.05895484061389021,
        -0.007223108172069406,
        0.24307236019492062,
        -0.38263434372343974,
        0.06789891267348219,
        -0.17861009422577645,
        -0.04075541478441279,
        -0.25959197333236184,
        0.12101396828787052,
        -0.057958401672447056,
        0.022109860466570437,
        -0.484777893391938,
        0.11573579229207202,
        -0.16491619085785097
      ],
      [
        -0.0288949206250493,
        0.09168116608863622,
        -0.06930422017976086,
        0.2534814764675409,
        -0.07227900942496361,
        0.229427486505989,
        0.1605782599271883,
        0.10981183988307129,
        0.1592681059830235,
        -0.04369261528470459,
        0.1542921258793177,
        0.014399956612404674,
        0.029267404684250542,
        0.08339868282172261,
        0.11749931592635575,
        -0.180119910940263,
        0.025206012398570125,
        -0.08938620656538201,
        -0.0759151707643187,
        0.029758615024065443,
        0.1338261538633974,
        0.11368346497324334,
        0.137363314826365,
        0.005124142029391817,
        0.11777015057088655,
        -0.17722920334665218,
        0.16296123479480268,
        -0.11759385354458272,
        0.029570469501971126,
        0.04128349677885661,
        -0.06484659472579876,
        0.19102840631973786
      ],
      [
        0.029267967165655162,
        -0.1726047687586092,
        -0.01793654067141861,
        -0.03366437039516012,
        -0.12063851534655497,
        -0.13419728882587356,
        0.2203006113922331,
        -0.015740072269116247,
        -0.02355836961886442,
        -0.0881475595464156,
        0.08650422067569861,
        0.1149773798521935,
        0.032455313550302324,
        -0.09850177672231623,
        -0.18469727785668155,
        -0.1514103504272889,
        0.03111194462345213,
        -0.06861956788134449,
        0.09014738397584594,
        -0.023608411437799143,
        -0.04083602022602725,
        -0.09630845840937953,
        -0.04144581284045702,
        0.18105321995501245,
        0.14253507250072583,
        -0.14095520072992027,
        0.18301307904466155,
        -0.015433537713595192,
        0.031006593683768794,
        0.060415217355686966,
        -0.09834050727504726,
        -0.07127875049657734
      ],
      [
        0.06593677467230136,
        -0.03958527122580013,
        -0.005446142804200959,
        0.14426460858320458,
        -0.11619518656891577,
        -0.034371920439912974,
        -0.09532726154468617,
        0.2042691075796354,
        0.006143693297793974,
        0.16749073078814347,
        0.07867305018193566,
        -0.046668249537458975,
        -0.028622356598086714,
        0.06310272092412504,
        -0.07239616151176513,
        -0.19520807571408488,
        0.3400376154729272,
        -0.03799105198987917,
        -0.15934810120943513,
        0.2929026674930975,
        -0.11471189189319068,
        0.2192147459654061,
        -0.12885524427688005,
        -0.17520483768598544,
        -0.4427779809997976,
        0.059966460787992344,
        0.21501937298320725,
        0.07373471935724706,
        -0.14386004819938783,
        -0.09957450408753356,
        -0.0199197451863911,
        0.05348303456567367
      ],
      [
        0.010669394526506467,
        0.09870279375736069,
        0.155082602356628,
        0.20937707113787632,
        -0.1486229638350869,
        0.04618110748689186,
        -0.09910734899472588,
        0.03816372569806018,
        -0.031727938599482704,
        -0.2735074177206722,
        0.14636991523564682,
        -0.02425699713333616,
        0.09391820728957961,
        -0.4307794006108255,
        -0.050615592631213735,
        0.0945346879305184,
        -0.012067967768682844,
        0.25538577749422364,
        -0.10496572521875008,
        0.12144663338958715,
        -0.034664684739198634,
        -0.06954122762435239,
        0.08738192671622445,
        0.2808032919234316,
        -0.1761007339720515,
        -0.03607111162879441,
        0.1407433758433001,
        -0.24857078296929777,
        0.1371876959792523,
        -0.2550527437693352,
        -0.03171402266259529,
        -0.09847715262859685
      ],
      [
        0.2590659932935724,
        -0.11938854671675389,
        -0.044930684631135205,
        0.09434859096070258,
        0.1904040800478991,
        -0.1056824761172296,
        -0.011291472245302763,
        -0.11647514443205942,
        -0.07116225582058006,
        -0.10875790845494009,
        0.18943975552961578,
        0.08647291678334124,
        0.07190602706486263,
        -0.22339217729554017,
        0.08273680458411112,
        -0.11946896311282472,
        0.0122903281871064,
        -0.1968781496152607,
        0.022248266178428257,
        0.1499409524398155,
        -0.00978311992390711,
        0.009935164260172399,
        0.09475304374978821,
        0.17107211179483509,
        0.07911623408307111,
        0.07936960092636781,
        0.045380443103750154,
        -0.19835798012420672,
        -0.08476312059170582,
        0.182397273610077,
        0.09116017696741958,
        -0.11769170241303578
      ],
      [
        0.18500225503736495,
        0.05063758269058786,
        -0.09529267687719489,
        0.016768112062959382,
        -0.11156578109911322,
        0.07103522978172806,
        0.032319682060869444,
        0.09067936384393624,
        0.07346052244043988,
        -0.11233754555890642,
        0.08343827799103654,
        -0.12109949920046646,
        0.025388450152093896,
        -0.28150474110891704,
        -0.17404524129628743,
        -0.158792967045468,
        -0.05147819504091277,
        0.05475429480967075,
        0.13436293303743524,
        -0.09311116341849945,
        0.0037318637642800353,
        -0.21272049670826673,
        0.07565717293310602,
        0.15384241286630315,
        -0.014830493958077045,
        -0.20257247929245095,
        0.3002488505701666,
        -0.010282228598022636,
        0.04308636989354367,
        -0.09197982558305876,
        -0.020840707681450486,
        0.0819700557563885
      ],
      [
        -0.12958289013161686,
        -0.08338232581239212,
        0.18959393463076504,
        0.34962677571434264,
        -0.12145687256644609,
        0.019118606480333047,
        0.018604288280085483,
        -0.5677895968060803,
        0.1561532861800793,
        0.09089484530961095,
        -0.2233938111947249,
        0.07362878215104847,
        -0.5069632741686281,
        0.24711663924481977,
        -0.26775483474863776,
        0.07009023650198686,
        0.5490398657446505,
        -0.13305625926234224,
        0.001970420389211796,
        -0.08987542537588256,
        0.19967947054511134,
        0.04615600064832242,
        -0.3784660407923365,
        -0.2034912038921084,
        0.37558560123563867,
        0.06899907824822359,
        -0.3159282491135966,
        -0.016977467000802517,
        0.17721171654874196,
        -0.039003254097449064,
        -0.04756944761446986,
        0.0602341017742183
      ],
      [
        -0.018617713237304608,
        -0.1036876464363458,
        0.2165610934946877,
        -0.09686039272991515,
        0.08869596769842793,
        -0.5156327288824523,
        0.13033152132657644,
        -0.06201398599764203,
        0.2940946995990092,
        -0.23314110179365766,
        0.2639014008650274,
        -0.2565138050348905,
        0.16732125561051064,
        -0.4462451886361727,
        0.27044336555858783,
        0.05401724881486195,
        -0.1789307018809298,
        0.12520757007404695,
        -0.0353437445583027,
        -0.3313970891749574,
        -0.2640673628170146,
        -0.2668178369325974,
        0.021645974504165846,
        -0.026239591136433982,
        -0.17484301648444783,
        -0.09577431413703866,
        0.11524239318091758,
        -0.37260711837098254,
        0.006991556813028621,
        -0.12680157555149182,
        -0.44256388853464046,
        -0.17527881970513526
      ],
      [
        0.13924977786161818,
        0.00918074167057964,
        -0.0721123441299191,
        0.23500369175505018,
        0.03390169620986183,
        0.11885581976401507,
        0.010976520063195199,
        -0.11198382639418393,
        0.13684195992277756,
        0.03019102473682981,
        -0.08828903508414866,
        0.022704162347490488,
        0.04603966579175605,
        -0.044785135442719975,
        0.1364343131258563,
        -0.09518481985759135,
        -0.0037083833768314293,
        -0.12517166998156007,
        -0.12204856101584242,
        -0.02597443394685782,
        -0.1486613427097625,
        -0.196247795641835,
        -0.15829650285045077,
        0.05847325022902835,
        -0.0026288052184446596,
        -0.01881554406383887,
        -0.04536577544210483,
        -0.06677780404489753,
        -0.1949041133914834,
        -0.319162449681141,
        0.02040835639874536,
        -0.2677637072417804
      ],
      [
        0.06269307884368486,
        0.10558894778046815,
        0.11003869751062224,
        0.06838965280119307,
        -0.04377123949154466,
        -0.08770702702729279,
        -0.06886430380586558,
        0.21190813290056873,
        0.10224839091700681,
        -0.1680377340732744,
        0.06350495275368344,
        -0.2202493120999649,
        -0.06909526728068102,
        0.13278012032442515,
        0.021506429448535817,
        -0.07667614531846573,
        0.026864335225229803,
        -0.08769952983700618,
        -0.05210972197556655,
        -0.08934181732174491,
        0.05147503803862098,
        -0.14929571874059652,
        -0.025868922061101918,
        -0.11496370861150626,
        0.16653460549827587,
        -0.12264542562917181,
        0.08519146390773331,
        -0.03538857153498299,
        0.07030449164003211,
        0.08651955073740082,
        -0.21787174052207608,
        0.08604516216540718
      ],
      [
        -0.13407378659278144,
        0.06069678298585147,
        -0.06324089171172893,
        0.15386371005346303,
        0.14519941548876186,
        0.18648589575125857,
        0.2382935847462375,
        -0.10011069166586607,
        0.18830132271376876,
        -0.19245274336965784,
        0.02247317264505154,
        -0.07368008269434449,
        -0.039054846419682224,
        -0.3276010728301363,
        -0.05897598680246854,
        -0.20487040446952307,
        -0.1737494483790794,
        -0.025422531869470133,
        -0.17660192278199952,
        -0.17751096014942583,
        -0.05141959277053269,
        -0.024866624261863736,
        -0.10764732336692663,
        -0.05726143724796505,
        -0.03994014253110942,
        -0.11959575294009858,
        -0.020956674230369846,
        0.0992094425217491,
        -0.08120007152386036,
        0.07043208206763846,
        -0.05824100708470153,
        -0.026231242778495804
      ],
      [
        -0.17516361350718257,
        0.08580794083191064,
        -0.10432155734071338,
        -0.05642551700485252,
        0.1421167051801118,
        -0.05057537960199111,
        -0.07058079884692685,
        -0.02661468094417837,
        -0.06052181596579353,
        -0.11879920724760618,
        -0.10833266915333589,
        0.02230976282487522,
        -0.07347254849774576,
        0.13343840769398083,
        0.020665110535227786,
        -0.0380169187323019,
        0.13142071946441455,
        0.0885848955310506,
        -0.07582433215364223,
        0.04649569623198199,
        0.2506408930664088,
        -0.18302264072270136,
        -0.17748405004453804,
        0.18318219941734612,
        0.1774985140742307,
        -0.07015953145584053,
        -0.07482477780978691,
        0.07891165242330614,
        -0.07810476170202661,
        -0.06433758130733143,
        0.01046277373055124,
        0.13226344463984818
      ],
      [
        0.08313880205810348,
        0.0751474462673187,
        0.1787568926211492,
        0.08219608663662537,
        -0.0074952481301017535,
        -0.23784692297962934,
        0.16126472957926194,
        0.03741068984834986,
        -0.11017166111362343,
        -0.10729833796809635,
        -0.018020580404485082,
        0.14786507933406084,
        -0.010763439734243988,
        -0.12676952391266785,
        0.16796223374494057,
        0.06642556332757896,
        -0.16721529459481146,
        0.20375232470905832,
        0.19579321834582764,
        -0.10614608514346549,
        0.018550178384661078,
        -0.09344456692767376,
        -0.074414438629992,
        -0.2434632104312257,
        -0.13468701793452034,
        0.10168380607613751,
        -0.10474736585523145,
        0.02648217250077015,
        -0.07362994203681505,
        -0.1254483310732691,
        -0.3502113819945991,
        -0.11167588088362215
      ],
      [
        -0.15453233478310022,
        -0.10753120779408894,
        -0.1016319703772971,
        -0.10386061263815234,
        -0.13693064963393456,
        0.20573082239617202,
        -0.13384481177000893,
        0.07077081815968717,
        0.17488645660905688,
        0.06176490234285369,
        0.10513413400638283,
        -0.061617938575408926,
        -0.04533565300198708,
        0.23271156494591874,
        -0.1374320716914894,
        -0.08607971975188543,
        0.1268522150101855,
        0.17529431079740906,
        -0.29808784133161337,
        0.055956186613838534,
        0.07823805116009902,
        0.2341066743457102,
        -0.02223360506892083,
        -0.021801534562271987,
        0.18442644136586037,
        -0.10403761901258009,
        -0.2563433729168188,
        0.14167760167100862,
        0.0068470712691887335,
        0.24680564951488876,
        -0.08566710042626098,
        -0.09266528952003399
      ],
      [
        0.07605896909395725,
        -0.011803470358834547,
        0.0949433730100611,
        -0.038399562373227523,
        -0.08425433607068628,
        0.041656856298364034,
        -0.10754201307344603,
        -0.09230398554576623,
        -0.004218466829923166,
        -0.03527432332456293,
        -0.09197094479095179,
        0.0676993135876749,
        0.017372565792877215,
        -0.1208084294088642,
        0.10201653500811374,
        0.17776443230693614,
        0.06380396895660768,
        0.016535265226945046,
        -0.12459527773029233,
        -0.06157133595313534,
        0.21045029427002082,
        0.155751393763108,
        0.14938690275643984,
        0.08042217127865858,
        0.03902584276198477,
        -0.0637589392305001,
        -0.0010957801620731025,
        -0.09202166690193356,
        -0.08062103221537223,
        0.10762786903179095,
        0.11776376845157663,
        0.04574459399135961
      ],
      [
        0.06047460434035586,
        -0.019961001056461175,
        -0.03431624146224162,
        -0.034838740360578824,
        -0.06856330031949595,
        -0.11441930834365899,
        0.16503802609700197,
        -0.0222555181718534,
        -0.08682247094040346,
        -0.08993743714211802,
        -0.10303279961481325,
        0.03597200286756521,
        -0.03162119068474573,
        0.07687468214612157,
        0.0909095927279681,
        -0.10574125449597684,
        -0.055201289101633445,
        -0.02342823668675915,
        0.017263881371669013,
        -0.07728444512811561,
        0.22116278858106148,
        -0.1098855843111718,
        0.010208114056943232,
        -0.09212013714832858,
        0.07169778761142295,
        -0.12129569043554236,
        -0.02214995642744686,
        0.21875210968297706,
        -0.008231482503753567,
        -0.23800613825169686,
        -0.043757423576102655,
        -0.043281824200315226
      ],
      [
        0.05451789818550769,
        0.15754864429162757,
        0.08064654104901306,
        0.16726872536949594,
        0.21627731660897911,
        0.13434198460476807,
        0.3263777896136625,
        0.04603700784666372,
        0.34933278895470893,
        0.1899840846756384,
        0.19728767752573373,
        -0.10689075681158325,
        0.20268101975522976,
        0.09267980764267315,
        0.5575904581299783,
        -0.16997310971647545,
        -0.10001937825701142,
        0.10692391716695494,
        0.06904230781322049,
        -0.013037438532395428,
        0.08636781294096256,
        -0.12381835419232369,
        0.2847909328123867,
        -0.2898171952284457,
        -0.04145455084921837,
        -0.21243150128251545,
        0.20424871222469,
        -0.27589741582784555,
        -0.0899099003747824,
        0.22959416541669175,
        -0.004947507948713779,
        -0.4130616067883251
      ],
      [
        0.20882416711453664,
        -0.44489216821774125,
        0.13174451559149256,
        0.3433308925763924,
        -0.09778996787177305,
        0.4559786194699615,
        -0.0028536304453621736,
        0.3778736281934881,
        0.058715560904398334,
        0.036008888445348816,
        0.27666780158032006,
        -0.04927312732511845,
        0.07592162581945695,
        -0.19419660890672993,
        0.208830407747637,
        -0.16248538610083255,
        -0.21405491945097022,
        0.12786065147942863,
        -0.18590312125189978,
        0.22589434203510755,
        -0.14067276980521734,
        0.1901993331438214,
        -0.09294798315050755,
        -0.1400999444897358,
        0.00747161712863444,
        -0.07885585097493683,
        0.007776673777637782,
        -0.2543176081353916,
        -0.024678985080696523,
        -0.004995303124639448,
        -0.29061472106085606,
        0.0177724959580909
      ],
      [
        0.12472676939116546,
        -0.27460886581475724,
        0.12056173672641347,
        0.17743999543849676,
        -0.013619928573756455,
        -0.018509820515595694,
        0.12239400680512129,
        0.13447108566166183,
        0.13934377281751914,
        0.20332790559324135,
        0.1678518007842269,
        -0.048891502133585125,
        0.11767912881097735,
        0.10865537031749477,
        -0.0965654576542396,
        0.3339000493807684,
        -0.19715212289964731,
        0.08376506519158043,
        -0.05904631732743316,
        0.013335897305367477,
        -0.17270246332120376,
        -0.13379088717867213,
        -0.007490237715887807,
        -0.0000486730859007703,
        -0.04687450373749511,
        0.15943146301929967,
        0.018351627312462034,
        0.15542302300129143,
        -0.0376931258092625,
        0.0006306396558918553,
        -0.303522922890119,
        0.1708089927228839
      ],
      [
        -0.19438910513177382,
        -0.0105808359601011,
        0.029697479584865405,
        -0.013932626998110771,
        0.1554735228624903,
        -0.08089593670654621,
        0.12696625575186818,
        -0.04705993812922531,
        -0.0007420052169995117,
        -0.17908386787796438,
        -0.006309354385642082,
        -0.13344940757591195,
        -0.08029784761385561,
        -0.24670343727444902,
        -0.04234691478708277,
        -0.2854742997774566,
        -0.11584621063053029,
        -0.021255204913967592,
        0.05638056234779895,
        -0.07383288229016144,
        -0.28532729260267703,
        -0.2009676308364716,
        -0.1716247039051325,
        -0.029216911239117876,
        -0.07105910753672237,
        0.002011099997930377,
        -0.19432550556770922,
        -0.2167406377425629,
        -0.015418702143806312,
        0.03487866496198338,
        -0.01708592814603231,
        -0.09426770232492616
      ],
      [
        0.13615642266017405,
        -0.1934869025355041,
        -0.02246899805639516,
        0.14044217512406,
        -0.09229291995753053,
        -0.28249893363932793,
        -0.25324017250984826,
        0.21703795635874734,
        -0.23574244238992434,
        0.013277847060259399,
        0.054378505910118,
        0.05679879617926461,
        -0.387733628258874,
        0.17475600903743882,
        -0.06644357568625889,
        -0.0016383965859406847,
        0.2758286806767692,
        -0.02864059079250655,
        -0.020135250788251065,
        0.2679335709569041,
        -0.06444265728788005,
        0.14862439233742059,
        -0.3521634286267877,
        0.21996585560757226,
        0.32501668906294473,
        0.10208036965409366,
        -0.25352836262712203,
        0.02256374370097982,
        -0.25777179644854853,
        0.11572773981532147,
        -0.028771255677218194,
        0.012686653282584677
      ],
      [
        -0.11038054593699902,
        -0.24002048973334716,
        -0.1649480119080358,
        0.14866494326448146,
        -0.17014466892805372,
        -0.15204130630687568,
        -0.28640068049906076,
        -0.2654563559647126,
        -0.20666465048167407,
        0.041319998436259116,
        -0.19411283576539012,
        -0.06629900847128264,
        0.11075380073773429,
        0.21922104425872327,
        0.06715297406404544,
        0.11798433598306443,
        -0.11461226083414823,
        0.07624423471491534,
        -0.04415212061219736,
        -0.07511251732895756,
        -0.01464512856727084,
        0.05430087857671687,
        -0.0575195728496049,
        0.01698246031193267,
        0.04788625444144605,
        0.2000344888995476,
        -0.07029446371879386,
        0.009686222416299005,
        0.08032300197133403,
        0.1051814645276362,
        -0.17279026334195693,
        0.06341370950468152
      ],
      [
        -0.0419320166865715,
        0.09757073201982311,
        -0.18811642042088003,
        -0.02518640215552291,
        -0.2740004113008135,
        -0.3060051013673276,
        -0.1256517352997097,
        0.07372613514342845,
        -0.021891823277824123,
        -0.048530243542681865,
        -0.1764088690057559,
        -0.13665086577882166,
        0.06730486194404575,
        -0.2972475033569446,
        0.0963163743120594,
        -0.20861357275055234,
        -0.23766522148595143,
        -0.11332238621062399,
        0.036953517650113864,
        0.02881253929050852,
        -0.020983896734124412,
        -0.10576858784268126,
        0.03973449010623628,
        -0.1389171287489081,
        -0.297480467222471,
        -0.18905302559878165,
        0.06953436376615156,
        -0.142502063146637,
        -0.34962320449312273,
        0.11543823137964264,
        -0.07707601343995633,
        -0.09361608681110434
      ],
      [
        -0.005280635809405733,
        -0.09916770605929283,
        0.23538429988685372,
        0.2763291836441887,
        -0.16931978925908767,
        -0.02082178994670755,
        0.05583861937915271,
        0.0929330192019046,
        -0.2099779001425276,
        -0.042486695251383155,
        0.07730418171806896,
        -0.12249361591351382,
        0.012205575595331268,
        -0.19075669636969692,
        -0.12399807690418507,
        0.15824845641180063,
        0.06647396079416268,
        0.25929859912195485,
        -0.05071258516858512,
        -0.274167226024513,
        0.09086580693347489,
        -0.024157957871256484,
        0.11495331227722028,
        -0.08699671488728782,
        -0.18545378403379256,
        0.005880749092990584,
        -0.05223010566315015,
        -0.15349490269878302,
        0.007539671382887893,
        -0.11060550287390893,
        -0.1483168467304169,
        -0.009162356895363493
      ],
      [
        -0.05702241973987091,
        -0.28538612282427195,
        0.26530696794076675,
        0.019999512679980704,
        0.10141961000098264,
        -0.21715814488865656,
        -0.007629933297761929,
        -0.15267999987979033,
        -0.19124465615391176,
        -0.12771404272146644,
        -0.08202041178355621,
        -0.05822906423485756,
        0.056033366104208795,
        -0.12163520042842582,
        -0.11772173201741531,
        0.1461048748054341,
        -0.12197596185905836,
        0.1340519608920057,
        0.05709688981491036,
        -0.003537927972156487,
        -0.2685928273887799,
        -0.2894680238139888,
        -0.0682684102579373,
        0.09086381874683398,
        -0.18547634811211305,
        0.00968801946970611,
        -0.08544378840205533,
        0.1084680566035708,
        0.3651027823627491,
        -0.03628044116197786,
        -0.15239605782893204,
        -0.07660041630899954
      ],
      [
        -0.027368780318401884,
        0.11842938645107083,
        0.05934262510650377,
        -0.08119229461595893,
        -0.037330124022137534,
        0.2175058515423065,
        -0.05542747664819845,
        0.059151090803431255,
        0.11239102235134522,
        0.010802809441721697,
        -0.05005170621221221,
        0.13885552198928308,
        0.0887277317027729,
        -0.12519965156193852,
        -0.0003724163248228782,
        0.15592564010950216,
        0.15907519470036127,
        0.19098174683392968,
        -0.08108057815329832,
        0.32878281856374386,
        0.19132052557520335,
        0.01408303240628271,
        0.04996629434892883,
        0.10893085317427145,
        -0.07982260961462986,
        -0.07925335495139982,
        0.17455212189863908,
        0.05023030653429609,
        -0.12756263080552546,
        0.05392053596035103,
        0.1601316210369812,
        0.077453358956594
      ],
      [
        -0.13986476828686734,
        0.029052531342222264,
        -0.002885824050315136,
        0.10554860675068466,
        0.007192272524166715,
        -0.04382151474700587,
        0.16858002798519744,
        -0.010778982893021531,
        0.17478646443406273,
        -0.2734113909571358,
        0.1360504084133473,
        -0.05572898838336501,
        0.056658315740932594,
        -0.24019420014304918,
        0.06820606221155966,
        0.10779661514045413,
        -0.10497551503606843,
        0.0008968627970676198,
        0.01517941655595774,
        -0.09753443866535401,
        -0.0481826698694484,
        -0.1246436824704983,
        0.01898264617891804,
        0.33786734353323017,
        0.010586959580774769,
        -0.012793991404148613,
        0.23658658065097354,
        -0.18160735014189358,
        0.05978210092634445,
        -0.20180091856416044,
        0.08750751872054528,
        0.06471393104272626
      ],
      [
        0.22122939919197132,
        0.08299234240179769,
        -0.07945674344815457,
        0.1884318409175665,
        -0.04633881517552912,
        0.24995830736950214,
        -0.06552404451132023,
        -0.09310572302267842,
        -0.06083400120422638,
        -0.14633047882331895,
        -0.07529395733419761,
        -0.20290535373874155,
        0.11046250462347394,
        -0.1344644812223305,
        0.08497831484135758,
        0.1178017454138808,
        0.21875429303719066,
        -0.15155039306925258,
        0.17666831120499554,
        0.1917460615986939,
        -0.0437265670711627,
        0.19429290373247526,
        0.08694093981668449,
        0.09251680757211324,
        0.05615999773708692,
        -0.014033347034258414,
        0.048395517746167724,
        -0.16538641760880263,
        -0.013373833740550338,
        0.0771782101124075,
        -0.08857954711022746,
        0.040653118812599795
      ],
      [
        0.05994876338281851,
        -0.19038633732484447,
        0.09230884328303608,
        0.10605903388592182,
        -0.16949091044726333,
        -0.20294493286216428,
        -0.17196650217228174,
        -0.06743660079289461,
        0.10444318686017103,
        -0.04043037124626654,
        0.05662592006435922,
        0.2892056932204843,
        -0.11517673737883913,
        0.058090995648217084,
        -0.06962467709147616,
        -0.00533413958849671,
        0.15673187514122083,
        -0.013321018250668946,
        -0.05167397071190063,
        -0.03482333259558834,
        -0.23262846698517678,
        0.19915406067980476,
        -0.051665001923056154,
        0.1913414078727382,
        -0.09649521728835282,
        0.20806545365038853,
        0.051456013516066886,
        0.25492429013619666,
        0.11960018206679662,
        0.22250006883286982,
        -0.08255039758635596,
        -0.15494614012226265
      ],
      [
        0.13258949178597262,
        -0.0780542417045959,
        0.1824972163449178,
        -0.009940491138541124,
        0.1738272924924662,
        -0.1519475815532083,
        -0.03399937060203908,
        0.021959366912075527,
        -0.11584996467669095,
        0.0020201978488778405,
        0.1654874354881298,
        0.025778102898216693,
        0.13580089572439016,
        -0.3209482952625287,
        0.04344675991087649,
        0.07417334342448112,
        -0.1888735927456857,
        -0.1327856650057565,
        0.043250725162436894,
        -0.10624725300530388,
        -0.3920217644333732,
        0.009985051981447043,
        -0.06301299601475113,
        -0.15144566157865583,
        -0.15315794981805744,
        -0.0963520138401079,
        0.20795321057576074,
        -0.06791925435989343,
        -0.09608782080573239,
        0.26078212236399667,
        -0.25741531527118194,
        -0.18842773623349007
      ],
      [
        0.09296125759019762,
        0.021823684641908335,
        0.272248205685303,
        0.1764668734930668,
        -0.056979467040810215,
        0.01707423059171688,
        0.06401939186331539,
        -0.027799140999841085,
        -0.09136167692532912,
        -0.2054445275896258,
        0.0027399281330309166,
        0.0042829619935366514,
        0.1050548711603273,
        -0.03927414289633557,
        -0.15403659754539384,
        -0.07122221405796685,
        -0.1961703155460948,
        -0.14972958569954462,
        0.07959467041095873,
        0.03788640623895103,
        -0.06041325472797901,
        0.04811581079651315,
        -0.011988016947824457,
        -0.08770424076927669,
        0.15636812737691588,
        -0.1868717015834745,
        0.029939583639576058,
        0.0869034946131413,
        -0.010847698583244393,
        -0.2100705519593102,
        -0.1211589186812823,
        -0.04327740080400321
      ],
      [
        0.21200791627788595,
        0.15737059395404812,
        -0.18028012939296012,
        0.12445404987993261,
        0.08226412801815311,
        -0.07226988763785527,
        0.06202334415505154,
        0.06739307457971994,
        0.3152148993132963,
        -0.03123741950231894,
        0.1743241867131157,
        -0.0661484818615739,
        0.20129314107301702,
        0.173998043344154,
        -0.027227794046219354,
        0.2710946828509169,
        -0.009133593224101422,
        0.09957727166599503,
        -0.11162880907643474,
        0.07934623962525128,
        0.006273623019411458,
        0.01635032072463554,
        0.011703721439882343,
        0.15358690371343514,
        0.015578425347790817,
        0.14506142669420005,
        0.07558837359880383,
        0.015303981218240864,
        -0.06136805348306606,
        -0.048252551043457506,
        -0.17970739109959807,
        0.2588336353149694
      ],
      [
        0.22434229702422448,
        0.032596406551068886,
        -0.016002054721657777,
        0.27781950823261514,
        0.08238789357628884,
        0.10081792795385308,
        -0.11850211933069245,
        -0.26835498992736445,
        0.017222770082691026,
        0.060392886765627415,
        -0.0872168384682906,
        -0.058596634848643255,
        0.27534761134857555,
        0.05808820627064756,
        0.20411699760111834,
        0.00027762813529819054,
        0.005133153977583831,
        0.03350021380724452,
        0.2992851726709597,
        0.14134233329250936,
        0.11034289076013054,
        -0.05410763798749125,
        -0.1429680861835185,
        -0.08024055090706986,
        0.15809031284723962,
        0.12469507685564539,
        0.06979406952805148,
        0.024887265152802034,
        -0.020347675926210815,
        0.1226755026641287,
        0.04914956496233917,
        -0.2943560120527379
      ],
      [
        -0.05616288722340067,
        0.20551448976271114,
        -0.1904625184493352,
        -0.10292434392352551,
        0.07705052437154751,
        0.03788982712677401,
        0.04144356520639637,
        0.06342665204915506,
        -0.02432757783808734,
        -0.04605758032646958,
        0.006791370263417965,
        0.08411639199457074,
        -0.09556074134644621,
        0.010135592510087135,
        -0.02232059206578975,
        0.117206676722746,
        0.03567844627945464,
        0.08097027861906332,
        0.002550591556368888,
        0.08427902390802304,
        -0.018550395780418297,
        -0.0480140374078595,
        0.13428379382971978,
        0.1111930698574906,
        -0.13186372103529667,
        0.002515610923547205,
        0.08145873084001434,
        0.12381384746987359,
        0.18883408798642196,
        -0.04785722061359139,
        -0.09710806325020509,
        0.17631989583779278
      ],
      [
        -0.14966956096080936,
        0.1228582935088506,
        0.14351983700317314,
        0.068449269393663,
        0.08605197701089148,
        -0.03621300743879292,
        0.12143442026016621,
        -0.01689121839837057,
        0.0022349556735867483,
        -0.2241757944488376,
        -0.07360328937585767,
        -0.07886059812014574,
        -0.0015935847424834323,
        0.009340597020620135,
        -0.05696438210593706,
        -0.16029440568152084,
        -0.18961573294935388,
        0.10055759217443873,
        -0.060952085009087296,
        -0.10021646833680443,
        -0.05672928859761005,
        0.12544777907581436,
        -0.010159300908110267,
        -0.06180702526053548,
        -0.0022167132147041875,
        0.0013133852854742714,
        -0.051538624613160264,
        -0.2843690605987659,
        -0.04697086832410441,
        -0.005972842846101639,
        -0.010811365487961617,
        -0.008407879387457956
      ],
      [
        -0.018616311172494626,
        -0.14797211126243526,
        -0.18342775456496602,
        -0.12508636766924397,
        0.08895480799946529,
        -0.002879660575909,
        0.13811395644884988,
        0.10574686406138437,
        0.1387906136502656,
        0.05338778382921549,
        -0.11818056011176965,
        0.14943455845572273,
        -0.10688922382358623,
        0.02730985622581725,
        -0.08612363978201885,
        0.21489939063047636,
        0.026356786758937392,
        0.17186732005590302,
        -0.04865256286196582,
        -0.08967664577048758,
        0.08932797362699538,
        0.08642456902143482,
        0.0697732015058666,
        -0.06323303384597484,
        0.05055531998151728,
        -0.027215585936470926,
        -0.13624567917980068,
        0.2807121243756624,
        0.13547299266675283,
        0.10599238358185707,
        -0.06859304859554373,
        0.08892183524115747
      ],
      [
        -0.09000321992436135,
        0.021583663236758005,
        -0.2208350846392797,
        0.11531834734831169,
        0.1140075574729743,
        0.04497609690662013,
        0.20492236686813664,
        -0.08098842624980826,
        0.2580873602976903,
        0.11908712508992628,
        -0.05119278927618265,
        -0.18287435053184073,
        0.010248374358249124,
        0.134825133481757,
        -0.20082728415377293,
        -0.005232666723945709,
        0.22944558613337251,
        -0.09570763821335311,
        0.16989502066830311,
        -0.29301216247545286,
        0.31604275694037853,
        0.03216923443790561,
        -0.07574842449403482,
        -0.14898058738849443,
        -0.028384575045956893,
        -0.060557146631511335,
        -0.0296757200020005,
        0.09874325400017023,
        0.03436647108777049,
        0.03575223691203446,
        -0.04476350146395977,
        0.043432703435714134
      ],
      [
        -0.339248053063745,
        -0.20512716337600398,
        -0.0008064281295449066,
        0.16134396591195524,
        0.07372238129458043,
        -0.19409852016690024,
        -0.06572340281626446,
        -0.023938525793268134,
        -0.1996030645934478,
        -0.03743157215269959,
        -0.07580615075500897,
        -0.1571256687966877,
        0.10975786545605093,
        -0.17155468936034318,
        -0.09653392830227266,
        0.033329744544761106,
        -0.03302334239637573,
        -0.008924841498484715,
        0.10513786707448473,
        -0.015936005309916387,
        -0.20353117120420489,
        0.002824175742787796,
        -0.027348154620319382,
        0.0604038074819287,
        -0.028910517424372884,
        0.016641651795822582,
        0.1529103339557253,
        -0.0024276277141029616,
        0.19078469881882226,
        -0.07716010355695763,
        -0.17178820941250358,
        -0.08016490671963368
      ],
      [
        -0.05201970526628013,
        0.2673612466579924,
        -0.04776926347839431,
        0.03775267659953374,
        0.0004346102698630297,
        0.06753259407995779,
        -0.15596794747665357,
        0.11683360724715512,
        -0.003923335648880405,
        -0.001683884577662544,
        -0.04573590783870488,
        0.06786154116300194,
        0.12448467106041947,
        -0.09689849898015594,
        0.013421181981489307,
        0.14559769543252266,
        -0.01122440245770115,
        -0.02452505249055438,
        -0.12456813926945029,
        0.20609036095587766,
        0.09281215597497088,
        -0.012841075383698037,
        -0.09203978808696904,
        0.05688227668511001,
        0.07503290185626697,
        -0.13020262175314698,
        0.022814010593626144,
        0.09760212348313821,
        -0.25149883195446116,
        -0.09595067139011992,
        -0.10889625575981363,
        0.1764819318523597
      ],
      [
        -0.07375895755265453,
        0.054977428199512866,
        -0.0734512007617919,
        0.03466890804529836,
        0.07679906226969932,
        0.0068795999140572415,
        0.037199149257608005,
        0.10876962093418384,
        0.16720944884808225,
        -0.15838413424122344,
        -0.047673545198171026,
        -0.05038961152040551,
        -0.0040170296712233565,
        -0.22088827447258305,
        -0.0832558238342214,
        0.06971001852044681,
        0.08301293466455986,
        0.03418590235449771,
        -0.015125798196369217,
        0.04210114975234281,
        0.037698191621141006,
        0.16414623773929402,
        0.00012923620246601056,
        0.1199077975771435,
        0.011480945121581165,
        -0.13759188780475032,
        0.179319468361842,
        0.00203428423282541,
        -0.11127684995730694,
        0.022915869626200635,
        -0.13113109616705712,
        -0.1409370345615025
      ],
      [
        0.02791358782722444,
        -0.022004261058721802,
        0.054207654920072866,
        -0.0990211528299895,
        -0.22553360726385271,
        -0.24008140913534753,
        -0.03909844805836251,
        0.09565493163433966,
        0.03253807410413569,
        -0.0007910253372661138,
        -0.05970774277320023,
        -0.0997276359019388,
        0.1378774048535143,
        0.14472536444930142,
        -0.03158275460409768,
        0.1195119731668419,
        0.072910720206147,
        0.34287322653011704,
        -0.12383835837544123,
        -0.02733930139544799,
        0.13898370763292509,
        0.06676222850985876,
        0.020398295161014688,
        0.06902906247108626,
        -0.037814356777762834,
        0.13510721336639314,
        0.03862053713341688,
        0.18406107416607953,
        0.26918547993066994,
        0.04472771859760257,
        -0.05636273208942717,
        0.24196233330282008
      ],
      [
        -0.1430859997498407,
        0.03188071020331681,
        -0.0003213195542284431,
        0.17039849721891187,
        -0.05579705172692131,
        -0.12221526521478031,
        0.10695667905202279,
        -0.17168781904375993,
        0.019591337808235906,
        -0.1678590188638763,
        0.0022471679982523363,
        -0.03582875333927009,
        0.06823475720561412,
        -0.31659895842332936,
        -0.10914855439495766,
        -0.2321949216165486,
        0.12466975924018162,
        -0.08346210967278549,
        0.10356923768535252,
        -0.1325478392732883,
        -0.17821173897187395,
        0.028078976473175192,
        0.06977931549670999,
        0.1290866416277851,
        -0.05217582635174107,
        -0.05128531785761603,
        -0.13420135323117544,
        -0.07902621402365878,
        0.1826167668866199,
        -0.02099526170589537,
        -0.06456630211804555,
        -0.17412202056386422
      ],
      [
        -0.15630245904037965,
        -0.09292754316365386,
        0.13365267280163506,
        -0.08295845788454481,
        -0.006071553884666648,
        0.0326665695103527,
        0.03168435938278464,
        -0.035365420221099224,
        0.12036058973018764,
        -0.2832308873479886,
        0.13686989130516258,
        0.16560121327060687,
        0.17504705037273924,
        -0.097227476219273,
        0.09475337082618693,
        -0.2721098437650129,
        0.1533746932706179,
        0.0999958921499449,
        -0.16822518117872784,
        -0.1803536367911619,
        0.010900312686958537,
        0.19461534682919004,
        -0.005495894950163293,
        -0.05903011716321513,
        -0.13064454746882778,
        0.0707475918412608,
        0.07354427766649331,
        0.020213161592448133,
        0.10374300455978613,
        -0.06708494012941678,
        -0.044315030201131665,
        -0.06860203756921321
      ],
      [
        -0.026713185833772732,
        -0.08945097828160473,
        -0.03771666438796219,
        -0.06559331278127438,
        0.10589821144389482,
        -0.133339689602706,
        0.0037011293826626733,
        0.16622846510596845,
        0.09716383512376554,
        0.08821237783808575,
        0.07296652784066004,
        -0.009053970956224653,
        -0.07201306677083653,
        0.09077553596282323,
        -0.02206766861612667,
        -0.030603572896940438,
        0.19322110308110935,
        0.06315965791317017,
        0.010932644305736202,
        0.015720235186679282,
        -0.05921736134212979,
        0.03399529937843315,
        -0.007942062220401471,
        0.18068406176111734,
        -0.002451369729115298,
        -0.19105100531661673,
        0.046406131894300734,
        0.22107313201929182,
        -0.015623976853186113,
        0.07130807714337588,
        -0.15078350253422065,
        0.21239828642292222
      ],
      [
        -0.19591739504079028,
        -0.26739231195338214,
        0.18593556873724884,
        0.13845055162889056,
        0.11059756537221145,
        -0.27757018376841475,
        0.033529059991228176,
        -0.07575484373162134,
        0.11131956373601026,
        -0.5730440251160412,
        0.2620289151804192,
        -0.16336161234689597,
        0.4753745912278734,
        -0.25608764360896447,
        0.2852545318023101,
        -0.06399448607736814,
        -0.5419620539060747,
        0.3269008368330983,
        0.02146119808479692,
        -0.2776700080450174,
        -0.41575617874744547,
        -0.1150286783106547,
        -0.04041775012473067,
        0.3469399119131078,
        -0.18628339047107198,
        0.18110067335948077,
        -0.004573579262701534,
        -0.2824058696855276,
        -0.19900002597237054,
        -0.18106856183408587,
        -0.5174647778617865,
        0.04639688303076383
      ],
      [
        0.07879482357971482,
        0.1792252525739959,
        -0.09499105130816833,
        -0.10355152250286015,
        -0.07764791232215393,
        -0.26857853924201613,
        0.1588845717951434,
        0.17999713292919645,
        0.25998545015250163,
        -0.17997387709945678,
        0.2887051085308096,
        -0.2017686709951191,
        0.12060501234663062,
        -0.264183713285407,
        0.08301810494073517,
        -0.1408071957108211,
        -0.2520072260128422,
        0.024575760445851844,
        -0.12402350111340261,
        -0.1453718361227846,
        0.06788125838657194,
        0.05158183919705257,
        -0.009346902900994334,
        0.03193117364781258,
        0.0002478533409359068,
        -0.012670170122024666,
        0.04972905742220312,
        -0.030275027621676096,
        -0.2351901965744913,
        -0.07615712285280624,
        0.07799573851558637,
        -0.11255801812276701
      ],
      [
        -0.013939301334121886,
        0.20595110483968573,
        0.013902802517355303,
        -0.0586334878188319,
        0.035013516066683605,
        -0.3268258329115434,
        0.3999606169083766,
        -0.11690341328387724,
        0.18270229890013637,
        0.010187214689966485,
        0.1827084702828737,
        0.07976478938151987,
        -0.45550076908345305,
        0.01708168688799495,
        0.0052581235508465714,
        0.20872045053009097,
        -0.21145691669818564,
        0.3441331923261068,
        -0.012647981094508041,
        -0.03999237038638243,
        0.07633622179138277,
        0.056350699019557235,
        -0.15971011472709876,
        0.35368986190736024,
        0.01133327196468785,
        0.15097020143763312,
        -0.09717913373547232,
        0.18055715067953768,
        -0.3772871934561953,
        0.12578952997248552,
        -0.6013697395216798,
        0.08115667301455672
      ],
      [
        0.014575256382013107,
        -0.2744834184064791,
        -0.07403706978645368,
        0.1610310931684772,
        -0.3252883431612582,
        0.19656513447891186,
        -0.07077758188784035,
        0.060701588257161036,
        -0.04856849908853483,
        -0.057924711355087435,
        0.20186596078986824,
        -0.1906151507719179,
        0.0656877346009432,
        -0.3592603927155874,
        -0.0420028674708941,
        -0.14393641698588128,
        -0.12727798994824444,
        0.04778578792299115,
        -0.20894265701555215,
        0.188900587509795,
        -0.16183908006322884,
        -0.03527836123449291,
        -0.03793974196063834,
        -0.10259581805450174,
        -0.11579801040027843,
        -0.17996785050239347,
        0.1727557080213913,
        -0.2846676714501251,
        0.03047752711157145,
        -0.20081336342084155,
        -0.1657822810019643,
        -0.18516114514043128
      ],
      [
        -0.03096180360479118,
        0.23640672426711237,
        -0.25122797131638597,
        0.040972757753445534,
        -0.09276284865218869,
        -0.06526718036044736,
        0.18523731191539333,
        -0.08559164317451957,
        -0.02625871128248787,
        -0.15944640481375028,
        0.06947011969852727,
        0.035559178604728674,
        0.12504818346481433,
        -0.14004826644229365,
        0.23152428176210402,
        0.02311378996172352,
        0.0055223840790102185,
        0.14431561640838372,
        -0.014170679905605646,
        -0.007904266526288443,
        0.28119002259114473,
        -0.04958286559790574,
        0.13136613815937082,
        0.023641165846921754,
        0.13350648580984134,
        -0.21108708481891592,
        -0.08633741107631591,
        -0.09204032356797348,
        -0.1188641349910138,
        -0.04286862587784859,
        0.026003648249475403,
        -0.012881383959226597
      ],
      [
        0.11577909744030745,
        0.19962155475698706,
        -0.16050597132035707,
        0.18845775937965464,
        -0.1484660336400991,
        0.25388981791945614,
        0.006204658134754735,
        0.1133122537895412,
        -0.06239380969359318,
        0.09128287181784038,
        -0.03005718209569917,
        0.047593609538768566,
        0.03792827540370642,
        0.06187214908071234,
        -0.007649076930594977,
        0.02146435962644557,
        0.02718226127253542,
        -0.09671317501276723,
        -0.06881368078149604,
        0.347296314702488,
        0.13840180086722126,
        -0.002440134516424644,
        0.009157602818088716,
        -0.04720986836326559,
        0.029923307992548703,
        0.048466499113843084,
        0.10526775685916605,
        -0.16205805816202853,
        -0.1718044200739108,
        -0.10367637138248062,
        0.002028315335741978,
        0.10928326598151801
      ],
      [
        -0.15491239554188768,
        0.26038159053867355,
        0.04409902125779216,
        0.35488487406441277,
        0.21332776692895455,
        0.2019097689334737,
        0.3730164609583329,
        0.08089977669386696,
        0.19626696176505268,
        -0.008190304816360574,
        0.10986611652473753,
        -0.0575133067759991,
        -0.1308039580722178,
        -0.3387644267850231,
        -0.14028245680624737,
        -0.2368292451637355,
        0.3226410185511303,
        0.02124830413674523,
        0.14536284774476615,
        0.3055766596229093,
        -0.20146207517067655,
        0.19389822506203766,
        -0.06934050989920235,
        -0.005250655700970711,
        -0.17604350658211526,
        0.053135772830768625,
        -0.0976369168203322,
        -0.0389610056312056,
        -0.14754386022958202,
        0.08088158027689474,
        -0.5679694838546195,
        -0.2349288267771204
      ],
      [
        0.01790600258665944,
        0.2040501715477571,
        -0.2224967777337678,
        0.04283969282378309,
        -0.051147518526274846,
        0.01781160836302189,
        0.00823028550082708,
        -0.07845106028504359,
        -0.07558368992634693,
        0.09043847721273669,
        -0.09593492631129955,
        0.06861611641589276,
        0.0852481230062939,
        0.08687844343717346,
        -0.0035882869509361315,
        0.23323116593803098,
        0.009785883744541795,
        -0.0899326937165599,
        0.021993264974058457,
        0.013970949633080565,
        -0.07169407371485477,
        -0.05936144375558164,
        0.08279733140280837,
        0.09148132946969834,
        -0.0944682893811507,
        -0.16107498663083486,
        0.13654438921705908,
        -0.10486847028358454,
        -0.020787109000484735,
        0.0006612589768198486,
        0.11627469188556085,
        -0.1192237609020219
      ],
      [
        0.07662477089665612,
        -0.1118920901547221,
        -0.04010189481337372,
        -0.04272662432215253,
        -0.10973503868252778,
        0.06713916773974357,
        0.1290104492081245,
        -0.1161297968075511,
        0.02035996903688435,
        0.03607006027978952,
        -0.0033211518087282706,
        0.1015921155589685,
        -0.00463576858016318,
        -0.23167402763654465,
        0.1458570757497162,
        -0.14659999527933607,
        -0.1762287019156771,
        -0.12610842648771897,
        -0.05827549430510258,
        0.1522983780271787,
        -0.07610394939035295,
        -0.20347787949942675,
        0.06454090590920082,
        0.03522541539638176,
        -0.11277459136092009,
        0.019585277112018046,
        0.04598535151658295,
        -0.08981188295903633,
        0.07732113599829445,
        -0.17040318750686995,
        0.08597108957835638,
        0.03755356208801596
      ],
      [
        0.10392538928865104,
        -0.020236103259774436,
        0.06487568713566942,
        0.1393769680971976,
        -0.04138242490546486,
        0.16275558123764972,
        -0.043849097057692556,
        0.02426060746132232,
        -0.05829208881352185,
        0.04041281773113078,
        0.12621181361641104,
        0.054725709968570145,
        0.06439229663178467,
        -0.03125853933435018,
        -0.14274517639519474,
        0.03954697773117664,
        -0.040923694925675,
        -0.04336036110077793,
        -0.002414453851928498,
        0.12412587096225733,
        -0.046742848228835794,
        0.06798713466201205,
        0.16756387225098293,
        0.1056116468223242,
        -0.02381806653693112,
        0.024470792402790355,
        0.050791707580345,
        -0.027117955562386952,
        -0.0026418064998437775,
        0.016799375976980408,
        -0.07052230135922428,
        -0.1568822102150068
      ],
      [
        -0.06375443455982985,
        -0.19354269421732145,
        0.08938384413401236,
        0.04315384656757468,
        0.13964258433824392,
        0.034899138309011354,
        0.12837454820230332,
        0.05728009658687275,
        0.24560115481677908,
        -0.3668818702330379,
        0.29146547320915234,
        0.08174497554624577,
        0.19706775705148696,
        -0.2129829987093891,
        0.08485593796997633,
        -0.4612904812252405,
        0.09917139477135858,
        -0.21716229305809168,
        -0.030017527484126456,
        -0.01846830460012158,
        -0.11693755687607955,
        0.01076985578033736,
        0.06225214687172659,
