{
  "version": "2.0",
  "config": {
    "vocabSize": 43,
    "embeddingDim": 16,
    "numLayers": 1,
    "numHeads": 1,
    "vocab": [
      "[PAD]",
      "[UNK]",
      "[EOS]",
      "the",
      "quick",
      "brown",
      "fox",
      "jumps",
      "over",
      "lazy",
      "dog.",
      "this",
      "is",
      "simple",
      "test",
      "sentence",
      "for",
      "training",
      "pipeline.",
      "machine",
      "learning",
      "fascinating",
      "and",
      "powerful.",
      "neural",
      "networks",
      "can",
      "learn",
      "complex",
      "patterns",
      "from",
      "data.",
      "natural",
      "language",
      "processing",
      "enables",
      "computers",
      "to",
      "understand",
      "human",
      "language.",
      "deep",
      "models"
    ]
  },
  "weights": {
    "embedding": [
      [
        0.21294551887549895,
        -0.02614867846676261,
        0.20055809458819318,
        0.047539594674593455,
        -0.013866184717557961,
        -0.10035516782967935,
        -0.11436435928531241,
        0.12697683482761868,
        -0.09672446315067551,
        -0.21945348362104278,
        0.11604249353707108,
        -0.18739321344080806,
        -0.2222453604176654,
        -0.04541180875823314,
        -0.03400713016458601,
        0.1670238868513898
      ],
      [
        0.133126705706484,
        0.04265746578512153,
        -0.10308741899818197,
        -0.1735283746891495,
        -0.1149185203919616,
        0.10754453137456144,
        0.14376284080414592,
        -0.17039159911561086,
        0.12626297073153203,
        0.10753669575989133,
        0.12172596388734491,
        0.21814995420258887,
        -0.0025744924085885357,
        0.13291837765655024,
        -0.09503579373607185,
        0.02955031499361005
      ],
      [
        0.002205625488583496,
        0.16426240515473045,
        0.1588936756320527,
        -0.010074645375607316,
        0.00506026509803259,
        -0.03635867938087678,
        -0.1317637666396464,
        0.08709752500290169,
        0.12062449330122194,
        0.15777973867351358,
        0.11226438461789723,
        0.18486504049054875,
        0.08025490091955056,
        0.2237584900883861,
        -0.18308887030677712,
        -0.21248228757056575
      ],
      [
        -0.17571614687950654,
        -0.008962678177322618,
        0.21488548495997023,
        0.04503422807040144,
        -0.1353019155015957,
        0.15758561466870694,
        -0.2216649673599848,
        0.0912942196547762,
        0.07941991809200373,
        -0.02599434649881543,
        -0.19842623201277737,
        0.04826469444503933,
        -0.20866039724346486,
        -0.017225230341824643,
        -0.024631037180888816,
        0.25038389539047745
      ],
      [
        -0.24024822936349996,
        -0.03495142068838039,
        0.1057397837489249,
        -0.0669020893423411,
        0.16718386543048028,
        0.18080753886955664,
        0.01878310030463843,
        0.24541682120765448,
        0.23469911422821177,
        0.2129959440739924,
        0.11775444430747804,
        0.15574318734432485,
        -0.0005358529265814859,
        0.11132625986207516,
        -0.18329440576715128,
        0.11564474191992369
      ],
      [
        -0.22467454422411073,
        0.14255505659820147,
        0.13950126823047135,
        0.17979540669323582,
        0.12387646467717815,
        0.101812603193798,
        0.0023649266331767713,
        -0.18401157197486576,
        -0.12264862783213114,
        -0.22986862911592024,
        0.08249034588271668,
        0.23954598191842175,
        0.13363521320698082,
        -0.050995027159643845,
        0.15032763842384983,
        0.07971329401585057
      ],
      [
        0.24295153236984757,
        0.1756654626452967,
        0.2074965508278633,
        -0.1376168466661875,
        0.09987417816821555,
        -0.18949525166635361,
        -0.21082673887400025,
        0.21953134739432253,
        0.20749711138175772,
        0.20891103747824732,
        -0.04644705896481868,
        0.10528327104851458,
        -0.23517999550116322,
        0.20638054710451215,
        0.09218607356353996,
        -0.190688735146902
      ],
      [
        0.14495041242735168,
        -0.11523078599503357,
        -0.11278630248361667,
        -0.027868894510225055,
        -0.035425458354207545,
        -0.10953657354611927,
        -0.06901804691409538,
        -0.11309155774413678,
        0.20785829366258754,
        0.13116640828915763,
        -0.1895576669836391,
        0.24056780894005375,
        0.17062375270457522,
        -0.16277319586721617,
        -0.0046234807079435815,
        -0.04504733635492868
      ],
      [
        -0.23091908166815883,
        0.24497249978938399,
        0.15817749106102524,
        -0.03230115258388099,
        -0.24287477538000765,
        0.06737597242586432,
        -0.03046085549413038,
        0.15839788623059892,
        0.06370798285484369,
        -0.06202388871826844,
        0.029271751828284866,
        -0.08382207178518025,
        -0.10250594660809621,
        0.006327891559515075,
        -0.0050296617497657976,
        0.21408420966057198
      ],
      [
        0.0010763081329659627,
        0.06828255837988226,
        0.04172093846015303,
        0.21381251223682804,
        0.24986788108695035,
        0.18245135717092123,
        0.06519334373198148,
        0.09632801524989223,
        -0.22767410171547695,
        -0.17992537765055105,
        0.1518649849968021,
        0.07151468759161381,
        0.1676272049750143,
        0.235412053822785,
        0.050194237910688264,
        0.11572432919113985
      ],
      [
        0.19653212680924265,
        0.09940901174161465,
        0.19910644339532327,
        -0.022231010457740744,
        0.15154716426010406,
        0.07212797061694251,
        -0.014975615743877124,
        -0.06344432058071815,
        -0.2267081667188548,
        0.044954586093854956,
        -0.20257422836796804,
        0.15407923020584077,
        0.22179577268600528,
        -0.06499871654485216,
        0.08114146482242009,
        0.15946346231966418
      ],
      [
        0.06326581612174524,
        0.04481345931855136,
        -0.06093005569786338,
        0.22284636808215388,
        -0.10775281353140746,
        -0.06660821538432306,
        -0.22498055172339557,
        0.16927053750571266,
        -0.22582801727912172,
        -0.12635216390427953,
        0.13694871253446866,
        0.24334397378105876,
        -0.0998886511445996,
        -0.20568034501474602,
        -0.22678057031817933,
        0.23817413067625126
      ],
      [
        0.13730735194427648,
        0.026626414209302136,
        0.032215156492296136,
        0.09177983866100653,
        0.015574267696603758,
        0.22944804482719652,
        0.0000447807792091585,
        -0.12317030965464162,
        0.22063416755987383,
        0.1808124329669115,
        -0.12137596532424713,
        -0.2409544098575761,
        -0.12788574824081386,
        0.1429461483476829,
        0.1795420939687657,
        -0.13748549309748193
      ],
      [
        0.10874162516536286,
        0.09471530009165244,
        0.015408708550506288,
        0.03603638583225891,
        -0.19557207230138135,
        0.22800276262564573,
        -0.20503021705002636,
        0.06524644003076001,
        0.21663533204299812,
        0.1859339397654424,
        0.17505142239500368,
        -0.02358141832940497,
        -0.22085288437476677,
        -0.16821653735367745,
        -0.08465592666339034,
        -0.11528687836049697
      ],
      [
        0.0024507179785299895,
        0.0009030053831450712,
        0.06396426027101512,
        0.0346251676719284,
        -0.0852904290722282,
        0.2110935930550314,
        0.12060964243114891,
        -0.13054798377845955,
        0.08515304933380101,
        -0.007123966121481834,
        -0.14736187324096456,
        0.06332717614701396,
        -0.01177337972246127,
        -0.2162260868774538,
        0.09668344810372843,
        -0.07489563665616174
      ],
      [
        -0.12765162764798524,
        0.182327232838345,
        -0.1958147032604415,
        0.11938662297749605,
        -0.18571164832563422,
        -0.19969528019782606,
        -0.21846392655954416,
        -0.015870067456808534,
        -0.011883099758792143,
        0.02905740760654959,
        -0.008312561048453711,
        0.22971379107615444,
        -0.1945404432539137,
        -0.1605926472510387,
        0.19827655845984404,
        -0.10245461980586498
      ],
      [
        0.11350033665010016,
        0.12154478131713657,
        0.027381469267626798,
        0.1420162035274566,
        -0.15090523318580895,
        0.14941072493565485,
        0.2430399875365614,
        0.16765349744719757,
        -0.22575949707904036,
        -0.11143902223405877,
        -0.12943811335579977,
        -0.10674647630162945,
        0.1574270916865614,
        -0.15096915441555922,
        0.203127239096898,
        -0.1956827249971045
      ],
      [
        -0.2222504716855794,
        0.1675943249623054,
        -0.11157145764259269,
        -0.22409203607606296,
        0.19162986137231455,
        -0.09282125104830016,
        -0.16561915394867371,
        0.1447578385060849,
        -0.20770337686212068,
        0.19768160658420567,
        0.014027928889695559,
        0.0767406819737086,
        0.04825584754552356,
        0.0025018131337987866,
        -0.00525209211107123,
        -0.04760748677185983
      ],
      [
        0.23428234462856348,
        0.05007384798693325,
        0.2247115393924327,
        -0.11914954188839068,
        0.15205706751592768,
        0.002880544068150814,
        0.03781286003176094,
        0.18807486197190357,
        -0.130236408451656,
        -0.18535598828560218,
        0.017585318035283497,
        0.22346516985235038,
        -0.015525620201962726,
        -0.06815369932026459,
        0.008173518454005666,
        -0.01591128525499595
      ],
      [
        -0.2194119208878998,
        -0.04384813385135237,
        -0.13380968233656781,
        0.19130418943521005,
        0.20019357938107,
        -0.2025657830388099,
        -0.0740515356906669,
        0.08523461487569113,
        0.20817227379705408,
        -0.01683541648019191,
        0.12431294364788968,
        -0.16868357739010498,
        0.09776255745549722,
        0.24757304336560595,
        -0.025920530834900878,
        -0.2342092567278769
      ],
      [
        -0.09558388721225848,
        -0.1918691266920552,
        0.15386211905872266,
        -0.0874306699335123,
        -0.15068637978470256,
        -0.10384563806568253,
        0.23900693301013182,
        0.011845230096550936,
        -0.13465948225359145,
        -0.0804737239922256,
        0.009882697058065855,
        0.08842311920460898,
        -0.13997585642732294,
        0.04780411346659121,
        -0.09937951001171498,
        -0.24229920125707263
      ],
      [
        -0.10285253893179032,
        0.14344612149291075,
        0.22207109619855384,
        0.2147101453939772,
        -0.034068352264641236,
        0.0754943188534491,
        -0.20276151108715376,
        -0.07496158062224091,
        0.15222971982228448,
        0.1932256025630413,
        0.08356090963161772,
        -0.1582572602081414,
        0.0622824638439638,
        -0.052679780182535954,
        0.036388089904452116,
        0.16602678191489534
      ],
      [
        0.09632507867460659,
        0.18400142304429212,
        -0.10399016364264059,
        0.15281855509203193,
        0.10609817813979547,
        0.08127893553533035,
        -0.24194956367461076,
        -0.02954147579391281,
        -0.07544261625286272,
        0.17182077578354193,
        0.2322364901616159,
        -0.240056405753155,
        -0.019856297147387122,
        -0.09219243531890513,
        0.10438788405588974,
        0.1594571670489762
      ],
      [
        0.24016565838331774,
        0.15433955103387612,
        -0.13024355681077873,
        0.13061737481944888,
        0.22608605569912654,
        0.2310996955764396,
        0.08393280018570978,
        -0.2377971527468584,
        -0.2086588652970708,
        0.03818819178484344,
        0.030786259555056174,
        0.24718849857888492,
        0.19211950439729067,
        0.007288798359790077,
        -0.19860623793164767,
        -0.14665915056117348
      ],
      [
        0.18844561242112662,
        -0.0878917499684176,
        0.11487130961649411,
        -0.09936191446575546,
        -0.23042427414342181,
        0.08366809995433754,
        -0.028510707596616683,
        -0.23598837193625105,
        -0.0637997071426218,
        0.20078399689906729,
        -0.031091713111733577,
        0.2118479951130533,
        0.14010943613265842,
        0.23982266398720384,
        0.003154286882611042,
        -0.22467468677380115
      ],
      [
        0.11690615081126622,
        0.007806900338977992,
        -0.10231649047931715,
        0.1776867951162709,
        -0.09358668498517296,
        0.2244483571700723,
        -0.06139388108024375,
        -0.24373484260043238,
        0.24356235163064624,
        -0.09981116207933048,
        -0.14890143991841992,
        0.19808264718043112,
        0.22185118296540568,
        0.05441955190077134,
        0.1292011920298399,
        0.018194529626887005
      ],
      [
        0.09355148634515797,
        0.14927408414820506,
        -0.045073931787533904,
        -0.11449306247618551,
        0.1343622148666802,
        -0.11244601872752079,
        -0.15329041335448548,
        0.1080810782815397,
        0.023658464801108153,
        -0.07172391811064391,
        0.03525416269670434,
        -0.2142979163114332,
        -0.20646359797654404,
        -0.0010890425273469386,
        -0.16679835582031954,
        -0.08964672744851625
      ],
      [
        -0.13060611357320995,
        0.008162145438027292,
        -0.13805508621268858,
        -0.042036968250089325,
        -0.21540338133139994,
        -0.0988398908942068,
        0.19105608418700168,
        0.23022307711978818,
        -0.2151423063291292,
        0.09043177051646321,
        0.08231198961111356,
        -0.16667645425229094,
        -0.22993756805603482,
        0.07704191128222825,
        -0.13942594732330343,
        0.021880646358280274
      ],
      [
        -0.12881754569302892,
        0.08515913159133641,
        0.02677235286199798,
        -0.0064675180856417405,
        0.1478458083326661,
        -0.18078855277203734,
        -0.20900893109338337,
        0.22819811679678306,
        0.023656192320510614,
        -0.0309750863521711,
        0.2088495016321043,
        -0.07791458101954285,
        0.09918337826559788,
        -0.0515897105611492,
        0.15963342713185297,
        0.1361866080051353
      ],
      [
        -0.21215610404538238,
        -0.02225123191126907,
        0.20995635820392858,
        -0.16200885032758358,
        0.16497488526259887,
        -0.13769427333571352,
        0.2033356493629161,
        -0.19974040145863511,
        -0.0513385625490675,
        0.09208167448481948,
        0.21079534344297662,
        0.11591198212672317,
        -0.10638096061336323,
        -0.1922312540944529,
        -0.054727562280180615,
        0.03963375552290608
      ],
      [
        -0.222209654786125,
        -0.21138811213596811,
        0.08556300521132669,
        0.012812227441371126,
        -0.02935106787668335,
        -0.10402312244495804,
        -0.16485633587801357,
        -0.10124207611419038,
        0.183610878957136,
        0.09283954875845428,
        -0.05195903428433714,
        0.0586167173929712,
        0.1538143888724765,
        0.12248178753942542,
        -0.2216345862972946,
        -0.016102411198758656
      ],
      [
        -0.01238931600332685,
        0.10204264509807458,
        0.026104002760804882,
        0.13630777243082431,
        -0.02198809006977628,
        -0.22873797502506518,
        -0.1239997029936145,
        -0.030396838478653883,
        -0.06849065208478128,
        0.10666689166791717,
        0.05503545352059889,
        -0.00798059194569957,
        -0.051293789810714654,
        -0.14102562723393683,
        -0.13920468896916036,
        0.041174287911479666
      ],
      [
        -0.20833105130019486,
        -0.18956625448524764,
        -0.13748912008887312,
        -0.06665563080275577,
        0.2096469582621768,
        -0.04730660087080296,
        -0.16709858417585263,
        0.00039445298064633757,
        -0.10377209698904843,
        -0.1283596499403009,
        -0.21956520756393055,
        -0.16799083394131312,
        0.042732927977113803,
        -0.22295538482958288,
        0.03716213780679553,
        0.1734478816044669
      ],
      [
        -0.12046606083597164,
        -0.10361146682603128,
        0.16283315215952515,
        -0.0192537810007257,
        -0.09210266972200937,
        -0.12510939428875953,
        -0.07621451686849932,
        0.1592020867487184,
        -0.08510325282028118,
        0.06966607646415046,
        -0.11502610164938107,
        -0.12137212422018333,
        -0.11794149526473448,
        -0.1625949166746805,
        0.03909824937894318,
        0.22135582010564978
      ],
      [
        -0.23678748678992395,
        -0.13709193806290587,
        -0.07676267496338061,
        0.0410782978923315,
        0.060102012849407783,
        0.11154775000683712,
        -0.2392859658525101,
        -0.13054174475023278,
        -0.09256254798123872,
        0.2234797340823425,
        -0.18622967044789068,
        -0.10688465608149683,
        0.10678258314406003,
        -0.18316333489283781,
        0.2363294426347096,
        -0.23123102292614459
      ],
      [
        0.20919456006057272,
        0.18670836690985354,
        0.12201463818810983,
        -0.11921109298952628,
        -0.13922560234288608,
        0.12756282061077578,
        0.21495989520356515,
        -0.10633248122825832,
        0.15544144695995074,
        0.162962981001612,
        0.001041330983798968,
        -0.1763560606769756,
        -0.01808006671393806,
        -0.1152179290412138,
        -0.1169818199349315,
        -0.07346364896851083
      ],
      [
        -0.11819337688988264,
        -0.16814889809985442,
        -0.03687760905360272,
        0.14476508013539738,
        -0.03311606411295039,
        -0.08726514120975588,
        0.18604186955926366,
        0.1694362334023929,
        -0.08290272951069716,
        0.12729086542512583,
        0.14650645426433956,
        0.23196070730638668,
        0.10865848762298125,
        0.23838951182270024,
        0.2025672679447594,
        0.027336685671296383
      ],
      [
        -0.18133192330206455,
        -0.1254534557420305,
        -0.040274033405072296,
        -0.1846630901494749,
        0.23953046544920253,
        -0.14768661395893265,
        -0.18227388048978221,
        0.16967674043829895,
        0.20881596510567887,
        0.061987812603067634,
        -0.008730334167464411,
        -0.22848253945351907,
        0.18494383934731234,
        0.07697459149003998,
        0.16370358673869254,
        0.18607694348963913
      ],
      [
        -0.029109171391487335,
        0.1835118964914419,
        0.0614589203487009,
        -0.09389217894911706,
        -0.24249749798214634,
        -0.09982917165547919,
        -0.07339590759336878,
        -0.1529957980718995,
        0.10422354643670624,
        -0.06855228571821916,
        0.1807302019714294,
        0.09229423136263881,
        0.12234158563932811,
        -0.17226491697248714,
        0.020865146309550112,
        0.06934967053796044
      ],
      [
        0.13501376476449417,
        -0.17626750612577552,
        0.183586240461571,
        0.07177249337123151,
        -0.18933443585922652,
        -0.08889310658526922,
        -0.18701040627024057,
        0.23818847050718012,
        -0.14040170941696176,
        0.09169401436630341,
        0.03727260989520378,
        -0.16465953520770005,
        -0.19793673949135807,
        0.25034575428345046,
        -0.19111286973687838,
        0.18425770754195964
      ],
      [
        -0.1275464064118613,
        0.09369742710257838,
        0.028884462164274313,
        0.03986937561656679,
        0.09409649125889144,
        0.2402631593230554,
        0.0712024773456646,
        -0.026663347377501957,
        0.14222287910937187,
        0.12131279650132867,
        -0.16814418437113524,
        0.07631886603163582,
        0.11714467814266288,
        -0.07093214526342827,
        0.09371625059646935,
        0.23859825727341705
      ],
      [
        0.24117280724592768,
        -0.1498283371832665,
        -0.031871168285250856,
        0.01629752720523215,
        0.11232214969008066,
        -0.056583339391661804,
        0.23485852052166398,
        -0.01033129705683649,
        0.17233157165991225,
        -0.06972873036334476,
        0.1573493190258212,
        0.005048956860039643,
        0.15022443227439358,
        0.2205372828896239,
        0.23827789184964876,
        0.08923999148011409
      ],
      [
        0.08021670517748869,
        -0.13331173380691774,
        0.11187560388789042,
        -0.05798650516360937,
        0.24280543051352144,
        0.0966040006398532,
        0.20097974961401366,
        0.06564825541526553,
        -0.18263534339367782,
        0.12272252077311885,
        0.21505543279915484,
        0.1983449881114,
        0.18053781054340523,
        -0.08684459831142699,
        -0.023221255285103104,
        -0.035729510213505566
      ]
    ],
    "transformers": [
      {
        "type": "single-head",
        "wq": [
          [
            -0.21783547272249187,
            -0.2094111413260298,
            -0.040775345919888566,
            -0.04706106622645325,
            -0.13273147201196572,
            0.17721703765101768,
            0.08864950489494805,
            0.22409176618862017,
            -0.18794962266086937,
            0.24995187034624267,
            -0.21310640537893888,
            -0.1580114815323237,
            -0.08113992044005307,
            0.051556127157184765,
            -0.14665465864982344,
            0.2333443450851524
          ],
          [
            0.16787292062250522,
            0.22551772568838604,
            0.13209998617376706,
            0.06225077742121102,
            0.016689682577286286,
            0.12106178137589539,
            0.08280772095181337,
            -0.1588994536143308,
            -0.1713616939984896,
            -0.2013865390616234,
            0.04562458543369918,
            -0.19935000755036258,
            -0.014020920678667807,
            -0.22582759184605192,
            -0.1989912436328496,
            -0.2453560567259468
          ],
          [
            -0.09098142802732312,
            0.06406545590931033,
            -0.029018775592181315,
            -0.20978140396056388,
            -0.10444934207994062,
            -0.0687154484996355,
            0.09280387654067697,
            0.2154377930269637,
            -0.20126234598903547,
            0.09392640056189684,
            0.04595293050932535,
            -0.15892343031326406,
            0.11109924917012716,
            -0.19684358995886064,
            -0.18779756637019027,
            0.04720060707308633
          ],
          [
            0.23040684958281865,
            -0.16275953238387522,
            0.107463591233075,
            -0.21962705208931424,
            0.14351730750806188,
            0.20186005274449556,
            -0.10775088200788228,
            0.05515234112394972,
            -0.07392583871626082,
            0.10268520151067273,
            0.015935745687767636,
            0.03834365011704124,
            0.12495310625839899,
            0.2240041520647574,
            0.2128632867525401,
            0.09743046527752673
          ],
          [
            0.16258874399772572,
            0.1408076672844112,
            0.031090124755876962,
            0.09650943654077336,
            0.027853065614656728,
            0.14392812088585827,
            0.01293027583611479,
            -0.07306237087413917,
            0.10378418045189736,
            -0.21301932392131082,
            -0.2020793933848896,
            -0.17851429850080197,
            0.007624474671135314,
            -0.1447320226524168,
            0.20411036136686214,
            0.20014526206446323
          ],
          [
            0.05372361937540801,
            0.1799128341987801,
            -0.20748600012544455,
            -0.21141819257962655,
            -0.09632891960130666,
            0.17210401010745405,
            0.14706207364396712,
            -0.06708143150887785,
            0.16176518170732887,
            -0.05230917884795384,
            0.024667721796787286,
            -0.1278032540100357,
            -0.170319711240808,
            0.22484105529267773,
            -0.05334203259935055,
            0.04839944367191469
          ],
          [
            0.20773780659561286,
            0.08284905951861846,
            -0.08948690706197887,
            0.09169667678669045,
            -0.18227820040418302,
            -0.22708246097372584,
            0.0535529744648621,
            -0.10247098180271745,
            -0.07988685357804112,
            0.15602451386209631,
            -0.08033197651531881,
            -0.21723940326233754,
            0.06700106874373112,
            0.018510202762993238,
            0.17363694520070116,
            -0.07829085960111919
          ],
          [
            0.12929361139522644,
            0.09918280304005088,
            0.1841509376121881,
            0.15923088919782177,
            -0.057067486664360845,
            -0.14122446756985568,
            -0.09007904558352402,
            -0.07699896106125263,
            0.14948311565221836,
            -0.08707888166891269,
            -0.19448048096634252,
            0.20746994560515586,
            0.16555467937833732,
            -0.08492630731862488,
            -0.11305426955069105,
            -0.03086724934113162
          ],
          [
            -0.026221509942164264,
            -0.07746927377882891,
            -0.2375973407994706,
            -0.01305493981132317,
            -0.19425844386377014,
            -0.1317757841932559,
            -0.24879633326268916,
            -0.060447502476942784,
            0.06508733304947288,
            0.1470727999612108,
            0.2463508399736525,
            0.03662940701596496,
            -0.12857802358310164,
            -0.1595656012380848,
            -0.07422580482445595,
            -0.1824641368601959
          ],
          [
            0.03878789733206024,
            -0.19903470077013966,
            -0.19628314199746233,
            0.19753397366119316,
            -0.19795386111933713,
            0.004227932662732222,
            -0.1328750171339484,
            -0.03113460533171999,
            -0.17472822781035682,
            -0.08503282272198176,
            -0.11236255936565304,
            0.13470565626162087,
            0.20576069103394853,
            -0.07024981120210912,
            0.050479106212282,
            0.1965482542979703
          ],
          [
            0.10263891297453531,
            0.12402743432067637,
            -0.11251963883622991,
            0.04809944686635673,
            0.1747687488049115,
            0.09347228975113668,
            -0.07020337151818035,
            -0.03819898603794981,
            0.03053931090045775,
            -0.24397274653552914,
            -0.05706440483317251,
            -0.18548235669864493,
            0.04016458292765815,
            0.07211627987285707,
            0.04396271935265188,
            -0.09330912675758114
          ],
          [
            0.05073692015782538,
            -0.13749450642052524,
            0.18718694657131651,
            0.12317582988430369,
            -0.22787591026320245,
            -0.20153609118128532,
            -0.10079974402644798,
            -0.1262427046231631,
            -0.24382327476679838,
            -0.0785533112070454,
            -0.03633128638954677,
            0.241437046431258,
            0.16287709992319727,
            -0.03075125830869563,
            -0.05331722250783569,
            0.22262569845333408
          ],
          [
            -0.1313202677366908,
            0.03267447108263604,
            0.0021861849219216335,
            -0.04186088283467314,
            -0.09100576964642086,
            -0.06451012939145057,
            -0.006933084711114235,
            0.05802350707582813,
            -0.09067484382460037,
            -0.22352084839143296,
            0.1649582995788195,
            0.21915066726086954,
            -0.24413981016566805,
            0.02211760952814319,
            0.2045759441888708,
            -0.12003058853334062
          ],
          [
            0.20438251845702185,
            0.23178471000557915,
            0.24839552644673327,
            0.200083873030087,
            -0.16862489194882038,
            -0.1805439511847218,
            -0.21050798246588553,
            0.03358895317471249,
            -0.04135195599161679,
            0.14325356645813692,
            -0.08413913475074525,
            -0.07921878569503794,
            -0.1669938777019864,
            0.16113009893381186,
            0.04201350606454465,
            -0.10325148690145272
          ],
          [
            0.034099607346807885,
            0.06473349814440146,
            -0.23254061521596053,
            -0.12945421990364625,
            0.09039478305416743,
            0.14765246887111025,
            -0.16616886754935992,
            -0.03916336037434666,
            -0.20993333752409168,
            -0.245913838112968,
            0.13072296324117258,
            0.204694071697982,
            0.10141335891640998,
            -0.009110019693869886,
            0.07699354682510144,
            -0.24243633725261374
          ],
          [
            0.24562719426444013,
            -0.04985438740492579,
            -0.16079149254919825,
            -0.23082257223785618,
            0.007662963020483482,
            -0.23527186466637076,
            0.06832167343445181,
            -0.2030203409677734,
            -0.04402893004653378,
            -0.21554444892433824,
            0.015370850997660519,
            0.15421854759794054,
            0.04246727752266799,
            -0.06282415848716631,
            -0.010282958622629533,
            0.16637408497458178
          ]
        ],
        "wk": [
          [
            -0.029025597869887086,
            0.07014818698470747,
            0.2038354288741738,
            -0.10650407412704427,
            -0.08709973210965155,
            0.00041981252320087535,
            0.1808572270052796,
            -0.11599334471472361,
            -0.09978727287711037,
            0.02213401404125865,
            0.01696853649551478,
            -0.008201827422666601,
            0.05712863012870531,
            0.03858146421946833,
            0.0813168903051058,
            0.13778600754673564
          ],
          [
            -0.00594012568302645,
            -0.05460877112063599,
            -0.061625518225915665,
            0.08131511014664744,
            0.2244562774882052,
            -0.23554595105512188,
            0.1910643252178729,
            0.11963592915871823,
            0.03608873408188777,
            -0.20573313426249543,
            0.168027753222211,
            -0.24684719683232165,
            -0.0005866895659175696,
            -0.013060581698579609,
            0.22287912221195696,
            -0.0003758181489371081
          ],
          [
            0.15856172704992796,
            0.005824741318119203,
            0.028695732865462745,
            0.1331253178344234,
            -0.015984019885195534,
            0.017170343632702954,
            -0.1816796810087931,
            -0.18165680095568915,
            -0.19900723003098003,
            0.18516761069769722,
            -0.22175953498406156,
            0.10785058648882011,
            0.0791844144252479,
            -0.08155622519095108,
            -0.15059612157350963,
            -0.20217115922385645
          ],
          [
            0.0315939643025169,
            -0.24931448483858193,
            0.020635087312586533,
            0.05067578445478385,
            -0.038887381775994094,
            0.13172646878454028,
            -0.025843162004804777,
            0.07866752193794192,
            0.029105504291947276,
            0.16662508674646548,
            0.1861181479601297,
            0.22311058785718715,
            0.16250733665008074,
            0.15039698571002005,
            -0.23624714899092442,
            -0.21769191768252155
          ],
          [
            0.23584324178025315,
            0.15974658674295214,
            -0.06761975541647841,
            -0.18784655138444944,
            0.11071459061708833,
            -0.1302368814925732,
            -0.06073287789842343,
            -0.14337179289287014,
            0.037699945379032596,
            0.1378491151774159,
            0.1801896450650879,
            -0.10606531995833915,
            -0.05009909801257395,
            -0.06934512032898756,
            -0.0991079114599034,
            -0.18589311133207043
          ],
          [
            0.15792508028678046,
            -0.19618365154515424,
            -0.2408850841173219,
            0.08862806481933147,
            0.08292860778458863,
            0.20438970717369925,
            -0.027878183215722326,
            0.07930131512752694,
            0.18313852905968694,
            0.1095952551548764,
            -0.15459677175139425,
            0.008662377270896441,
            0.09533100707417803,
            -0.22622364827646832,
            -0.21045465586262888,
            0.08285880037208268
          ],
          [
            0.22624006474765965,
            0.08757269508976705,
            0.147457230000572,
            0.1786548592342044,
            0.18200499336986378,
            0.23459814142724977,
            -0.14044375896617273,
            -0.0326540588683271,
            0.02733277657505691,
            0.06789366449297184,
            0.18700192905474253,
            0.214117497963554,
            -0.13398827371416525,
            0.076410707934196,
            -0.08952852345927283,
            -0.20918032235176628
          ],
          [
            0.1217164553108151,
            0.01629881027911211,
            0.12851237529295217,
            0.16410267314373445,
            0.03847273872271991,
            0.19127062546494927,
            -0.13970295146835737,
            -0.0657933088081771,
            -0.1841190709683587,
            0.0780811763990009,
            -0.19377119266992787,
            -0.0006056656238965101,
            0.17166053595901265,
            0.1681436695971162,
            -0.14495308162962942,
            0.12490557816229846
          ],
          [
            -0.19970293031767142,
            0.0858705931254863,
            0.041207045735450455,
            -0.06476715873603306,
            -0.24257141701347917,
            0.08432361375533305,
            0.1173123783589644,
            0.2382065848100523,
            -0.03129384910719856,
            -0.038360811249496536,
            0.24110655243478152,
            -0.02627112188417422,
            -0.014157389773040057,
            0.17086122218095742,
            0.24239732020546761,
            0.10758508892601418
          ],
          [
            -0.23674723484301682,
            -0.0003859647773903421,
            0.09936368982557753,
            0.24216943398583834,
            0.1903341476989456,
            -0.13461437613241573,
            -0.01620472385556606,
            0.07343717290784779,
            -0.044245937853598226,
            0.16382239458876544,
            0.236683904807479,
            -0.14869237025669488,
            0.2380416333476925,
            -0.007911529247014115,
            -0.13445235797297442,
            0.17184493399963272
          ],
          [
            -0.15976091731675224,
            0.05280466348583944,
            -0.2377759771654725,
            0.24614666091364362,
            0.1937639618379342,
            -0.0850667634938925,
            0.06293776230959375,
            0.12718853259029284,
            0.04017938026595428,
            -0.20240644389298304,
            0.18014633915088327,
            -0.19739279988455646,
            -0.08315809184764988,
            -0.1383144980317256,
            0.17572728087759357,
            -0.1431792228090481
          ],
          [
            0.13147830500163332,
            0.21579718595022604,
            0.21855450988991346,
            -0.21142928616695844,
            -0.14872171049730185,
            0.19728767020434118,
            0.004112791910595751,
            0.08272119040317312,
            -0.09791381906939982,
            0.07779070785179949,
            -0.1254227873392695,
            0.20862571534660226,
            0.1128021455505908,
            -0.0695661934939379,
            0.14605267155568083,
            -0.23954078075403318
          ],
          [
            -0.042156943877143443,
            -0.08182913332448281,
            0.19887193037344875,
            -0.07505280139671561,
            -0.01588827331252349,
            -0.03695065159038924,
            -0.06681578727048765,
            0.16673263659196652,
            0.06387064697960129,
            -0.04481998507233557,
            -0.1812825682901246,
            -0.16694247194582534,
            0.0550079788064617,
            -0.22039324807357674,
            0.030810604243785854,
            -0.09271054814216033
          ],
          [
            -0.1863977034059658,
            -0.022671580014814837,
            0.24395427297539937,
            -0.11150450487531224,
            -0.1617726481827004,
            0.11194891226040095,
            -0.08671349287131257,
            -0.18784623400488762,
            0.15803286607294387,
            0.21356886710354747,
            -0.2461438392594618,
            0.0647536285956235,
            0.10985414420625765,
            -0.01505446555901761,
            -0.16706805967412425,
            -0.17432120001161236
          ],
          [
            0.10139912756374621,
            0.1331889066738743,
            0.0032324687910937596,
            0.03266976756349475,
            -0.1857745523089034,
            0.21985343067170904,
            0.17962651955689588,
            0.03230462841054482,
            -0.13956323798114856,
            0.010202100890304544,
            0.1422400779774331,
            -0.1800607481200396,
            0.16676774765142657,
            -0.23608277649740864,
            0.13756570703575927,
            0.20456685375642117
          ],
          [
            0.11714317935161368,
            0.14013829930354388,
            -0.2317421194485361,
            0.24642301616644288,
            -0.15247025463436528,
            -0.22660896937130282,
            0.025869370811729575,
            -0.015597416280697128,
            0.009186443086460204,
            0.137299994408103,
            0.00435453069116269,
            -0.24154616461486889,
            0.24884300422043537,
            0.09045605966638613,
            0.008262543703699825,
            -0.134290034829897
          ]
        ],
        "wv": [
          [
            0.17000485345583283,
            -0.06876431936556768,
            -0.24639548444948536,
            -0.13481880865816886,
            -0.18370424472221325,
            0.17032438115066872,
            0.14123603001515042,
            -0.16355177475283494,
            -0.11751550659594112,
            0.19220829101085632,
            0.17776427871124836,
            -0.03653835852419836,
            -0.2226831025429306,
            -0.07019832789367478,
            -0.05090764089732162,
            0.10291833050525105
          ],
          [
            0.08687965898038845,
            -0.07480366397932262,
            -0.0071355463469352535,
            0.10408199536476402,
            -0.17779416245471302,
            0.2372961119267883,
            -0.038713388495191695,
            -0.09948530590847603,
            0.08776822405749359,
            -0.03652650405683641,
            0.17774283020868165,
            0.18977029286866176,
            0.11720933631586897,
            0.14212109701148706,
            0.003690954199023245,
            0.1022653136518035
          ],
          [
            -0.2220986563280287,
            -0.16982244109891223,
            -0.22887740702647433,
            0.02570568612726974,
            -0.012469244149647932,
            0.12464976579202117,
            0.19741785984239024,
            0.06004331032837711,
            0.0021775403091577137,
            -0.21681086600278301,
            0.0761506892197302,
            0.24798466939571137,
            -0.23899850984055,
            -0.07162694824188215,
            -0.16529170690275635,
            0.13531712798603343
          ],
          [
            -0.24519737639740888,
            0.05220170527428408,
            0.053178304237858874,
            -0.04227698165239242,
            -0.06644782452442088,
            -0.22793335309248888,
            -0.14749665393762545,
            0.19462946002951484,
            0.20100537091058113,
            -0.22410722446702835,
            -0.200012817436048,
            -0.12059438763901859,
            0.00683233651922239,
            -0.13594295803379963,
            0.10878792108422687,
            -0.1281523111712093
          ],
          [
            -0.1031650112191843,
            0.044106117914832516,
            -0.14279876748831435,
            0.2464652267286922,
            0.1350138614358188,
            -0.09661680509209139,
            -0.10055544197150158,
            -0.16697050135772762,
            -0.11401811336059268,
            0.1601170346829446,
            0.1756049291288303,
            0.13593120649107543,
            0.1663385562471961,
            0.09579339971763569,
            -0.16387196814795776,
            0.0012355079932347133
          ],
          [
            0.1740795640520691,
            -0.13475361949688353,
            0.06350663462136577,
            0.19814816037321242,
            0.2374721795634251,
            0.19044696791150298,
            -0.0017418183901398167,
            0.09977657037344802,
            0.04695127196043061,
            0.2461314302166053,
            -0.1991399920691199,
            0.07855298863979363,
            -0.10617068356578786,
            0.0055875401478595104,
            -0.1917860202146362,
            -0.18078771229968021
          ],
          [
            0.14652438979893107,
            0.1131744218360592,
            0.12330564645441966,
            0.02098080073123815,
            0.05480068202893427,
            -0.2169337234792926,
            0.19510475502934388,
            -0.21212703284532033,
            -0.23085322890026494,
            0.02161337300919812,
            -0.1024132088431831,
            0.2230236866130108,
            -0.07106759272942134,
            0.17255738937823772,
            -0.022928767360085662,
            0.1610650611536661
          ],
          [
            -0.15850669198323925,
            0.09499623263117601,
            -0.17468151705484344,
            -0.24568506226313352,
            0.09598479311400447,
            -0.09766536135167489,
            -0.23662000979854855,
            -0.04642665610699919,
            0.2097862342384347,
            -0.17400826389969945,
            0.19713748902736072,
            -0.23471368320987854,
            -0.22373608213993096,
            -0.19330231739461196,
            -0.05983139898729764,
            -0.11427736391863469
          ],
          [
            0.0037315254242589074,
            0.11840931739631227,
            0.14428210705507144,
            0.13157370357580345,
            -0.10679293271701783,
            0.0018219404153438801,
            -0.11334096677327435,
            -0.005707308526617476,
            -0.14974766492269323,
            -0.16508768294739432,
            -0.13830416849227792,
            -0.12213934806949661,
            0.2022692807210078,
            0.13105950814979592,
            -0.10888219263799774,
            -0.17803877984033215
          ],
          [
            0.2408078944752018,
            -0.11780688617797834,
            -0.12332745226992402,
            0.18053875012193638,
            0.10705566446018588,
            0.024827093759195555,
            -0.07237455418668357,
            -0.22153419433058463,
            -0.1862413018932827,
            -0.19495638158779793,
            -0.04283473053844062,
            -0.14371135755679346,
            0.1593993402521563,
            -0.07097727712220021,
            0.13851162055233562,
            -0.055020142390606645
          ],
          [
            -0.07433135628208505,
            -0.18140649605325165,
            -0.16215476242129626,
            -0.026314690752887324,
            -0.11971979093168704,
            -0.026516842742574764,
            0.19687672837545778,
            0.010277849820091318,
            -0.02574350238242883,
            -0.08700801463074226,
            0.11307101486000333,
            -0.12210629275708369,
            0.07907653513273907,
            -0.035338718414502555,
            0.15165343500182749,
            0.233792658034929
          ],
          [
            -0.18051984595678947,
            -0.23324278269805224,
            0.11154077430585478,
            -0.09435065403526413,
            0.10964049497343123,
            0.2076515827183971,
            0.137961503945851,
            0.21128806870869565,
            -0.03588939104179275,
            -0.06346532582180384,
            0.23937376607573538,
            -0.2025502876510239,
            -0.18334974518570285,
            -0.23888608399355635,
            -0.04701001796900056,
            0.20475531872875896
          ],
          [
            -0.029665608286935072,
            0.1861315496577529,
            -0.21244910935511785,
            -0.10546837990748348,
            0.10656432148468543,
            -0.024661470305497653,
            -0.1925471630255881,
            -0.1865752650900442,
            0.22175164158694344,
            -0.12443931596106296,
            -0.05903421096992914,
            -0.20793276600150615,
            -0.22101415002600316,
            0.08994498622883328,
            0.06220171151796134,
            -0.10456825422274336
          ],
          [
            0.20228415046680207,
            0.22382601845871042,
            0.21656541947847438,
            -0.13689967482239215,
            0.2135702674226479,
            -0.20494053079148358,
            -0.05604725153507927,
            -0.22912880705376684,
            -0.03309959773395127,
            0.1775739282661515,
            0.18506341496133957,
            0.02417133867770861,
            -0.06552221940434878,
            0.061307038974129195,
            0.034123074491921916,
            0.07902098971284269
          ],
          [
            -0.19450245235590205,
            -0.21586266338278975,
            0.14451384201411036,
            -0.14423242742374254,
            -0.011953083362226507,
            0.052126001410526306,
            -0.10737795459893931,
            -0.23991031246202793,
            0.06616221739976248,
            -0.18525607630515953,
            0.13022036083576624,
            -0.13317335995612806,
            0.11725303986325207,
            -0.08532612899092834,
            0.07153656549251108,
            0.12882020533524075
          ],
          [
            -0.1057183779756036,
            -0.15844084692056992,
            -0.16074047802995184,
            -0.02190658385388626,
            0.03480667317171781,
            -0.22591224513142452,
            -0.07615220282335083,
            -0.07572545761227463,
            -0.1648654209575664,
            -0.11870037736726,
            0.16621517610604927,
            0.03567652123091516,
            0.07981911102061856,
            0.24463712286530273,
            -0.1547321053940506,
            0.09293908982305643
          ]
        ],
        "w1": [
          [
            0.0903392329663461,
            -0.11704319799899952,
            0.23752676954178026,
            0.12285187796542982,
            0.01567565653631746,
            0.11584451267242393,
            -0.15336704839251436,
            0.22996615510297452,
            -0.1266341316846159,
            -0.12010945207706211,
            -0.14244972270314973,
            -0.15399686489668152,
            -0.2464055919851291,
            0.002407245130897427,
            -0.2209488358263265,
            0.031731244294705654
          ],
          [
            0.15525332870246808,
            0.13289472197241248,
            -0.09857653122467978,
            -0.03098750956209872,
            0.05891862614133312,
            -0.04568312814616438,
            -0.19590238059451717,
            0.1809452636722303,
            0.22261306540415673,
            0.06634796760470908,
            0.1407094773891475,
            0.14218191159067067,
            0.03080390869976942,
            0.01851757178973987,
            0.05521808886841781,
            -0.07259230129677299
          ],
          [
            0.04972933743218284,
            -0.2187826612581378,
            -0.13336521089892533,
            -0.16307339754592884,
            0.13285936095309053,
            -0.0594404949786048,
            0.12714082577155833,
            0.024749301493483766,
            -0.21418024431401317,
            -0.22768373818782275,
            -0.05442316084230134,
            0.07861633034689543,
            -0.17762761782017294,
            0.11082838140435756,
            -0.19881581053801425,
            0.23487237997229635
          ],
          [
            0.23392805935258704,
            0.12269286488741461,
            0.18773628576673435,
            -0.12075913177965124,
            0.18824338709769475,
            0.17650639787520545,
            -0.20786733233613858,
            0.06845202155601107,
            -0.1519719632429712,
            0.0009688153408632943,
            -0.030855162487069567,
            0.21476125542935082,
            -0.026722285191239897,
            0.154393572069376,
            -0.15592465932002628,
            0.20335872025178917
          ],
          [
            0.23571263863761305,
            0.02805839445999052,
            0.05621204491010336,
            0.08223264948699348,
            0.18183772779243473,
            -0.0706829132281082,
            0.23368041308252974,
            0.031400744311932224,
            0.00815760131974402,
            0.025640277637264116,
            -0.2082951796834676,
            0.030345976577702802,
            0.14529901341136547,
            0.0425522494851988,
            -0.06633824403096286,
            -0.06405155007667135
          ],
          [
            -0.20377316798585443,
            0.2321737945053392,
            0.011645806928396545,
            0.09845700740212819,
            -0.06323194395711376,
            -0.058491076837436685,
            0.14602513059729533,
            -0.0788989080823721,
            0.074028354303676,
            0.021440833922590507,
            0.1262243025931772,
            0.11545607359750833,
            -0.045070521905312876,
            0.0847093341268172,
            0.20243832068272666,
            0.029410622235399832
          ],
          [
            -0.016857970335810123,
            -0.030593467177898993,
            0.1258027526011368,
            0.014159377035646754,
            -0.1723354943660069,
            0.02976573895637588,
            0.09082253742999351,
            -0.18340512800915623,
            -0.08800560506484117,
            -0.049294789985241096,
            -0.04912186791825095,
            -0.011883860670697504,
            -0.1384379786830295,
            -0.12802532726924085,
            -0.0847086609808379,
            -0.028301893908514418
          ],
          [
            -0.045263046831085896,
            -0.15717211016152516,
            -0.06835835512384011,
            -0.06057773166279601,
            0.21819335241777757,
            0.09593324263822052,
            -0.07696588985614572,
            -0.08260436615222533,
            0.2154761226556808,
            -0.2480039271589841,
            -0.0919243968034273,
            -0.20555431539332025,
            0.24161125608573694,
            0.1651659141040711,
            0.1684239719674133,
            -0.22742882970869996
          ],
          [
            -0.03949559500048609,
            -0.10390977534304276,
            -0.24269877663865166,
            -0.11505556697459726,
            0.02562392298980326,
            0.17833829194354664,
            -0.16710204928537836,
            -0.0010309817340779259,
            0.1394752496965418,
            -0.005806914179910671,
            -0.16699729182800666,
            -0.12424051776143656,
            -0.11306410228895983,
            0.13720154582774677,
            0.2270165818829406,
            -0.0332858481437434
          ],
          [
            0.1786034178325193,
            -0.17339652656987342,
            0.07264453240493803,
            -0.1561041003967796,
            -0.08285105274604837,
            0.2370565475063821,
            0.242291241343993,
            0.06993525540847449,
            -0.1807477834993848,
            -0.23510746083977574,
            0.23774571021597107,
            -0.1267299349536714,
            0.2051141253008966,
            -0.18317142991562924,
            0.035550676382608656,
            -0.19833108576354827
          ],
          [
            0.22900102933346675,
            -0.17508013035448733,
            -0.1818922526910712,
            -0.09528817281364788,
            -0.12479139976785468,
            -0.21410030330108615,
            -0.19219283073869042,
            -0.2362709499182577,
            -0.07154307792202418,
            0.13227647444750965,
            -0.07058185010650389,
            -0.07496936912015592,
            0.007189141114525377,
            -0.06263837418143557,
            -0.07852553495954501,
            0.12224737893378129
          ],
          [
            -0.05531697274990195,
            0.09870181121163486,
            0.1038724329071592,
            -0.02844015278920462,
            -0.18263552165426206,
            -0.2036445322400706,
            -0.0068107606878139975,
            -0.034717865162068984,
            -0.20243914566153418,
            0.19016458025623872,
            -0.23140311137511904,
            0.09883743463702416,
            0.16714959208538135,
            0.10128008649318929,
            0.23932009110359959,
            0.07998149373847302
          ],
          [
            -0.07347792930924343,
            0.066744553637692,
            0.1327201674703578,
            -0.19988366107360456,
            -0.04077126967738234,
            0.010761784076369966,
            0.10774981519924563,
            -0.11753668406240388,
            -0.1943792437792986,
            0.20547621133621913,
            0.10803746909328742,
            0.019759371329993034,
            0.04256406951231903,
            -0.22900857175752282,
            0.13211120420689185,
            -0.11134368381217963
          ],
          [
            0.1696986186239007,
            0.02758556578070319,
            -0.2268975858590537,
            0.22447110177967503,
            -0.05554219136850119,
            0.19684258024727003,
            -0.0037457751070511464,
            0.14579437956568528,
            -0.048826525033719446,
            0.013805532168122976,
            -0.021794876856100424,
            0.005582203460358223,
            0.10808311764919054,
            0.07120382487165847,
            -0.12149691566935561,
            0.22352776623622114
          ],
          [
            0.039533191524783295,
            0.2276183717480471,
            -0.0043061328228282784,
            -0.23434503604857143,
            0.24538727892727805,
            0.08550662298651289,
            -0.21582389444297634,
            0.2108235139913825,
            -0.06965120713308792,
            0.051486364717578226,
            -0.002268558289844359,
            -0.10261398923029921,
            0.2015314254655802,
            0.07353751430298486,
            0.07898261837638697,
            0.034276653549301074
          ],
          [
            0.15996775290980061,
            -0.22066846179860852,
            -0.19551241733227637,
            -0.19557673974193135,
            -0.17538436657410617,
            0.15232585875107377,
            0.060509654793069315,
            -0.14089048829298748,
            0.1439110051780293,
            -0.05977360727501865,
            -0.17154473619917165,
            0.17443675829564684,
            -0.14556508868354787,
            -0.17973955105668968,
            0.11093462536492792,
            0.09114578774797967
          ]
        ],
        "w2": [
          [
            0.01819020389028389,
            0.23594823746868793,
            -0.10551222281041517,
            -0.14792821707007922,
            0.24398000303576323,
            -0.21590728980072446,
            -0.21613094723258686,
            -0.0758840251449715,
            0.05866803599343217,
            -0.014461260886832914,
            0.23947526910129915,
            -0.2353855558876488,
            0.16249873469075782,
            -0.16976071032737244,
            -0.1333319773848276,
            -0.23531482051135613
          ],
          [
            -0.12322944377773111,
            -0.01825104249231607,
            -0.16681120287086956,
            0.05114385431605407,
            -0.24678120254138125,
            -0.009333814082234845,
            0.2374310717656392,
            -0.1510021477199271,
            -0.22088300000825173,
            0.04898666224435191,
            -0.20065645842038407,
            -0.20147750806712936,
            -0.16412492042229904,
            -0.16510109066712436,
            0.08766694996442154,
            0.06552128383339804
          ],
          [
            -0.11216736783212866,
            0.06463816197502043,
            0.192503299251824,
            -0.09653451080780888,
            -0.17105531931659707,
            0.1531771719030126,
            -0.18554593588402662,
            0.07810088344300228,
            0.12047911440376634,
            0.12043886530442763,
            0.05551477203916052,
            0.06594243400940783,
            -0.0396976320276338,
            -0.16905177349685271,
            0.05203982754200052,
            0.13082296231695056
          ],
          [
            0.1881538530574212,
            0.18238390129522336,
            0.040307687915947236,
            -0.07599441065672762,
            0.07307006247035906,
            -0.026514364233261728,
            0.1490965488575029,
            -0.04198671740363998,
            0.13080420526066958,
            -0.1301153322805918,
            -0.01212636438893178,
            0.22568487116126398,
            -0.021383924505263538,
            0.19708443773546513,
            -0.06441642832415918,
            0.2048368759708568
          ],
          [
            0.0819793065980466,
            -0.1488048329123643,
            -0.009850018778839837,
            -0.19754907679096456,
            0.17825963827112729,
            -0.16766682502641336,
            0.1364521907638567,
            0.09886121792572135,
            -0.2418963397421288,
            -0.218276422985884,
            -0.1747615239396476,
            -0.18182039976557113,
            -0.05043208648115469,
            0.04036056902918591,
            0.09976096579760302,
            0.21509802782382736
          ],
          [
            -0.1325717272395258,
            -0.15268405397739673,
            0.04816076870532061,
            -0.1781126950074884,
            -0.22393496586894207,
            -0.16322999929728277,
            -0.19923637611350214,
            -0.18267294142563661,
            -0.18379101277708712,
            -0.21630990253594337,
            -0.028791890518457864,
            -0.07963717006417931,
            0.10227191870265687,
            -0.15884242371290244,
            0.1351123550759314,
            -0.017658801433592358
          ],
          [
            -0.10772235337894306,
            0.2223454586608232,
            0.18989497848964032,
            -0.20722546712744563,
            -0.22134879854349984,
            0.15820136555958428,
            0.14850243395785684,
            0.2321341182805562,
            0.08499794485411499,
            -0.13319784312772298,
            0.11595859758113446,
            0.0322129936701303,
            0.23249799959709977,
            0.0615727237578165,
            -0.2048395473697906,
            -0.08401202098071811
          ],
          [
            -0.2021298795810046,
            -0.21491776530270185,
            0.24759300921151198,
            -0.1477636955111891,
            -0.07403274650301832,
            0.16041114273347262,
            0.1370242758440691,
            0.040958701583526866,
            0.09195478976711396,
            -0.19757040062643136,
            -0.16592428319445837,
            -0.21531215120301478,
            -0.15017511172507764,
            0.17922716337015218,
            0.13434975577843591,
            0.12916080197113958
          ],
          [
            0.2271624538526629,
            0.21913384158236793,
            -0.0179508015866011,
            0.05064463046214577,
            0.1920862001158364,
            -0.08597729180347347,
            -0.1173094667843068,
            -0.10767949885131266,
            0.11690916211603401,
            -0.1806785462726817,
            0.11149817930224334,
            -0.20225490556085496,
            0.22027596445740436,
            0.2495572718734315,
            -0.24268576809571973,
            -0.05316039678458401
          ],
          [
            -0.20398049499690452,
            -0.23397234015937168,
            0.18292968177593008,
            -0.017403814057762087,
            -0.11350259560385788,
            -0.19240407000747822,
            0.22540794907436765,
            0.2188493703051675,
            -0.21010926961906481,
            -0.23240553680071876,
            0.19964691606604876,
            -0.20625009634728003,
            -0.10141717223260503,
            0.054516870495715686,
            0.2247274932438477,
            0.2388972303962316
          ],
          [
            -0.03776622475733829,
            0.1108346756292464,
            0.05497807131728405,
            -0.01346053898427014,
            0.23797149402967188,
            0.0879950083957325,
            -0.021198688023639646,
            0.1273104228005315,
            0.07268095032684897,
            -0.1801109842292412,
            0.1303621008787966,
            0.019515001261884126,
            -0.19333060916058384,
            0.2390130752075785,
            0.12566020598197045,
            -0.09840352527441185
          ],
          [
            -0.07433302099941141,
            -0.05473579255841565,
            -0.014793408215335747,
            0.04525018580339984,
            -0.13571568550500954,
            0.21747273056233843,
            0.22218110343883418,
            -0.22712937764672497,
            0.03669280446774986,
            -0.06591507565675946,
            -0.1404723791671838,
            0.2338033189322728,
            -0.21612469082333854,
            -0.053688182419553435,
            0.11531347790116685,
            -0.033695464662766336
          ],
          [
            -0.076252025933817,
            0.03714749779571979,
            -0.07316800099122171,
            0.1843072796477422,
            0.19479242914651737,
            -0.07209807885432253,
            -0.1124483133234358,
            -0.036497190978766345,
            0.07791314728498494,
            0.015601747554691434,
            0.164859949474161,
            -0.1079163450424326,
            -0.10130107674547623,
            -0.08205786383912289,
            0.2003407977669727,
            0.03579359672437288
          ],
          [
            0.2160721078849052,
            0.11356962712337303,
            0.24323359119575505,
            -0.1433834423886652,
            -0.0903417097984044,
            -0.06141995818785464,
            0.14012141604043063,
            0.1824261780836725,
            0.015122953002816455,
            0.13414576248988672,
            -0.06539658800787043,
            0.24145195143064646,
            0.17563937382769615,
            -0.185898534277963,
            -0.09268883339784141,
            -0.10459066525941159
          ],
          [
            0.2267405165195855,
            0.057816836733789755,
            -0.09406914157954963,
            0.08530475672795818,
            0.08378555957470885,
            0.23715088280668817,
            -0.19019748359370994,
            0.11646747252689701,
            0.18690965841996876,
            0.19147463026854047,
            0.027210987247453626,
            -0.0490894854430743,
            0.13794071499952493,
            0.015789115333290256,
            0.11630614366628672,
            0.007516074691705429
          ],
          [
            0.21941709413901614,
            -0.029533604512492536,
            0.03698807323698358,
            -0.06532351140126691,
            -0.11823405753014321,
            -0.02939847820580324,
            0.11582399020352088,
            0.21459711225000377,
            -0.14101185604514577,
            0.20977796558971326,
            -0.2028968285097103,
            -0.23344438510684568,
            0.1078026539036088,
            0.1359803447861945,
            -0.0838185404376473,
            0.2047812515693153
          ]
        ],
        "layerNorm1": {
          "gamma": [
            0.9982228731542362,
            0.9969802701623314,
            0.9996949667296953,
            0.9986920262323333,
            1.0054355726947852,
            0.9991280290304765,
            0.9981330516124991,
            0.9999842017923235,
            1.0002657198120035,
            1.0008708267617967,
            1.0013999168569268,
            1.0009455299000265,
            0.9963664184674774,
            1.0026266387382325,
            0.9993005244346972,
            1.0018960098151466
          ],
          "beta": [
            -0.0023744177603761784,
            -0.0013773569658937996,
            -0.001238190042488958,
            -0.003270814201886209,
            0.004974423256668132,
            -0.0015572576959575046,
            0.002447484436847156,
            0.0023371163624747626,
            -0.004088985957808621,
            -0.0010409368684904862,
            0.005376529749164939,
            -0.0018392710357836564,
            0.0014745738462593385,
            -0.0007429749751458128,
            0.0022109613633008824,
            0.0023410636392637058
          ]
        },
        "layerNorm2": {
          "gamma": [
            0.9979615496834451,
            0.9922923436457831,
            0.9973685379718702,
            0.9988696381114558,
            1.0024060963568313,
            0.9981353518436145,
            0.9988298817053357,
            0.9971174796124543,
            0.9987346695663003,
            0.9991721305903428,
            1.0015825465449721,
            0.9998511716171227,
            0.993892780412005,
            1.0015961152025916,
            0.9947066507302957,
            0.997371928663649
          ],
          "beta": [
            -0.002758699922814612,
            0.0000450852287887027,
            -0.002285015730858772,
            -0.004465531676359975,
            0.0015021187419344195,
            -0.0029249154545855833,
            0.0029075311652620767,
            -0.0014073586153654132,
            -0.0030631292771583734,
            -0.0036465030796098688,
            0.004075204996716007,
            -0.002889007849522464,
            0.003026621172361076,
            -0.002267335776965027,
            0.004090943417862134,
            -0.0013110763724963933
          ]
        }
      }
    ],
    "output": {
      "weights": [
        [
          -0.02509915612853719,
          0.05869897866921238,
          -0.01252440683986128,
          0.09709929150381177,
          0.06406985010595088,
          0.11043659377989701,
          0.057454709454145755,
          0.051791411698497845,
          -0.05929324647797949,
          -0.012810744676227462,
          0.12351914423061168,
          0.03668487559422459,
          -0.09761156621087097,
          0.05236555659803473,
          -0.021050555897436766,
          -0.06595009934086676,
          -0.024370288810961507,
          0.1309427772197888,
          -0.10135908770308336,
          -0.11490981497340044,
          -0.0996235416334288,
          0.1034356590478472,
          0.03370355676200344,
          -0.06961565194803163,
          0.0672539250661392,
          0.07490991942020041,
          -0.08726596955379017,
          -0.07985460702020529,
          -0.07238165138863077,
          -0.006889408931835036,
          -0.02593352788479647,
          -0.02744714801535809,
          0.02337028358048239,
          -0.04763413637491192,
          -0.039233209664334814,
          0.010142625800940646,
          0.12215026545085728,
          0.0926145555996584,
          -0.049143311036370346,
          0.05009474364903468,
          0.09680438913156808,
          0.04343382932264018,
          0.029295383536479362
        ],
        [
          0.0008633741580302212,
          0.10267735425248013,
          0.09293265271891517,
          -0.11186129321933361,
          0.0679056390128089,
          0.048664221843458366,
          -0.1060509005280993,
          0.08176822466305173,
          0.07658175396204982,
          -0.025380744527506435,
          0.05315102106022085,
          -0.09771107732255176,
          0.036905172131924395,
          0.04464902241955395,
          -0.07982059138151915,
          0.1021178122442697,
          -0.02972595349432438,
          0.10676394061395604,
          -0.07362208901390428,
          0.0015969622892326942,
          0.06754311237604624,
          -0.015869988558273016,
          -0.04857622308948553,
          0.0338436608844023,
          -0.002070693048837202,
          -0.11092579909604525,
          -0.02737735951201673,
          0.11741881444669437,
          -0.054165470889382145,
          -0.10225553992130439,
          0.013685171228698756,
          -0.02274602999969541,
          0.12880986732439798,
          0.08380123822668907,
          0.09218434862857504,
          0.010099562920715257,
          0.09269111353030028,
          0.11434669865932254,
          -0.08081688706994308,
          -0.02392030665268933,
          0.05317950724269174,
          -0.0074037318160902355,
          -0.08693471734263074
        ],
        [
          -0.058865245050939,
          -0.012579410670357677,
          -0.03891041935455216,
          0.11272418223488931,
          -0.0896905286996859,
          0.07612381167787953,
          -0.10501220628015544,
          -0.08073231212774234,
          0.05248095541410319,
          -0.06075183029308956,
          -0.04080509335102791,
          0.030217334645192363,
          -0.08043441767675932,
          -0.12463379115938344,
          -0.010465819690998761,
          -0.02195765745262725,
          -0.06583897368831852,
          -0.02693272043841215,
          0.12260309077370174,
          -0.07370350040605411,
          -0.10663618385698054,
          -0.12577891884793005,
          0.051331603844909035,
          -0.07736218894419777,
          -0.04119150684237394,
          0.050498265795717846,
          0.04687481735768531,
          0.07823769100687991,
          -0.07273263917619738,
          0.006998054914373859,
          -0.03739509799245821,
          -0.02758923120234717,
          0.014135985599616785,
          0.005798491725086508,
          0.057162558038967914,
          -0.07505428111435637,
          -0.0862334232949407,
          0.001429343895080126,
          0.08520794125118841,
          -0.10335687049652477,
          0.07612472504568682,
          -0.10640292196981453,
          0.10503479235007257
        ],
        [
          0.027227281294924723,
          -0.07412926890683882,
          0.03764962174287172,
          0.0259987128179613,
          -0.038917945844506543,
          0.12009533934214013,
          -0.07777130115475675,
          -0.04966472349525485,
          -0.08121005099068107,
          -0.09020513500717534,
          0.05624166384362424,
          -0.0868388641427292,
          0.0503192956171415,
          -0.08507900241721914,
          0.114704079483703,
          0.04377951174185274,
          0.031120119251802823,
          0.021281413337216226,
          -0.08516565394260592,
          -0.026784799320978516,
          -0.1019218272499734,
          -0.03937251594621507,
          0.07764600195206423,
          0.10699486774692261,
          -0.02098821550822598,
          -0.09276200039275093,
          0.012197698399403975,
          -0.11887434152922088,
          0.11908133618727972,
          0.027560058267723214,
          -0.021856661513057367,
          -0.09620743470651874,
          0.008652257041448357,
          0.07662959258105588,
          -0.0485549368597641,
          -0.09092447923318984,
          0.06454179403030551,
          -0.04137324053624083,
          0.10323960950442017,
          0.08193375928305796,
          -0.046577629814583105,
          0.08778821455547368,
          -0.08501978383467759
        ],
        [
          -0.12076791307562193,
          0.017777825901561496,
          -0.07790959995528998,
          0.09795458251530728,
          0.002451774738646193,
          0.0449016171217251,
          -0.02100089944950648,
          -0.08653340072897583,
          -0.060710692322583734,
          0.09490450216537585,
          0.06859483059016587,
          0.030322030053529573,
          0.01094128779929837,
          0.05375312682634312,
          -0.12332449310980463,
          0.08138311399933308,
          0.04183041298888126,
          -0.03464682317827298,
          0.07601897900428503,
          -0.11146721202531386,
          0.10443449174734439,
          -0.10253559526164227,
          0.07533897888350388,
          0.015373143204517072,
          0.11807548236493516,
          0.10240068681408174,
          -0.09460727810958147,
          0.08098927979767548,
          -0.0445450899476033,
          0.08405883592772574,
          -0.09695154340546475,
          -0.06072204258253101,
          -0.014785477866314973,
          0.018964209652080254,
          -0.028244564045532897,
          0.01231819955754894,
          0.11076857026905117,
          0.08468900909580027,
          0.12367163547041561,
          0.06166735687431142,
          -0.09979969979272771,
          0.05936493695063335,
          -0.11675764272053347
        ],
        [
          0.01369991451346492,
          0.004424081383981147,
          -0.05364958493980807,
          -0.09110369786968113,
          0.057336558117117555,
          0.08178013372070118,
          -0.04709005249810467,
          -0.12544759462519126,
          0.01434143976835293,
          0.034386229783299374,
          -0.11520658194847389,
          -0.045068820311953514,
          0.11730626112544695,
          -0.037350722947040754,
          0.04086064190660945,
          0.042069263746608056,
          -0.0001365898594660593,
          0.11550193852009104,
          -0.024549507898339294,
          0.06838791146897427,
          -0.004124700431308802,
          0.11911192368092383,
          0.11260591442771116,
          0.035271056655409985,
          -0.1053149845458332,
          0.05770425584480046,
          0.07924867818736969,
          0.05917833422262203,
          -0.10708183570062009,
          -0.07546789537642073,
          0.010956617354373924,
          -0.1080755309604402,
          0.08587776531594263,
          0.04151640572341553,
          -0.017463637485015015,
          -0.07583730521718658,
          -0.03806803442558497,
          0.019924000710276123,
          0.04259701122471158,
          -0.06768365748810162,
          -0.070173548778965,
          0.008905236971970702,
          -0.035191464248447116
        ],
        [
          0.027429393919491406,
          -0.06461179054914634,
          -0.01817944841507196,
          0.09796168770501996,
          0.04679196841275968,
          -0.10727592571519402,
          0.08953217739852706,
          0.07171069097282358,
          0.003241217462359645,
          0.03662966478906929,
          0.07977845100587592,
          -0.10255293006198121,
          0.07299522078772602,
          -0.05914715365581939,
          0.021298462778722507,
          0.010045532414440388,
          0.03602153571528981,
          0.10880975917010448,
          0.020917134258744172,
          0.09320538187853994,
          -0.07880485660066339,
          -0.0601163409740422,
          0.11356538285372489,
          0.05514523889457135,
          0.06338865095039707,
          -0.11440308185750037,
          -0.09018691056071212,
          0.04803497686358601,
          0.13154022604580567,
          0.06728957518937942,
          0.08370075892729506,
          -0.04510293048690149,
          -0.043324386290903544,
          -0.12993914876755422,
          -0.023855667384025846,
          -0.038552937882786666,
          0.03611295361645484,
          0.05707394181926374,
          0.018852116188962483,
          -0.05077141799112971,
          -0.009839551817794546,
          0.11067543024571987,
          0.1373056441919089
        ],
        [
          0.0352276887539009,
          -0.04538693988509634,
          0.06700701506240389,
          -0.02663132664596789,
          -0.11352309849243877,
          0.10886597631547318,
          -0.07240004726880732,
          -0.054180249506976336,
          0.046465473677975905,
          -0.10019127541519832,
          0.08763447736313208,
          -0.06602329155666171,
          -0.02414416461820369,
          0.12648986141013446,
          0.0630878850740234,
          0.036681205944844385,
          0.002754526948302217,
          0.11230352503393243,
          -0.011361390444255267,
          -0.027870123082279354,
          0.11452120363182372,
          0.12607877462956488,
          0.10095671636893004,
          0.1016408733257822,
          -0.055592599066349196,
          0.0778731307617975,
          -0.09281901094292032,
          0.015061561617722683,
          -0.06423480676549916,
          0.011793337611312594,
          -0.06483213262740778,
          0.024720366699357024,
          0.08884139643514416,
          0.060313721099191996,
          -0.06556219424439105,
          -0.034744117512888036,
          -0.13312275503166102,
          0.09446477104764486,
          0.05607829767439132,
          0.11801718015823086,
          0.12902224305161689,
          0.007975557875268761,
          0.04158502927241211
        ],
        [
          0.06932506832353091,
          0.07114181219744346,
          0.1091493378140807,
          -0.046979610161388234,
          -0.00716138577965555,
          0.03447614751472047,
          -0.02294713482378273,
          -0.03790112076570139,
          -0.115727401390866,
          0.06754743383055484,
          0.1169145807730275,
          0.06735669595480745,
          -0.11966971805893317,
          -0.043782930859454304,
          0.07334529215656738,
          0.05482021977269618,
          -0.018005191395815755,
          -0.015268456874570907,
          0.0069166302364305,
          0.09348758147026513,
          0.0494076301838582,
          -0.05103387228666986,
          0.032696889622043285,
          -0.051272459285486696,
          0.12238594469541872,
          0.03447492711088742,
          0.059301101848220544,
          0.1086825872213854,
          0.08333199317796211,
          0.12172056662705624,
          0.08438824532472933,
          -0.013952430798248065,
          0.030625768819673157,
          0.05654623825373687,
          -0.05591449335014453,
          -0.0778603517242867,
          -0.07684767103319116,
          0.10342040767739254,
          -0.05864502980072412,
          -0.10470239408661167,
          0.018860870960038648,
          -0.12767445315554607,
          0.11534010040686228
        ],
        [
          0.08541031267657585,
          -0.12451181983229795,
          0.1165254546272384,
          -0.04228174301412567,
          -0.03243513771816006,
          0.03671916454353558,
          0.12396868351245666,
          0.06996528384136509,
          -0.03408955000240787,
          -0.11206005397558173,
          0.05958220287716299,
          -0.115452314654813,
          -0.12181904857371488,
          -0.03183263480543485,
          -0.0011132980798226244,
          0.09567811119760684,
          0.05432419821905571,
          -0.026939407901101057,
          0.08422072026811905,
          0.009142514555284613,
          0.06037537157285125,
          -0.03427381590907822,
          0.11068053095077739,
          0.12129672583189403,
          0.041130593414777525,
          0.10875794678185295,
          0.08532628972235902,
          0.04267667234532068,
          -0.11545680384306889,
          0.05340948099052633,
          -0.06917552687642921,
          -0.06133377889382676,
          0.017356915871101882,
          0.011627480696995422,
          -0.07288240412795682,
          0.05736379936607779,
          0.045358606274704345,
          0.014706705182368158,
          -0.03294682812078635,
          -0.06147186033382243,
          -0.026469304419421615,
          0.04317114311452904,
          -0.007298006341266766
        ],
        [
          -0.054988508407845575,
          -0.12973691495511624,
          -0.015221181381005597,
          0.03932730382250239,
          -0.10142548156194608,
          -0.08372182269376785,
          -0.12911814564093146,
          -0.07908711755181182,
          0.11403855919201686,
          0.04478708159229127,
          0.011431044307392007,
          0.04324236643515843,
          0.023207336528880757,
          0.04747683695695414,
          0.11133627015397686,
          -0.10545896024545169,
          0.08453248011288743,
          0.011708931467233723,
          -0.10131560496181469,
          0.0008750857760186473,
          -0.01835622705309594,
          -0.06068787539852019,
          -0.010390310182485953,
          -0.09609612335664487,
          0.027179743324735658,
          -0.1057431165002297,
          -0.11738801585694178,
          0.009947797515176701,
          0.11137760321158706,
          -0.01847105621094203,
          0.12384356896488244,
          -0.014516425794727552,
          -0.08166256254436216,
          -0.0013040930383363559,
          -0.09433697114309408,
          -0.082324388846631,
          -0.025677781092266653,
          0.0913024630370507,
          -0.04690646920911813,
          -0.023865515169514698,
          0.07746736718624894,
          -0.04717768127346467,
          -0.012251530244492803
        ],
        [
          -0.0012394412793134018,
          -0.12060247284739442,
          -0.01154174592865887,
          0.06439841911985299,
          0.005356263970782177,
          0.11128198682137609,
          -0.11126868550921756,
          0.021323082413778918,
          -0.06107531763105171,
          -0.10824163621716591,
          -0.047366044358465476,
          0.12160757802311084,
          0.022261782429325583,
          -0.09452116707338827,
          0.08657584055536893,
          -0.05890579644545166,
          0.09367544928923616,
          -0.0509170463082996,
          -0.028171214627719765,
          0.03413517877024459,
          -0.03915372645235057,
          -0.10797069464579923,
          -0.1198052206723971,
          -0.03568044132198454,
          -0.054220586310695436,
          0.08287004852978935,
          0.02112442829251668,
          -0.026606740088835203,
          -0.0056949830682120825,
          -0.014269012570136132,
          0.027061137336583118,
          -0.03719793991456938,
          -0.03532966620407582,
          0.05607285118175549,
          -0.028178199009412527,
          -0.026130409404553582,
          -0.005750029179957838,
          0.043787332469055334,
          0.09378645808570625,
          -0.08980947235236864,
          0.04892516102211551,
          -0.08646509616082121,
          -0.007217257926130676
        ],
        [
          0.030800339928189487,
          -0.09598974934247008,
          0.058303264809356645,
          -0.0007682684707157586,
          -0.02114791469204972,
          0.13249930705008506,
          -0.033955208828347336,
          0.03255522966710806,
          -0.014529826637077779,
          0.060650623688280836,
          0.039481135682923225,
          -0.1023931129462052,
          0.00023450199746163116,
          0.06487674085932144,
          -0.07499452829991624,
          -0.059261338277464715,
          0.005392943383059987,
          0.02904817912639842,
          -0.08930001672149222,
          0.11456848719943567,
          -0.10765046674223896,
          0.08533065948978207,
          -0.09694370469388673,
          0.024973999897339262,
          0.04722767060144362,
          0.003507754035007685,
          0.05362090264773955,
          0.11256805291943917,
          0.09148779342231618,
          -0.036231041357415145,
          -0.10678460012305127,
          0.0774100040470188,
          0.0020638348056625233,
          0.004955376269748246,
          0.09835675106630211,
          0.035612141023030744,
          -0.03186109502841664,
          0.10103607197205947,
          -0.08219532722374054,
          -0.11664536994034284,
          0.08235796442047613,
          0.05347279259939078,
          0.13476130263283098
        ],
        [
          0.0966512374130776,
          -0.12985771569204846,
          -0.02360497971732052,
          -0.07601087516811919,
          0.026220243082668564,
          0.053517358249271535,
          0.06839777395367563,
          -0.09867761491145755,
          -0.01842473395502611,
          -0.0658640263788295,
          -0.009661336141315214,
          -0.11491137335838199,
          -0.10128852939074284,
          0.026704845908905008,
          -0.09146770544652202,
          -0.06629197964488197,
          -0.09692401432770631,
          0.05531112177942085,
          -0.014566122393826125,
          0.003815441329579601,
          0.030612071765281648,
          -0.041055282953829736,
          -0.11134489397073705,
          -0.030005274253275326,
          0.0037963370350480538,
          -0.10571012660730703,
          -0.08318444554686624,
          0.016371846033831176,
          0.10456853368972084,
          0.04469202386797934,
          0.11958084359011072,
          0.08441251201339298,
          -0.1136783127931199,
          -0.04842447006227056,
          -0.07082477850996698,
          -0.05308038768936548,
          -0.015250908191124589,
          0.07631805612694023,
          0.10481190622489459,
          -0.1187706215327395,
          0.10299495395565676,
          -0.033088723800207276,
          0.07690724804241864
        ],
        [
          0.13995449747415836,
          -0.04338546097709015,
          0.07970914659281536,
          0.04927419447961241,
          -0.04565914907188825,
          0.061322054238715014,
          0.016478421160549424,
          0.07157545298685075,
          0.06735269918930062,
          0.0753564126335464,
          -0.014423454832898624,
          -0.03429875086636997,
          0.001711546732671164,
          0.04689613782874054,
          -0.08699058977275652,
          0.03368123578809742,
          -0.00966564313178027,
          0.0669291878797677,
          0.06396640434829874,
          0.060837780078231436,
          0.05986567571740532,
          0.0815764023515133,
          0.08418182584582785,
          0.11652080155722225,
          0.03377984408285763,
          -0.04665950986393047,
          -0.00602343165015635,
          -0.11818202102773595,
          0.03820844088047338,
          -0.012199182151984112,
          0.12152649710395154,
          -0.09899596986340943,
          0.023743406602136422,
          0.012924729212485882,
          -0.06713164834637686,
          0.016849738125513596,
          -0.10491765953244729,
          -0.059761184843223604,
          -0.05782869802621418,
          0.07444665248920379,
          -0.11550821821029243,
          0.04604732283725082,
          -0.056650276631469175
        ],
        [
          -0.13064526463015078,
          0.01728159232735689,
          -0.0668478537942021,
          0.12662479067010238,
          0.07743468007599019,
          0.04275181348001743,
          -0.02405398709192468,
          0.07836537962014758,
          0.11158815701172771,
          0.07893574575150349,
          0.002314696072430868,
          -0.12067259325151906,
          -0.08399075777363062,
          -0.1279208280333551,
          -0.04487529965975544,
          -0.1190606020088719,
          0.08499690922332194,
          0.08137654340295636,
          -0.12757464043542074,
          0.009187757001689119,
          0.011500525366275398,
          -0.07365076881867458,
          0.06002373927499382,
          0.08539010566256236,
          0.10855765648720651,
          -0.05168017603551229,
          0.050274018825221756,
          0.013546892922308713,
          -0.09476359296894617,
          0.0367774252570328,
          -0.09755990349731963,
          0.002227380370294317,
          0.024022426713908078,
          -0.09756820308434219,
          -0.015374437537348578,
          0.06368268045566403,
          0.08464521769688184,
          -0.08943333263468985,
          -0.07050360770066828,
          -0.10317427179002418,
          -0.07150937176405207,
          -0.07849841721028553,
          -0.061006165452593186
        ]
      ],
      "bias": [
        -0.008006356384229661,
        -0.01145565412249133,
        -0.008414758697830217,
        0.012245420476694349,
        -0.0070552349068104415,
        -0.009285160249231865,
        -0.0006201152227213055,
        0.0026063684516212885,
        0.002705073434652514,
        0.0058825061179570174,
        -0.00017412407536782033,
        0.001892372576628043,
        0.009666571762009085,
        0.004826772446166487,
        -0.00552196329399684,
        0.00434371296884019,
        -0.005018969467095272,
        -0.0006990121446200807,
        0.003033770984437817,
        0.0020202006241564316,
        0.004151284298230523,
        0.005546636061407388,
        -0.004701211537706088,
        0.0030294638036555827,
        -0.0002586768851629658,
        -0.0035394760883084783,
        -0.0018764715890810296,
        0.0033705983025004056,
        0.0028507594397579167,
        0.0010142652249452663,
        0.0018088155089721063,
        0.0031578687850218503,
        -0.001388264823695319,
        0.0025919837636029304,
        0.0010247377606840667,
        0.003987340075126853,
        -0.004694811389402781,
        0.0047527834174679005,
        -0.011270036803445797,
        0.002350673311570635,
        -0.0016451074209520144,
        0.0006037150264333013,
        -0.0038382892938687483
      ]
    }
  },
  "metadata": {
    "name": "test-binary-model",
    "createdAt": "2025-10-25T06:38:44.675Z",
    "trainingTime": 0.12,
    "trainingSamples": 20,
    "epochs": 5,
    "embeddingDim": 16,
    "numLayers": 1
  }
}